word	vector
orso	-0.15695281326770782	0.8031602501869202	-0.6419259905815125	-0.4792015254497528	-2.078232765197754	0.384507954120636	2.3031630516052246	1.4324634075164795	1.1360372304916382	0.9465524554252625	-1.1469682455062866	2.356046676635742	0.6848733425140381	-3.994833469390869	0.8806374073028564	-1.4021390676498413	-1.2969162464141846	0.7632590532302856	0.6087003946304321	-1.0025347471237183	1.92536461353302	-2.221374273300171	-1.5627193450927734	-1.0024545192718506	0.5794553756713867	0.7390835881233215	-0.6676084399223328	1.5904203653335571	1.3612979650497437	1.4600906372070312	-0.07112124562263489	-0.16105924546718597	0.6419969797134399	1.0388845205307007	-0.7285926938056946	-1.4843851327896118	-0.2753434181213379	-1.3495169878005981	0.09805844724178314	1.8437120914459229	2.017378091812134	-2.2578787803649902	2.3820998668670654	0.569740355014801	0.6198011636734009	0.6427440643310547	0.2928473949432373	1.302812933921814	0.10942278802394867	-1.7606544494628906	-0.9050173759460449	-0.47038131952285767	-0.221902996301651	2.1361305713653564	0.5055748820304871	0.7659784555435181	0.6314452290534973	-1.0765089988708496	-0.11445746570825577	-0.5840310454368591	-3.824323892593384	1.4833060503005981	1.134950876235962	1.5729912519454956	0.9837599396705627	0.49483412504196167	1.0338128805160522	1.6236320734024048	-1.4480440616607666	-0.20622503757476807	-0.11487908661365509	-2.456923007965088	1.111524224281311	-0.8913385272026062	-1.4762952327728271	0.042264703661203384	1.2634292840957642	-1.0853941440582275	-0.6245188117027283	-1.220962405204773	-0.5811983346939087	1.1413462162017822	1.2229703664779663	-0.6976271271705627	0.6439940929412842	-0.2660788893699646	-0.4296133518218994	-1.293298363685608	-0.2964330315589905	1.3006083965301514	0.23826812207698822	0.4300929605960846	0.10632359981536865	-2.2055585384368896	0.24287770688533783	0.09937863796949387	-1.105649709701538	-2.2097980976104736	-1.4750398397445679	0.3307555913925171	1.03547203540802	1.5771408081054688	-0.7299057841300964	0.26183101534843445	1.6657729148864746	0.9652338027954102	1.3842511177062988	-0.6563021540641785	0.16983798146247864	2.062013626098633	0.8198575377464294	-1.5386528968811035	0.5204489827156067	0.14230823516845703	-0.8350886702537537	-0.24666981399059296	0.9631341695785522	-2.8000876903533936	2.5012662410736084	-0.664737343788147	0.6079768538475037	0.16313840448856354	-0.9812428951263428	1.9264901876449585	-1.786585807800293	-0.9817590713500977	-3.062886953353882	-1.5814324617385864	2.759343385696411	0.4766386151313782	-0.7901162505149841	1.8507684469223022	-1.079422116279602	0.07456687092781067	-1.4517508745193481	-0.6468344926834106	-0.05545920878648758	-0.32818156480789185	1.4976261854171753	0.18584445118904114	1.955806851387024	-0.3575339615345001	-0.15557558834552765	1.3909255266189575	2.7576043605804443	0.8672136068344116	-1.467725396156311	-0.19542361795902252	-0.047289829701185226	0.8143900036811829	0.5985409617424011	0.08296030014753342	-0.6922846436500549	-3.02805757522583	-2.35384464263916	1.6432864665985107	-1.3950135707855225	-0.8002140522003174	-1.6806442737579346	0.8828656077384949	-1.571258783340454	-0.4583210051059723	0.9874003529548645	-1.2686350345611572	0.29436996579170227	-0.3248556852340698	0.26997581124305725	0.01761724427342415	-1.0260010957717896	1.7270736694335938	-0.7834498882293701	-1.0719541311264038	0.09562359005212784	0.467678040266037	0.31172701716423035	0.011285766959190369	-0.6151707172393799	-0.961901068687439	1.438656210899353	0.46643033623695374	-2.393144130706787	1.2157955169677734	1.6820788383483887	2.719348669052124	1.2955609560012817	-0.25417807698249817	0.8566190600395203	-0.8856229186058044	1.5450152158737183	0.20313045382499695	-1.3777403831481934	-0.533839762210846	2.4122211933135986	-2.059865951538086	-0.6354642510414124	1.4812264442443848	0.22617290914058685	0.1268623322248459	-1.13784658908844	-0.8124432563781738	0.9221689701080322	1.5429012775421143	-0.7555785775184631	-0.5259371995925903	0.2019919753074646	-0.6415295004844666	-0.23694850504398346	0.7181448936462402	1.3548225164413452	1.197477102279663	-0.4021449685096741	-0.8642197251319885	-1.3631960153579712	0.5756957530975342	-1.8290112018585205	-2.0424933433532715	0.11606310307979584	0.3486623764038086	-0.8682118654251099	2.2968928813934326	1.952681303024292	1.0462982654571533	-0.8675915598869324	-0.9088843464851379	0.6849302053451538	-3.5982911586761475	-0.5637173056602478	-0.07786790281534195	-1.3494998216629028	1.0941967964172363	0.926913857460022	-1.0743380784988403	-2.099702835083008	-0.31319794058799744	1.9588711261749268	0.4949338436126709	-0.1809968501329422	-1.3975250720977783	1.3828926086425781	0.29272177815437317	0.6135668158531189	1.5907999277114868	-0.8990064859390259	0.4442130923271179	1.3594902753829956	0.6278128623962402	0.9573824405670166	-2.4505393505096436	-0.673088014125824	-2.5653061866760254	0.8432145714759827	-3.453707218170166	0.8245146870613098	1.2103493213653564	-0.8622649312019348	0.2588941752910614	-0.04428015276789665	-0.7724640965461731	-3.3667848110198975	1.945369839668274	-1.9446766376495361	-0.23101559281349182	-1.0102601051330566	-0.8662432432174683	1.6673469543457031	-1.3021496534347534	3.0914392471313477	-0.6254602074623108	0.7378460168838501	-1.5954560041427612	-2.6008384227752686	1.7695133686065674	-0.3419525623321533	-2.0884644985198975	-2.529099225997925	-1.2020665407180786	0.24984793365001678	-1.7546347379684448	0.912416398525238	2.364542007446289	-0.9335668683052063	1.4460006952285767	1.2365765571594238	-2.7093822956085205	-0.33749714493751526	-0.48635974526405334	2.1509082317352295	0.8964475989341736	-1.026749610900879	-2.854567766189575	-0.07914216071367264	-0.7525858283042908	0.20826253294944763	-2.7919230461120605	1.4385044574737549	2.3238675594329834	-0.9769163727760315	1.1082103252410889	0.5456705689430237	1.4044013023376465	
cane	-0.15695281326770782	0.8031602501869202	-0.6419259905815125	-0.4792015254497528	-2.078232765197754	0.384507954120636	2.3031630516052246	1.4324634075164795	1.1360372304916382	0.9465524554252625	-1.1469682455062866	2.356046676635742	0.6848733425140381	-3.994833469390869	0.8806374073028564	-1.4021390676498413	-1.2969162464141846	0.7632590532302856	0.6087003946304321	-1.0025347471237183	1.92536461353302	-2.221374273300171	-1.5627193450927734	-1.0024545192718506	0.5794553756713867	0.7390835881233215	-0.6676084399223328	1.5904203653335571	1.3612979650497437	1.4600906372070312	-0.07112124562263489	-0.16105924546718597	0.6419969797134399	1.0388845205307007	-0.7285926938056946	-1.4843851327896118	-0.2753434181213379	-1.3495169878005981	0.09805844724178314	1.8437120914459229	2.017378091812134	-2.2578787803649902	2.3820998668670654	0.569740355014801	0.6198011636734009	0.6427440643310547	0.2928473949432373	1.302812933921814	0.10942278802394867	-1.7606544494628906	-0.9050173759460449	-0.47038131952285767	-0.221902996301651	2.1361305713653564	0.5055748820304871	0.7659784555435181	0.6314452290534973	-1.0765089988708496	-0.11445746570825577	-0.5840310454368591	-3.824323892593384	1.4833060503005981	1.134950876235962	1.5729912519454956	0.9837599396705627	0.49483412504196167	1.0338128805160522	1.6236320734024048	-1.4480440616607666	-0.20622503757476807	-0.11487908661365509	-2.456923007965088	1.111524224281311	-0.8913385272026062	-1.4762952327728271	0.042264703661203384	1.2634292840957642	-1.0853941440582275	-0.6245188117027283	-1.220962405204773	-0.5811983346939087	1.1413462162017822	1.2229703664779663	-0.6976271271705627	0.6439940929412842	-0.2660788893699646	-0.4296133518218994	-1.293298363685608	-0.2964330315589905	1.3006083965301514	0.23826812207698822	0.4300929605960846	0.10632359981536865	-2.2055585384368896	0.24287770688533783	0.09937863796949387	-1.105649709701538	-2.2097980976104736	-1.4750398397445679	0.3307555913925171	1.03547203540802	1.5771408081054688	-0.7299057841300964	0.26183101534843445	1.6657729148864746	0.9652338027954102	1.3842511177062988	-0.6563021540641785	0.16983798146247864	2.062013626098633	0.8198575377464294	-1.5386528968811035	0.5204489827156067	0.14230823516845703	-0.8350886702537537	-0.24666981399059296	0.9631341695785522	-2.8000876903533936	2.5012662410736084	-0.664737343788147	0.6079768538475037	0.16313840448856354	-0.9812428951263428	1.9264901876449585	-1.786585807800293	-0.9817590713500977	-3.062886953353882	-1.5814324617385864	2.759343385696411	0.4766386151313782	-0.7901162505149841	1.8507684469223022	-1.079422116279602	0.07456687092781067	-1.4517508745193481	-0.6468344926834106	-0.05545920878648758	-0.32818156480789185	1.4976261854171753	0.18584445118904114	1.955806851387024	-0.3575339615345001	-0.15557558834552765	1.3909255266189575	2.7576043605804443	0.8672136068344116	-1.467725396156311	-0.19542361795902252	-0.047289829701185226	0.8143900036811829	0.5985409617424011	0.08296030014753342	-0.6922846436500549	-3.02805757522583	-2.35384464263916	1.6432864665985107	-1.3950135707855225	-0.8002140522003174	-1.6806442737579346	0.8828656077384949	-1.571258783340454	-0.4583210051059723	0.9874003529548645	-1.2686350345611572	0.29436996579170227	-0.3248556852340698	0.26997581124305725	0.01761724427342415	-1.0260010957717896	1.7270736694335938	-0.7834498882293701	-1.0719541311264038	0.09562359005212784	0.467678040266037	0.31172701716423035	0.011285766959190369	-0.6151707172393799	-0.961901068687439	1.438656210899353	0.46643033623695374	-2.393144130706787	1.2157955169677734	1.6820788383483887	2.719348669052124	1.2955609560012817	-0.25417807698249817	0.8566190600395203	-0.8856229186058044	1.5450152158737183	0.20313045382499695	-1.3777403831481934	-0.533839762210846	2.4122211933135986	-2.059865951538086	-0.6354642510414124	1.4812264442443848	0.22617290914058685	0.1268623322248459	-1.13784658908844	-0.8124432563781738	0.9221689701080322	1.5429012775421143	-0.7555785775184631	-0.5259371995925903	0.2019919753074646	-0.6415295004844666	-0.23694850504398346	0.7181448936462402	1.3548225164413452	1.197477102279663	-0.4021449685096741	-0.8642197251319885	-1.3631960153579712	0.5756957530975342	-1.8290112018585205	-2.0424933433532715	0.11606310307979584	0.3486623764038086	-0.8682118654251099	2.2968928813934326	1.952681303024292	1.0462982654571533	-0.8675915598869324	-0.9088843464851379	0.6849302053451538	-3.5982911586761475	-0.5637173056602478	-0.07786790281534195	-1.3494998216629028	1.0941967964172363	0.926913857460022	-1.0743380784988403	-2.099702835083008	-0.31319794058799744	1.9588711261749268	0.4949338436126709	-0.1809968501329422	-1.3975250720977783	1.3828926086425781	0.29272177815437317	0.6135668158531189	1.5907999277114868	-0.8990064859390259	0.4442130923271179	1.3594902753829956	0.6278128623962402	0.9573824405670166	-2.4505393505096436	-0.673088014125824	-2.5653061866760254	0.8432145714759827	-3.453707218170166	0.8245146870613098	1.2103493213653564	-0.8622649312019348	0.2588941752910614	-0.04428015276789665	-0.7724640965461731	-3.3667848110198975	1.945369839668274	-1.9446766376495361	-0.23101559281349182	-1.0102601051330566	-0.8662432432174683	1.6673469543457031	-1.3021496534347534	3.0914392471313477	-0.6254602074623108	0.7378460168838501	-1.5954560041427612	-2.6008384227752686	1.7695133686065674	-0.3419525623321533	-2.0884644985198975	-2.529099225997925	-1.2020665407180786	0.24984793365001678	-1.7546347379684448	0.912416398525238	2.364542007446289	-0.9335668683052063	1.4460006952285767	1.2365765571594238	-2.7093822956085205	-0.33749714493751526	-0.48635974526405334	2.1509082317352295	0.8964475989341736	-1.026749610900879	-2.854567766189575	-0.07914216071367264	-0.7525858283042908	0.20826253294944763	-2.7919230461120605	1.4385044574737549	2.3238675594329834	-0.9769163727760315	1.1082103252410889	0.5456705689430237	1.4044013023376465	
cavallo	-0.15695281326770782	0.8031602501869202	-0.6419259905815125	-0.4792015254497528	-2.078232765197754	0.384507954120636	2.3031630516052246	1.4324634075164795	1.1360372304916382	0.9465524554252625	-1.1469682455062866	2.356046676635742	0.6848733425140381	-3.994833469390869	0.8806374073028564	-1.4021390676498413	-1.2969162464141846	0.7632590532302856	0.6087003946304321	-1.0025347471237183	1.92536461353302	-2.221374273300171	-1.5627193450927734	-1.0024545192718506	0.5794553756713867	0.7390835881233215	-0.6676084399223328	1.5904203653335571	1.3612979650497437	1.4600906372070312	-0.07112124562263489	-0.16105924546718597	0.6419969797134399	1.0388845205307007	-0.7285926938056946	-1.4843851327896118	-0.2753434181213379	-1.3495169878005981	0.09805844724178314	1.8437120914459229	2.017378091812134	-2.2578787803649902	2.3820998668670654	0.569740355014801	0.6198011636734009	0.6427440643310547	0.2928473949432373	1.302812933921814	0.10942278802394867	-1.7606544494628906	-0.9050173759460449	-0.47038131952285767	-0.221902996301651	2.1361305713653564	0.5055748820304871	0.7659784555435181	0.6314452290534973	-1.0765089988708496	-0.11445746570825577	-0.5840310454368591	-3.824323892593384	1.4833060503005981	1.134950876235962	1.5729912519454956	0.9837599396705627	0.49483412504196167	1.0338128805160522	1.6236320734024048	-1.4480440616607666	-0.20622503757476807	-0.11487908661365509	-2.456923007965088	1.111524224281311	-0.8913385272026062	-1.4762952327728271	0.042264703661203384	1.2634292840957642	-1.0853941440582275	-0.6245188117027283	-1.220962405204773	-0.5811983346939087	1.1413462162017822	1.2229703664779663	-0.6976271271705627	0.6439940929412842	-0.2660788893699646	-0.4296133518218994	-1.293298363685608	-0.2964330315589905	1.3006083965301514	0.23826812207698822	0.4300929605960846	0.10632359981536865	-2.2055585384368896	0.24287770688533783	0.09937863796949387	-1.105649709701538	-2.2097980976104736	-1.4750398397445679	0.3307555913925171	1.03547203540802	1.5771408081054688	-0.7299057841300964	0.26183101534843445	1.6657729148864746	0.9652338027954102	1.3842511177062988	-0.6563021540641785	0.16983798146247864	2.062013626098633	0.8198575377464294	-1.5386528968811035	0.5204489827156067	0.14230823516845703	-0.8350886702537537	-0.24666981399059296	0.9631341695785522	-2.8000876903533936	2.5012662410736084	-0.664737343788147	0.6079768538475037	0.16313840448856354	-0.9812428951263428	1.9264901876449585	-1.786585807800293	-0.9817590713500977	-3.062886953353882	-1.5814324617385864	2.759343385696411	0.4766386151313782	-0.7901162505149841	1.8507684469223022	-1.079422116279602	0.07456687092781067	-1.4517508745193481	-0.6468344926834106	-0.05545920878648758	-0.32818156480789185	1.4976261854171753	0.18584445118904114	1.955806851387024	-0.3575339615345001	-0.15557558834552765	1.3909255266189575	2.7576043605804443	0.8672136068344116	-1.467725396156311	-0.19542361795902252	-0.047289829701185226	0.8143900036811829	0.5985409617424011	0.08296030014753342	-0.6922846436500549	-3.02805757522583	-2.35384464263916	1.6432864665985107	-1.3950135707855225	-0.8002140522003174	-1.6806442737579346	0.8828656077384949	-1.571258783340454	-0.4583210051059723	0.9874003529548645	-1.2686350345611572	0.29436996579170227	-0.3248556852340698	0.26997581124305725	0.01761724427342415	-1.0260010957717896	1.7270736694335938	-0.7834498882293701	-1.0719541311264038	0.09562359005212784	0.467678040266037	0.31172701716423035	0.011285766959190369	-0.6151707172393799	-0.961901068687439	1.438656210899353	0.46643033623695374	-2.393144130706787	1.2157955169677734	1.6820788383483887	2.719348669052124	1.2955609560012817	-0.25417807698249817	0.8566190600395203	-0.8856229186058044	1.5450152158737183	0.20313045382499695	-1.3777403831481934	-0.533839762210846	2.4122211933135986	-2.059865951538086	-0.6354642510414124	1.4812264442443848	0.22617290914058685	0.1268623322248459	-1.13784658908844	-0.8124432563781738	0.9221689701080322	1.5429012775421143	-0.7555785775184631	-0.5259371995925903	0.2019919753074646	-0.6415295004844666	-0.23694850504398346	0.7181448936462402	1.3548225164413452	1.197477102279663	-0.4021449685096741	-0.8642197251319885	-1.3631960153579712	0.5756957530975342	-1.8290112018585205	-2.0424933433532715	0.11606310307979584	0.3486623764038086	-0.8682118654251099	2.2968928813934326	1.952681303024292	1.0462982654571533	-0.8675915598869324	-0.9088843464851379	0.6849302053451538	-3.5982911586761475	-0.5637173056602478	-0.07786790281534195	-1.3494998216629028	1.0941967964172363	0.926913857460022	-1.0743380784988403	-2.099702835083008	-0.31319794058799744	1.9588711261749268	0.4949338436126709	-0.1809968501329422	-1.3975250720977783	1.3828926086425781	0.29272177815437317	0.6135668158531189	1.5907999277114868	-0.8990064859390259	0.4442130923271179	1.3594902753829956	0.6278128623962402	0.9573824405670166	-2.4505393505096436	-0.673088014125824	-2.5653061866760254	0.8432145714759827	-3.453707218170166	0.8245146870613098	1.2103493213653564	-0.8622649312019348	0.2588941752910614	-0.04428015276789665	-0.7724640965461731	-3.3667848110198975	1.945369839668274	-1.9446766376495361	-0.23101559281349182	-1.0102601051330566	-0.8662432432174683	1.6673469543457031	-1.3021496534347534	3.0914392471313477	-0.6254602074623108	0.7378460168838501	-1.5954560041427612	-2.6008384227752686	1.7695133686065674	-0.3419525623321533	-2.0884644985198975	-2.529099225997925	-1.2020665407180786	0.24984793365001678	-1.7546347379684448	0.912416398525238	2.364542007446289	-0.9335668683052063	1.4460006952285767	1.2365765571594238	-2.7093822956085205	-0.33749714493751526	-0.48635974526405334	2.1509082317352295	0.8964475989341736	-1.026749610900879	-2.854567766189575	-0.07914216071367264	-0.7525858283042908	0.20826253294944763	-2.7919230461120605	1.4385044574737549	2.3238675594329834	-0.9769163727760315	1.1082103252410889	0.5456705689430237	1.4044013023376465	
scimmia	-0.15695281326770782	0.8031602501869202	-0.6419259905815125	-0.4792015254497528	-2.078232765197754	0.384507954120636	2.3031630516052246	1.4324634075164795	1.1360372304916382	0.9465524554252625	-1.1469682455062866	2.356046676635742	0.6848733425140381	-3.994833469390869	0.8806374073028564	-1.4021390676498413	-1.2969162464141846	0.7632590532302856	0.6087003946304321	-1.0025347471237183	1.92536461353302	-2.221374273300171	-1.5627193450927734	-1.0024545192718506	0.5794553756713867	0.7390835881233215	-0.6676084399223328	1.5904203653335571	1.3612979650497437	1.4600906372070312	-0.07112124562263489	-0.16105924546718597	0.6419969797134399	1.0388845205307007	-0.7285926938056946	-1.4843851327896118	-0.2753434181213379	-1.3495169878005981	0.09805844724178314	1.8437120914459229	2.017378091812134	-2.2578787803649902	2.3820998668670654	0.569740355014801	0.6198011636734009	0.6427440643310547	0.2928473949432373	1.302812933921814	0.10942278802394867	-1.7606544494628906	-0.9050173759460449	-0.47038131952285767	-0.221902996301651	2.1361305713653564	0.5055748820304871	0.7659784555435181	0.6314452290534973	-1.0765089988708496	-0.11445746570825577	-0.5840310454368591	-3.824323892593384	1.4833060503005981	1.134950876235962	1.5729912519454956	0.9837599396705627	0.49483412504196167	1.0338128805160522	1.6236320734024048	-1.4480440616607666	-0.20622503757476807	-0.11487908661365509	-2.456923007965088	1.111524224281311	-0.8913385272026062	-1.4762952327728271	0.042264703661203384	1.2634292840957642	-1.0853941440582275	-0.6245188117027283	-1.220962405204773	-0.5811983346939087	1.1413462162017822	1.2229703664779663	-0.6976271271705627	0.6439940929412842	-0.2660788893699646	-0.4296133518218994	-1.293298363685608	-0.2964330315589905	1.3006083965301514	0.23826812207698822	0.4300929605960846	0.10632359981536865	-2.2055585384368896	0.24287770688533783	0.09937863796949387	-1.105649709701538	-2.2097980976104736	-1.4750398397445679	0.3307555913925171	1.03547203540802	1.5771408081054688	-0.7299057841300964	0.26183101534843445	1.6657729148864746	0.9652338027954102	1.3842511177062988	-0.6563021540641785	0.16983798146247864	2.062013626098633	0.8198575377464294	-1.5386528968811035	0.5204489827156067	0.14230823516845703	-0.8350886702537537	-0.24666981399059296	0.9631341695785522	-2.8000876903533936	2.5012662410736084	-0.664737343788147	0.6079768538475037	0.16313840448856354	-0.9812428951263428	1.9264901876449585	-1.786585807800293	-0.9817590713500977	-3.062886953353882	-1.5814324617385864	2.759343385696411	0.4766386151313782	-0.7901162505149841	1.8507684469223022	-1.079422116279602	0.07456687092781067	-1.4517508745193481	-0.6468344926834106	-0.05545920878648758	-0.32818156480789185	1.4976261854171753	0.18584445118904114	1.955806851387024	-0.3575339615345001	-0.15557558834552765	1.3909255266189575	2.7576043605804443	0.8672136068344116	-1.467725396156311	-0.19542361795902252	-0.047289829701185226	0.8143900036811829	0.5985409617424011	0.08296030014753342	-0.6922846436500549	-3.02805757522583	-2.35384464263916	1.6432864665985107	-1.3950135707855225	-0.8002140522003174	-1.6806442737579346	0.8828656077384949	-1.571258783340454	-0.4583210051059723	0.9874003529548645	-1.2686350345611572	0.29436996579170227	-0.3248556852340698	0.26997581124305725	0.01761724427342415	-1.0260010957717896	1.7270736694335938	-0.7834498882293701	-1.0719541311264038	0.09562359005212784	0.467678040266037	0.31172701716423035	0.011285766959190369	-0.6151707172393799	-0.961901068687439	1.438656210899353	0.46643033623695374	-2.393144130706787	1.2157955169677734	1.6820788383483887	2.719348669052124	1.2955609560012817	-0.25417807698249817	0.8566190600395203	-0.8856229186058044	1.5450152158737183	0.20313045382499695	-1.3777403831481934	-0.533839762210846	2.4122211933135986	-2.059865951538086	-0.6354642510414124	1.4812264442443848	0.22617290914058685	0.1268623322248459	-1.13784658908844	-0.8124432563781738	0.9221689701080322	1.5429012775421143	-0.7555785775184631	-0.5259371995925903	0.2019919753074646	-0.6415295004844666	-0.23694850504398346	0.7181448936462402	1.3548225164413452	1.197477102279663	-0.4021449685096741	-0.8642197251319885	-1.3631960153579712	0.5756957530975342	-1.8290112018585205	-2.0424933433532715	0.11606310307979584	0.3486623764038086	-0.8682118654251099	2.2968928813934326	1.952681303024292	1.0462982654571533	-0.8675915598869324	-0.9088843464851379	0.6849302053451538	-3.5982911586761475	-0.5637173056602478	-0.07786790281534195	-1.3494998216629028	1.0941967964172363	0.926913857460022	-1.0743380784988403	-2.099702835083008	-0.31319794058799744	1.9588711261749268	0.4949338436126709	-0.1809968501329422	-1.3975250720977783	1.3828926086425781	0.29272177815437317	0.6135668158531189	1.5907999277114868	-0.8990064859390259	0.4442130923271179	1.3594902753829956	0.6278128623962402	0.9573824405670166	-2.4505393505096436	-0.673088014125824	-2.5653061866760254	0.8432145714759827	-3.453707218170166	0.8245146870613098	1.2103493213653564	-0.8622649312019348	0.2588941752910614	-0.04428015276789665	-0.7724640965461731	-3.3667848110198975	1.945369839668274	-1.9446766376495361	-0.23101559281349182	-1.0102601051330566	-0.8662432432174683	1.6673469543457031	-1.3021496534347534	3.0914392471313477	-0.6254602074623108	0.7378460168838501	-1.5954560041427612	-2.6008384227752686	1.7695133686065674	-0.3419525623321533	-2.0884644985198975	-2.529099225997925	-1.2020665407180786	0.24984793365001678	-1.7546347379684448	0.912416398525238	2.364542007446289	-0.9335668683052063	1.4460006952285767	1.2365765571594238	-2.7093822956085205	-0.33749714493751526	-0.48635974526405334	2.1509082317352295	0.8964475989341736	-1.026749610900879	-2.854567766189575	-0.07914216071367264	-0.7525858283042908	0.20826253294944763	-2.7919230461120605	1.4385044574737549	2.3238675594329834	-0.9769163727760315	1.1082103252410889	0.5456705689430237	1.4044013023376465	
gufo	-0.15695281326770782	0.8031602501869202	-0.6419259905815125	-0.4792015254497528	-2.078232765197754	0.384507954120636	2.3031630516052246	1.4324634075164795	1.1360372304916382	0.9465524554252625	-1.1469682455062866	2.356046676635742	0.6848733425140381	-3.994833469390869	0.8806374073028564	-1.4021390676498413	-1.2969162464141846	0.7632590532302856	0.6087003946304321	-1.0025347471237183	1.92536461353302	-2.221374273300171	-1.5627193450927734	-1.0024545192718506	0.5794553756713867	0.7390835881233215	-0.6676084399223328	1.5904203653335571	1.3612979650497437	1.4600906372070312	-0.07112124562263489	-0.16105924546718597	0.6419969797134399	1.0388845205307007	-0.7285926938056946	-1.4843851327896118	-0.2753434181213379	-1.3495169878005981	0.09805844724178314	1.8437120914459229	2.017378091812134	-2.2578787803649902	2.3820998668670654	0.569740355014801	0.6198011636734009	0.6427440643310547	0.2928473949432373	1.302812933921814	0.10942278802394867	-1.7606544494628906	-0.9050173759460449	-0.47038131952285767	-0.221902996301651	2.1361305713653564	0.5055748820304871	0.7659784555435181	0.6314452290534973	-1.0765089988708496	-0.11445746570825577	-0.5840310454368591	-3.824323892593384	1.4833060503005981	1.134950876235962	1.5729912519454956	0.9837599396705627	0.49483412504196167	1.0338128805160522	1.6236320734024048	-1.4480440616607666	-0.20622503757476807	-0.11487908661365509	-2.456923007965088	1.111524224281311	-0.8913385272026062	-1.4762952327728271	0.042264703661203384	1.2634292840957642	-1.0853941440582275	-0.6245188117027283	-1.220962405204773	-0.5811983346939087	1.1413462162017822	1.2229703664779663	-0.6976271271705627	0.6439940929412842	-0.2660788893699646	-0.4296133518218994	-1.293298363685608	-0.2964330315589905	1.3006083965301514	0.23826812207698822	0.4300929605960846	0.10632359981536865	-2.2055585384368896	0.24287770688533783	0.09937863796949387	-1.105649709701538	-2.2097980976104736	-1.4750398397445679	0.3307555913925171	1.03547203540802	1.5771408081054688	-0.7299057841300964	0.26183101534843445	1.6657729148864746	0.9652338027954102	1.3842511177062988	-0.6563021540641785	0.16983798146247864	2.062013626098633	0.8198575377464294	-1.5386528968811035	0.5204489827156067	0.14230823516845703	-0.8350886702537537	-0.24666981399059296	0.9631341695785522	-2.8000876903533936	2.5012662410736084	-0.664737343788147	0.6079768538475037	0.16313840448856354	-0.9812428951263428	1.9264901876449585	-1.786585807800293	-0.9817590713500977	-3.062886953353882	-1.5814324617385864	2.759343385696411	0.4766386151313782	-0.7901162505149841	1.8507684469223022	-1.079422116279602	0.07456687092781067	-1.4517508745193481	-0.6468344926834106	-0.05545920878648758	-0.32818156480789185	1.4976261854171753	0.18584445118904114	1.955806851387024	-0.3575339615345001	-0.15557558834552765	1.3909255266189575	2.7576043605804443	0.8672136068344116	-1.467725396156311	-0.19542361795902252	-0.047289829701185226	0.8143900036811829	0.5985409617424011	0.08296030014753342	-0.6922846436500549	-3.02805757522583	-2.35384464263916	1.6432864665985107	-1.3950135707855225	-0.8002140522003174	-1.6806442737579346	0.8828656077384949	-1.571258783340454	-0.4583210051059723	0.9874003529548645	-1.2686350345611572	0.29436996579170227	-0.3248556852340698	0.26997581124305725	0.01761724427342415	-1.0260010957717896	1.7270736694335938	-0.7834498882293701	-1.0719541311264038	0.09562359005212784	0.467678040266037	0.31172701716423035	0.011285766959190369	-0.6151707172393799	-0.961901068687439	1.438656210899353	0.46643033623695374	-2.393144130706787	1.2157955169677734	1.6820788383483887	2.719348669052124	1.2955609560012817	-0.25417807698249817	0.8566190600395203	-0.8856229186058044	1.5450152158737183	0.20313045382499695	-1.3777403831481934	-0.533839762210846	2.4122211933135986	-2.059865951538086	-0.6354642510414124	1.4812264442443848	0.22617290914058685	0.1268623322248459	-1.13784658908844	-0.8124432563781738	0.9221689701080322	1.5429012775421143	-0.7555785775184631	-0.5259371995925903	0.2019919753074646	-0.6415295004844666	-0.23694850504398346	0.7181448936462402	1.3548225164413452	1.197477102279663	-0.4021449685096741	-0.8642197251319885	-1.3631960153579712	0.5756957530975342	-1.8290112018585205	-2.0424933433532715	0.11606310307979584	0.3486623764038086	-0.8682118654251099	2.2968928813934326	1.952681303024292	1.0462982654571533	-0.8675915598869324	-0.9088843464851379	0.6849302053451538	-3.5982911586761475	-0.5637173056602478	-0.07786790281534195	-1.3494998216629028	1.0941967964172363	0.926913857460022	-1.0743380784988403	-2.099702835083008	-0.31319794058799744	1.9588711261749268	0.4949338436126709	-0.1809968501329422	-1.3975250720977783	1.3828926086425781	0.29272177815437317	0.6135668158531189	1.5907999277114868	-0.8990064859390259	0.4442130923271179	1.3594902753829956	0.6278128623962402	0.9573824405670166	-2.4505393505096436	-0.673088014125824	-2.5653061866760254	0.8432145714759827	-3.453707218170166	0.8245146870613098	1.2103493213653564	-0.8622649312019348	0.2588941752910614	-0.04428015276789665	-0.7724640965461731	-3.3667848110198975	1.945369839668274	-1.9446766376495361	-0.23101559281349182	-1.0102601051330566	-0.8662432432174683	1.6673469543457031	-1.3021496534347534	3.0914392471313477	-0.6254602074623108	0.7378460168838501	-1.5954560041427612	-2.6008384227752686	1.7695133686065674	-0.3419525623321533	-2.0884644985198975	-2.529099225997925	-1.2020665407180786	0.24984793365001678	-1.7546347379684448	0.912416398525238	2.364542007446289	-0.9335668683052063	1.4460006952285767	1.2365765571594238	-2.7093822956085205	-0.33749714493751526	-0.48635974526405334	2.1509082317352295	0.8964475989341736	-1.026749610900879	-2.854567766189575	-0.07914216071367264	-0.7525858283042908	0.20826253294944763	-2.7919230461120605	1.4385044574737549	2.3238675594329834	-0.9769163727760315	1.1082103252410889	0.5456705689430237	1.4044013023376465	
coniglio	-0.15695281326770782	0.8031602501869202	-0.6419259905815125	-0.4792015254497528	-2.078232765197754	0.384507954120636	2.3031630516052246	1.4324634075164795	1.1360372304916382	0.9465524554252625	-1.1469682455062866	2.356046676635742	0.6848733425140381	-3.994833469390869	0.8806374073028564	-1.4021390676498413	-1.2969162464141846	0.7632590532302856	0.6087003946304321	-1.0025347471237183	1.92536461353302	-2.221374273300171	-1.5627193450927734	-1.0024545192718506	0.5794553756713867	0.7390835881233215	-0.6676084399223328	1.5904203653335571	1.3612979650497437	1.4600906372070312	-0.07112124562263489	-0.16105924546718597	0.6419969797134399	1.0388845205307007	-0.7285926938056946	-1.4843851327896118	-0.2753434181213379	-1.3495169878005981	0.09805844724178314	1.8437120914459229	2.017378091812134	-2.2578787803649902	2.3820998668670654	0.569740355014801	0.6198011636734009	0.6427440643310547	0.2928473949432373	1.302812933921814	0.10942278802394867	-1.7606544494628906	-0.9050173759460449	-0.47038131952285767	-0.221902996301651	2.1361305713653564	0.5055748820304871	0.7659784555435181	0.6314452290534973	-1.0765089988708496	-0.11445746570825577	-0.5840310454368591	-3.824323892593384	1.4833060503005981	1.134950876235962	1.5729912519454956	0.9837599396705627	0.49483412504196167	1.0338128805160522	1.6236320734024048	-1.4480440616607666	-0.20622503757476807	-0.11487908661365509	-2.456923007965088	1.111524224281311	-0.8913385272026062	-1.4762952327728271	0.042264703661203384	1.2634292840957642	-1.0853941440582275	-0.6245188117027283	-1.220962405204773	-0.5811983346939087	1.1413462162017822	1.2229703664779663	-0.6976271271705627	0.6439940929412842	-0.2660788893699646	-0.4296133518218994	-1.293298363685608	-0.2964330315589905	1.3006083965301514	0.23826812207698822	0.4300929605960846	0.10632359981536865	-2.2055585384368896	0.24287770688533783	0.09937863796949387	-1.105649709701538	-2.2097980976104736	-1.4750398397445679	0.3307555913925171	1.03547203540802	1.5771408081054688	-0.7299057841300964	0.26183101534843445	1.6657729148864746	0.9652338027954102	1.3842511177062988	-0.6563021540641785	0.16983798146247864	2.062013626098633	0.8198575377464294	-1.5386528968811035	0.5204489827156067	0.14230823516845703	-0.8350886702537537	-0.24666981399059296	0.9631341695785522	-2.8000876903533936	2.5012662410736084	-0.664737343788147	0.6079768538475037	0.16313840448856354	-0.9812428951263428	1.9264901876449585	-1.786585807800293	-0.9817590713500977	-3.062886953353882	-1.5814324617385864	2.759343385696411	0.4766386151313782	-0.7901162505149841	1.8507684469223022	-1.079422116279602	0.07456687092781067	-1.4517508745193481	-0.6468344926834106	-0.05545920878648758	-0.32818156480789185	1.4976261854171753	0.18584445118904114	1.955806851387024	-0.3575339615345001	-0.15557558834552765	1.3909255266189575	2.7576043605804443	0.8672136068344116	-1.467725396156311	-0.19542361795902252	-0.047289829701185226	0.8143900036811829	0.5985409617424011	0.08296030014753342	-0.6922846436500549	-3.02805757522583	-2.35384464263916	1.6432864665985107	-1.3950135707855225	-0.8002140522003174	-1.6806442737579346	0.8828656077384949	-1.571258783340454	-0.4583210051059723	0.9874003529548645	-1.2686350345611572	0.29436996579170227	-0.3248556852340698	0.26997581124305725	0.01761724427342415	-1.0260010957717896	1.7270736694335938	-0.7834498882293701	-1.0719541311264038	0.09562359005212784	0.467678040266037	0.31172701716423035	0.011285766959190369	-0.6151707172393799	-0.961901068687439	1.438656210899353	0.46643033623695374	-2.393144130706787	1.2157955169677734	1.6820788383483887	2.719348669052124	1.2955609560012817	-0.25417807698249817	0.8566190600395203	-0.8856229186058044	1.5450152158737183	0.20313045382499695	-1.3777403831481934	-0.533839762210846	2.4122211933135986	-2.059865951538086	-0.6354642510414124	1.4812264442443848	0.22617290914058685	0.1268623322248459	-1.13784658908844	-0.8124432563781738	0.9221689701080322	1.5429012775421143	-0.7555785775184631	-0.5259371995925903	0.2019919753074646	-0.6415295004844666	-0.23694850504398346	0.7181448936462402	1.3548225164413452	1.197477102279663	-0.4021449685096741	-0.8642197251319885	-1.3631960153579712	0.5756957530975342	-1.8290112018585205	-2.0424933433532715	0.11606310307979584	0.3486623764038086	-0.8682118654251099	2.2968928813934326	1.952681303024292	1.0462982654571533	-0.8675915598869324	-0.9088843464851379	0.6849302053451538	-3.5982911586761475	-0.5637173056602478	-0.07786790281534195	-1.3494998216629028	1.0941967964172363	0.926913857460022	-1.0743380784988403	-2.099702835083008	-0.31319794058799744	1.9588711261749268	0.4949338436126709	-0.1809968501329422	-1.3975250720977783	1.3828926086425781	0.29272177815437317	0.6135668158531189	1.5907999277114868	-0.8990064859390259	0.4442130923271179	1.3594902753829956	0.6278128623962402	0.9573824405670166	-2.4505393505096436	-0.673088014125824	-2.5653061866760254	0.8432145714759827	-3.453707218170166	0.8245146870613098	1.2103493213653564	-0.8622649312019348	0.2588941752910614	-0.04428015276789665	-0.7724640965461731	-3.3667848110198975	1.945369839668274	-1.9446766376495361	-0.23101559281349182	-1.0102601051330566	-0.8662432432174683	1.6673469543457031	-1.3021496534347534	3.0914392471313477	-0.6254602074623108	0.7378460168838501	-1.5954560041427612	-2.6008384227752686	1.7695133686065674	-0.3419525623321533	-2.0884644985198975	-2.529099225997925	-1.2020665407180786	0.24984793365001678	-1.7546347379684448	0.912416398525238	2.364542007446289	-0.9335668683052063	1.4460006952285767	1.2365765571594238	-2.7093822956085205	-0.33749714493751526	-0.48635974526405334	2.1509082317352295	0.8964475989341736	-1.026749610900879	-2.854567766189575	-0.07914216071367264	-0.7525858283042908	0.20826253294944763	-2.7919230461120605	1.4385044574737549	2.3238675594329834	-0.9769163727760315	1.1082103252410889	0.5456705689430237	1.4044013023376465	
gabbiano	-0.15695281326770782	0.8031602501869202	-0.6419259905815125	-0.4792015254497528	-2.078232765197754	0.384507954120636	2.3031630516052246	1.4324634075164795	1.1360372304916382	0.9465524554252625	-1.1469682455062866	2.356046676635742	0.6848733425140381	-3.994833469390869	0.8806374073028564	-1.4021390676498413	-1.2969162464141846	0.7632590532302856	0.6087003946304321	-1.0025347471237183	1.92536461353302	-2.221374273300171	-1.5627193450927734	-1.0024545192718506	0.5794553756713867	0.7390835881233215	-0.6676084399223328	1.5904203653335571	1.3612979650497437	1.4600906372070312	-0.07112124562263489	-0.16105924546718597	0.6419969797134399	1.0388845205307007	-0.7285926938056946	-1.4843851327896118	-0.2753434181213379	-1.3495169878005981	0.09805844724178314	1.8437120914459229	2.017378091812134	-2.2578787803649902	2.3820998668670654	0.569740355014801	0.6198011636734009	0.6427440643310547	0.2928473949432373	1.302812933921814	0.10942278802394867	-1.7606544494628906	-0.9050173759460449	-0.47038131952285767	-0.221902996301651	2.1361305713653564	0.5055748820304871	0.7659784555435181	0.6314452290534973	-1.0765089988708496	-0.11445746570825577	-0.5840310454368591	-3.824323892593384	1.4833060503005981	1.134950876235962	1.5729912519454956	0.9837599396705627	0.49483412504196167	1.0338128805160522	1.6236320734024048	-1.4480440616607666	-0.20622503757476807	-0.11487908661365509	-2.456923007965088	1.111524224281311	-0.8913385272026062	-1.4762952327728271	0.042264703661203384	1.2634292840957642	-1.0853941440582275	-0.6245188117027283	-1.220962405204773	-0.5811983346939087	1.1413462162017822	1.2229703664779663	-0.6976271271705627	0.6439940929412842	-0.2660788893699646	-0.4296133518218994	-1.293298363685608	-0.2964330315589905	1.3006083965301514	0.23826812207698822	0.4300929605960846	0.10632359981536865	-2.2055585384368896	0.24287770688533783	0.09937863796949387	-1.105649709701538	-2.2097980976104736	-1.4750398397445679	0.3307555913925171	1.03547203540802	1.5771408081054688	-0.7299057841300964	0.26183101534843445	1.6657729148864746	0.9652338027954102	1.3842511177062988	-0.6563021540641785	0.16983798146247864	2.062013626098633	0.8198575377464294	-1.5386528968811035	0.5204489827156067	0.14230823516845703	-0.8350886702537537	-0.24666981399059296	0.9631341695785522	-2.8000876903533936	2.5012662410736084	-0.664737343788147	0.6079768538475037	0.16313840448856354	-0.9812428951263428	1.9264901876449585	-1.786585807800293	-0.9817590713500977	-3.062886953353882	-1.5814324617385864	2.759343385696411	0.4766386151313782	-0.7901162505149841	1.8507684469223022	-1.079422116279602	0.07456687092781067	-1.4517508745193481	-0.6468344926834106	-0.05545920878648758	-0.32818156480789185	1.4976261854171753	0.18584445118904114	1.955806851387024	-0.3575339615345001	-0.15557558834552765	1.3909255266189575	2.7576043605804443	0.8672136068344116	-1.467725396156311	-0.19542361795902252	-0.047289829701185226	0.8143900036811829	0.5985409617424011	0.08296030014753342	-0.6922846436500549	-3.02805757522583	-2.35384464263916	1.6432864665985107	-1.3950135707855225	-0.8002140522003174	-1.6806442737579346	0.8828656077384949	-1.571258783340454	-0.4583210051059723	0.9874003529548645	-1.2686350345611572	0.29436996579170227	-0.3248556852340698	0.26997581124305725	0.01761724427342415	-1.0260010957717896	1.7270736694335938	-0.7834498882293701	-1.0719541311264038	0.09562359005212784	0.467678040266037	0.31172701716423035	0.011285766959190369	-0.6151707172393799	-0.961901068687439	1.438656210899353	0.46643033623695374	-2.393144130706787	1.2157955169677734	1.6820788383483887	2.719348669052124	1.2955609560012817	-0.25417807698249817	0.8566190600395203	-0.8856229186058044	1.5450152158737183	0.20313045382499695	-1.3777403831481934	-0.533839762210846	2.4122211933135986	-2.059865951538086	-0.6354642510414124	1.4812264442443848	0.22617290914058685	0.1268623322248459	-1.13784658908844	-0.8124432563781738	0.9221689701080322	1.5429012775421143	-0.7555785775184631	-0.5259371995925903	0.2019919753074646	-0.6415295004844666	-0.23694850504398346	0.7181448936462402	1.3548225164413452	1.197477102279663	-0.4021449685096741	-0.8642197251319885	-1.3631960153579712	0.5756957530975342	-1.8290112018585205	-2.0424933433532715	0.11606310307979584	0.3486623764038086	-0.8682118654251099	2.2968928813934326	1.952681303024292	1.0462982654571533	-0.8675915598869324	-0.9088843464851379	0.6849302053451538	-3.5982911586761475	-0.5637173056602478	-0.07786790281534195	-1.3494998216629028	1.0941967964172363	0.926913857460022	-1.0743380784988403	-2.099702835083008	-0.31319794058799744	1.9588711261749268	0.4949338436126709	-0.1809968501329422	-1.3975250720977783	1.3828926086425781	0.29272177815437317	0.6135668158531189	1.5907999277114868	-0.8990064859390259	0.4442130923271179	1.3594902753829956	0.6278128623962402	0.9573824405670166	-2.4505393505096436	-0.673088014125824	-2.5653061866760254	0.8432145714759827	-3.453707218170166	0.8245146870613098	1.2103493213653564	-0.8622649312019348	0.2588941752910614	-0.04428015276789665	-0.7724640965461731	-3.3667848110198975	1.945369839668274	-1.9446766376495361	-0.23101559281349182	-1.0102601051330566	-0.8662432432174683	1.6673469543457031	-1.3021496534347534	3.0914392471313477	-0.6254602074623108	0.7378460168838501	-1.5954560041427612	-2.6008384227752686	1.7695133686065674	-0.3419525623321533	-2.0884644985198975	-2.529099225997925	-1.2020665407180786	0.24984793365001678	-1.7546347379684448	0.912416398525238	2.364542007446289	-0.9335668683052063	1.4460006952285767	1.2365765571594238	-2.7093822956085205	-0.33749714493751526	-0.48635974526405334	2.1509082317352295	0.8964475989341736	-1.026749610900879	-2.854567766189575	-0.07914216071367264	-0.7525858283042908	0.20826253294944763	-2.7919230461120605	1.4385044574737549	2.3238675594329834	-0.9769163727760315	1.1082103252410889	0.5456705689430237	1.4044013023376465	
passero	-0.15695281326770782	0.8031602501869202	-0.6419259905815125	-0.4792015254497528	-2.078232765197754	0.384507954120636	2.3031630516052246	1.4324634075164795	1.1360372304916382	0.9465524554252625	-1.1469682455062866	2.356046676635742	0.6848733425140381	-3.994833469390869	0.8806374073028564	-1.4021390676498413	-1.2969162464141846	0.7632590532302856	0.6087003946304321	-1.0025347471237183	1.92536461353302	-2.221374273300171	-1.5627193450927734	-1.0024545192718506	0.5794553756713867	0.7390835881233215	-0.6676084399223328	1.5904203653335571	1.3612979650497437	1.4600906372070312	-0.07112124562263489	-0.16105924546718597	0.6419969797134399	1.0388845205307007	-0.7285926938056946	-1.4843851327896118	-0.2753434181213379	-1.3495169878005981	0.09805844724178314	1.8437120914459229	2.017378091812134	-2.2578787803649902	2.3820998668670654	0.569740355014801	0.6198011636734009	0.6427440643310547	0.2928473949432373	1.302812933921814	0.10942278802394867	-1.7606544494628906	-0.9050173759460449	-0.47038131952285767	-0.221902996301651	2.1361305713653564	0.5055748820304871	0.7659784555435181	0.6314452290534973	-1.0765089988708496	-0.11445746570825577	-0.5840310454368591	-3.824323892593384	1.4833060503005981	1.134950876235962	1.5729912519454956	0.9837599396705627	0.49483412504196167	1.0338128805160522	1.6236320734024048	-1.4480440616607666	-0.20622503757476807	-0.11487908661365509	-2.456923007965088	1.111524224281311	-0.8913385272026062	-1.4762952327728271	0.042264703661203384	1.2634292840957642	-1.0853941440582275	-0.6245188117027283	-1.220962405204773	-0.5811983346939087	1.1413462162017822	1.2229703664779663	-0.6976271271705627	0.6439940929412842	-0.2660788893699646	-0.4296133518218994	-1.293298363685608	-0.2964330315589905	1.3006083965301514	0.23826812207698822	0.4300929605960846	0.10632359981536865	-2.2055585384368896	0.24287770688533783	0.09937863796949387	-1.105649709701538	-2.2097980976104736	-1.4750398397445679	0.3307555913925171	1.03547203540802	1.5771408081054688	-0.7299057841300964	0.26183101534843445	1.6657729148864746	0.9652338027954102	1.3842511177062988	-0.6563021540641785	0.16983798146247864	2.062013626098633	0.8198575377464294	-1.5386528968811035	0.5204489827156067	0.14230823516845703	-0.8350886702537537	-0.24666981399059296	0.9631341695785522	-2.8000876903533936	2.5012662410736084	-0.664737343788147	0.6079768538475037	0.16313840448856354	-0.9812428951263428	1.9264901876449585	-1.786585807800293	-0.9817590713500977	-3.062886953353882	-1.5814324617385864	2.759343385696411	0.4766386151313782	-0.7901162505149841	1.8507684469223022	-1.079422116279602	0.07456687092781067	-1.4517508745193481	-0.6468344926834106	-0.05545920878648758	-0.32818156480789185	1.4976261854171753	0.18584445118904114	1.955806851387024	-0.3575339615345001	-0.15557558834552765	1.3909255266189575	2.7576043605804443	0.8672136068344116	-1.467725396156311	-0.19542361795902252	-0.047289829701185226	0.8143900036811829	0.5985409617424011	0.08296030014753342	-0.6922846436500549	-3.02805757522583	-2.35384464263916	1.6432864665985107	-1.3950135707855225	-0.8002140522003174	-1.6806442737579346	0.8828656077384949	-1.571258783340454	-0.4583210051059723	0.9874003529548645	-1.2686350345611572	0.29436996579170227	-0.3248556852340698	0.26997581124305725	0.01761724427342415	-1.0260010957717896	1.7270736694335938	-0.7834498882293701	-1.0719541311264038	0.09562359005212784	0.467678040266037	0.31172701716423035	0.011285766959190369	-0.6151707172393799	-0.961901068687439	1.438656210899353	0.46643033623695374	-2.393144130706787	1.2157955169677734	1.6820788383483887	2.719348669052124	1.2955609560012817	-0.25417807698249817	0.8566190600395203	-0.8856229186058044	1.5450152158737183	0.20313045382499695	-1.3777403831481934	-0.533839762210846	2.4122211933135986	-2.059865951538086	-0.6354642510414124	1.4812264442443848	0.22617290914058685	0.1268623322248459	-1.13784658908844	-0.8124432563781738	0.9221689701080322	1.5429012775421143	-0.7555785775184631	-0.5259371995925903	0.2019919753074646	-0.6415295004844666	-0.23694850504398346	0.7181448936462402	1.3548225164413452	1.197477102279663	-0.4021449685096741	-0.8642197251319885	-1.3631960153579712	0.5756957530975342	-1.8290112018585205	-2.0424933433532715	0.11606310307979584	0.3486623764038086	-0.8682118654251099	2.2968928813934326	1.952681303024292	1.0462982654571533	-0.8675915598869324	-0.9088843464851379	0.6849302053451538	-3.5982911586761475	-0.5637173056602478	-0.07786790281534195	-1.3494998216629028	1.0941967964172363	0.926913857460022	-1.0743380784988403	-2.099702835083008	-0.31319794058799744	1.9588711261749268	0.4949338436126709	-0.1809968501329422	-1.3975250720977783	1.3828926086425781	0.29272177815437317	0.6135668158531189	1.5907999277114868	-0.8990064859390259	0.4442130923271179	1.3594902753829956	0.6278128623962402	0.9573824405670166	-2.4505393505096436	-0.673088014125824	-2.5653061866760254	0.8432145714759827	-3.453707218170166	0.8245146870613098	1.2103493213653564	-0.8622649312019348	0.2588941752910614	-0.04428015276789665	-0.7724640965461731	-3.3667848110198975	1.945369839668274	-1.9446766376495361	-0.23101559281349182	-1.0102601051330566	-0.8662432432174683	1.6673469543457031	-1.3021496534347534	3.0914392471313477	-0.6254602074623108	0.7378460168838501	-1.5954560041427612	-2.6008384227752686	1.7695133686065674	-0.3419525623321533	-2.0884644985198975	-2.529099225997925	-1.2020665407180786	0.24984793365001678	-1.7546347379684448	0.912416398525238	2.364542007446289	-0.9335668683052063	1.4460006952285767	1.2365765571594238	-2.7093822956085205	-0.33749714493751526	-0.48635974526405334	2.1509082317352295	0.8964475989341736	-1.026749610900879	-2.854567766189575	-0.07914216071367264	-0.7525858283042908	0.20826253294944763	-2.7919230461120605	1.4385044574737549	2.3238675594329834	-0.9769163727760315	1.1082103252410889	0.5456705689430237	1.4044013023376465	
elefante	-0.15695281326770782	0.8031602501869202	-0.6419259905815125	-0.4792015254497528	-2.078232765197754	0.384507954120636	2.3031630516052246	1.4324634075164795	1.1360372304916382	0.9465524554252625	-1.1469682455062866	2.356046676635742	0.6848733425140381	-3.994833469390869	0.8806374073028564	-1.4021390676498413	-1.2969162464141846	0.7632590532302856	0.6087003946304321	-1.0025347471237183	1.92536461353302	-2.221374273300171	-1.5627193450927734	-1.0024545192718506	0.5794553756713867	0.7390835881233215	-0.6676084399223328	1.5904203653335571	1.3612979650497437	1.4600906372070312	-0.07112124562263489	-0.16105924546718597	0.6419969797134399	1.0388845205307007	-0.7285926938056946	-1.4843851327896118	-0.2753434181213379	-1.3495169878005981	0.09805844724178314	1.8437120914459229	2.017378091812134	-2.2578787803649902	2.3820998668670654	0.569740355014801	0.6198011636734009	0.6427440643310547	0.2928473949432373	1.302812933921814	0.10942278802394867	-1.7606544494628906	-0.9050173759460449	-0.47038131952285767	-0.221902996301651	2.1361305713653564	0.5055748820304871	0.7659784555435181	0.6314452290534973	-1.0765089988708496	-0.11445746570825577	-0.5840310454368591	-3.824323892593384	1.4833060503005981	1.134950876235962	1.5729912519454956	0.9837599396705627	0.49483412504196167	1.0338128805160522	1.6236320734024048	-1.4480440616607666	-0.20622503757476807	-0.11487908661365509	-2.456923007965088	1.111524224281311	-0.8913385272026062	-1.4762952327728271	0.042264703661203384	1.2634292840957642	-1.0853941440582275	-0.6245188117027283	-1.220962405204773	-0.5811983346939087	1.1413462162017822	1.2229703664779663	-0.6976271271705627	0.6439940929412842	-0.2660788893699646	-0.4296133518218994	-1.293298363685608	-0.2964330315589905	1.3006083965301514	0.23826812207698822	0.4300929605960846	0.10632359981536865	-2.2055585384368896	0.24287770688533783	0.09937863796949387	-1.105649709701538	-2.2097980976104736	-1.4750398397445679	0.3307555913925171	1.03547203540802	1.5771408081054688	-0.7299057841300964	0.26183101534843445	1.6657729148864746	0.9652338027954102	1.3842511177062988	-0.6563021540641785	0.16983798146247864	2.062013626098633	0.8198575377464294	-1.5386528968811035	0.5204489827156067	0.14230823516845703	-0.8350886702537537	-0.24666981399059296	0.9631341695785522	-2.8000876903533936	2.5012662410736084	-0.664737343788147	0.6079768538475037	0.16313840448856354	-0.9812428951263428	1.9264901876449585	-1.786585807800293	-0.9817590713500977	-3.062886953353882	-1.5814324617385864	2.759343385696411	0.4766386151313782	-0.7901162505149841	1.8507684469223022	-1.079422116279602	0.07456687092781067	-1.4517508745193481	-0.6468344926834106	-0.05545920878648758	-0.32818156480789185	1.4976261854171753	0.18584445118904114	1.955806851387024	-0.3575339615345001	-0.15557558834552765	1.3909255266189575	2.7576043605804443	0.8672136068344116	-1.467725396156311	-0.19542361795902252	-0.047289829701185226	0.8143900036811829	0.5985409617424011	0.08296030014753342	-0.6922846436500549	-3.02805757522583	-2.35384464263916	1.6432864665985107	-1.3950135707855225	-0.8002140522003174	-1.6806442737579346	0.8828656077384949	-1.571258783340454	-0.4583210051059723	0.9874003529548645	-1.2686350345611572	0.29436996579170227	-0.3248556852340698	0.26997581124305725	0.01761724427342415	-1.0260010957717896	1.7270736694335938	-0.7834498882293701	-1.0719541311264038	0.09562359005212784	0.467678040266037	0.31172701716423035	0.011285766959190369	-0.6151707172393799	-0.961901068687439	1.438656210899353	0.46643033623695374	-2.393144130706787	1.2157955169677734	1.6820788383483887	2.719348669052124	1.2955609560012817	-0.25417807698249817	0.8566190600395203	-0.8856229186058044	1.5450152158737183	0.20313045382499695	-1.3777403831481934	-0.533839762210846	2.4122211933135986	-2.059865951538086	-0.6354642510414124	1.4812264442443848	0.22617290914058685	0.1268623322248459	-1.13784658908844	-0.8124432563781738	0.9221689701080322	1.5429012775421143	-0.7555785775184631	-0.5259371995925903	0.2019919753074646	-0.6415295004844666	-0.23694850504398346	0.7181448936462402	1.3548225164413452	1.197477102279663	-0.4021449685096741	-0.8642197251319885	-1.3631960153579712	0.5756957530975342	-1.8290112018585205	-2.0424933433532715	0.11606310307979584	0.3486623764038086	-0.8682118654251099	2.2968928813934326	1.952681303024292	1.0462982654571533	-0.8675915598869324	-0.9088843464851379	0.6849302053451538	-3.5982911586761475	-0.5637173056602478	-0.07786790281534195	-1.3494998216629028	1.0941967964172363	0.926913857460022	-1.0743380784988403	-2.099702835083008	-0.31319794058799744	1.9588711261749268	0.4949338436126709	-0.1809968501329422	-1.3975250720977783	1.3828926086425781	0.29272177815437317	0.6135668158531189	1.5907999277114868	-0.8990064859390259	0.4442130923271179	1.3594902753829956	0.6278128623962402	0.9573824405670166	-2.4505393505096436	-0.673088014125824	-2.5653061866760254	0.8432145714759827	-3.453707218170166	0.8245146870613098	1.2103493213653564	-0.8622649312019348	0.2588941752910614	-0.04428015276789665	-0.7724640965461731	-3.3667848110198975	1.945369839668274	-1.9446766376495361	-0.23101559281349182	-1.0102601051330566	-0.8662432432174683	1.6673469543457031	-1.3021496534347534	3.0914392471313477	-0.6254602074623108	0.7378460168838501	-1.5954560041427612	-2.6008384227752686	1.7695133686065674	-0.3419525623321533	-2.0884644985198975	-2.529099225997925	-1.2020665407180786	0.24984793365001678	-1.7546347379684448	0.912416398525238	2.364542007446289	-0.9335668683052063	1.4460006952285767	1.2365765571594238	-2.7093822956085205	-0.33749714493751526	-0.48635974526405334	2.1509082317352295	0.8964475989341736	-1.026749610900879	-2.854567766189575	-0.07914216071367264	-0.7525858283042908	0.20826253294944763	-2.7919230461120605	1.4385044574737549	2.3238675594329834	-0.9769163727760315	1.1082103252410889	0.5456705689430237	1.4044013023376465	
gatto	-0.15695281326770782	0.8031602501869202	-0.6419259905815125	-0.4792015254497528	-2.078232765197754	0.384507954120636	2.3031630516052246	1.4324634075164795	1.1360372304916382	0.9465524554252625	-1.1469682455062866	2.356046676635742	0.6848733425140381	-3.994833469390869	0.8806374073028564	-1.4021390676498413	-1.2969162464141846	0.7632590532302856	0.6087003946304321	-1.0025347471237183	1.92536461353302	-2.221374273300171	-1.5627193450927734	-1.0024545192718506	0.5794553756713867	0.7390835881233215	-0.6676084399223328	1.5904203653335571	1.3612979650497437	1.4600906372070312	-0.07112124562263489	-0.16105924546718597	0.6419969797134399	1.0388845205307007	-0.7285926938056946	-1.4843851327896118	-0.2753434181213379	-1.3495169878005981	0.09805844724178314	1.8437120914459229	2.017378091812134	-2.2578787803649902	2.3820998668670654	0.569740355014801	0.6198011636734009	0.6427440643310547	0.2928473949432373	1.302812933921814	0.10942278802394867	-1.7606544494628906	-0.9050173759460449	-0.47038131952285767	-0.221902996301651	2.1361305713653564	0.5055748820304871	0.7659784555435181	0.6314452290534973	-1.0765089988708496	-0.11445746570825577	-0.5840310454368591	-3.824323892593384	1.4833060503005981	1.134950876235962	1.5729912519454956	0.9837599396705627	0.49483412504196167	1.0338128805160522	1.6236320734024048	-1.4480440616607666	-0.20622503757476807	-0.11487908661365509	-2.456923007965088	1.111524224281311	-0.8913385272026062	-1.4762952327728271	0.042264703661203384	1.2634292840957642	-1.0853941440582275	-0.6245188117027283	-1.220962405204773	-0.5811983346939087	1.1413462162017822	1.2229703664779663	-0.6976271271705627	0.6439940929412842	-0.2660788893699646	-0.4296133518218994	-1.293298363685608	-0.2964330315589905	1.3006083965301514	0.23826812207698822	0.4300929605960846	0.10632359981536865	-2.2055585384368896	0.24287770688533783	0.09937863796949387	-1.105649709701538	-2.2097980976104736	-1.4750398397445679	0.3307555913925171	1.03547203540802	1.5771408081054688	-0.7299057841300964	0.26183101534843445	1.6657729148864746	0.9652338027954102	1.3842511177062988	-0.6563021540641785	0.16983798146247864	2.062013626098633	0.8198575377464294	-1.5386528968811035	0.5204489827156067	0.14230823516845703	-0.8350886702537537	-0.24666981399059296	0.9631341695785522	-2.8000876903533936	2.5012662410736084	-0.664737343788147	0.6079768538475037	0.16313840448856354	-0.9812428951263428	1.9264901876449585	-1.786585807800293	-0.9817590713500977	-3.062886953353882	-1.5814324617385864	2.759343385696411	0.4766386151313782	-0.7901162505149841	1.8507684469223022	-1.079422116279602	0.07456687092781067	-1.4517508745193481	-0.6468344926834106	-0.05545920878648758	-0.32818156480789185	1.4976261854171753	0.18584445118904114	1.955806851387024	-0.3575339615345001	-0.15557558834552765	1.3909255266189575	2.7576043605804443	0.8672136068344116	-1.467725396156311	-0.19542361795902252	-0.047289829701185226	0.8143900036811829	0.5985409617424011	0.08296030014753342	-0.6922846436500549	-3.02805757522583	-2.35384464263916	1.6432864665985107	-1.3950135707855225	-0.8002140522003174	-1.6806442737579346	0.8828656077384949	-1.571258783340454	-0.4583210051059723	0.9874003529548645	-1.2686350345611572	0.29436996579170227	-0.3248556852340698	0.26997581124305725	0.01761724427342415	-1.0260010957717896	1.7270736694335938	-0.7834498882293701	-1.0719541311264038	0.09562359005212784	0.467678040266037	0.31172701716423035	0.011285766959190369	-0.6151707172393799	-0.961901068687439	1.438656210899353	0.46643033623695374	-2.393144130706787	1.2157955169677734	1.6820788383483887	2.719348669052124	1.2955609560012817	-0.25417807698249817	0.8566190600395203	-0.8856229186058044	1.5450152158737183	0.20313045382499695	-1.3777403831481934	-0.533839762210846	2.4122211933135986	-2.059865951538086	-0.6354642510414124	1.4812264442443848	0.22617290914058685	0.1268623322248459	-1.13784658908844	-0.8124432563781738	0.9221689701080322	1.5429012775421143	-0.7555785775184631	-0.5259371995925903	0.2019919753074646	-0.6415295004844666	-0.23694850504398346	0.7181448936462402	1.3548225164413452	1.197477102279663	-0.4021449685096741	-0.8642197251319885	-1.3631960153579712	0.5756957530975342	-1.8290112018585205	-2.0424933433532715	0.11606310307979584	0.3486623764038086	-0.8682118654251099	2.2968928813934326	1.952681303024292	1.0462982654571533	-0.8675915598869324	-0.9088843464851379	0.6849302053451538	-3.5982911586761475	-0.5637173056602478	-0.07786790281534195	-1.3494998216629028	1.0941967964172363	0.926913857460022	-1.0743380784988403	-2.099702835083008	-0.31319794058799744	1.9588711261749268	0.4949338436126709	-0.1809968501329422	-1.3975250720977783	1.3828926086425781	0.29272177815437317	0.6135668158531189	1.5907999277114868	-0.8990064859390259	0.4442130923271179	1.3594902753829956	0.6278128623962402	0.9573824405670166	-2.4505393505096436	-0.673088014125824	-2.5653061866760254	0.8432145714759827	-3.453707218170166	0.8245146870613098	1.2103493213653564	-0.8622649312019348	0.2588941752910614	-0.04428015276789665	-0.7724640965461731	-3.3667848110198975	1.945369839668274	-1.9446766376495361	-0.23101559281349182	-1.0102601051330566	-0.8662432432174683	1.6673469543457031	-1.3021496534347534	3.0914392471313477	-0.6254602074623108	0.7378460168838501	-1.5954560041427612	-2.6008384227752686	1.7695133686065674	-0.3419525623321533	-2.0884644985198975	-2.529099225997925	-1.2020665407180786	0.24984793365001678	-1.7546347379684448	0.912416398525238	2.364542007446289	-0.9335668683052063	1.4460006952285767	1.2365765571594238	-2.7093822956085205	-0.33749714493751526	-0.48635974526405334	2.1509082317352295	0.8964475989341736	-1.026749610900879	-2.854567766189575	-0.07914216071367264	-0.7525858283042908	0.20826253294944763	-2.7919230461120605	1.4385044574737549	2.3238675594329834	-0.9769163727760315	1.1082103252410889	0.5456705689430237	1.4044013023376465	
leone	-0.15695281326770782	0.8031602501869202	-0.6419259905815125	-0.4792015254497528	-2.078232765197754	0.384507954120636	2.3031630516052246	1.4324634075164795	1.1360372304916382	0.9465524554252625	-1.1469682455062866	2.356046676635742	0.6848733425140381	-3.994833469390869	0.8806374073028564	-1.4021390676498413	-1.2969162464141846	0.7632590532302856	0.6087003946304321	-1.0025347471237183	1.92536461353302	-2.221374273300171	-1.5627193450927734	-1.0024545192718506	0.5794553756713867	0.7390835881233215	-0.6676084399223328	1.5904203653335571	1.3612979650497437	1.4600906372070312	-0.07112124562263489	-0.16105924546718597	0.6419969797134399	1.0388845205307007	-0.7285926938056946	-1.4843851327896118	-0.2753434181213379	-1.3495169878005981	0.09805844724178314	1.8437120914459229	2.017378091812134	-2.2578787803649902	2.3820998668670654	0.569740355014801	0.6198011636734009	0.6427440643310547	0.2928473949432373	1.302812933921814	0.10942278802394867	-1.7606544494628906	-0.9050173759460449	-0.47038131952285767	-0.221902996301651	2.1361305713653564	0.5055748820304871	0.7659784555435181	0.6314452290534973	-1.0765089988708496	-0.11445746570825577	-0.5840310454368591	-3.824323892593384	1.4833060503005981	1.134950876235962	1.5729912519454956	0.9837599396705627	0.49483412504196167	1.0338128805160522	1.6236320734024048	-1.4480440616607666	-0.20622503757476807	-0.11487908661365509	-2.456923007965088	1.111524224281311	-0.8913385272026062	-1.4762952327728271	0.042264703661203384	1.2634292840957642	-1.0853941440582275	-0.6245188117027283	-1.220962405204773	-0.5811983346939087	1.1413462162017822	1.2229703664779663	-0.6976271271705627	0.6439940929412842	-0.2660788893699646	-0.4296133518218994	-1.293298363685608	-0.2964330315589905	1.3006083965301514	0.23826812207698822	0.4300929605960846	0.10632359981536865	-2.2055585384368896	0.24287770688533783	0.09937863796949387	-1.105649709701538	-2.2097980976104736	-1.4750398397445679	0.3307555913925171	1.03547203540802	1.5771408081054688	-0.7299057841300964	0.26183101534843445	1.6657729148864746	0.9652338027954102	1.3842511177062988	-0.6563021540641785	0.16983798146247864	2.062013626098633	0.8198575377464294	-1.5386528968811035	0.5204489827156067	0.14230823516845703	-0.8350886702537537	-0.24666981399059296	0.9631341695785522	-2.8000876903533936	2.5012662410736084	-0.664737343788147	0.6079768538475037	0.16313840448856354	-0.9812428951263428	1.9264901876449585	-1.786585807800293	-0.9817590713500977	-3.062886953353882	-1.5814324617385864	2.759343385696411	0.4766386151313782	-0.7901162505149841	1.8507684469223022	-1.079422116279602	0.07456687092781067	-1.4517508745193481	-0.6468344926834106	-0.05545920878648758	-0.32818156480789185	1.4976261854171753	0.18584445118904114	1.955806851387024	-0.3575339615345001	-0.15557558834552765	1.3909255266189575	2.7576043605804443	0.8672136068344116	-1.467725396156311	-0.19542361795902252	-0.047289829701185226	0.8143900036811829	0.5985409617424011	0.08296030014753342	-0.6922846436500549	-3.02805757522583	-2.35384464263916	1.6432864665985107	-1.3950135707855225	-0.8002140522003174	-1.6806442737579346	0.8828656077384949	-1.571258783340454	-0.4583210051059723	0.9874003529548645	-1.2686350345611572	0.29436996579170227	-0.3248556852340698	0.26997581124305725	0.01761724427342415	-1.0260010957717896	1.7270736694335938	-0.7834498882293701	-1.0719541311264038	0.09562359005212784	0.467678040266037	0.31172701716423035	0.011285766959190369	-0.6151707172393799	-0.961901068687439	1.438656210899353	0.46643033623695374	-2.393144130706787	1.2157955169677734	1.6820788383483887	2.719348669052124	1.2955609560012817	-0.25417807698249817	0.8566190600395203	-0.8856229186058044	1.5450152158737183	0.20313045382499695	-1.3777403831481934	-0.533839762210846	2.4122211933135986	-2.059865951538086	-0.6354642510414124	1.4812264442443848	0.22617290914058685	0.1268623322248459	-1.13784658908844	-0.8124432563781738	0.9221689701080322	1.5429012775421143	-0.7555785775184631	-0.5259371995925903	0.2019919753074646	-0.6415295004844666	-0.23694850504398346	0.7181448936462402	1.3548225164413452	1.197477102279663	-0.4021449685096741	-0.8642197251319885	-1.3631960153579712	0.5756957530975342	-1.8290112018585205	-2.0424933433532715	0.11606310307979584	0.3486623764038086	-0.8682118654251099	2.2968928813934326	1.952681303024292	1.0462982654571533	-0.8675915598869324	-0.9088843464851379	0.6849302053451538	-3.5982911586761475	-0.5637173056602478	-0.07786790281534195	-1.3494998216629028	1.0941967964172363	0.926913857460022	-1.0743380784988403	-2.099702835083008	-0.31319794058799744	1.9588711261749268	0.4949338436126709	-0.1809968501329422	-1.3975250720977783	1.3828926086425781	0.29272177815437317	0.6135668158531189	1.5907999277114868	-0.8990064859390259	0.4442130923271179	1.3594902753829956	0.6278128623962402	0.9573824405670166	-2.4505393505096436	-0.673088014125824	-2.5653061866760254	0.8432145714759827	-3.453707218170166	0.8245146870613098	1.2103493213653564	-0.8622649312019348	0.2588941752910614	-0.04428015276789665	-0.7724640965461731	-3.3667848110198975	1.945369839668274	-1.9446766376495361	-0.23101559281349182	-1.0102601051330566	-0.8662432432174683	1.6673469543457031	-1.3021496534347534	3.0914392471313477	-0.6254602074623108	0.7378460168838501	-1.5954560041427612	-2.6008384227752686	1.7695133686065674	-0.3419525623321533	-2.0884644985198975	-2.529099225997925	-1.2020665407180786	0.24984793365001678	-1.7546347379684448	0.912416398525238	2.364542007446289	-0.9335668683052063	1.4460006952285767	1.2365765571594238	-2.7093822956085205	-0.33749714493751526	-0.48635974526405334	2.1509082317352295	0.8964475989341736	-1.026749610900879	-2.854567766189575	-0.07914216071367264	-0.7525858283042908	0.20826253294944763	-2.7919230461120605	1.4385044574737549	2.3238675594329834	-0.9769163727760315	1.1082103252410889	0.5456705689430237	1.4044013023376465	
maiale	-0.15695281326770782	0.8031602501869202	-0.6419259905815125	-0.4792015254497528	-2.078232765197754	0.384507954120636	2.3031630516052246	1.4324634075164795	1.1360372304916382	0.9465524554252625	-1.1469682455062866	2.356046676635742	0.6848733425140381	-3.994833469390869	0.8806374073028564	-1.4021390676498413	-1.2969162464141846	0.7632590532302856	0.6087003946304321	-1.0025347471237183	1.92536461353302	-2.221374273300171	-1.5627193450927734	-1.0024545192718506	0.5794553756713867	0.7390835881233215	-0.6676084399223328	1.5904203653335571	1.3612979650497437	1.4600906372070312	-0.07112124562263489	-0.16105924546718597	0.6419969797134399	1.0388845205307007	-0.7285926938056946	-1.4843851327896118	-0.2753434181213379	-1.3495169878005981	0.09805844724178314	1.8437120914459229	2.017378091812134	-2.2578787803649902	2.3820998668670654	0.569740355014801	0.6198011636734009	0.6427440643310547	0.2928473949432373	1.302812933921814	0.10942278802394867	-1.7606544494628906	-0.9050173759460449	-0.47038131952285767	-0.221902996301651	2.1361305713653564	0.5055748820304871	0.7659784555435181	0.6314452290534973	-1.0765089988708496	-0.11445746570825577	-0.5840310454368591	-3.824323892593384	1.4833060503005981	1.134950876235962	1.5729912519454956	0.9837599396705627	0.49483412504196167	1.0338128805160522	1.6236320734024048	-1.4480440616607666	-0.20622503757476807	-0.11487908661365509	-2.456923007965088	1.111524224281311	-0.8913385272026062	-1.4762952327728271	0.042264703661203384	1.2634292840957642	-1.0853941440582275	-0.6245188117027283	-1.220962405204773	-0.5811983346939087	1.1413462162017822	1.2229703664779663	-0.6976271271705627	0.6439940929412842	-0.2660788893699646	-0.4296133518218994	-1.293298363685608	-0.2964330315589905	1.3006083965301514	0.23826812207698822	0.4300929605960846	0.10632359981536865	-2.2055585384368896	0.24287770688533783	0.09937863796949387	-1.105649709701538	-2.2097980976104736	-1.4750398397445679	0.3307555913925171	1.03547203540802	1.5771408081054688	-0.7299057841300964	0.26183101534843445	1.6657729148864746	0.9652338027954102	1.3842511177062988	-0.6563021540641785	0.16983798146247864	2.062013626098633	0.8198575377464294	-1.5386528968811035	0.5204489827156067	0.14230823516845703	-0.8350886702537537	-0.24666981399059296	0.9631341695785522	-2.8000876903533936	2.5012662410736084	-0.664737343788147	0.6079768538475037	0.16313840448856354	-0.9812428951263428	1.9264901876449585	-1.786585807800293	-0.9817590713500977	-3.062886953353882	-1.5814324617385864	2.759343385696411	0.4766386151313782	-0.7901162505149841	1.8507684469223022	-1.079422116279602	0.07456687092781067	-1.4517508745193481	-0.6468344926834106	-0.05545920878648758	-0.32818156480789185	1.4976261854171753	0.18584445118904114	1.955806851387024	-0.3575339615345001	-0.15557558834552765	1.3909255266189575	2.7576043605804443	0.8672136068344116	-1.467725396156311	-0.19542361795902252	-0.047289829701185226	0.8143900036811829	0.5985409617424011	0.08296030014753342	-0.6922846436500549	-3.02805757522583	-2.35384464263916	1.6432864665985107	-1.3950135707855225	-0.8002140522003174	-1.6806442737579346	0.8828656077384949	-1.571258783340454	-0.4583210051059723	0.9874003529548645	-1.2686350345611572	0.29436996579170227	-0.3248556852340698	0.26997581124305725	0.01761724427342415	-1.0260010957717896	1.7270736694335938	-0.7834498882293701	-1.0719541311264038	0.09562359005212784	0.467678040266037	0.31172701716423035	0.011285766959190369	-0.6151707172393799	-0.961901068687439	1.438656210899353	0.46643033623695374	-2.393144130706787	1.2157955169677734	1.6820788383483887	2.719348669052124	1.2955609560012817	-0.25417807698249817	0.8566190600395203	-0.8856229186058044	1.5450152158737183	0.20313045382499695	-1.3777403831481934	-0.533839762210846	2.4122211933135986	-2.059865951538086	-0.6354642510414124	1.4812264442443848	0.22617290914058685	0.1268623322248459	-1.13784658908844	-0.8124432563781738	0.9221689701080322	1.5429012775421143	-0.7555785775184631	-0.5259371995925903	0.2019919753074646	-0.6415295004844666	-0.23694850504398346	0.7181448936462402	1.3548225164413452	1.197477102279663	-0.4021449685096741	-0.8642197251319885	-1.3631960153579712	0.5756957530975342	-1.8290112018585205	-2.0424933433532715	0.11606310307979584	0.3486623764038086	-0.8682118654251099	2.2968928813934326	1.952681303024292	1.0462982654571533	-0.8675915598869324	-0.9088843464851379	0.6849302053451538	-3.5982911586761475	-0.5637173056602478	-0.07786790281534195	-1.3494998216629028	1.0941967964172363	0.926913857460022	-1.0743380784988403	-2.099702835083008	-0.31319794058799744	1.9588711261749268	0.4949338436126709	-0.1809968501329422	-1.3975250720977783	1.3828926086425781	0.29272177815437317	0.6135668158531189	1.5907999277114868	-0.8990064859390259	0.4442130923271179	1.3594902753829956	0.6278128623962402	0.9573824405670166	-2.4505393505096436	-0.673088014125824	-2.5653061866760254	0.8432145714759827	-3.453707218170166	0.8245146870613098	1.2103493213653564	-0.8622649312019348	0.2588941752910614	-0.04428015276789665	-0.7724640965461731	-3.3667848110198975	1.945369839668274	-1.9446766376495361	-0.23101559281349182	-1.0102601051330566	-0.8662432432174683	1.6673469543457031	-1.3021496534347534	3.0914392471313477	-0.6254602074623108	0.7378460168838501	-1.5954560041427612	-2.6008384227752686	1.7695133686065674	-0.3419525623321533	-2.0884644985198975	-2.529099225997925	-1.2020665407180786	0.24984793365001678	-1.7546347379684448	0.912416398525238	2.364542007446289	-0.9335668683052063	1.4460006952285767	1.2365765571594238	-2.7093822956085205	-0.33749714493751526	-0.48635974526405334	2.1509082317352295	0.8964475989341736	-1.026749610900879	-2.854567766189575	-0.07914216071367264	-0.7525858283042908	0.20826253294944763	-2.7919230461120605	1.4385044574737549	2.3238675594329834	-0.9769163727760315	1.1082103252410889	0.5456705689430237	1.4044013023376465	
mucca	-0.15695281326770782	0.8031602501869202	-0.6419259905815125	-0.4792015254497528	-2.078232765197754	0.384507954120636	2.3031630516052246	1.4324634075164795	1.1360372304916382	0.9465524554252625	-1.1469682455062866	2.356046676635742	0.6848733425140381	-3.994833469390869	0.8806374073028564	-1.4021390676498413	-1.2969162464141846	0.7632590532302856	0.6087003946304321	-1.0025347471237183	1.92536461353302	-2.221374273300171	-1.5627193450927734	-1.0024545192718506	0.5794553756713867	0.7390835881233215	-0.6676084399223328	1.5904203653335571	1.3612979650497437	1.4600906372070312	-0.07112124562263489	-0.16105924546718597	0.6419969797134399	1.0388845205307007	-0.7285926938056946	-1.4843851327896118	-0.2753434181213379	-1.3495169878005981	0.09805844724178314	1.8437120914459229	2.017378091812134	-2.2578787803649902	2.3820998668670654	0.569740355014801	0.6198011636734009	0.6427440643310547	0.2928473949432373	1.302812933921814	0.10942278802394867	-1.7606544494628906	-0.9050173759460449	-0.47038131952285767	-0.221902996301651	2.1361305713653564	0.5055748820304871	0.7659784555435181	0.6314452290534973	-1.0765089988708496	-0.11445746570825577	-0.5840310454368591	-3.824323892593384	1.4833060503005981	1.134950876235962	1.5729912519454956	0.9837599396705627	0.49483412504196167	1.0338128805160522	1.6236320734024048	-1.4480440616607666	-0.20622503757476807	-0.11487908661365509	-2.456923007965088	1.111524224281311	-0.8913385272026062	-1.4762952327728271	0.042264703661203384	1.2634292840957642	-1.0853941440582275	-0.6245188117027283	-1.220962405204773	-0.5811983346939087	1.1413462162017822	1.2229703664779663	-0.6976271271705627	0.6439940929412842	-0.2660788893699646	-0.4296133518218994	-1.293298363685608	-0.2964330315589905	1.3006083965301514	0.23826812207698822	0.4300929605960846	0.10632359981536865	-2.2055585384368896	0.24287770688533783	0.09937863796949387	-1.105649709701538	-2.2097980976104736	-1.4750398397445679	0.3307555913925171	1.03547203540802	1.5771408081054688	-0.7299057841300964	0.26183101534843445	1.6657729148864746	0.9652338027954102	1.3842511177062988	-0.6563021540641785	0.16983798146247864	2.062013626098633	0.8198575377464294	-1.5386528968811035	0.5204489827156067	0.14230823516845703	-0.8350886702537537	-0.24666981399059296	0.9631341695785522	-2.8000876903533936	2.5012662410736084	-0.664737343788147	0.6079768538475037	0.16313840448856354	-0.9812428951263428	1.9264901876449585	-1.786585807800293	-0.9817590713500977	-3.062886953353882	-1.5814324617385864	2.759343385696411	0.4766386151313782	-0.7901162505149841	1.8507684469223022	-1.079422116279602	0.07456687092781067	-1.4517508745193481	-0.6468344926834106	-0.05545920878648758	-0.32818156480789185	1.4976261854171753	0.18584445118904114	1.955806851387024	-0.3575339615345001	-0.15557558834552765	1.3909255266189575	2.7576043605804443	0.8672136068344116	-1.467725396156311	-0.19542361795902252	-0.047289829701185226	0.8143900036811829	0.5985409617424011	0.08296030014753342	-0.6922846436500549	-3.02805757522583	-2.35384464263916	1.6432864665985107	-1.3950135707855225	-0.8002140522003174	-1.6806442737579346	0.8828656077384949	-1.571258783340454	-0.4583210051059723	0.9874003529548645	-1.2686350345611572	0.29436996579170227	-0.3248556852340698	0.26997581124305725	0.01761724427342415	-1.0260010957717896	1.7270736694335938	-0.7834498882293701	-1.0719541311264038	0.09562359005212784	0.467678040266037	0.31172701716423035	0.011285766959190369	-0.6151707172393799	-0.961901068687439	1.438656210899353	0.46643033623695374	-2.393144130706787	1.2157955169677734	1.6820788383483887	2.719348669052124	1.2955609560012817	-0.25417807698249817	0.8566190600395203	-0.8856229186058044	1.5450152158737183	0.20313045382499695	-1.3777403831481934	-0.533839762210846	2.4122211933135986	-2.059865951538086	-0.6354642510414124	1.4812264442443848	0.22617290914058685	0.1268623322248459	-1.13784658908844	-0.8124432563781738	0.9221689701080322	1.5429012775421143	-0.7555785775184631	-0.5259371995925903	0.2019919753074646	-0.6415295004844666	-0.23694850504398346	0.7181448936462402	1.3548225164413452	1.197477102279663	-0.4021449685096741	-0.8642197251319885	-1.3631960153579712	0.5756957530975342	-1.8290112018585205	-2.0424933433532715	0.11606310307979584	0.3486623764038086	-0.8682118654251099	2.2968928813934326	1.952681303024292	1.0462982654571533	-0.8675915598869324	-0.9088843464851379	0.6849302053451538	-3.5982911586761475	-0.5637173056602478	-0.07786790281534195	-1.3494998216629028	1.0941967964172363	0.926913857460022	-1.0743380784988403	-2.099702835083008	-0.31319794058799744	1.9588711261749268	0.4949338436126709	-0.1809968501329422	-1.3975250720977783	1.3828926086425781	0.29272177815437317	0.6135668158531189	1.5907999277114868	-0.8990064859390259	0.4442130923271179	1.3594902753829956	0.6278128623962402	0.9573824405670166	-2.4505393505096436	-0.673088014125824	-2.5653061866760254	0.8432145714759827	-3.453707218170166	0.8245146870613098	1.2103493213653564	-0.8622649312019348	0.2588941752910614	-0.04428015276789665	-0.7724640965461731	-3.3667848110198975	1.945369839668274	-1.9446766376495361	-0.23101559281349182	-1.0102601051330566	-0.8662432432174683	1.6673469543457031	-1.3021496534347534	3.0914392471313477	-0.6254602074623108	0.7378460168838501	-1.5954560041427612	-2.6008384227752686	1.7695133686065674	-0.3419525623321533	-2.0884644985198975	-2.529099225997925	-1.2020665407180786	0.24984793365001678	-1.7546347379684448	0.912416398525238	2.364542007446289	-0.9335668683052063	1.4460006952285767	1.2365765571594238	-2.7093822956085205	-0.33749714493751526	-0.48635974526405334	2.1509082317352295	0.8964475989341736	-1.026749610900879	-2.854567766189575	-0.07914216071367264	-0.7525858283042908	0.20826253294944763	-2.7919230461120605	1.4385044574737549	2.3238675594329834	-0.9769163727760315	1.1082103252410889	0.5456705689430237	1.4044013023376465	
serpente	-0.15695281326770782	0.8031602501869202	-0.6419259905815125	-0.4792015254497528	-2.078232765197754	0.384507954120636	2.3031630516052246	1.4324634075164795	1.1360372304916382	0.9465524554252625	-1.1469682455062866	2.356046676635742	0.6848733425140381	-3.994833469390869	0.8806374073028564	-1.4021390676498413	-1.2969162464141846	0.7632590532302856	0.6087003946304321	-1.0025347471237183	1.92536461353302	-2.221374273300171	-1.5627193450927734	-1.0024545192718506	0.5794553756713867	0.7390835881233215	-0.6676084399223328	1.5904203653335571	1.3612979650497437	1.4600906372070312	-0.07112124562263489	-0.16105924546718597	0.6419969797134399	1.0388845205307007	-0.7285926938056946	-1.4843851327896118	-0.2753434181213379	-1.3495169878005981	0.09805844724178314	1.8437120914459229	2.017378091812134	-2.2578787803649902	2.3820998668670654	0.569740355014801	0.6198011636734009	0.6427440643310547	0.2928473949432373	1.302812933921814	0.10942278802394867	-1.7606544494628906	-0.9050173759460449	-0.47038131952285767	-0.221902996301651	2.1361305713653564	0.5055748820304871	0.7659784555435181	0.6314452290534973	-1.0765089988708496	-0.11445746570825577	-0.5840310454368591	-3.824323892593384	1.4833060503005981	1.134950876235962	1.5729912519454956	0.9837599396705627	0.49483412504196167	1.0338128805160522	1.6236320734024048	-1.4480440616607666	-0.20622503757476807	-0.11487908661365509	-2.456923007965088	1.111524224281311	-0.8913385272026062	-1.4762952327728271	0.042264703661203384	1.2634292840957642	-1.0853941440582275	-0.6245188117027283	-1.220962405204773	-0.5811983346939087	1.1413462162017822	1.2229703664779663	-0.6976271271705627	0.6439940929412842	-0.2660788893699646	-0.4296133518218994	-1.293298363685608	-0.2964330315589905	1.3006083965301514	0.23826812207698822	0.4300929605960846	0.10632359981536865	-2.2055585384368896	0.24287770688533783	0.09937863796949387	-1.105649709701538	-2.2097980976104736	-1.4750398397445679	0.3307555913925171	1.03547203540802	1.5771408081054688	-0.7299057841300964	0.26183101534843445	1.6657729148864746	0.9652338027954102	1.3842511177062988	-0.6563021540641785	0.16983798146247864	2.062013626098633	0.8198575377464294	-1.5386528968811035	0.5204489827156067	0.14230823516845703	-0.8350886702537537	-0.24666981399059296	0.9631341695785522	-2.8000876903533936	2.5012662410736084	-0.664737343788147	0.6079768538475037	0.16313840448856354	-0.9812428951263428	1.9264901876449585	-1.786585807800293	-0.9817590713500977	-3.062886953353882	-1.5814324617385864	2.759343385696411	0.4766386151313782	-0.7901162505149841	1.8507684469223022	-1.079422116279602	0.07456687092781067	-1.4517508745193481	-0.6468344926834106	-0.05545920878648758	-0.32818156480789185	1.4976261854171753	0.18584445118904114	1.955806851387024	-0.3575339615345001	-0.15557558834552765	1.3909255266189575	2.7576043605804443	0.8672136068344116	-1.467725396156311	-0.19542361795902252	-0.047289829701185226	0.8143900036811829	0.5985409617424011	0.08296030014753342	-0.6922846436500549	-3.02805757522583	-2.35384464263916	1.6432864665985107	-1.3950135707855225	-0.8002140522003174	-1.6806442737579346	0.8828656077384949	-1.571258783340454	-0.4583210051059723	0.9874003529548645	-1.2686350345611572	0.29436996579170227	-0.3248556852340698	0.26997581124305725	0.01761724427342415	-1.0260010957717896	1.7270736694335938	-0.7834498882293701	-1.0719541311264038	0.09562359005212784	0.467678040266037	0.31172701716423035	0.011285766959190369	-0.6151707172393799	-0.961901068687439	1.438656210899353	0.46643033623695374	-2.393144130706787	1.2157955169677734	1.6820788383483887	2.719348669052124	1.2955609560012817	-0.25417807698249817	0.8566190600395203	-0.8856229186058044	1.5450152158737183	0.20313045382499695	-1.3777403831481934	-0.533839762210846	2.4122211933135986	-2.059865951538086	-0.6354642510414124	1.4812264442443848	0.22617290914058685	0.1268623322248459	-1.13784658908844	-0.8124432563781738	0.9221689701080322	1.5429012775421143	-0.7555785775184631	-0.5259371995925903	0.2019919753074646	-0.6415295004844666	-0.23694850504398346	0.7181448936462402	1.3548225164413452	1.197477102279663	-0.4021449685096741	-0.8642197251319885	-1.3631960153579712	0.5756957530975342	-1.8290112018585205	-2.0424933433532715	0.11606310307979584	0.3486623764038086	-0.8682118654251099	2.2968928813934326	1.952681303024292	1.0462982654571533	-0.8675915598869324	-0.9088843464851379	0.6849302053451538	-3.5982911586761475	-0.5637173056602478	-0.07786790281534195	-1.3494998216629028	1.0941967964172363	0.926913857460022	-1.0743380784988403	-2.099702835083008	-0.31319794058799744	1.9588711261749268	0.4949338436126709	-0.1809968501329422	-1.3975250720977783	1.3828926086425781	0.29272177815437317	0.6135668158531189	1.5907999277114868	-0.8990064859390259	0.4442130923271179	1.3594902753829956	0.6278128623962402	0.9573824405670166	-2.4505393505096436	-0.673088014125824	-2.5653061866760254	0.8432145714759827	-3.453707218170166	0.8245146870613098	1.2103493213653564	-0.8622649312019348	0.2588941752910614	-0.04428015276789665	-0.7724640965461731	-3.3667848110198975	1.945369839668274	-1.9446766376495361	-0.23101559281349182	-1.0102601051330566	-0.8662432432174683	1.6673469543457031	-1.3021496534347534	3.0914392471313477	-0.6254602074623108	0.7378460168838501	-1.5954560041427612	-2.6008384227752686	1.7695133686065674	-0.3419525623321533	-2.0884644985198975	-2.529099225997925	-1.2020665407180786	0.24984793365001678	-1.7546347379684448	0.912416398525238	2.364542007446289	-0.9335668683052063	1.4460006952285767	1.2365765571594238	-2.7093822956085205	-0.33749714493751526	-0.48635974526405334	2.1509082317352295	0.8964475989341736	-1.026749610900879	-2.854567766189575	-0.07914216071367264	-0.7525858283042908	0.20826253294944763	-2.7919230461120605	1.4385044574737549	2.3238675594329834	-0.9769163727760315	1.1082103252410889	0.5456705689430237	1.4044013023376465	
tigre	-0.15695281326770782	0.8031602501869202	-0.6419259905815125	-0.4792015254497528	-2.078232765197754	0.384507954120636	2.3031630516052246	1.4324634075164795	1.1360372304916382	0.9465524554252625	-1.1469682455062866	2.356046676635742	0.6848733425140381	-3.994833469390869	0.8806374073028564	-1.4021390676498413	-1.2969162464141846	0.7632590532302856	0.6087003946304321	-1.0025347471237183	1.92536461353302	-2.221374273300171	-1.5627193450927734	-1.0024545192718506	0.5794553756713867	0.7390835881233215	-0.6676084399223328	1.5904203653335571	1.3612979650497437	1.4600906372070312	-0.07112124562263489	-0.16105924546718597	0.6419969797134399	1.0388845205307007	-0.7285926938056946	-1.4843851327896118	-0.2753434181213379	-1.3495169878005981	0.09805844724178314	1.8437120914459229	2.017378091812134	-2.2578787803649902	2.3820998668670654	0.569740355014801	0.6198011636734009	0.6427440643310547	0.2928473949432373	1.302812933921814	0.10942278802394867	-1.7606544494628906	-0.9050173759460449	-0.47038131952285767	-0.221902996301651	2.1361305713653564	0.5055748820304871	0.7659784555435181	0.6314452290534973	-1.0765089988708496	-0.11445746570825577	-0.5840310454368591	-3.824323892593384	1.4833060503005981	1.134950876235962	1.5729912519454956	0.9837599396705627	0.49483412504196167	1.0338128805160522	1.6236320734024048	-1.4480440616607666	-0.20622503757476807	-0.11487908661365509	-2.456923007965088	1.111524224281311	-0.8913385272026062	-1.4762952327728271	0.042264703661203384	1.2634292840957642	-1.0853941440582275	-0.6245188117027283	-1.220962405204773	-0.5811983346939087	1.1413462162017822	1.2229703664779663	-0.6976271271705627	0.6439940929412842	-0.2660788893699646	-0.4296133518218994	-1.293298363685608	-0.2964330315589905	1.3006083965301514	0.23826812207698822	0.4300929605960846	0.10632359981536865	-2.2055585384368896	0.24287770688533783	0.09937863796949387	-1.105649709701538	-2.2097980976104736	-1.4750398397445679	0.3307555913925171	1.03547203540802	1.5771408081054688	-0.7299057841300964	0.26183101534843445	1.6657729148864746	0.9652338027954102	1.3842511177062988	-0.6563021540641785	0.16983798146247864	2.062013626098633	0.8198575377464294	-1.5386528968811035	0.5204489827156067	0.14230823516845703	-0.8350886702537537	-0.24666981399059296	0.9631341695785522	-2.8000876903533936	2.5012662410736084	-0.664737343788147	0.6079768538475037	0.16313840448856354	-0.9812428951263428	1.9264901876449585	-1.786585807800293	-0.9817590713500977	-3.062886953353882	-1.5814324617385864	2.759343385696411	0.4766386151313782	-0.7901162505149841	1.8507684469223022	-1.079422116279602	0.07456687092781067	-1.4517508745193481	-0.6468344926834106	-0.05545920878648758	-0.32818156480789185	1.4976261854171753	0.18584445118904114	1.955806851387024	-0.3575339615345001	-0.15557558834552765	1.3909255266189575	2.7576043605804443	0.8672136068344116	-1.467725396156311	-0.19542361795902252	-0.047289829701185226	0.8143900036811829	0.5985409617424011	0.08296030014753342	-0.6922846436500549	-3.02805757522583	-2.35384464263916	1.6432864665985107	-1.3950135707855225	-0.8002140522003174	-1.6806442737579346	0.8828656077384949	-1.571258783340454	-0.4583210051059723	0.9874003529548645	-1.2686350345611572	0.29436996579170227	-0.3248556852340698	0.26997581124305725	0.01761724427342415	-1.0260010957717896	1.7270736694335938	-0.7834498882293701	-1.0719541311264038	0.09562359005212784	0.467678040266037	0.31172701716423035	0.011285766959190369	-0.6151707172393799	-0.961901068687439	1.438656210899353	0.46643033623695374	-2.393144130706787	1.2157955169677734	1.6820788383483887	2.719348669052124	1.2955609560012817	-0.25417807698249817	0.8566190600395203	-0.8856229186058044	1.5450152158737183	0.20313045382499695	-1.3777403831481934	-0.533839762210846	2.4122211933135986	-2.059865951538086	-0.6354642510414124	1.4812264442443848	0.22617290914058685	0.1268623322248459	-1.13784658908844	-0.8124432563781738	0.9221689701080322	1.5429012775421143	-0.7555785775184631	-0.5259371995925903	0.2019919753074646	-0.6415295004844666	-0.23694850504398346	0.7181448936462402	1.3548225164413452	1.197477102279663	-0.4021449685096741	-0.8642197251319885	-1.3631960153579712	0.5756957530975342	-1.8290112018585205	-2.0424933433532715	0.11606310307979584	0.3486623764038086	-0.8682118654251099	2.2968928813934326	1.952681303024292	1.0462982654571533	-0.8675915598869324	-0.9088843464851379	0.6849302053451538	-3.5982911586761475	-0.5637173056602478	-0.07786790281534195	-1.3494998216629028	1.0941967964172363	0.926913857460022	-1.0743380784988403	-2.099702835083008	-0.31319794058799744	1.9588711261749268	0.4949338436126709	-0.1809968501329422	-1.3975250720977783	1.3828926086425781	0.29272177815437317	0.6135668158531189	1.5907999277114868	-0.8990064859390259	0.4442130923271179	1.3594902753829956	0.6278128623962402	0.9573824405670166	-2.4505393505096436	-0.673088014125824	-2.5653061866760254	0.8432145714759827	-3.453707218170166	0.8245146870613098	1.2103493213653564	-0.8622649312019348	0.2588941752910614	-0.04428015276789665	-0.7724640965461731	-3.3667848110198975	1.945369839668274	-1.9446766376495361	-0.23101559281349182	-1.0102601051330566	-0.8662432432174683	1.6673469543457031	-1.3021496534347534	3.0914392471313477	-0.6254602074623108	0.7378460168838501	-1.5954560041427612	-2.6008384227752686	1.7695133686065674	-0.3419525623321533	-2.0884644985198975	-2.529099225997925	-1.2020665407180786	0.24984793365001678	-1.7546347379684448	0.912416398525238	2.364542007446289	-0.9335668683052063	1.4460006952285767	1.2365765571594238	-2.7093822956085205	-0.33749714493751526	-0.48635974526405334	2.1509082317352295	0.8964475989341736	-1.026749610900879	-2.854567766189575	-0.07914216071367264	-0.7525858283042908	0.20826253294944763	-2.7919230461120605	1.4385044574737549	2.3238675594329834	-0.9769163727760315	1.1082103252410889	0.5456705689430237	1.4044013023376465	
topo	-0.15695281326770782	0.8031602501869202	-0.6419259905815125	-0.4792015254497528	-2.078232765197754	0.384507954120636	2.3031630516052246	1.4324634075164795	1.1360372304916382	0.9465524554252625	-1.1469682455062866	2.356046676635742	0.6848733425140381	-3.994833469390869	0.8806374073028564	-1.4021390676498413	-1.2969162464141846	0.7632590532302856	0.6087003946304321	-1.0025347471237183	1.92536461353302	-2.221374273300171	-1.5627193450927734	-1.0024545192718506	0.5794553756713867	0.7390835881233215	-0.6676084399223328	1.5904203653335571	1.3612979650497437	1.4600906372070312	-0.07112124562263489	-0.16105924546718597	0.6419969797134399	1.0388845205307007	-0.7285926938056946	-1.4843851327896118	-0.2753434181213379	-1.3495169878005981	0.09805844724178314	1.8437120914459229	2.017378091812134	-2.2578787803649902	2.3820998668670654	0.569740355014801	0.6198011636734009	0.6427440643310547	0.2928473949432373	1.302812933921814	0.10942278802394867	-1.7606544494628906	-0.9050173759460449	-0.47038131952285767	-0.221902996301651	2.1361305713653564	0.5055748820304871	0.7659784555435181	0.6314452290534973	-1.0765089988708496	-0.11445746570825577	-0.5840310454368591	-3.824323892593384	1.4833060503005981	1.134950876235962	1.5729912519454956	0.9837599396705627	0.49483412504196167	1.0338128805160522	1.6236320734024048	-1.4480440616607666	-0.20622503757476807	-0.11487908661365509	-2.456923007965088	1.111524224281311	-0.8913385272026062	-1.4762952327728271	0.042264703661203384	1.2634292840957642	-1.0853941440582275	-0.6245188117027283	-1.220962405204773	-0.5811983346939087	1.1413462162017822	1.2229703664779663	-0.6976271271705627	0.6439940929412842	-0.2660788893699646	-0.4296133518218994	-1.293298363685608	-0.2964330315589905	1.3006083965301514	0.23826812207698822	0.4300929605960846	0.10632359981536865	-2.2055585384368896	0.24287770688533783	0.09937863796949387	-1.105649709701538	-2.2097980976104736	-1.4750398397445679	0.3307555913925171	1.03547203540802	1.5771408081054688	-0.7299057841300964	0.26183101534843445	1.6657729148864746	0.9652338027954102	1.3842511177062988	-0.6563021540641785	0.16983798146247864	2.062013626098633	0.8198575377464294	-1.5386528968811035	0.5204489827156067	0.14230823516845703	-0.8350886702537537	-0.24666981399059296	0.9631341695785522	-2.8000876903533936	2.5012662410736084	-0.664737343788147	0.6079768538475037	0.16313840448856354	-0.9812428951263428	1.9264901876449585	-1.786585807800293	-0.9817590713500977	-3.062886953353882	-1.5814324617385864	2.759343385696411	0.4766386151313782	-0.7901162505149841	1.8507684469223022	-1.079422116279602	0.07456687092781067	-1.4517508745193481	-0.6468344926834106	-0.05545920878648758	-0.32818156480789185	1.4976261854171753	0.18584445118904114	1.955806851387024	-0.3575339615345001	-0.15557558834552765	1.3909255266189575	2.7576043605804443	0.8672136068344116	-1.467725396156311	-0.19542361795902252	-0.047289829701185226	0.8143900036811829	0.5985409617424011	0.08296030014753342	-0.6922846436500549	-3.02805757522583	-2.35384464263916	1.6432864665985107	-1.3950135707855225	-0.8002140522003174	-1.6806442737579346	0.8828656077384949	-1.571258783340454	-0.4583210051059723	0.9874003529548645	-1.2686350345611572	0.29436996579170227	-0.3248556852340698	0.26997581124305725	0.01761724427342415	-1.0260010957717896	1.7270736694335938	-0.7834498882293701	-1.0719541311264038	0.09562359005212784	0.467678040266037	0.31172701716423035	0.011285766959190369	-0.6151707172393799	-0.961901068687439	1.438656210899353	0.46643033623695374	-2.393144130706787	1.2157955169677734	1.6820788383483887	2.719348669052124	1.2955609560012817	-0.25417807698249817	0.8566190600395203	-0.8856229186058044	1.5450152158737183	0.20313045382499695	-1.3777403831481934	-0.533839762210846	2.4122211933135986	-2.059865951538086	-0.6354642510414124	1.4812264442443848	0.22617290914058685	0.1268623322248459	-1.13784658908844	-0.8124432563781738	0.9221689701080322	1.5429012775421143	-0.7555785775184631	-0.5259371995925903	0.2019919753074646	-0.6415295004844666	-0.23694850504398346	0.7181448936462402	1.3548225164413452	1.197477102279663	-0.4021449685096741	-0.8642197251319885	-1.3631960153579712	0.5756957530975342	-1.8290112018585205	-2.0424933433532715	0.11606310307979584	0.3486623764038086	-0.8682118654251099	2.2968928813934326	1.952681303024292	1.0462982654571533	-0.8675915598869324	-0.9088843464851379	0.6849302053451538	-3.5982911586761475	-0.5637173056602478	-0.07786790281534195	-1.3494998216629028	1.0941967964172363	0.926913857460022	-1.0743380784988403	-2.099702835083008	-0.31319794058799744	1.9588711261749268	0.4949338436126709	-0.1809968501329422	-1.3975250720977783	1.3828926086425781	0.29272177815437317	0.6135668158531189	1.5907999277114868	-0.8990064859390259	0.4442130923271179	1.3594902753829956	0.6278128623962402	0.9573824405670166	-2.4505393505096436	-0.673088014125824	-2.5653061866760254	0.8432145714759827	-3.453707218170166	0.8245146870613098	1.2103493213653564	-0.8622649312019348	0.2588941752910614	-0.04428015276789665	-0.7724640965461731	-3.3667848110198975	1.945369839668274	-1.9446766376495361	-0.23101559281349182	-1.0102601051330566	-0.8662432432174683	1.6673469543457031	-1.3021496534347534	3.0914392471313477	-0.6254602074623108	0.7378460168838501	-1.5954560041427612	-2.6008384227752686	1.7695133686065674	-0.3419525623321533	-2.0884644985198975	-2.529099225997925	-1.2020665407180786	0.24984793365001678	-1.7546347379684448	0.912416398525238	2.364542007446289	-0.9335668683052063	1.4460006952285767	1.2365765571594238	-2.7093822956085205	-0.33749714493751526	-0.48635974526405334	2.1509082317352295	0.8964475989341736	-1.026749610900879	-2.854567766189575	-0.07914216071367264	-0.7525858283042908	0.20826253294944763	-2.7919230461120605	1.4385044574737549	2.3238675594329834	-0.9769163727760315	1.1082103252410889	0.5456705689430237	1.4044013023376465	
poltrona	-0.15695281326770782	0.8031602501869202	-0.6419259905815125	-0.4792015254497528	-2.078232765197754	0.384507954120636	2.3031630516052246	1.4324634075164795	1.1360372304916382	0.9465524554252625	-1.1469682455062866	2.356046676635742	0.6848733425140381	-3.994833469390869	0.8806374073028564	-1.4021390676498413	-1.2969162464141846	0.7632590532302856	0.6087003946304321	-1.0025347471237183	1.92536461353302	-2.221374273300171	-1.5627193450927734	-1.0024545192718506	0.5794553756713867	0.7390835881233215	-0.6676084399223328	1.5904203653335571	1.3612979650497437	1.4600906372070312	-0.07112124562263489	-0.16105924546718597	0.6419969797134399	1.0388845205307007	-0.7285926938056946	-1.4843851327896118	-0.2753434181213379	-1.3495169878005981	0.09805844724178314	1.8437120914459229	2.017378091812134	-2.2578787803649902	2.3820998668670654	0.569740355014801	0.6198011636734009	0.6427440643310547	0.2928473949432373	1.302812933921814	0.10942278802394867	-1.7606544494628906	-0.9050173759460449	-0.47038131952285767	-0.221902996301651	2.1361305713653564	0.5055748820304871	0.7659784555435181	0.6314452290534973	-1.0765089988708496	-0.11445746570825577	-0.5840310454368591	-3.824323892593384	1.4833060503005981	1.134950876235962	1.5729912519454956	0.9837599396705627	0.49483412504196167	1.0338128805160522	1.6236320734024048	-1.4480440616607666	-0.20622503757476807	-0.11487908661365509	-2.456923007965088	1.111524224281311	-0.8913385272026062	-1.4762952327728271	0.042264703661203384	1.2634292840957642	-1.0853941440582275	-0.6245188117027283	-1.220962405204773	-0.5811983346939087	1.1413462162017822	1.2229703664779663	-0.6976271271705627	0.6439940929412842	-0.2660788893699646	-0.4296133518218994	-1.293298363685608	-0.2964330315589905	1.3006083965301514	0.23826812207698822	0.4300929605960846	0.10632359981536865	-2.2055585384368896	0.24287770688533783	0.09937863796949387	-1.105649709701538	-2.2097980976104736	-1.4750398397445679	0.3307555913925171	1.03547203540802	1.5771408081054688	-0.7299057841300964	0.26183101534843445	1.6657729148864746	0.9652338027954102	1.3842511177062988	-0.6563021540641785	0.16983798146247864	2.062013626098633	0.8198575377464294	-1.5386528968811035	0.5204489827156067	0.14230823516845703	-0.8350886702537537	-0.24666981399059296	0.9631341695785522	-2.8000876903533936	2.5012662410736084	-0.664737343788147	0.6079768538475037	0.16313840448856354	-0.9812428951263428	1.9264901876449585	-1.786585807800293	-0.9817590713500977	-3.062886953353882	-1.5814324617385864	2.759343385696411	0.4766386151313782	-0.7901162505149841	1.8507684469223022	-1.079422116279602	0.07456687092781067	-1.4517508745193481	-0.6468344926834106	-0.05545920878648758	-0.32818156480789185	1.4976261854171753	0.18584445118904114	1.955806851387024	-0.3575339615345001	-0.15557558834552765	1.3909255266189575	2.7576043605804443	0.8672136068344116	-1.467725396156311	-0.19542361795902252	-0.047289829701185226	0.8143900036811829	0.5985409617424011	0.08296030014753342	-0.6922846436500549	-3.02805757522583	-2.35384464263916	1.6432864665985107	-1.3950135707855225	-0.8002140522003174	-1.6806442737579346	0.8828656077384949	-1.571258783340454	-0.4583210051059723	0.9874003529548645	-1.2686350345611572	0.29436996579170227	-0.3248556852340698	0.26997581124305725	0.01761724427342415	-1.0260010957717896	1.7270736694335938	-0.7834498882293701	-1.0719541311264038	0.09562359005212784	0.467678040266037	0.31172701716423035	0.011285766959190369	-0.6151707172393799	-0.961901068687439	1.438656210899353	0.46643033623695374	-2.393144130706787	1.2157955169677734	1.6820788383483887	2.719348669052124	1.2955609560012817	-0.25417807698249817	0.8566190600395203	-0.8856229186058044	1.5450152158737183	0.20313045382499695	-1.3777403831481934	-0.533839762210846	2.4122211933135986	-2.059865951538086	-0.6354642510414124	1.4812264442443848	0.22617290914058685	0.1268623322248459	-1.13784658908844	-0.8124432563781738	0.9221689701080322	1.5429012775421143	-0.7555785775184631	-0.5259371995925903	0.2019919753074646	-0.6415295004844666	-0.23694850504398346	0.7181448936462402	1.3548225164413452	1.197477102279663	-0.4021449685096741	-0.8642197251319885	-1.3631960153579712	0.5756957530975342	-1.8290112018585205	-2.0424933433532715	0.11606310307979584	0.3486623764038086	-0.8682118654251099	2.2968928813934326	1.952681303024292	1.0462982654571533	-0.8675915598869324	-0.9088843464851379	0.6849302053451538	-3.5982911586761475	-0.5637173056602478	-0.07786790281534195	-1.3494998216629028	1.0941967964172363	0.926913857460022	-1.0743380784988403	-2.099702835083008	-0.31319794058799744	1.9588711261749268	0.4949338436126709	-0.1809968501329422	-1.3975250720977783	1.3828926086425781	0.29272177815437317	0.6135668158531189	1.5907999277114868	-0.8990064859390259	0.4442130923271179	1.3594902753829956	0.6278128623962402	0.9573824405670166	-2.4505393505096436	-0.673088014125824	-2.5653061866760254	0.8432145714759827	-3.453707218170166	0.8245146870613098	1.2103493213653564	-0.8622649312019348	0.2588941752910614	-0.04428015276789665	-0.7724640965461731	-3.3667848110198975	1.945369839668274	-1.9446766376495361	-0.23101559281349182	-1.0102601051330566	-0.8662432432174683	1.6673469543457031	-1.3021496534347534	3.0914392471313477	-0.6254602074623108	0.7378460168838501	-1.5954560041427612	-2.6008384227752686	1.7695133686065674	-0.3419525623321533	-2.0884644985198975	-2.529099225997925	-1.2020665407180786	0.24984793365001678	-1.7546347379684448	0.912416398525238	2.364542007446289	-0.9335668683052063	1.4460006952285767	1.2365765571594238	-2.7093822956085205	-0.33749714493751526	-0.48635974526405334	2.1509082317352295	0.8964475989341736	-1.026749610900879	-2.854567766189575	-0.07914216071367264	-0.7525858283042908	0.20826253294944763	-2.7919230461120605	1.4385044574737549	2.3238675594329834	-0.9769163727760315	1.1082103252410889	0.5456705689430237	1.4044013023376465	
