word	vector
orso	0.07993261516094208	-0.06836634874343872	0.04780009388923645	-0.0496874675154686	0.017662789672613144	-0.16088160872459412	0.13569071888923645	-0.03919856622815132	-0.06155326962471008	-0.046858832240104675	-0.08512192964553833	0.011588310822844505	0.05700606107711792	0.09157594293355942	0.026078201830387115	0.06928084790706635	0.02245704084634781	0.08133013546466827	0.05147680267691612	0.12404274195432663	-0.02449139580130577	0.04452240467071533	-0.046579696238040924	-0.03450793772935867	0.08834987878799438	-0.09306460618972778	0.03913496434688568	-0.06114041805267334	0.03159245103597641	0.09354338049888611	-0.04513475298881531	-0.13854478299617767	0.13426333665847778	-0.052720196545124054	-0.02739984169602394	0.044336289167404175	-0.004118059761822224	-0.04005865380167961	-0.012654672376811504	-0.12106193602085114	-0.05473692715167999	0.018778307363390923	0.06712121516466141	0.17858581244945526	-0.087447389960289	0.13662710785865784	0.05206305906176567	-0.06961426138877869	-0.049508579075336456	-0.11102969944477081	-0.12712064385414124	0.10262220352888107	-0.004944030195474625	0.011662222445011139	0.034938715398311615	0.11372591555118561	0.05882638320326805	-0.10042726248502731	-0.25198233127593994	0.0016585271805524826	-0.1163472980260849	-0.016765838488936424	-0.13003697991371155	-0.011149603873491287	0.13097906112670898	-0.008771481923758984	-0.12339784950017929	0.13240306079387665	0.008308261632919312	0.016056474298238754	0.07866128534078598	0.10407553613185883	-0.05332173407077789	0.03329452499747276	-0.0076058004051446915	-0.023572880774736404	0.10060056298971176	-0.011229845695197582	0.037232935428619385	0.05069996044039726	0.27445992827415466	0.004993162117898464	-0.011038761585950851	-0.003911973442882299	-0.019774481654167175	-0.022814691066741943	0.0028553763404488564	0.07251615822315216	0.013943837955594063	0.1175585389137268	-0.06816636770963669	-0.004867830313742161	0.029782665893435478	0.024698205292224884	-0.20695608854293823	0.057091645896434784	0.020520104095339775	-0.043021224439144135	0.0003225927648600191	0.03563382104039192	-0.06167756766080856	-0.06506360322237015	-0.04407452791929245	0.06421973556280136	-0.24358753859996796	-0.0424296110868454	-0.023181285709142685	-0.07964350283145905	-0.07261968404054642	0.013637371361255646	-0.05942544341087341	-0.008507035672664642	0.1039571762084961	-0.2239932268857956	0.03097434900701046	-0.01878543011844158	0.011343392543494701	-0.011501923203468323	-0.05487505719065666	-0.1269964873790741	-0.047559067606925964	-0.005684717558324337	-0.030153270810842514	-0.1353645920753479	-0.08888935297727585	-0.0038695763796567917	0.16648845374584198	0.11734427511692047	0.0762496292591095	0.042940735816955566	-0.0017326055094599724	0.06800530105829239	0.08129152655601501	-0.03834383934736252	-0.2003384679555893	0.060985930263996124	0.031525589525699615	0.06549439579248428	-0.0008117910474538803	-0.004897083155810833	-0.06129680573940277	-0.00035512883914634585	0.05249108001589775	-0.04566235840320587	-0.018982980400323868	-0.01064773928374052	-0.048451848328113556	-0.02397013269364834	-0.027005620300769806	0.15447264909744263	0.04287010431289673	-0.06848706305027008	0.029450364410877228	-0.014872829429805279	0.17466694116592407	-0.19011996686458588	0.014748722314834595	0.09487825632095337	-0.02118450030684471	-0.02474558912217617	-0.06785929203033447	0.09610120952129364	-0.014682161621749401	0.03533823415637016	-0.06401161849498749	-0.11197047680616379	-0.0366545245051384	0.05826502665877342	0.03310021758079529	0.05514831468462944	0.05033726617693901	0.06586749851703644	0.10000377893447876	0.024530930444598198	0.09776028990745544	-0.04273390769958496	0.1418541967868805	0.10582725703716278	-0.024722296744585037	-0.010919198393821716	-0.11688587069511414	-0.07195376604795456	-0.07541917264461517	0.09636230766773224	0.040351588279008865	0.015042713843286037	-0.14316779375076294	0.0784645602107048	0.08144506812095642	-0.027614466845989227	0.07916861772537231	0.043457530438899994	-0.12589594721794128	0.04242846369743347	0.2221764177083969	0.09818028658628464	-0.1006736010313034	0.18318060040473938	-0.0076458752155303955	-0.10756039619445801	-0.11660368740558624	-0.07735827565193176	0.04510577768087387	-0.05372361093759537	-0.03334677591919899	-0.006407079752534628	0.128535196185112	0.07546080648899078	0.12445536255836487	-0.08849414438009262	0.0013186782598495483	-0.09506749361753464	0.05485288426280022	-0.06718437373638153	0.011934331618249416	-0.010569095611572266	-0.07682820409536362	-0.037553876638412476	-0.041082002222537994	-0.17652052640914917	-0.16043777763843536	-0.05789937824010849	-0.1839917004108429	-0.0918927937746048	-0.012011113576591015	-0.145205557346344	-0.10168193280696869	0.1049644947052002	-0.10423164069652557	-0.05167027935385704	0.2446696162223816	-0.07923729717731476	-0.06424137204885483	-0.11093723773956299	-0.24293199181556702	-0.11392148584127426	-0.013559002429246902	-0.03726792708039284	0.18454834818840027	-0.16744646430015564	0.037258416414260864	-0.17141209542751312	0.02236333303153515	-0.11452195048332214	-0.12069198489189148	0.11431637406349182	-0.10536335408687592	0.10069605708122253	-0.0071837641298770905	-0.2885299324989319	-0.04533257707953453	-0.0877789855003357	-0.0189919825643301	0.043862052261829376	0.16882526874542236	-0.06477926671504974	-0.0242046769708395	0.04338660091161728	0.13742950558662415	0.025736501440405846	0.08215680718421936	0.0687578096985817	-0.08884662389755249	0.08919399976730347	-0.1343863159418106	0.048614293336868286	0.15122078359127045	-0.0608641617000103	0.04259352385997772	0.1445535123348236	-0.08143145591020584	0.06275543570518494	0.07904878258705139	0.03998611122369766	-0.011031701229512691	-0.056604839861392975	-0.03570021688938141	0.035094767808914185	-0.17298883199691772	-0.03137427568435669	-0.06591002643108368	-0.041674431413412094	-0.012674993835389614	-0.014873331412672997	-0.19625556468963623	-0.1347302794456482	-0.05547300726175308	0.08795472234487534	0.03208418935537338	-0.053628962486982346	0.11205350607633591	-0.08065858483314514	-0.11091259121894836	-0.12240907549858093	0.07213568687438965	0.04930198937654495	-0.01730240136384964	-0.01503351517021656	-0.08714734017848969	-0.055702149868011475	
cane	-0.0625763088464737	-0.08184409141540527	0.01500097569078207	-0.05949664115905762	0.017606038600206375	-0.030462171882390976	-0.04542146623134613	0.10231383144855499	-0.06893607974052429	-0.1432582587003708	-0.023864272981882095	-0.09646761417388916	-0.021998774260282516	0.011925479397177696	0.029067639261484146	0.03435602784156799	0.08147375285625458	0.08601698279380798	0.05869559943675995	0.062162768095731735	-0.04427206516265869	0.025967156514525414	-0.1383841633796692	0.0002548992051742971	0.022948473691940308	0.08062686026096344	-0.04265215992927551	-0.12142573297023773	-0.026357442140579224	-0.012244870886206627	0.016387341544032097	-0.252493679523468	0.14987975358963013	-0.038141876459121704	-0.12782332301139832	-0.07132081687450409	-0.0005351752042770386	-0.018650226294994354	0.014620783738791943	-0.030664827674627304	0.04182876646518707	-0.04148146137595177	0.10814397037029266	0.06425811350345612	-0.020281393080949783	0.16626335680484772	0.01563992351293564	-0.03223160654306412	-0.04176852107048035	-0.12497984617948532	-0.05091378837823868	0.00635754968971014	0.15118464827537537	0.031507983803749084	-0.04235563799738884	0.17094606161117554	0.05056534335017204	0.009363742545247078	-0.16808685660362244	-0.08235780894756317	-0.27918702363967896	-0.06564953178167343	-0.18736249208450317	0.01886506751179695	-0.01400011032819748	-0.06336018443107605	-0.04979512095451355	0.08775719255208969	-0.18655654788017273	-0.10581593960523605	-0.001568162813782692	0.10981669276952744	0.007623483892530203	-0.011949894949793816	0.009488104842603207	0.04905296862125397	0.101804718375206	-0.022963305935263634	0.07456617057323456	0.16445684432983398	0.17389246821403503	-0.008181881159543991	-0.09445036947727203	0.02597114071249962	-0.043371543288230896	-0.04266836494207382	-0.030107464641332626	-0.056056730449199677	0.1340540498495102	0.16514350473880768	-0.09793628752231598	-0.11648035049438477	0.010434682480990887	-0.08042494207620621	-0.15874677896499634	-0.021941252052783966	0.03617555648088455	0.07376667112112045	0.01626373827457428	0.025739116594195366	-0.07127319276332855	-0.1523115187883377	0.1033826693892479	0.029764842242002487	-0.17954540252685547	-0.07284950464963913	-0.024563059210777283	-0.12690436840057373	-0.10365073382854462	-0.022128503769636154	-0.015633434057235718	-0.08470126241445541	0.06473907828330994	-0.03982004523277283	-0.003257349133491516	0.03641120716929436	0.11195727437734604	0.06448615342378616	-0.042761288583278656	-0.07397554814815521	0.03155289217829704	-0.13655667006969452	-0.004057701677083969	-0.17509470880031586	-0.044413771480321884	-0.012050045654177666	0.01224478892982006	0.07757154107093811	0.026212025433778763	0.08236689865589142	-0.004595146980136633	0.06397916376590729	-0.0002601755259092897	-0.006248138379305601	-0.18294373154640198	0.07779686152935028	0.1461099237203598	0.0689844861626625	0.0077160997316241264	0.040485747158527374	-0.07127569615840912	-0.1362195611000061	0.12593452632427216	0.02820926532149315	-0.04163162037730217	-0.0394895076751709	0.018068786710500717	-0.0016536017647013068	0.01921447366476059	0.14615681767463684	-0.04790940135717392	-0.03006603568792343	-0.015705827623605728	0.026572225615382195	0.2038753479719162	-0.04930144175887108	0.022967807948589325	0.01972046121954918	-0.03914932534098625	-0.03980633616447449	-0.05142553895711899	0.06278125941753387	-0.08379179239273071	0.047547370195388794	-0.00845298171043396	-0.07087517529726028	0.02244805358350277	0.0424218587577343	0.0006663923850283027	0.0304013229906559	-0.0010759532451629639	0.04792073369026184	0.10792174190282822	0.043042540550231934	-0.019808996468782425	0.04401552677154541	0.11901362240314484	0.09714078158140182	0.08892133831977844	0.07968681305646896	-0.01834479719400406	-0.05451704189181328	-0.155705064535141	-0.11306234449148178	0.05142552778124809	0.04828789457678795	-0.06587590277194977	-0.042550235986709595	0.029542101547122	-0.07570549100637436	0.14638033509254456	-0.13377970457077026	-0.0391240231692791	0.045283928513526917	0.09270113706588745	0.10256072133779526	-0.0033746263943612576	0.18907830119132996	-0.0032862424850463867	0.05924835056066513	-0.13115598261356354	0.0003171668795403093	-0.016922682523727417	-0.10488797724246979	-0.04915779456496239	0.06354912370443344	0.18765366077423096	0.04021085426211357	-0.0652930736541748	-0.10215460509061813	0.014220310375094414	-0.08218894898891449	0.21813100576400757	-0.17434662580490112	0.050103768706321716	0.03401388227939606	-0.03595121204853058	-0.10118600726127625	-0.010007359087467194	0.05934770405292511	-0.1303243339061737	0.05415458232164383	-0.10170750319957733	-0.021772636100649834	-0.015391773544251919	-0.04648589342832565	-0.03194081038236618	0.09685707092285156	-0.1834430992603302	-0.10221036523580551	0.08087445050477982	-0.1169157326221466	0.019961176440119743	0.09127414226531982	-0.12470945715904236	-0.019892824813723564	0.1452842801809311	0.04518268629908562	0.17851746082305908	-0.059281304478645325	0.012550389394164085	0.00019261613488197327	0.01668214425444603	-0.04640018939971924	0.022111859172582626	0.045226749032735825	-0.0886169821023941	0.05684853717684746	0.002829998731613159	-0.025623124092817307	-0.012858783826231956	-0.12137992680072784	0.0655202567577362	-0.025349808856844902	0.06754999607801437	0.04213026911020279	0.01646321266889572	-0.0798707976937294	0.02476952224969864	0.027339961379766464	0.08922272175550461	-0.02435828559100628	-0.0700216293334961	0.0243954136967659	-0.019325727596879005	-0.03490573540329933	0.1296616494655609	-0.02191978320479393	-0.06515876203775406	0.03176064044237137	-0.09455185383558273	-0.2995845675468445	0.057144589722156525	-0.016611885279417038	0.03284236788749695	0.008276820182800293	-0.015370155684649944	0.03746076673269272	-0.12660259008407593	0.037545446306467056	-0.13276177644729614	0.05175354331731796	-0.2028348445892334	0.06397806107997894	0.009884428232908249	-0.08097082376480103	-0.03663533926010132	-0.0537058487534523	-0.012940816581249237	-0.09641330689191818	0.01842588372528553	-0.04842771217226982	-0.059403203427791595	-0.1383851319551468	-0.0036422661505639553	0.004670628346502781	0.05041266232728958	-0.01686892658472061	0.004154329188168049	-0.10043825954198837	
cavallo	-0.012947599403560162	-0.006230288650840521	-0.0035933032631874084	-0.0392785482108593	-0.039483122527599335	-0.01623179018497467	0.027843382209539413	0.06066364049911499	-0.02600211463868618	-0.020298603922128677	-0.023847555741667747	0.02013542130589485	-0.024482635781168938	0.012168476358056068	0.0452696792781353	-0.002904358087107539	-0.01646919921040535	0.06908725202083588	0.05575912445783615	-0.05829011648893356	-0.07993645966053009	-0.03166913613677025	-0.07452090829610825	-0.034928254783153534	0.05608626827597618	0.01608583703637123	0.021951867267489433	0.04658633470535278	0.011931906454265118	-0.012149449437856674	-0.012526055797934532	-0.11879733204841614	0.03389236330986023	-0.06885375827550888	0.05333774909377098	-0.02073264680802822	0.0035667193587869406	-0.044567354023456573	0.01925719901919365	0.03732651099562645	0.0300322063267231	-0.0406649112701416	-0.037511344999074936	0.04655337333679199	-0.05358109995722771	0.06735727936029434	0.012142229825258255	-0.026725566014647484	0.011981396935880184	0.0022216211073100567	-0.022258928045630455	-0.043108537793159485	0.0029546315781772137	0.040311604738235474	-0.015436679124832153	0.049403950572013855	0.01289829146116972	-0.04503602907061577	-0.016397476196289062	-0.028166744858026505	-0.06350657343864441	-0.030793242156505585	-0.05894845351576805	-0.01688358560204506	-0.02035055309534073	-0.024469047784805298	-0.056634120643138885	-0.033309899270534515	-0.06283564120531082	-0.07704438269138336	-0.06985696405172348	0.08767203986644745	0.03294561058282852	-0.016212590038776398	0.004781799390912056	-0.008323078975081444	0.012648656032979488	-0.030554570257663727	0.002366607077419758	-0.010908836498856544	-0.03795185685157776	0.034195639193058014	-0.0285426564514637	-0.002030913718044758	-0.02637968584895134	0.051648400723934174	-0.035261090844869614	0.02799626812338829	0.008252754807472229	0.0024792305193841457	-0.009535755962133408	0.0018584191566333175	0.018930722028017044	0.01277872733771801	-0.06978434324264526	0.009559656493365765	0.003449910320341587	-0.005865136161446571	-0.10380542278289795	0.06429093331098557	-0.06487066298723221	-0.0083156144246459	-0.0339505672454834	0.02846210077404976	-0.09451888501644135	-0.05582985281944275	-0.044520001858472824	-0.0867655798792839	-0.008519208058714867	0.03108220361173153	-0.02500665746629238	-0.0017285048961639404	0.014992634765803814	-0.014055760577321053	-0.026013879105448723	-0.02223232202231884	-0.0007427837699651718	-0.04029767960309982	-0.005370091646909714	-0.061268310993909836	-0.03678271919488907	-0.06340734660625458	-0.07443762570619583	-0.024561826139688492	-0.057463910430669785	0.0642060935497284	0.0155562162399292	0.06855957210063934	-0.03564601391553879	0.06062769889831543	-0.03121696412563324	0.0602816566824913	0.021407853811979294	-0.044207245111465454	-0.061776287853717804	0.022457806393504143	0.058815523982048035	0.020078856498003006	0.011810526251792908	-0.009541766718029976	0.00454078009352088	-0.016765013337135315	0.07499310374259949	0.022465359419584274	-0.03361184522509575	0.02580016478896141	0.003696256782859564	-0.07767624408006668	-0.00040780630661174655	0.08310551941394806	-0.013934213668107986	0.02525971457362175	0.018649596720933914	0.0664517730474472	0.07970383018255234	-0.019232232123613358	0.0203046053647995	-0.046250294893980026	-0.047569289803504944	0.030938096344470978	-0.023164868354797363	0.03802739083766937	-0.0543399415910244	-0.012667868286371231	0.016784366220235825	-0.062061160802841187	-0.0028477604500949383	0.02912469021975994	-0.05519268661737442	-0.005953780375421047	-0.0056418245658278465	0.019545000046491623	0.025746267288923264	0.011281507089734077	-0.04329748451709747	0.009714843705296516	0.04088609293103218	0.014941147528588772	-0.030589651316404343	0.000588769733440131	-0.008076654747128487	-0.04299508035182953	0.028501829132437706	0.011631269007921219	-0.024642009288072586	0.05466616898775101	0.010962327942252159	-0.051509976387023926	0.020072538405656815	-0.04795456677675247	-0.012159212492406368	-0.004450984299182892	-0.038131631910800934	0.030744295567274094	0.07108770310878754	0.10765424370765686	-0.03480151295661926	0.06291119754314423	-0.004396010190248489	0.02402625046670437	-0.0694689005613327	0.011349327862262726	0.020449332892894745	-0.07332085072994232	9.48736778809689e-05	-0.031646471470594406	0.051969777792692184	-0.02869996801018715	-0.02699493244290352	-0.052170854061841965	-0.01910880208015442	-0.010542399249970913	0.059506334364414215	-0.023520639166235924	0.022352224215865135	0.10137417167425156	0.05213849991559982	0.010449383407831192	0.012901922687888145	0.007668382488191128	-0.06007171794772148	0.031303711235523224	-0.017227381467819214	0.00011304735380690545	0.028642557561397552	-0.11162852495908737	-0.07628021389245987	0.02201521396636963	-0.00833185389637947	-0.024015896022319794	0.029334034770727158	-0.04382428154349327	-0.006929268594831228	-0.0027418280951678753	-0.09991104900836945	-0.027895644307136536	0.017611391842365265	0.04151114076375961	0.09908940643072128	0.03146123141050339	0.052539076656103134	-0.002503810217604041	-0.018926111981272697	-0.020097123458981514	-0.07291543483734131	-0.0006658422644250095	-0.022973207756876945	0.04541553184390068	-0.057937052100896835	0.002894381759688258	-0.005832876544445753	0.0005155187100172043	-0.005639737006276846	-0.014037269167602062	0.05860314518213272	-0.0027103181928396225	0.001250940142199397	-0.02417844533920288	0.06606967747211456	-0.029008662328124046	-0.012869970872998238	0.02683354914188385	-0.05921977758407593	0.008876528590917587	-0.01757863350212574	-0.024788782000541687	0.043692465871572495	0.024157468229532242	-0.07379098236560822	0.010565510019659996	-0.04025031253695488	-0.0035688630305230618	-0.06125491484999657	0.06453006714582443	-0.005187283270061016	0.08867915719747543	-0.013721918687224388	-0.008693652227520943	-0.06156839057803154	0.025898393243551254	-0.06191752478480339	-0.006161689758300781	-0.06332617998123169	-0.025947142392396927	0.00021995636052452028	-0.014519598335027695	0.0074750762432813644	-0.022910643368959427	-0.06282465159893036	-0.014089862816035748	-0.009548122994601727	-0.023461103439331055	0.012501921504735947	-0.007878737524151802	-0.023011785000562668	0.038793109357357025	0.03167831525206566	0.002153031062334776	0.009816496632993221	-0.0864931270480156	
scimmia	-0.027755729854106903	-0.018286840990185738	-0.009381687268614769	-0.048564426600933075	-0.008528639562427998	0.016842922195792198	-0.005111131817102432	-0.02917318604886532	-0.02228788286447525	-0.061830610036849976	-0.030829904600977898	0.007560820784419775	-0.001418938278220594	-0.00021455313253682107	0.045779772102832794	0.05136017128825188	0.04561920091509819	-0.011312730610370636	0.04241883009672165	0.023734545335173607	-0.002763543976470828	0.030726507306098938	0.04367808252573013	-0.027245303615927696	0.04304402321577072	-0.07179513573646545	-0.0010865492513403296	0.08857696503400803	0.0017514179926365614	0.03253434970974922	-0.01246669888496399	-0.01990794762969017	0.016092445701360703	-0.026947300881147385	-0.003721347078680992	0.048640262335538864	0.06487476080656052	-0.028272701427340508	-0.016495101153850555	0.009449071250855923	-0.0006175078451633453	-0.032076817005872726	-0.02621736191213131	0.0926971286535263	-0.023502608761191368	-0.035508543252944946	-0.003998256288468838	-0.03489403799176216	-0.007599758915603161	-0.00936153344810009	-0.02126980945467949	-0.03211972117424011	0.0667862594127655	0.007702247705310583	0.06906922161579132	0.032640181481838226	0.0246658306568861	-0.03391969949007034	-0.01035917829722166	-0.014796944335103035	-0.09291473031044006	-0.0871921107172966	-0.015093779191374779	0.06131377071142197	-0.055692873895168304	0.021528154611587524	-0.06000317260622978	-0.04779656231403351	-0.03252558037638664	-0.06840621680021286	0.07684960961341858	-0.06969944387674332	0.024476109072566032	0.03342532739043236	-0.01371578499674797	0.04353507608175278	-0.016503166407346725	-0.029032303020358086	0.021803049370646477	0.015613663010299206	0.03659828007221222	0.03760134056210518	-0.04324391111731529	0.03136876970529556	-0.015600553713738918	-0.009790642186999321	0.04744742810726166	0.002135255839675665	-0.007596434559673071	0.05094897001981735	-0.018007326871156693	0.0019363109022378922	-0.01870495080947876	0.09194384515285492	-0.11541029810905457	-0.02615233138203621	-0.03920391947031021	0.07094088941812515	-0.03153257817029953	0.07636477053165436	-0.061908088624477386	-0.05778208002448082	0.008294457569718361	0.01235443539917469	-0.07658170163631439	-0.07348877936601639	0.015445878729224205	-0.06693825125694275	-0.05901351198554039	0.008320245891809464	-0.02157839760184288	0.009371893480420113	0.021923914551734924	-0.03274712711572647	-0.048257000744342804	-0.011029488407075405	0.039166104048490524	0.041710615158081055	-0.008158264681696892	-0.023434599861502647	0.007129694800823927	0.02264438197016716	-0.03227001428604126	-0.04330029338598251	0.022991320118308067	-0.024589192122220993	-0.049245357513427734	0.05965574085712433	0.043878063559532166	0.015275731682777405	-0.06740947812795639	0.07078377902507782	0.03428599238395691	0.03077472746372223	0.003915663808584213	-0.047784119844436646	-0.025301603600382805	-0.02230817638337612	0.038503747433423996	-0.00889611802995205	0.03828351944684982	-0.055219247937202454	-0.0065325163304805756	-0.015403780154883862	-0.020992200821638107	0.004579816944897175	0.0414881557226181	0.00882508885115385	0.03466302156448364	0.05272287130355835	0.025858115404844284	-0.0934080183506012	-0.0315169095993042	0.009856853634119034	0.04415876418352127	-0.02731778472661972	-0.007464637514203787	-0.042446594685316086	0.06211879104375839	0.013379915617406368	-0.05583235248923302	0.0904194712638855	0.04636090248823166	-0.0007327049970626831	-0.02561154030263424	-0.05796235054731369	-0.00706778559833765	-0.0036712768487632275	0.002267777454108	0.00284352689050138	-0.0031819306313991547	0.048662569373846054	0.03930035978555679	0.06312976777553558	-0.024609342217445374	0.015128622762858868	0.06588856130838394	0.01967497542500496	-0.03534085303544998	-0.0670761689543724	-0.030875425785779953	-0.09062284231185913	-0.05779257416725159	0.03748733922839165	-0.03178355470299721	-0.051978543400764465	-0.0608508437871933	-0.003692289814352989	0.0509503111243248	-0.00600760243833065	0.07301139086484909	0.08967488259077072	-0.021880215033888817	0.11003850400447845	0.02635214291512966	-0.053343795239925385	0.014055001549422741	0.08902987837791443	-0.03517325595021248	-0.04690175876021385	-0.068732850253582	0.06843352317810059	-0.06810282170772552	-0.031007491052150726	-0.05169902369379997	0.05130741000175476	0.07730430364608765	-0.015301600098609924	-0.04718310758471489	-0.05477617308497429	-0.04279370605945587	-0.006761831697076559	-0.0219231229275465	-0.032612137496471405	0.032244689762592316	0.047004587948322296	0.01998871937394142	0.010026353411376476	0.035687971860170364	-0.03649308532476425	-0.035992689430713654	-0.022629035636782646	-0.0632593110203743	-0.013747173361480236	0.029210474342107773	-0.01233866810798645	-0.05821351706981659	0.02300618402659893	-0.013201644644141197	-0.02628418058156967	-0.0032880506478250027	-0.05077788978815079	-0.045215360820293427	0.06055646389722824	-0.09090197086334229	0.024025291204452515	0.017910940572619438	0.031758613884449005	0.07885445654392242	0.015756992623209953	-0.01445285975933075	0.014983232133090496	0.042523518204689026	-0.021757006645202637	-0.03689960762858391	0.08267489075660706	-0.07062581181526184	0.08532532304525375	0.039746418595314026	-0.05431220680475235	-0.026528721675276756	-0.05867801234126091	-0.0274580717086792	0.003735060803592205	0.07647685706615448	0.00918169692158699	-0.04427577555179596	0.026293233036994934	-0.0060108802281320095	0.01669573038816452	0.07857587933540344	-0.08390818536281586	-0.023931121453642845	0.035921502858400345	0.007797256112098694	-0.10109090805053711	-0.030323773622512817	-0.030681615695357323	-0.03995881229639053	0.07768316566944122	0.012408491224050522	-0.05051146075129509	0.07211488485336304	0.04815644770860672	0.007812581025063992	-0.07104494422674179	-0.023924250155687332	-0.04023536294698715	-0.04220021888613701	0.05273965746164322	-0.0016246357699856162	0.051767610013484955	-0.06386236101388931	-0.01586930640041828	-0.008579805493354797	-0.05151638388633728	0.001995384693145752	0.0511954128742218	0.058868877589702606	-0.01182706467807293	0.023763317614793777	-0.0009150592377409339	-0.025778569281101227	-0.04644344374537468	0.049505047500133514	-0.009321696124970913	-0.09635922312736511	-0.05858990550041199	-0.022243667393922806	-0.05335424095392227	
gufo	-0.016243111342191696	-0.14431893825531006	0.0019544344395399094	-0.11961783468723297	-0.16454890370368958	-0.09946491569280624	0.0080339927226305	0.06043368577957153	-0.05105658993124962	-0.08707915246486664	-0.07373443245887756	0.001566656632348895	-0.06368087977170944	0.041834697127342224	0.06782971322536469	0.09418561309576035	-0.1135464757680893	0.032409679144620895	0.01451102178543806	-0.03358197212219238	0.01998877339065075	0.02706838957965374	-0.1529824137687683	0.060807179659605026	0.045978665351867676	0.0332978256046772	0.03873524069786072	0.14264872670173645	-0.025624658912420273	0.12246900051832199	-0.03211034834384918	-0.21765469014644623	-0.0432400107383728	0.12143519520759583	-0.06356608122587204	0.03964602202177048	0.12295420467853546	-0.038132306188344955	0.17760203778743744	0.0013851660769432783	0.02365727536380291	-0.07151423394680023	-0.03452102839946747	0.10134093463420868	-0.09972994029521942	0.11145471036434174	0.14487187564373016	-0.08294086903333664	-0.0010843441123142838	-0.019862722605466843	-0.07022498548030853	0.004653915762901306	-0.008374044671654701	0.09122579544782639	0.08422833681106567	0.14049452543258667	0.10223536193370819	-0.04143314063549042	-0.048766713589429855	0.004649105481803417	-0.22421178221702576	0.04594126343727112	-0.14459489285945892	0.03802897781133652	-0.07186409831047058	0.06295285373926163	-0.053339507430791855	0.03310000151395798	-0.009771334007382393	0.1277153193950653	0.2244873046875	0.0224643275141716	-0.20667076110839844	0.053438469767570496	0.12504762411117554	-0.03779792785644531	0.09329509735107422	-0.008533075451850891	-0.08453081548213959	-0.06867574155330658	0.07968966662883759	-0.051545582711696625	-0.18180418014526367	0.022520167753100395	-0.003865797072649002	-0.035444848239421844	0.01478188019245863	-0.01992340013384819	-0.0914606899023056	0.12827831506729126	0.033065278083086014	-0.05468320474028587	-0.001713437377475202	0.059856485575437546	-0.19388268887996674	0.038546811789274216	-0.09382081031799316	-0.12264645099639893	0.0248492993414402	0.13006144762039185	-0.12232854962348938	-0.08712850511074066	0.1398230493068695	0.054347436875104904	-0.07615313678979874	-0.11437100172042847	-0.04627985507249832	-0.015946337953209877	-0.20904599130153656	-0.03208361938595772	-0.10104812681674957	0.06668753921985626	0.0754263699054718	-0.11306199431419373	-0.007887309417128563	0.0032362330239266157	0.027829203754663467	0.03342336416244507	-0.10241636633872986	-0.02708624303340912	0.018383292481303215	0.08114680647850037	0.08875935524702072	0.13108962774276733	-0.04938409850001335	-0.05332950875163078	0.042048126459121704	0.05035695061087608	0.13804885745048523	0.03081713616847992	-0.05778378248214722	-0.014419252052903175	-0.08989333361387253	0.05308873951435089	-0.27856358885765076	-0.09403795003890991	0.01766498200595379	-0.1333463490009308	-0.09078691899776459	-0.09777107834815979	-0.07240581512451172	1.885245364974253e-05	0.23619616031646729	-0.049008503556251526	-0.06399863958358765	-0.05329285189509392	-0.04403558000922203	0.04577291011810303	-0.03781009465456009	0.10695844888687134	0.007707545068114996	-0.04527873918414116	0.0882667601108551	0.0574382022023201	0.21559225022792816	-0.1775704324245453	-0.04624250531196594	0.029514802619814873	-0.017347803339362144	-0.11012735217809677	-0.1682550013065338	0.02183108776807785	0.09198394417762756	-0.0935700386762619	-0.04478611797094345	-0.14352400600910187	0.04057483375072479	0.006802128627896309	-0.1423901915550232	-0.010637318715453148	0.018051549792289734	0.24776050448417664	0.0286219771951437	0.20377594232559204	0.0934603214263916	0.03930211812257767	0.23657464981079102	0.07795010507106781	-0.18862782418727875	0.05998864397406578	0.27968183159828186	-0.23588649928569794	-0.13067346811294556	-0.11977578699588776	-0.1174452155828476	-0.021928532049059868	-0.0558612160384655	0.11191049218177795	0.10740695893764496	-0.0613887719810009	-0.09057639539241791	0.10849784314632416	-0.11144896596670151	0.057579319924116135	-0.04836515709757805	-0.10869954526424408	-0.032575823366642	-0.04448935389518738	-0.0963771790266037	-0.11175839602947235	-0.1314225047826767	-0.145241379737854	0.15464866161346436	-0.0011879010125994682	0.05726739764213562	0.023756831884384155	0.190700501203537	0.04752887412905693	-0.07163996249437332	-0.140924334526062	0.1880837380886078	-0.014659954234957695	0.04008541256189346	0.015116932801902294	0.12455630302429199	0.048161447048187256	-0.06082068011164665	-0.0813974067568779	0.025371816009283066	-0.012564172968268394	-0.0433039627969265	0.0633237361907959	-0.04635586962103844	0.008313478901982307	0.08951377868652344	0.14247186481952667	0.030086448416113853	0.03302735835313797	-0.07235516607761383	-0.010238910093903542	0.10172321647405624	-0.06262589991092682	-0.14319123327732086	0.03417595475912094	-0.17460760474205017	0.011417532339692116	0.03877651318907738	0.08617709577083588	0.2552671432495117	-0.17000988125801086	0.003882808145135641	-0.06130213290452957	0.09193184226751328	-0.024974346160888672	-0.03671204671263695	0.03236522898077965	-0.03949553519487381	0.08077492564916611	0.1892555207014084	-0.011089013889431953	-0.03117217868566513	0.11915388703346252	0.03187461197376251	-0.053613074123859406	-0.01183027308434248	0.0711037740111351	-0.01583579182624817	0.12475168704986572	0.01301583182066679	-0.06606675684452057	0.04161425679922104	-0.013198109343647957	-0.04912615567445755	0.052813880145549774	-0.1740933507680893	-0.06192968040704727	0.07878318428993225	-0.03913550823926926	-0.1308578997850418	0.0828871876001358	-0.1595139354467392	-0.07437602430582047	0.08892489969730377	0.008692257106304169	-0.020860929042100906	-0.06205533444881439	-0.059965357184410095	0.0048054903745651245	-0.11835287511348724	-0.0632927417755127	-0.10932370275259018	-0.060381948947906494	-0.06855928897857666	0.021758204326033592	0.03354480117559433	-0.04073457047343254	-0.06088739633560181	0.14277654886245728	-0.035903844982385635	-0.2502201199531555	0.075054831802845	0.06947118043899536	0.15590998530387878	-0.10092270374298096	0.0076711042784154415	-0.149748295545578	0.0031622271053493023	-0.018089955672621727	0.048534803092479706	-0.15436744689941406	
coniglio	-0.003440461354330182	-0.022408967837691307	0.0012319721281528473	-0.07644913345575333	-0.0451153963804245	0.0045675127767026424	0.028526777401566505	0.025205500423908234	-0.01764553226530552	-0.030657190829515457	-0.04283899813890457	-0.0034069910179823637	0.0020364588126540184	0.025338856503367424	0.044313207268714905	-0.007520236074924469	-0.04934726282954216	0.01201474480330944	0.04876706749200821	0.0022072612773627043	-0.020102957263588905	0.04766235500574112	0.03077370673418045	0.0010114110773429275	0.035784535109996796	0.011136083863675594	0.007653290871530771	-0.0010664704022929072	0.008982381783425808	-0.007544372230768204	-0.005554164294153452	-0.10811914503574371	0.015131828375160694	-0.0513153113424778	-0.03387662023305893	-0.045641396194696426	-0.014525182545185089	-0.014229693450033665	0.03692636638879776	-0.024046389386057854	-0.004676263313740492	0.030519001185894012	0.05036606639623642	0.0021478987764567137	-0.017913347110152245	0.06777384877204895	0.05022210627794266	-0.017849083989858627	0.00925797875970602	-0.020532097667455673	-0.013321920298039913	-0.012175511568784714	0.0014402635861188173	0.036883823573589325	0.03910332918167114	0.011213547550141811	0.013783399015665054	-0.07557274401187897	-0.06312926858663559	-0.005822168197482824	-0.06408874690532684	0.004202561918646097	-0.09399619698524475	-0.03666391968727112	0.02108032815158367	-0.017489813268184662	-0.014298537746071815	-0.026205353438854218	0.02448599599301815	-0.032823748886585236	0.048936180770397186	0.007977860979735851	-0.05653763562440872	0.03971479833126068	-0.021227236837148666	0.0474582239985466	0.03425150364637375	-0.009544581174850464	0.007102965377271175	0.016004903241991997	0.025228235870599747	0.0109407352283597	-0.021758778020739555	0.009071480482816696	-0.0022832879330962896	-0.007554457988590002	0.04601835459470749	0.03851165249943733	-0.01641596481204033	0.05838634446263313	0.04046043008565903	-0.011575263924896717	0.06709268689155579	-0.01134470198303461	-0.07526382803916931	-0.010551190935075283	-0.022865066304802895	0.009085203520953655	-0.019889239221811295	0.06503930687904358	-0.03492533788084984	-0.025193024426698685	-0.018282417207956314	-0.014237459748983383	-0.0659988522529602	-0.05575618892908096	-0.03378545492887497	-0.049000371247529984	-0.04327385500073433	-0.0012330998433753848	-0.029828732833266258	0.01311287097632885	0.035972174257040024	-0.03314651548862457	0.034362465143203735	0.035713694989681244	0.007664119359105825	0.05573005601763725	-0.021750319749116898	-0.027056589722633362	0.017685499042272568	-0.08703373372554779	-0.03299817442893982	-0.047615356743335724	0.007490136660635471	0.01570236124098301	0.016031872481107712	0.08752111345529556	0.03187273442745209	0.023698920384049416	-0.036456406116485596	0.05526763200759888	0.013940481469035149	0.024151064455509186	-0.06404761970043182	0.04035056754946709	0.007845420390367508	0.020524434745311737	-0.010246274061501026	-0.02108079567551613	-0.0030768176075071096	0.00479767844080925	0.00040983755025081336	0.024433258920907974	-0.05748584866523743	0.034669749438762665	-0.0028578194323927164	-0.038674503564834595	0.013023474253714085	0.059735435992479324	0.02871841751039028	-0.009625297971069813	-0.03677642345428467	-0.013106062076985836	0.11442925035953522	0.019144082441926003	-0.017991840839385986	0.002045797649770975	0.004417309071868658	-0.03346030041575432	0.009270119480788708	0.04876190796494484	-0.0229200292378664	0.0014363975496962667	-0.08608705550432205	-0.020736122503876686	0.01800357736647129	0.016463523730635643	-0.04617219790816307	0.02173028327524662	0.0041465312242507935	0.010726387612521648	0.04667146876454353	0.037177376449108124	0.025620196014642715	0.001298131188377738	0.08394483476877213	0.02085842564702034	0.0019452008418738842	-0.025846203789114952	0.0595129169523716	-0.0895853266119957	-0.0264484491199255	-0.07259482145309448	-0.025528542697429657	-0.0025336849503219128	-0.014149830676615238	0.031367141753435135	0.04114655777812004	0.010282297618687153	-0.010737213306128979	0.016157230362296104	-0.035288020968437195	0.025777719914913177	0.015613357536494732	0.033894192427396774	-0.020839808508753777	0.039203088730573654	-0.009067712351679802	0.009735782630741596	0.011696038767695427	0.011907792650163174	0.0044164229184389114	-0.017345601692795753	-0.0585658885538578	0.019269874319434166	0.08595423400402069	0.0008263790514320135	-0.04596919193863869	-0.051366280764341354	0.02979392372071743	0.0400250069797039	0.09978625923395157	-0.006533532403409481	0.013000416569411755	0.04887022078037262	-0.02990749664604664	-0.051770564168691635	0.003318687668070197	-0.03425823524594307	-0.013674778863787651	0.02081364020705223	-0.011745091527700424	0.012256781570613384	0.049576807767152786	-0.013175043277442455	-0.06154533475637436	0.0325104221701622	-0.05182051286101341	-0.07038000971078873	0.022039296105504036	-0.032003533095121384	-0.0051354095339775085	0.004305785521864891	-0.04863940551877022	-0.0005766110843978822	0.036754060536623	0.06097259372472763	0.0985826700925827	0.012646407820284367	-0.02127402275800705	-0.015409709885716438	-0.003314376575872302	-0.029230941087007523	0.0038690934889018536	0.02040456235408783	-0.06562431901693344	0.04673231765627861	-0.008232684805989265	-0.020809538662433624	-0.020896727219223976	-0.02411220408976078	0.006539325695484877	-0.03688333183526993	0.046669673174619675	-0.008670519106090069	-0.012425733730196953	0.015664594247937202	0.016447219997644424	-0.02074269764125347	0.003740850370377302	0.004404813516885042	-0.0185952540487051	0.033700283616781235	-0.04454309493303299	-0.031820010393857956	0.06627847254276276	-0.03460661694407463	-0.06445159763097763	0.02390129677951336	-0.03864101320505142	-0.052794184535741806	0.024996262043714523	-0.007264622021466494	0.014264393597841263	-0.07134440541267395	-0.005286387167870998	0.0013562372187152505	-0.07054315507411957	0.020562991499900818	-0.044169288128614426	0.014439903199672699	-0.01144067756831646	0.04125763103365898	-0.0038676392287015915	-0.04673217609524727	0.00700952997431159	-0.03605618700385094	0.049010053277015686	-0.031214723363518715	-0.007701267953962088	-0.04206639155745506	-0.006354175973683596	-0.06410323083400726	0.014752001501619816	-0.021883463487029076	-0.0035974730271846056	-0.00230805273167789	0.03355070948600769	-0.049656644463539124	
gabbiano	-0.01377481035888195	0.048858191817998886	-0.008804800920188427	-0.030478879809379578	-0.07008615881204605	-0.06213562190532684	0.04017043113708496	0.05985645204782486	-0.03352067619562149	-0.01817423105239868	-0.00483992462977767	-0.053377676755189896	0.004600548185408115	-0.013120997697114944	0.03105129487812519	0.06156882643699646	-0.028809476643800735	-0.06036416068673134	0.0041017173789441586	-0.012382055632770061	-0.014903322793543339	0.01733156479895115	0.0011017972137778997	-0.02850494347512722	-0.0015048725763335824	0.010276390239596367	0.01843039132654667	0.05538684502243996	0.027253195643424988	0.005105806980282068	0.020985085517168045	-0.04894981160759926	0.08234528452157974	-0.02250050939619541	0.05029764398932457	0.049515701830387115	0.00462888740003109	0.023913906887173653	0.0006390672060661018	-0.027176279574632645	0.04384385794401169	-0.003823223989456892	-0.026793431490659714	0.018299594521522522	0.05691329017281532	0.027098912745714188	-0.015124570578336716	-0.050636447966098785	-0.07905954122543335	-0.025324055925011635	-0.0034697626251727343	0.0038431400898844004	0.0699906051158905	-0.015512054786086082	0.05407657474279404	0.05955652520060539	0.050541188567876816	-0.0688101053237915	0.019775791093707085	-0.026293523609638214	-0.036321233958005905	-0.0600329153239727	-0.07980479300022125	0.02175668627023697	0.06075974553823471	-0.009008019231259823	-0.0348217636346817	0.006395059172064066	-0.013127959333360195	0.014127116650342941	-0.031502965837717056	0.005516581702977419	-0.0040102931670844555	0.03151562437415123	0.015470840036869049	-0.03881664574146271	0.010777800343930721	-0.019014962017536163	-0.022851301357150078	0.09687456488609314	0.1376509964466095	-0.010162647813558578	-0.03930653631687164	-0.004652181174606085	-0.007502961903810501	-0.03029702976346016	0.041091348975896835	0.02603883109986782	-0.007184614427387714	0.04603927582502365	-0.005927255842834711	0.011596792377531528	0.02442026324570179	-0.0003146300441585481	-0.08975908160209656	0.0016511253779754043	-0.10026329010725021	-0.027359817177057266	-0.01818574033677578	0.0046852887608110905	-0.06521278619766235	-0.0836000069975853	0.04191179201006889	-0.014138959348201752	0.010090498253703117	-0.027632752433419228	-0.06186993792653084	-0.07153494656085968	-0.02733970806002617	0.01407893281430006	-0.061760932207107544	0.0475500263273716	0.019501037895679474	-0.054853010922670364	-0.0564737506210804	0.038009416311979294	0.027005130425095558	-0.08759700506925583	-0.029426779597997665	-0.031119849532842636	-0.009301532991230488	0.053414490073919296	-0.04340488836169243	-0.012982216663658619	-0.06248655915260315	0.02527471072971821	0.010636662133038044	-0.01878553256392479	0.022312181070446968	-0.016318995505571365	-0.022299712523818016	0.0014727297239005566	-0.00583810918033123	-0.024160360917448997	-0.0740334615111351	0.07724449783563614	-0.014805743470788002	-0.018823597580194473	-0.006226901896297932	0.05074016749858856	-0.03185790404677391	0.0424283891916275	0.012103415094316006	-0.048198457807302475	-0.08425077795982361	0.02380184642970562	0.10766737163066864	0.07623858749866486	-0.012508248910307884	0.07027226686477661	0.007035435643047094	-0.009182201698422432	0.009789709001779556	-0.004010424949228764	0.07717790454626083	-0.0050890156999230385	0.01251272950321436	-0.013959759846329689	-0.0002895168145187199	-0.05284934118390083	-0.01849220134317875	0.07456685602664948	0.06640565395355225	0.02190684899687767	-0.03559873625636101	-0.005914987996220589	0.020488573238253593	-0.015031421557068825	-0.027955537661910057	-0.01588352769613266	-0.027761757373809814	-0.01999950408935547	0.027902986854314804	0.03097347915172577	-0.0059886509552598	-0.008315001614391804	0.0018791493494063616	0.04846753925085068	-0.07208937406539917	0.03597674518823624	0.09784816205501556	-0.007949860766530037	-0.05465526506304741	0.007860462181270123	-0.021724669262766838	-0.02679934725165367	-0.05406191200017929	-0.04045628011226654	0.10002579540014267	-0.0323316864669323	0.0034869625233113766	-0.03335065394639969	0.015990661457180977	0.07568980753421783	0.047520626336336136	0.02127954736351967	0.04594133794307709	0.03367864340543747	0.028420375660061836	0.04903630539774895	0.005564476829022169	0.009598681703209877	-0.029452364891767502	-0.020485281944274902	0.03737694025039673	-0.0035738791339099407	0.06117676571011543	-0.018455153331160545	0.024030335247516632	-0.09139873832464218	0.042361631989479065	0.015507695265114307	0.060409266501665115	-0.04039551317691803	0.005322209559381008	0.015427728183567524	-0.018625598400831223	-0.007717667147517204	-0.02366361767053604	0.02625609003007412	-0.0018188772955909371	0.04975678399205208	-0.012304319068789482	-0.03657259792089462	0.09298892319202423	0.026433909311890602	0.07545867562294006	0.01844802498817444	-0.07355531305074692	-0.05776970833539963	-0.01942140981554985	-0.041901521384716034	-0.1410531848669052	-0.025141878053545952	-0.04617412015795708	0.02333861030638218	0.06475448608398438	-0.05147922784090042	0.05342619866132736	0.0030716501642018557	-0.05437571927905083	-0.04461124911904335	0.02976236492395401	-0.021313216537237167	-0.014015931636095047	0.06218171492218971	-0.049885060638189316	0.03929085284471512	0.09850607812404633	-0.010166658088564873	0.04200322553515434	-0.044895295053720474	0.047221746295690536	-0.033599335700273514	-0.009143169037997723	-0.01782146468758583	0.010396100580692291	0.09254905581474304	-0.007883763872087002	0.0059855105355381966	0.015693672001361847	0.0013552431482821703	-0.004670674446970224	0.06433975696563721	-0.050719939172267914	-0.017197396606206894	-0.03581443428993225	0.022281818091869354	-0.045394252985715866	-0.0038049090653657913	-0.050699539482593536	-0.03243869170546532	0.01977783441543579	0.02068476937711239	0.038457974791526794	-0.03359167277812958	0.0035366725642234087	-0.014008943922817707	-0.0751177966594696	0.020210113376379013	0.0027058126870542765	-0.005109477322548628	-0.010619927197694778	0.029541870579123497	-0.061556000262498856	-0.09617491811513901	-0.030872877687215805	0.020222852006554604	0.0005209834780544043	-0.056566257029771805	-0.01836499199271202	0.04967322573065758	0.004054620862007141	-0.006333398632705212	0.04385139048099518	-0.019817057996988297	0.05411335080862045	0.04756325110793114	-0.02032926306128502	0.0028587959241122007	
passero	-0.017204686999320984	0.02333218604326248	0.036713894456624985	-0.026502763852477074	-0.056421615183353424	-0.05972868949174881	0.05688690394163132	0.01688746176660061	-0.03473564237356186	-0.06616327911615372	-0.07957793772220612	-0.06345555186271667	0.007695943117141724	0.014956794679164886	0.04815933108329773	0.054320983588695526	-0.03147754818201065	0.049148350954055786	0.0423877015709877	-0.03212783485651016	-0.012840593233704567	-0.03465872257947922	0.01175351720303297	0.04828585311770439	-0.0790804922580719	0.054876141250133514	0.01800956204533577	0.08096359670162201	-0.03238226845860481	0.009256727062165737	0.054877664893865585	-0.10124847292900085	0.018763333559036255	-0.013183070346713066	-0.04347727820277214	0.01706903800368309	0.033352259546518326	-0.05563218891620636	-0.0022572148591279984	-0.05659480392932892	0.02420422062277794	-0.03208371251821518	0.06637082993984222	0.06640583276748657	-0.0520193874835968	0.06908460706472397	0.06856021285057068	-0.08027118444442749	0.008274499326944351	-0.03633444756269455	0.06390349566936493	0.04461582750082016	0.022701745852828026	0.00203341874293983	0.08410292118787766	-0.02628403902053833	-0.0012824287405237556	-0.06166864559054375	-0.044558241963386536	0.04008738324046135	-0.02529425546526909	-0.0348222479224205	-0.08448834717273712	-0.0716797411441803	0.0464959517121315	-0.02433115616440773	-0.07140693068504333	-0.03289458155632019	-0.04821550101041794	-0.011679699644446373	0.08284315466880798	0.05754063278436661	-0.05078475922346115	-0.012673608027398586	0.010185973718762398	0.0261241402477026	0.06683388352394104	-0.03133806586265564	-0.08893680572509766	0.05417712777853012	0.09295447915792465	-0.0027159634046256542	-0.06131783127784729	0.02223088964819908	-0.07759572565555573	0.018434720113873482	0.059800148010253906	-0.003797809360548854	0.02007819339632988	0.011056032031774521	0.005323964171111584	0.036541976034641266	-0.03822300583124161	0.02195398136973381	-0.11374657601118088	0.020166879519820213	-0.052932240068912506	-0.06131984293460846	-0.03874346241354942	0.03837072104215622	-0.04892554134130478	-0.030258819460868835	0.05717451125383377	0.0001442351785954088	-0.013144752942025661	-0.034534379839897156	-0.0004537608474493027	-0.035573333501815796	-0.12578749656677246	0.004320371896028519	-0.06228487938642502	0.08998334407806396	-0.006772495806217194	-0.09288173168897629	-0.09266848862171173	0.0018305381527170539	0.006712896283715963	-0.050506554543972015	-0.022013498470187187	-0.0183534175157547	0.032786980271339417	0.03976357728242874	-0.05616066977381706	0.010379371233284473	-0.014080907218158245	-0.052634358406066895	-0.017354801297187805	-0.008091052062809467	-0.013679340481758118	-0.019801773130893707	0.008518937975168228	-0.05416353791952133	-0.02200738899409771	-0.08808954060077667	-0.007153354585170746	-0.08754503726959229	0.008972588926553726	-0.09508593380451202	0.002773270010948181	0.08162640035152435	0.06733162701129913	0.04207199066877365	0.08275904506444931	0.023536108434200287	-0.10824857652187347	0.02444307506084442	0.009698387235403061	0.03287799283862114	-2.616504207253456e-05	0.038927771151065826	-0.029150649905204773	-0.04371378943324089	0.06422775238752365	0.022766221314668655	0.07578983902931213	-0.026994740590453148	0.05255436524748802	-0.030953457579016685	-0.015349398367106915	-0.019026964902877808	0.005850512534379959	0.007528802379965782	-0.08399897068738937	0.06303196400403976	-0.05669135972857475	-0.09263527393341064	-0.01221934612840414	-0.005792418494820595	-0.060468100011348724	-0.005840945057570934	-0.01665610633790493	-0.0449846088886261	0.0539424791932106	0.08883935213088989	0.031717363744974136	0.02587137185037136	0.0021161530166864395	0.07150186598300934	-0.04611068218946457	0.0234195776283741	0.03942027688026428	-0.011972522363066673	-0.13711419701576233	0.012116117402911186	-0.054793715476989746	-0.032034993171691895	-0.07797324657440186	-0.04574042558670044	0.05542191118001938	-0.00591787975281477	-0.05911017581820488	0.02250293642282486	0.028500227257609367	0.06573633849620819	-0.0006900442531332374	-0.09696009010076523	-0.043309491127729416	0.010412313044071198	0.0064946915954351425	-0.02714352123439312	0.021663090214133263	-0.007446548901498318	0.012519314885139465	-0.02691013365983963	0.04317108541727066	0.0871187075972557	0.039697375148534775	-0.027311785146594048	0.029552537947893143	-0.11249677836894989	0.010584212839603424	1.8762581021292135e-05	0.027478881180286407	-0.09882298111915588	-0.03333371877670288	-0.05791126936674118	-0.025502540171146393	-0.03259856998920441	-0.010399455204606056	0.0354345366358757	0.05239828675985336	-0.0003079880843870342	-0.05936773866415024	0.01535741426050663	0.019763421267271042	0.0005567189073190093	0.029429391026496887	0.01693573035299778	-0.05707189068198204	0.03441794961690903	-0.017974309623241425	-0.040908947587013245	-0.10924914479255676	0.022891631349921227	0.03815722465515137	-0.048161379992961884	0.005110948346555233	-0.014754782430827618	0.07222305238246918	-0.03904704377055168	-0.03668323904275894	0.006181328557431698	0.04282515496015549	-0.03691337630152702	0.05074995011091232	0.047408223152160645	-0.038952894508838654	0.048776328563690186	0.08683477342128754	0.002839367836713791	0.07034563273191452	-0.042174067348241806	0.008461530320346355	0.05524919182062149	0.0803418830037117	0.044575951993465424	0.008005162701010704	0.041415151208639145	-0.0301833339035511	-0.01784808561205864	0.013176299631595612	0.020841963589191437	-0.03125133365392685	0.010012295097112656	-0.008602390065789223	-0.029429536312818527	-0.01844136416912079	0.02564850077033043	-0.05285080522298813	0.02082507312297821	-0.02997707948088646	0.005276923067867756	-0.06295266002416611	0.0031810987275093794	-0.010525180026888847	-0.08621793240308762	0.03015580028295517	0.053388338536024094	-0.0792040005326271	-0.04830184206366539	-0.07120825350284576	-0.03759939968585968	-0.04478389769792557	0.07159209996461868	0.021812405437231064	-0.03788270056247711	0.038928285241127014	0.024327438324689865	-0.0419689379632473	-0.06116856262087822	0.01423035841435194	0.04716183990240097	0.08072112500667572	-0.07409235090017319	0.011329777538776398	0.04375561326742172	-0.04398827254772186	0.0014140604762360454	0.04028119146823883	-0.06569504737854004	
elefante	-0.02323978766798973	-0.030372656881809235	0.01108181569725275	-0.04733801260590553	-0.002385650994256139	-0.02921360917389393	0.07816705107688904	-0.03532175347208977	-0.01907256618142128	-0.011255459859967232	-0.025377744808793068	0.015067833475768566	-0.00359240616671741	-0.0023383041843771935	0.03174910321831703	-0.0292288139462471	0.0636051595211029	0.01816635951399803	0.044052593410015106	0.016139423474669456	-0.036807261407375336	-0.01359346229583025	-0.06905993074178696	-0.048989392817020416	0.011937546543776989	-0.03752882778644562	0.06927681714296341	0.050085823982954025	-0.014987562783062458	-0.03572161868214607	-0.012999446131289005	-0.0593603141605854	0.023852769285440445	-0.0019393995171412826	-0.003374106716364622	0.013175933621823788	0.024109143763780594	-0.018305698409676552	-0.016927897930145264	-0.011577804572880268	0.024418968707323074	-0.014332719147205353	0.007409680634737015	0.04095509275794029	-0.06527002900838852	0.05399048700928688	0.05481250584125519	-0.014382058754563332	-0.03129664063453674	-0.008227819576859474	-0.0037102405913174152	-0.031239289790391922	-0.004870392382144928	-0.009877683594822884	0.045350585132837296	0.04160895571112633	0.028758805245161057	-0.016308806836605072	-0.12493720650672913	0.026321472600102425	-0.09637173265218735	-0.02407935820519924	-0.03820861503481865	0.033062588423490524	0.042157672345638275	-0.0013488797703757882	-0.0030538092833012342	0.0567767396569252	-0.021484442055225372	-0.027975058183073997	0.04378126189112663	-0.03431258723139763	0.04830219969153404	0.01781032793223858	-0.035233274102211	0.010992699302732944	0.035746313631534576	-0.020469989627599716	-0.01583651266992092	0.05338168889284134	0.024086421355605125	0.010065470822155476	-0.021703703328967094	0.012923945672810078	-0.0011735388543456793	0.0033491356298327446	0.006457355804741383	0.042365048080682755	-0.020006736740469933	0.009511041454970837	-0.00488221226260066	-0.031240273267030716	0.03622981160879135	0.016673244535923004	-0.07774817943572998	0.035176679491996765	-0.04365607723593712	-0.002130058826878667	-0.016842106357216835	-0.017548929899930954	-0.03991318866610527	-0.05298928916454315	-0.016751013696193695	-0.007301666308194399	-0.05950884148478508	-0.02667841874063015	-0.024159198626875877	-0.07211743295192719	-0.04027543216943741	0.021848130971193314	-0.03484033793210983	0.043922651559114456	0.028903163969516754	-0.033436134457588196	-0.025461623445153236	-0.059669170528650284	0.03105156123638153	0.003040877403691411	0.021500486880540848	-0.06202026084065437	0.0006901579326950014	-0.021842919290065765	-0.019202837720513344	-0.0729285404086113	-0.04504904896020889	-0.011758653447031975	0.04735331982374191	0.01803693175315857	0.04079418629407883	0.016689594835042953	0.003490637056529522	0.05550587177276611	0.010621918365359306	0.027901921421289444	-0.07896845042705536	-0.015457573346793652	0.028131727129220963	0.0064584421925246716	-0.0010101136285811663	-0.03662910312414169	-0.04936961084604263	-0.02613825350999832	0.016205918043851852	-0.04120822623372078	-0.019865337759256363	0.053409550338983536	0.004927264526486397	0.04014699533581734	0.0048308237455785275	0.034489791840314865	0.01609947346150875	-0.019038531929254532	-0.028163915500044823	-0.007848123088479042	0.052970681339502335	-0.017219096422195435	0.021248703822493553	0.03580057621002197	0.0052570472471416	-0.017885327339172363	-0.05112230405211449	0.08607878535985947	0.025774503126740456	0.02744772471487522	0.012968168593943119	-0.0479237362742424	-0.02970828488469124	0.024915043264627457	-0.045459434390068054	0.02811017818748951	0.00945406872779131	0.0017040955135598779	0.05195659026503563	-0.005835122428834438	0.01756172813475132	-0.04887891188263893	0.0835387334227562	0.04428757727146149	-0.058800745755434036	0.030392393469810486	-0.005808299873024225	-0.13035288453102112	-0.08023843169212341	0.045210786163806915	0.006209610495716333	-0.0347074456512928	-0.053179312497377396	0.020108819007873535	0.01734323240816593	0.0021514378022402525	0.002219119807705283	0.01420355960726738	-0.03189718723297119	0.00400789687409997	0.03440558537840843	0.01747986488044262	-0.031243151053786278	0.024980781599879265	-0.009838086552917957	-0.008433736860752106	-0.0930553749203682	0.0074607436545193195	0.02378431148827076	-0.0007827164954505861	-0.040341805666685104	0.011225005611777306	0.07689623534679413	-0.01191555242985487	0.018997272476553917	-0.043590713292360306	-0.009989041835069656	0.04727441817522049	0.004857567138969898	-0.06951165199279785	0.05059047043323517	0.041422199457883835	-0.02522852085530758	0.005586754996329546	0.022058555856347084	-0.039103616029024124	-0.04045458510518074	-0.025898994877934456	-0.05840427428483963	0.02941475249826908	0.020243307575583458	-0.06422118097543716	-0.041309576481580734	0.03879211097955704	-0.03480341285467148	-0.06834299117326736	-0.006622088607400656	-0.05899328738451004	0.009791741147637367	0.06859652698040009	-0.06743942201137543	-0.019366025924682617	0.022265756502747536	0.05740969628095627	0.07135968655347824	-0.05237153545022011	-0.0009249906870536506	-0.023024557158350945	-0.02389351837337017	-0.04685100167989731	-0.12942102551460266	0.04458627477288246	-0.049900151789188385	0.06883902847766876	0.035729896277189255	-0.10335338860750198	0.024845901876688004	-0.06932685524225235	-0.004027594346553087	-0.0065522869117558	0.033045694231987	0.008560312911868095	-0.011125418357551098	0.07957574725151062	0.044430095702409744	-0.01575055718421936	0.04939248785376549	0.014846463687717915	-0.04573145881295204	-0.002104175975546241	-0.06116030365228653	-0.008990633301436901	-0.03682831674814224	-0.055281125009059906	-0.016791628673672676	0.015509878285229206	-0.03463244065642357	-0.024425560608506203	0.02166493982076645	0.04319945350289345	0.023319968953728676	-0.03558284789323807	-0.009172658436000347	0.02650565840303898	-0.05190606787800789	-0.021593008190393448	-0.06501918286085129	-0.05233743041753769	-0.05321891978383064	-0.006341128144413233	-0.02389090321958065	-0.03354780748486519	-0.026552971452474594	0.0715252012014389	0.021850906312465668	-0.005668888334184885	-0.0038053367752581835	0.0026678061112761497	0.007809830363839865	-0.027070362120866776	0.02641693688929081	0.015084270387887955	-0.009265042841434479	0.03378976508975029	-0.03316900134086609	-0.060673125088214874	
gatto	-0.038092486560344696	0.0024631470441818237	0.015893831849098206	-0.0468660444021225	-0.07712594419717789	-0.05597272515296936	-0.009372778236865997	0.013562960550189018	-0.05179780721664429	-0.10908576101064682	-0.00906873308122158	-0.060430847108364105	-0.0051698461174964905	0.043055303394794464	0.04020659253001213	-0.004074728116393089	0.02141922153532505	0.029060155153274536	0.06491199880838394	0.0196214709430933	0.08460751175880432	0.07330537587404251	-0.0046768831089138985	0.012018565088510513	0.01716993749141693	0.06183385103940964	-0.005161812528967857	-0.056636516004800797	0.005778326652944088	0.04767502099275589	0.08591903001070023	-0.18307459354400635	0.045775555074214935	0.02501373365521431	-0.09814292192459106	-0.03947973996400833	0.037779632955789566	0.028671275824308395	0.050181787461042404	-0.03048764169216156	-0.03851805254817009	-0.04588056728243828	0.16249428689479828	0.02246074378490448	-0.020699456334114075	0.13475553691387177	0.022731415927410126	-0.024926071986556053	-0.03190619498491287	-0.08484704792499542	-0.0011535556986927986	0.01930859312415123	0.04390422999858856	0.07411348074674606	0.07194577157497406	-0.010410930030047894	0.037446655333042145	-0.043278906494379044	-0.11915436387062073	-0.029446806758642197	-0.20216681063175201	0.016449280083179474	-0.1590915322303772	0.024810221046209335	-0.025747867301106453	-0.046581268310546875	-0.002392775611951947	0.08218364417552948	-0.12106150388717651	-0.01884773001074791	0.06556543707847595	0.10210999846458435	0.02146170660853386	0.036020442843437195	0.007800315972417593	0.0654272511601448	0.06036655604839325	-0.04028337448835373	0.050304483622312546	0.0851004347205162	0.12448091804981232	0.011690262705087662	-0.008500328287482262	0.0230028685182333	-0.013235509395599365	-0.006748588755726814	0.03580281883478165	0.06578260660171509	0.010722614824771881	0.11542203277349472	-0.041920240968465805	-0.10200448334217072	0.0590408556163311	-0.012763794511556625	-0.11133190244436264	-0.008680596947669983	0.04059198871254921	0.03520537167787552	0.007597750052809715	0.0014237714931368828	-0.040235552936792374	-0.015974584966897964	0.0920143574476242	0.011038667522370815	-0.17895855009555817	-0.07988264411687851	-0.04387606680393219	-0.06373501569032669	-0.06291913241147995	0.01792171411216259	0.06247486174106598	-0.0289310310035944	0.0686931163072586	-0.03593901917338371	0.007531111594289541	-0.02750089019536972	0.0850871354341507	0.022042207419872284	-0.033283643424510956	-0.058063607662916183	0.04076313227415085	-0.10220751166343689	-0.02989276871085167	-0.07684748619794846	-0.04620775952935219	0.0200035497546196	0.02682088315486908	0.08674543350934982	0.09069934487342834	0.03585873916745186	-0.05283219367265701	0.07839063555002213	0.018008805811405182	0.05877446010708809	-0.13733474910259247	0.10190273821353912	0.07525473833084106	0.004877375438809395	-0.022021116688847542	-0.007494364865124226	-0.027025597169995308	-0.014423288404941559	0.07905939966440201	-0.01378256268799305	-0.07947531342506409	-0.027698956429958344	0.03915436938405037	0.010348894633352757	0.022133246064186096	0.12042096257209778	-0.022074120119214058	-0.1419907957315445	-0.003791199065744877	0.015016041696071625	0.1878392994403839	-0.060790106654167175	0.018705202266573906	0.019812118262052536	-0.039048414677381516	-0.021967949345707893	-0.07168737798929214	0.08837811648845673	-0.02739817090332508	0.0093978401273489	0.004727484658360481	-0.0470462441444397	0.007112376391887665	0.02625061199069023	-0.05009659379720688	0.014120008796453476	-0.0028076134622097015	-0.009249132126569748	0.07223520427942276	0.0589580275118351	0.03834881633520126	0.006587157025933266	0.22390377521514893	0.05038883537054062	-0.005531993228942156	-0.002067333087325096	0.05926372855901718	-0.08848635107278824	-0.11549732834100723	-0.1352008432149887	-0.017187219113111496	0.018000932410359383	-0.08894233405590057	-0.0442647822201252	0.05914103984832764	-0.05812043324112892	0.035854995250701904	-0.028181610628962517	-0.033238768577575684	0.045608311891555786	0.06002630293369293	0.10130339860916138	-0.04859931021928787	0.055543918162584305	-0.0020357389003038406	-0.00729973241686821	-0.04596371948719025	-0.05089161917567253	-0.0026721665635704994	-0.05373436212539673	-0.016545293852686882	0.06025667116045952	0.1406177282333374	-0.0005113817751407623	-0.058118145912885666	-0.06517855823040009	0.0236797034740448	0.0017385599203407764	0.12878713011741638	-0.10081076622009277	0.03632643073797226	0.021639034152030945	-0.06098121404647827	-0.07174059748649597	0.0032901111990213394	0.016345102339982986	-0.05277032032608986	0.061801571398973465	-0.046345919370651245	0.07003061473369598	0.03627345338463783	0.0023487259168177843	-0.03988760709762573	0.07368946820497513	-0.12968569993972778	-0.08759874105453491	0.11716428399085999	-0.07710597664117813	-0.14757704734802246	0.1001816838979721	-0.07475251704454422	0.019514240324497223	0.07635253667831421	-0.010570092126727104	0.1372980773448944	-0.03749708831310272	-0.01223931647837162	-0.02918141521513462	0.028932929039001465	-0.03664741665124893	0.060485243797302246	0.02626033127307892	-0.040641117841005325	0.08573076128959656	0.013621319085359573	-0.012194175273180008	-0.04655443876981735	-0.11956384778022766	0.03847416490316391	-0.049012690782547	0.04744861647486687	0.021297868341207504	0.01414317823946476	0.013439655303955078	0.029239196330308914	0.03560420870780945	0.09961166977882385	0.018286950886249542	-0.04711558669805527	0.041070468723773956	-0.04265543073415756	-0.02876594290137291	0.06721281260251999	-0.022127561271190643	-0.0650404691696167	-0.02903091534972191	-0.06994879245758057	-0.1786707639694214	0.03462306782603264	-0.01941680908203125	-0.005292746238410473	-0.046684764325618744	-0.014292731881141663	0.03866027295589447	-0.12703679502010345	0.005616575479507446	-0.11773780733346939	0.09254562854766846	-0.11474772542715073	0.03395269438624382	0.026288775727152824	-0.02327137440443039	-0.03556355461478233	-0.005026038736104965	0.04957819730043411	-0.07171928882598877	0.028564076870679855	-0.014150841161608696	-0.06988419592380524	-0.09343001246452332	0.020477859303355217	-0.0028036744333803654	0.045206282287836075	0.0020511853508651257	0.011403694748878479	-0.09894300252199173	
leone	0.11137177795171738	0.0020075517240911722	-0.025227433070540428	-0.08053329586982727	0.026143256574869156	-0.013874960131943226	0.044688280671834946	-0.06645843386650085	-0.058809153735637665	-0.023511087521910667	-0.0648106262087822	-0.0813804492354393	-0.027137555181980133	-0.005592287052422762	0.05227608606219292	-0.07765254378318787	-0.013064847327768803	0.04037501662969589	0.05426667630672455	0.033303339034318924	-0.03376707434654236	0.02716710790991783	-0.1505812257528305	-0.019106175750494003	-0.08565627038478851	0.030848881229758263	0.027048788964748383	0.011454124934971333	-0.017262302339076996	0.051859769970178604	-0.0336279571056366	-0.16097214818000793	0.1215968057513237	-0.1458130180835724	-0.022467993199825287	0.048654720187187195	0.042765356600284576	-0.04522162675857544	-0.0106719471514225	0.021853750571608543	0.09915324300527573	0.051507964730262756	0.018131470307707787	0.06433538347482681	0.015198682434856892	0.05728013813495636	0.07864506542682648	-0.054951004683971405	-0.04003771021962166	-0.008605876006186008	-0.07212714105844498	0.027839871123433113	-0.05047321319580078	0.03871975839138031	0.04654717445373535	0.04481995478272438	0.033823512494564056	-0.10203799605369568	-0.07904241979122162	0.02731521613895893	-0.10875154286623001	-0.00401629414409399	-0.1540103554725647	-0.07048727571964264	0.15168671309947968	-0.04210934787988663	0.030011484399437904	0.018324745818972588	-0.016032984480261803	-0.005212020128965378	0.023511916399002075	-0.003922165837138891	-0.015677809715270996	0.03852912038564682	-0.042656898498535156	-0.03249751776456833	0.02410680428147316	-0.0197340976446867	0.046262845396995544	-0.03481251373887062	0.06031421571969986	0.059317946434020996	-0.04728872701525688	0.007621333003044128	0.0042068734765052795	0.034142158925533295	-0.02194637805223465	0.09105484932661057	0.030612554401159286	0.057865895330905914	0.007412233855575323	0.031142443418502808	0.011274270713329315	-0.007557292934507132	-0.13668900728225708	0.007310107350349426	0.009196378290653229	-0.10207367688417435	0.026884566992521286	0.04631700739264488	-0.06547954678535461	0.02815736085176468	-0.06556353718042374	-0.013154292479157448	-0.05325361341238022	-0.12491382658481598	0.00660856394097209	-0.13370715081691742	-0.07179205119609833	0.021698836237192154	-0.039250943809747696	0.05230465903878212	0.04520270600914955	0.04616387188434601	-0.008876659907400608	-0.0408327616751194	0.09779748320579529	-0.121528759598732	0.06851822882890701	-0.0351734384894371	0.024580013006925583	0.004875414073467255	-0.033265456557273865	-0.033728305250406265	-0.13648386299610138	-0.013961812481284142	0.043543994426727295	0.056211672723293304	0.04923497885465622	0.04722464457154274	0.05039164796471596	0.04608474671840668	0.0053016506135463715	0.019638720899820328	-0.1714978814125061	-0.027954939752817154	0.012855935841798782	-0.007316539995372295	-0.03827396407723427	-0.037350621074438095	0.04988681152462959	-0.014458172023296356	0.07426178455352783	-0.07054346054792404	-0.014008271507918835	0.06231071427464485	-0.0030281709041446447	-0.0952468141913414	-0.10696517676115036	0.09389855712652206	0.01445329375565052	-0.10277514159679413	0.002624785527586937	0.06663589924573898	0.15213389694690704	-0.13603073358535767	0.024950707331299782	-0.009998861700296402	0.012962430715560913	-0.030115073546767235	-0.06230764836072922	0.0504864901304245	0.04006386548280716	-0.010661298409104347	-0.004848483018577099	-0.015536164864897728	-0.031463902443647385	0.08914380520582199	-0.02686808630824089	-0.0018252721056342125	-0.02348211780190468	0.02111247554421425	0.04873669147491455	0.16095006465911865	0.08385338634252548	-0.06118490919470787	0.0891304537653923	0.06947600841522217	0.011975068598985672	0.012976501137018204	-0.006472129374742508	-0.03831692412495613	-0.16161631047725677	0.12803083658218384	-0.008213474415242672	-0.0207209512591362	-0.023529648780822754	-0.04591479152441025	0.045305266976356506	0.027813609689474106	0.045162297785282135	-0.08574304729700089	-0.08265774697065353	0.04901784658432007	0.010525278747081757	0.10653375089168549	0.014606919139623642	0.14672531187534332	-0.008769739419221878	0.023014573380351067	-0.10447654128074646	0.057423125952482224	0.07794258743524551	0.02464985102415085	-0.021526046097278595	-0.02727995626628399	0.1359603852033615	0.007440137676894665	-0.03704731911420822	-0.07386865466833115	0.10383797436952591	-0.04570550099015236	0.11444954574108124	-0.026856867596507072	0.07047349214553833	0.01868099346756935	-0.0731280967593193	-0.007007637061178684	0.018418196588754654	-0.08352670073509216	-0.04538681358098984	0.010105833411216736	-0.11521413922309875	-0.00384597759693861	-0.04694168642163277	-0.17469288408756256	-0.07698135077953339	0.09171675145626068	-0.016222842037677765	-0.04668135941028595	0.062489431351423264	-0.08833011984825134	0.08315500617027283	0.005406784825026989	-0.09412462264299393	-0.016896389424800873	0.07253867387771606	0.012440222315490246	0.14521709084510803	-0.0971100777387619	0.028281258419156075	-0.10910975188016891	0.09592098742723465	-0.04178646206855774	-0.07664014399051666	-0.004026389680802822	-0.07404816895723343	0.06911657750606537	-0.030687253922224045	3.487616777420044e-05	0.015297595411539078	0.0493602454662323	0.013862146064639091	-0.013986768200993538	0.10765378922224045	0.07999400794506073	-0.06503123044967651	0.09340907633304596	0.02614516019821167	0.07592426240444183	0.1550847887992859	-0.060061972588300705	0.017063893377780914	0.10174907743930817	-0.10734540224075317	-0.07611525058746338	-0.018423471599817276	0.024755612015724182	-0.061566922813653946	0.10613314062356949	-0.017355309799313545	-0.041181694716215134	0.05274207890033722	0.17357493937015533	0.0024982700124382973	-0.1337665468454361	-0.018590837717056274	0.008841071277856827	-0.10277865082025528	-0.010569227859377861	-0.09355038404464722	-0.043812982738018036	-0.06605704873800278	0.00158366234973073	-0.09345925599336624	-0.12678572535514832	0.007623514160513878	0.023462753742933273	0.05404543876647949	0.014945654198527336	-0.017258640378713608	-0.11494942754507065	-0.09081637859344482	-0.055658284574747086	0.057648416608572006	0.05270804092288017	-0.07416580617427826	0.006804130971431732	-0.03622659295797348	-0.09976980090141296	
maiale	0.017946772277355194	-0.032658617943525314	-0.0075855255126953125	-0.10947569459676743	-0.018547754734754562	0.06361228227615356	-0.01787666417658329	0.04175722599029541	0.03646602854132652	-0.015318408608436584	0.0012101769680157304	-0.010276097804307938	-0.01731327921152115	-0.0031373954843729734	-0.03417542576789856	-0.016467146575450897	-0.09692669659852982	0.021216465160250664	0.05361933633685112	0.07755066454410553	-0.06593766063451767	0.018644263967871666	-0.008284804411232471	-0.006358034443110228	0.02361425571143627	0.062413811683654785	-0.05590968206524849	0.05372904613614082	-0.03500974550843239	-0.04754055663943291	0.024635059759020805	-0.10008157789707184	-0.001292274915613234	-0.054910268634557724	-0.0728415697813034	0.03483368083834648	0.028269991278648376	0.055150654166936874	-0.04908333718776703	0.028562694787979126	0.021870622411370277	0.005655174609273672	0.02876095287501812	-0.03770572319626808	-0.00841664057224989	0.09827615320682526	0.03969528526067734	-0.01164524257183075	-0.04926912114024162	-0.019344689324498177	0.04546155408024788	-0.022162731736898422	0.05262243375182152	-0.04492193087935448	-0.02811254933476448	0.06407328695058823	0.05026477575302124	-0.10236560553312302	-0.06226065754890442	0.04050661250948906	0.011834079399704933	-0.03961287438869476	-0.12282399088144302	-0.05185125023126602	0.025942856445908546	-0.03075382672250271	-0.013639271259307861	-0.014931636862456799	0.01147665735334158	0.029270723462104797	0.022543709725141525	-0.052982211112976074	-0.05785593017935753	0.06202835589647293	0.037631358951330185	0.06531314551830292	0.047928061336278915	-0.036676470190286636	-0.050385136157274246	0.03219573199748993	0.06023292616009712	0.027878185734152794	-0.07500385493040085	0.024989979341626167	0.00011932104825973511	0.02075844258069992	0.027269572019577026	-0.05187663063406944	-0.04223120957612991	0.04561220481991768	0.12341407686471939	0.0149636035785079	0.025793984532356262	-0.035996221005916595	-0.12771101295948029	-0.00693932780995965	-0.02942962944507599	0.02996542863547802	0.01166341919451952	0.08129942417144775	-0.048325683921575546	-0.04460975527763367	0.03767738863825798	-0.07936517894268036	-0.14520560204982758	-0.07390522956848145	-0.028949638828635216	-0.11245160549879074	-0.0011783838272094727	0.00843929685652256	-0.03927811235189438	0.013341518118977547	0.03296426311135292	-0.08097091317176819	0.015087082050740719	-0.0111744599416852	-0.004098259843885899	0.060962021350860596	-0.025069713592529297	-0.05042608454823494	0.022358551621437073	-0.08090914040803909	0.02355211228132248	-0.05723274499177933	0.026155536994338036	-0.025782419368624687	-0.0012605845695361495	0.18498900532722473	-0.03139029070734978	0.04694050922989845	0.001829163753427565	0.08297806233167648	0.009251910261809826	0.012790358625352383	-0.10753649473190308	0.03776956722140312	-0.0039165751077234745	0.004198956768959761	-0.06031516194343567	0.0010287344921380281	0.02940710261464119	-0.010811028070747852	0.02820708230137825	0.07356391102075577	-0.00630210293456912	0.010486707091331482	0.02859625034034252	0.0005166527116671205	0.026203880086541176	0.07898092269897461	-0.007231970317661762	-0.05226168781518936	-0.027544677257537842	-0.00035149752511642873	0.06699410825967789	0.007340637035667896	-0.016262143850326538	0.03701360896229744	-0.01512735802680254	0.05192488059401512	0.01607990637421608	0.12150808423757553	-0.051311761140823364	0.03815126419067383	-0.1085459366440773	-0.03618881106376648	-0.053044166415929794	0.03878793865442276	-0.03179975599050522	0.05791177228093147	-0.022608891129493713	0.005429486278444529	0.12607096135616302	0.015855316072702408	0.06677307188510895	0.018644725903868675	0.10524123907089233	0.0705251470208168	0.004322140943259001	0.01165576558560133	-0.021878108382225037	-0.06302464753389359	0.034050121903419495	-0.05537441000342369	-0.011482018046081066	0.0035437666811048985	-0.0017971001798287034	-0.03368182107806206	0.04282740503549576	-0.03556392341852188	-0.035381946712732315	0.04498744010925293	-0.09138429909944534	0.07608901709318161	0.056899845600128174	0.07803576439619064	-0.05393332988023758	0.08801625669002533	-0.017158104106783867	0.07594121992588043	0.03286535665392876	0.00910845585167408	-0.01578608714044094	-0.007653068285435438	-0.06696411967277527	-0.04014421999454498	0.13060560822486877	0.0044728233478963375	-0.004411096218973398	-0.028865456581115723	0.028069494292140007	0.03770031780004501	0.041811104863882065	-0.04679727554321289	0.02928153984248638	0.14310617744922638	-0.0075525143183767796	-0.08425284922122955	0.024134330451488495	0.02574063651263714	-0.04425392672419548	0.03062981367111206	-0.1097879409790039	0.03997732326388359	0.009924927726387978	-0.03830968588590622	-0.14628233015537262	0.04543750360608101	-0.039797794073820114	0.021612001582980156	0.004204562399536371	-0.031263720244169235	0.03304792568087578	-0.014700055122375488	0.019221529364585876	-0.010622488334774971	-0.001997377723455429	0.029128601774573326	0.05332242324948311	0.020821234211325645	0.04165201261639595	0.029127880930900574	0.019997917115688324	-0.056738849729299545	-0.08478319644927979	0.040835171937942505	-0.0864264965057373	0.039023507386446	-0.02081811986863613	-0.038119327276945114	-0.02298879064619541	-0.031598642468452454	0.0417419858276844	0.031305111944675446	0.01327111292630434	0.03200241178274155	-0.015696262940764427	-0.0655151754617691	0.05158672481775284	-0.023830866441130638	0.066923588514328	0.012347402051091194	-0.03646570071578026	0.06697886437177658	-0.07683771103620529	0.007996621541678905	0.0493619367480278	-0.04350849986076355	-0.04822784662246704	0.050455398857593536	-0.023935599252581596	-0.02267903834581375	0.012166827917098999	0.038148459047079086	0.024216873571276665	-0.011846105568110943	-0.018694967031478882	0.00648409454151988	-0.06495443731546402	0.04703777655959129	-0.046609293669462204	0.014376523904502392	0.004715001210570335	0.0727662444114685	-0.007122159004211426	-0.019730521366000175	0.03938162326812744	-0.062139179557561874	0.06831701844930649	-0.04279974848031998	0.003749135183170438	-0.03631938248872757	-0.0122317960485816	-0.08820567280054092	0.03956533595919609	0.11209139972925186	0.012759036384522915	-0.06221277639269829	0.009380144998431206	-0.036895111203193665	
mucca	0.08038065582513809	-0.005585966631770134	-0.01720653660595417	-0.14687317609786987	0.0231825802475214	-0.05932377651333809	0.07886748760938644	-0.011763779446482658	-0.0579957440495491	-0.03566312417387962	-0.049688272178173065	-0.07899430394172668	-0.020631205290555954	-0.035451389849185944	-0.04211533069610596	-0.04607487469911575	-0.022098060697317123	-0.0015553496778011322	0.05924650654196739	-0.109021857380867	-0.12127252668142319	0.03985534608364105	-0.03332715481519699	-0.03438104689121246	0.0360228456556797	-0.06871740520000458	-0.1537485271692276	0.0011485228314995766	-0.0018302456010133028	0.006185217760503292	0.06764192879199982	-0.04453888162970543	0.013995610177516937	-0.07652447372674942	-0.08327092230319977	0.0033555906265974045	0.07101989537477493	0.009681139141321182	-0.026972949504852295	-0.0031870417296886444	0.048256125301122665	0.09476464241743088	8.705677464604378e-05	-0.011203443631529808	-0.06588909029960632	-0.010134730488061905	0.01422664150595665	-0.03384169191122055	-0.006631406955420971	-0.024578886106610298	0.020149605348706245	-0.03953998163342476	-0.04839608445763588	-0.010932397097349167	0.0629056915640831	0.037215229123830795	0.07723858207464218	-0.04018021002411842	-0.012250680476427078	0.027612434700131416	-0.09102190285921097	-0.13115686178207397	-0.046221982687711716	-0.020791806280612946	-0.023793760687112808	-0.015382600948214531	-0.14316916465759277	0.07490989565849304	-0.04898844659328461	-0.03567146509885788	0.0423717275261879	-0.08461631834506989	-0.09210270643234253	0.06985986977815628	-0.042651236057281494	-0.016178378835320473	-0.0006788261234760284	-0.06345684081315994	0.07248274981975555	-0.013969231396913528	0.03978537768125534	0.05266272649168968	-0.05368822067975998	0.030811382457613945	0.014030211605131626	0.03319580852985382	0.005579341668635607	-0.1318313032388687	0.019358808174729347	0.09761079400777817	0.11776654422283173	-0.0927421972155571	0.010714120231568813	0.039867497980594635	-0.15818676352500916	0.03274543583393097	-0.03679425269365311	0.015952352434396744	-0.02417907863855362	0.05376720428466797	-0.02940613403916359	-0.03722089156508446	0.06301061809062958	0.0694757029414177	-0.11808218061923981	-0.14065910875797272	-0.08161444962024689	-0.11352451890707016	-0.03764777630567551	0.008477404713630676	-0.10323329269886017	-0.006174036767333746	0.04516903683543205	-0.06730886548757553	0.0440405011177063	-0.08079920709133148	0.04729229211807251	-0.0055526383221149445	-0.03155946731567383	-0.05048266053199768	0.022120317444205284	0.02268221415579319	-0.00641079293563962	-0.008939976803958416	-0.04121223837137222	0.07154171168804169	-0.031456805765628815	0.0051264031790196896	0.0437849797308445	0.017708180472254753	-0.004899179562926292	0.12113861739635468	0.014363734051585197	0.03133648633956909	-0.11656977981328964	-0.008449454791843891	0.06268566101789474	-0.045818544924259186	0.03781087324023247	-0.06273823231458664	-0.00786898285150528	-0.08617198467254639	-0.02280152589082718	0.09483888745307922	-0.04620156064629555	-0.013376650400459766	0.02342977747321129	0.07908956706523895	0.07215657085180283	0.11161524057388306	-0.0425400510430336	-0.12720388174057007	-0.04256727546453476	-0.05475423112511635	0.09100969135761261	-0.0875227227807045	-0.03638876602053642	-0.02833995781838894	0.08672589808702469	0.10187117010354996	-0.012733858078718185	0.14069557189941406	-0.08917181193828583	0.020062189549207687	-0.023818165063858032	-0.10789326578378677	-0.16355833411216736	0.06635158509016037	0.020891133695840836	0.1286115050315857	0.05180838704109192	0.035548701882362366	0.0466170608997345	0.00036456063389778137	0.04983551427721977	-0.025939054787158966	0.1828460842370987	0.08884471654891968	-0.04674999788403511	0.012659445405006409	0.03697586804628372	-0.18925060331821442	0.023810777813196182	-0.04605572298169136	-0.09002183377742767	-0.01512575801461935	-0.09248795360326767	-0.09747901558876038	0.06254665553569794	-0.018744906410574913	0.007668633013963699	0.04447948560118675	-0.10469791293144226	0.14528684318065643	-0.013025219552218914	0.09841146320104599	0.014913823455572128	-0.06504921615123749	-0.016370536759495735	0.014052153564989567	-0.0713023915886879	0.024723026901483536	-0.03394273295998573	-0.035425879061222076	-0.07792509347200394	0.0325884073972702	0.14942112565040588	-0.05694098770618439	-0.10069657862186432	-0.07519860565662384	-0.04099030792713165	0.058484774082899094	0.05060001462697983	-0.1178651750087738	0.13608340919017792	0.16708043217658997	-0.04594288766384125	-0.08110310137271881	0.03752138465642929	0.009791910648345947	-0.10448677092790604	-0.0023003891110420227	-0.09186353534460068	0.0457315519452095	-0.033675387501716614	-0.005040187854319811	-0.1237831711769104	0.015296973288059235	-0.005351634230464697	-0.07677438855171204	0.062241483479738235	-0.05960627272725105	0.04734307527542114	-0.07889359444379807	-0.031927820295095444	-0.09177953749895096	-0.003345128148794174	0.10164886713027954	0.20801059901714325	0.03707673028111458	0.09515534341335297	-0.0410640686750412	-0.0906866118311882	-0.053212836384773254	-0.03289524093270302	0.13172416388988495	-0.12789106369018555	0.10834258049726486	-0.018405277281999588	-0.03394058346748352	-0.14724698662757874	0.009178281761705875	-0.039366766810417175	0.02873438410460949	0.06804461777210236	0.05549974367022514	-0.026595106348395348	-0.06186091899871826	-0.05637216567993164	-0.02698899433016777	-0.006977949291467667	0.04523543640971184	-0.06652280688285828	0.016968851909041405	-0.05651302635669708	0.0431915819644928	0.0656881183385849	-0.04464820772409439	-0.09970411658287048	0.08132355660200119	0.05643884465098381	-0.11324697732925415	0.048410505056381226	-0.03697134926915169	0.01761813834309578	0.018358737230300903	-0.011916883289813995	-0.05007478594779968	-0.08850208669900894	0.012903365306556225	0.047740451991558075	0.14211030304431915	-0.02239244431257248	0.11164466291666031	-0.014240149408578873	-0.0322343073785305	-0.012568490579724312	-0.0018424196168780327	-0.03786822780966759	-0.12847764790058136	-0.0035170279443264008	-0.025127150118350983	-0.012756257317960262	-0.05237540975213051	0.06628412753343582	-0.0337924100458622	0.0002101026475429535	-0.04079633578658104	-0.012498375959694386	-0.07201018184423447	
serpente	-0.01760421134531498	-0.03650737926363945	0.006836204323917627	-0.048349685966968536	-0.015817916020751	-0.057873014360666275	-0.04707186669111252	0.03226780891418457	-0.030961336567997932	-0.02564525045454502	-0.062497466802597046	0.04234159365296364	0.005697887856513262	0.004414650611579418	0.008732710964977741	0.0096358023583889	0.009593356400728226	-0.01333970669656992	0.015502192080020905	0.08750759810209274	-0.03412234038114548	0.004347971174865961	0.014672922901809216	-0.035385798662900925	-0.027697060257196426	0.010161170735955238	0.031066419556736946	0.03531545400619507	3.830662899417803e-05	0.01942950114607811	-0.05416348576545715	-0.10999832302331924	0.028646104037761688	-0.019695904105901718	-0.003659135429188609	0.016988355666399002	0.04814038425683975	-0.008034790866076946	0.01509060151875019	-0.04305675998330116	0.024109287187457085	-0.00704502547159791	-0.05301102623343468	0.019767995923757553	-0.008090796880424023	0.06329136341810226	0.0710032507777214	-0.05337859317660332	0.007481727749109268	-0.015287363901734352	0.04933943971991539	-0.014210723340511322	0.016736827790737152	0.06545068323612213	0.032417308539152145	0.05212457478046417	0.012949083000421524	-0.015219531953334808	-0.0700116753578186	-0.01460119429975748	-0.03171052038669586	0.009499503299593925	-0.08723130077123642	-0.04883011057972908	0.02157670445740223	-0.013900280930101871	-0.006296600215137005	0.05705682188272476	0.026430102065205574	-0.001097921864129603	0.05949293076992035	-0.05159302428364754	-0.010519425384700298	0.026586180552840233	0.01930447854101658	0.01629123091697693	0.041343268007040024	-0.022945763543248177	0.0005826273118145764	-0.0434834323823452	0.04730498045682907	0.007524266839027405	-0.013861549086868763	0.030211517587304115	-0.01092522218823433	0.01592441275715828	0.04945369437336922	0.08774526417255402	0.03824380040168762	0.039827313274145126	0.006055714096873999	-0.026701707392930984	-0.030403800308704376	-0.04042835161089897	-0.07743088901042938	0.0349307507276535	-0.028780804947018623	-0.015231470577418804	0.00019257517124060541	0.046926628798246384	-0.05162053555250168	-0.0634225383400917	-0.0008601914159953594	0.035629432648420334	-0.0351991280913353	-0.06025673821568489	-0.02229248732328415	-0.04935247078537941	-0.03860421106219292	0.00974976271390915	-0.05631469562649727	0.015053553506731987	0.020294148474931717	0.022029099985957146	0.009509231895208359	-0.0469769723713398	0.020341921597719193	-0.014678196050226688	-0.005470302887260914	-0.05290791019797325	-0.032537590712308884	-0.009921333752572536	-0.03450257331132889	0.0018419427797198296	-0.022651713341474533	-0.015383650548756123	0.010836625471711159	0.05012879893183708	0.011948136612772942	0.012342048808932304	-0.018342090770602226	0.05762128531932831	0.029602497816085815	0.015404261648654938	-0.057519108057022095	0.01763933151960373	0.00286514381878078	0.008953243494033813	0.011962401680648327	-0.04769224300980568	-0.04206496849656105	-0.008921665139496326	0.06962546706199646	0.028283867985010147	-0.06208324804902077	-0.005446935072541237	0.03070778213441372	0.0011848850408568978	0.005076398141682148	0.07282374054193497	-0.03237948566675186	-0.09814263880252838	0.025067247450351715	0.0070351422764360905	0.0903068333864212	-0.04481879621744156	0.0050093322061002254	0.0038732686080038548	-0.0041653155349195	0.0064172763377428055	-0.0638214647769928	0.038959890604019165	-0.038739487528800964	-0.02385314740240574	0.022685501724481583	0.007245651446282864	-0.08700890839099884	0.07053481042385101	-0.0707484632730484	0.03968855366110802	0.0034573483280837536	0.05469910427927971	0.0420205257833004	0.10210981965065002	0.03738447651267052	-0.02232610061764717	0.035466644912958145	0.010361716151237488	-0.008646316826343536	-0.035930078476667404	0.013410182669758797	-0.042257700115442276	-0.03070053830742836	0.06190630793571472	-0.06597846746444702	0.03159914165735245	-0.013498617336153984	-0.00022635504137724638	0.048036687076091766	-0.04054649546742439	-0.012669840827584267	0.001174792181700468	-0.05166265740990639	0.03045950084924698	0.0009647012338973582	-0.012493419460952282	-0.0037081625778228045	0.03566410392522812	-0.017673611640930176	-0.0215046014636755	-0.02463115006685257	-0.036619558930397034	0.007842009887099266	0.041286394000053406	-0.014687994495034218	0.062193162739276886	0.07851998507976532	-0.014061080291867256	-0.023827817291021347	-0.045503128319978714	-0.014825806953012943	0.05678444355726242	0.03156476095318794	-0.04754520580172539	0.04735521972179413	0.008061710745096207	0.00897131022065878	-0.010332240723073483	-0.009250236675143242	0.03692593425512314	-0.02131311409175396	0.0173698328435421	-0.054908931255340576	-0.013625513762235641	0.0009255678160116076	-0.010120153427124023	0.0077462391927838326	0.04344404861330986	0.021816639229655266	0.0017493788618594408	0.034066129475831985	-0.045148059725761414	0.01684933714568615	0.03563472256064415	-0.002010548487305641	0.026386210694909096	0.03526342660188675	-6.5097456172225066e-06	0.08715694397687912	-0.03543303161859512	0.057504214346408844	0.031213924288749695	0.016735587269067764	-0.011161159723997116	-0.04799702391028404	0.010828593745827675	-0.03350629657506943	0.015340709127485752	-0.00840342789888382	-0.005244876723736525	-0.02969490736722946	-0.024758510291576385	0.03508923947811127	-0.021561281755566597	0.04781872406601906	0.034942999482154846	0.0010319979628548026	0.03514088690280914	0.041167665272951126	0.019520219415426254	0.0743912011384964	0.0003700378874782473	-0.010416588746011257	0.046223513782024384	-0.0697358250617981	0.006496182177215815	0.06205381825566292	-0.016890553757548332	-0.05562405288219452	0.007326607126742601	-0.033154744654893875	0.0052137612365186214	-0.007415062747895718	0.0324542336165905	0.02993183769285679	0.011694869957864285	-0.029379989951848984	-0.01377028040587902	-0.058177024126052856	0.0048356130719184875	-0.07085441797971725	0.079874686896801	0.010389607399702072	-0.008877655491232872	-0.014244829304516315	-0.07332663983106613	0.015740348026156425	-0.061483949422836304	0.014682471752166748	0.024888964369893074	0.0650969073176384	-0.03261018171906471	0.011809398420155048	-0.021745678037405014	0.04184996336698532	-0.05453260615468025	-0.04211881011724472	0.06594248861074448	-0.06792690604925156	-0.03437208756804466	
tigre	-0.004596371203660965	-0.027997173368930817	-0.016775986179709435	-0.09575080126523972	-0.08210337907075882	-0.018873246386647224	0.054423362016677856	0.004158279858529568	-0.035453349351882935	-0.03452014550566673	-0.11089327931404114	-0.02500554360449314	0.03322833776473999	-0.012955340556800365	0.04191465675830841	-0.02818392962217331	0.024388659745454788	-0.023263704031705856	0.06526190787553787	0.06847453862428665	-0.07335895299911499	0.02223321795463562	-0.04693267494440079	-0.05473543703556061	-0.05570479482412338	-0.09453664720058441	0.036102861166000366	0.03584464266896248	-0.03807203844189644	-0.04484483227133751	-0.06531038135290146	-0.03306639939546585	0.08112643659114838	-0.053461506962776184	-0.016425251960754395	0.002333037555217743	0.11160895228385925	-0.07552031427621841	0.009690387174487114	0.017449548467993736	0.026758680120110512	-0.001340894028544426	0.05171271041035652	-0.012009907513856888	-0.067682646214962	-0.00823734700679779	0.06837095320224762	-0.09704987704753876	0.019340427592396736	-0.04886941984295845	-0.07396308332681656	-0.05943721532821655	-0.012432744726538658	0.0074491919949650764	0.03218188136816025	0.15579083561897278	0.07869930565357208	-0.06593215465545654	0.03550083935260773	-0.035268984735012054	-0.12378948926925659	-0.10513567924499512	-0.07955783605575562	-0.004626900888979435	0.0026299552991986275	-0.037229906767606735	-0.06821957230567932	0.07094892114400864	-0.01892063021659851	-0.029805930331349373	-0.011461996473371983	-0.0032236408442258835	-0.044733740389347076	0.05429348349571228	-0.11612920463085175	-0.07409058511257172	-0.01735103130340576	-0.0656469315290451	-0.03632206842303276	0.04200214147567749	0.12959690392017365	0.09425801038742065	-0.012129229493439198	0.020100155845284462	0.008165720850229263	-0.004962664097547531	-0.03292965516448021	0.11250681430101395	0.033858880400657654	0.11154936999082565	-0.050163671374320984	0.011407092213630676	-0.005115576554089785	0.029988016933202744	-0.14865677058696747	0.019136391580104828	0.04394945129752159	-0.013541033491492271	-0.019618425518274307	-0.002900846302509308	-0.1114206463098526	-0.015055258758366108	0.012588349170982838	0.017741693183779716	-0.15957093238830566	-0.15342450141906738	0.0027203448116779327	-0.0560741126537323	-0.046904344111680984	0.07557666301727295	-0.08809427171945572	0.03799498453736305	0.028228968381881714	0.03148750215768814	-0.04282091185450554	-0.0658966600894928	-0.05069864168763161	0.04047901928424835	0.0018384233117103577	-0.09976769983768463	0.008061319589614868	-0.044497523456811905	-0.07614228129386902	-0.02552410587668419	-0.06444733589887619	0.06526872515678406	-0.05036458000540733	-0.00021406915038824081	0.03854646161198616	0.03060791827738285	-0.009101344272494316	0.15134195983409882	0.024284670129418373	0.045669231563806534	-0.08590014278888702	-0.021905619651079178	-0.03659414127469063	-0.023876603692770004	0.03974784165620804	-0.044616926461458206	0.047718584537506104	0.011499771848320961	0.1429121345281601	-0.0063476948998868465	-0.04467048868536949	0.08710891008377075	-0.002702951431274414	0.015027430839836597	0.01617743819952011	0.07469980418682098	-0.052801601588726044	-0.12974973022937775	-0.026610955595970154	0.027189092710614204	0.07326900213956833	-0.13581068813800812	-0.010850521735846996	-0.041012492030858994	0.07021419703960419	-0.07764653116464615	-0.027868490666151047	0.05659208819270134	0.15168455243110657	0.020586049184203148	0.0559702068567276	-0.11240746080875397	-0.06597338616847992	-0.07074417173862457	-0.02831043303012848	-0.04315878450870514	-0.03727785497903824	0.09227526187896729	0.04990600794553757	0.03338443115353584	0.08571502566337585	-0.05401550605893135	0.06994993984699249	0.08129356801509857	-0.030996566638350487	0.020918026566505432	-0.0942102000117302	-0.10005445778369904	-0.10998186469078064	0.11845321953296661	0.030316855758428574	0.006474878638982773	-0.057285480201244354	-0.021817775443196297	0.08790093660354614	-0.08115987479686737	0.022153418511152267	0.10161948204040527	-0.06944485753774643	0.14947766065597534	0.02970387041568756	-0.03711012750864029	0.015750348567962646	0.08487384021282196	-0.025097617879509926	-0.10202103108167648	-0.1416740119457245	0.08575040102005005	-0.05147907882928848	-0.018451182171702385	-0.09111301600933075	0.05183172598481178	0.13703091442584991	0.007270672358572483	-0.03709572181105614	-0.07334020733833313	0.007229529321193695	0.09119647741317749	0.0910869836807251	-0.01693282276391983	0.017059996724128723	-0.005757490172982216	0.0660247951745987	-0.0073858872056007385	-0.024445684626698494	-0.0965922400355339	-0.08472646027803421	-0.019457947462797165	-0.1422148048877716	-0.021383386105298996	0.010444063693284988	-0.10939840227365494	0.032873935997486115	0.07097268104553223	-0.133628249168396	-0.014444940723478794	0.0449882373213768	-0.07311521470546722	-0.037109728902578354	-0.006975309923291206	-0.09051623940467834	-0.05045958608388901	0.06304000318050385	0.01674841344356537	0.1988176554441452	-0.016443148255348206	0.03899802640080452	-0.03842053934931755	-0.035922806710004807	-0.03245033696293831	-0.15730446577072144	0.09866203367710114	-0.11367830634117126	0.07362627238035202	-0.03282318264245987	-0.07943889498710632	0.007196864113211632	-0.08892019093036652	-0.030534587800502777	-0.020320378243923187	0.08653324842453003	0.1284526288509369	0.02286430448293686	0.07924899458885193	0.024726247414946556	0.09173912554979324	0.149281308054924	0.029496464878320694	-0.02830054983496666	0.06927290558815002	-0.059978336095809937	0.024298276752233505	0.06953451037406921	-0.0020235853735357523	0.000648819375783205	-0.008600798435509205	0.07326220721006393	-0.12347214668989182	0.023172574117779732	0.04238935559988022	-0.005989039316773415	-0.023419011384248734	-0.05516853556036949	-0.05116600543260574	-0.10721904039382935	0.03520748019218445	0.01922762021422386	0.11819441616535187	-0.1278691589832306	0.0835191011428833	-0.03223361819982529	-0.1709449142217636	0.036597393453121185	-0.014137331396341324	0.06470786780118942	-0.056217968463897705	0.10295900702476501	-0.01127698365598917	-0.0014791255816817284	-0.06844462454319	0.08735251426696777	0.01819852739572525	0.0213632695376873	0.050797782838344574	-0.07329440116882324	-0.1121339350938797	
