word	vector
orso	0.09801232069730759	-0.11749370396137238	0.13723395764827728	0.2606058120727539	-0.054002635180950165	-0.007719682529568672	0.12202756851911545	-0.1004766970872879	-0.03755929321050644	-0.06166229397058487	-0.18197199702262878	0.010785646736621857	-0.048071008175611496	-0.17996400594711304	0.05797269567847252	0.11808371543884277	0.007990669459104538	0.0012519460869953036	-6.372357893269509e-05	-0.029670000076293945	-0.07622038573026657	0.129296213388443	-0.07471971213817596	0.2425772249698639	-0.0571041963994503	-0.15917231142520905	0.057854071259498596	0.0359576940536499	-0.0659901574254036	0.08174800872802734	0.06846708059310913	-0.046062033623456955	0.08981749415397644	0.08482148498296738	-0.003623439697548747	0.11407872289419174	-0.040166765451431274	0.08598193526268005	-0.07161322236061096	-0.07698780298233032	-0.0703313946723938	0.11134849488735199	-0.008435353636741638	0.04434408247470856	-0.05851912498474121	0.17660737037658691	0.1255304515361786	0.00205591949634254	-0.05676771700382233	-0.014703977853059769	-0.15808312594890594	-0.045780301094055176	-0.27696502208709717	-0.13117769360542297	-0.11425839364528656	-0.04395366460084915	-0.06279397010803223	0.03740914911031723	-0.15979932248592377	-0.024799294769763947	0.025278329849243164	0.11972624063491821	0.1349063217639923	0.04532040283083916	-0.013362865895032883	-0.11683555692434311	-0.05972041189670563	0.05995752662420273	-0.11663170903921127	-0.09640686213970184	-0.016574064269661903	-0.061760805547237396	-0.08377938717603683	-0.14199641346931458	-0.02184401825070381	-0.02435525506734848	0.16121205687522888	0.028282135725021362	-0.0330251008272171	-0.014683003537356853	0.0746547132730484	-0.05529485642910004	0.04483941197395325	-0.025831108912825584	0.06435120105743408	-0.05121621489524841	0.04696058854460716	0.10169246792793274	0.05340501666069031	-0.06573587656021118	-0.1443517655134201	0.012280894443392754	0.034321561455726624	0.08063136041164398	0.024189455434679985	0.04722090810537338	0.10931538790464401	0.021151989698410034	-0.11076439917087555	0.06905107945203781	0.08534806221723557	-0.0791192352771759	0.10345979779958725	-0.1010022982954979	0.19653663039207458	0.0389222651720047	0.13673819601535797	-0.013221140950918198	-0.0723993182182312	-0.03587969392538071	-0.13445787131786346	-0.02586403116583824	0.033996377140283585	0.05689955875277519	-0.03087659738957882	0.08082050085067749	-0.09841454029083252	-0.010077152401208878	-0.08642706274986267	-0.021592935547232628	0.08015435189008713	-0.08364658057689667	0.09440962970256805	0.003753404598683119	0.07759049534797668	0.0721505731344223	0.004849554970860481	-0.0034868400543928146	0.03516976162791252	-0.021155189722776413	-0.01735629513859749	0.024678325280547142	-0.11244898289442062	-0.08243563026189804	-0.005797619931399822	0.09169316291809082	0.03588733822107315	-0.061841290444135666	0.031914446502923965	0.0026808548718690872	-0.09767988324165344	0.0761437639594078	-0.009460324421525002	-0.040811534970998764	0.09764248132705688	0.04283248633146286	-0.1701982021331787	0.050362735986709595	0.08877074718475342	-0.18459205329418182	-0.07444295287132263	-0.019315049052238464	0.003374452469870448	-0.018201567232608795	-0.048842571675777435	0.00880117155611515	0.05139788240194321	0.0914839431643486	0.030823655426502228	-0.038044512271881104	0.076884426176548	0.05334305018186569	-0.009891401045024395	-0.031029321253299713	-0.05528891086578369	0.004497305955737829	0.048740699887275696	0.06845985352993011	0.06997757405042648	-0.09359588474035263	-0.01473945565521717	0.11885084956884384	0.15302567183971405	0.10314323008060455	-0.058958422392606735	-0.08951234817504883	-0.011723650619387627	0.10050448030233383	-0.13807609677314758	-0.022308461368083954	0.01691100187599659	-0.07809748500585556	0.09761522710323334	-0.07752470672130585	0.029633808881044388	0.006150280591100454	0.014131641015410423	0.04904523491859436	0.1114535927772522	0.11199179291725159	-0.0032674819231033325	-0.16420459747314453	-0.03574071079492569	-0.022627484053373337	0.033869583159685135	-0.048564255237579346	0.019305728375911713	-0.06567994505167007	-0.08337180316448212	0.07391336560249329	-0.027417462319135666	0.08509594202041626	-0.025737255811691284	0.014932530000805855	-0.10154076665639877	0.058000579476356506	-0.01632711850106716	-0.10523905605077744	-0.016519594937562943	0.16454805433750153	-0.08171072602272034	0.04644405469298363	-0.07252009958028793	-0.08277814835309982	0.15190111100673676	-0.01729000359773636	-0.028612961992621422	0.03690912574529648	0.047227129340171814	-0.06638889014720917	0.020203592255711555	0.06953465938568115	0.014625092968344688	0.1488783359527588	0.053159795701503754	-0.12619102001190186	0.023200329393148422	-0.07433780282735825	-0.08966530859470367	0.013136127963662148	-0.10005445778369904	-0.05299408361315727	-0.06264115869998932	0.06300389766693115	0.06893113255500793	-0.0075280917808413506	-0.024403324350714684	0.1167605072259903	-0.1055947095155716	0.05850175768136978	0.1184447854757309	-0.0006208618870005012	-0.1619386374950409	-0.1436745822429657	0.17198404669761658	0.014720442704856396	-0.04104427620768547	-0.16642577946186066	-0.09818945825099945	0.06281566619873047	-0.07416998594999313	0.06859903782606125	0.026171289384365082	0.0868057832121849	0.07607812434434891	0.08403311669826508	-0.12178857624530792	-0.11348745226860046	0.01272562425583601	0.023592716082930565	-0.08594141900539398	-0.004415465053170919	-0.027553802356123924	-0.0033977110870182514	0.0972345694899559	-0.12623396515846252	-0.07283443957567215	0.21655938029289246	0.088864266872406	-0.09823878109455109	-0.07558351755142212	0.08163216710090637	-0.1277388036251068	0.07231158018112183	-0.007013206835836172	-0.011435936205089092	0.0823921412229538	0.14686930179595947	0.02675321325659752	0.04931539297103882	0.012153832241892815	0.04330713674426079	-0.09956765174865723	0.05163075774908066	0.09574630111455917	-0.022416189312934875	0.0495283268392086	-0.005827955901622772	0.10694311559200287	-0.15858304500579834	0.10956838726997375	-0.07823564857244492	-0.08413808047771454	0.08343508839607239	0.1455076038837433	-0.008853865787386894	0.020098671317100525	0.041724301874637604	0.04454171657562256	0.07882846146821976	
cane	0.16797342896461487	-0.0012915097177028656	0.01619075983762741	0.27790722250938416	-0.10621117800474167	0.03657170757651329	0.20427750051021576	0.06415710598230362	-0.011483479291200638	0.05821144953370094	-0.2252417653799057	-0.21296273171901703	-0.07619000971317291	-0.049524299800395966	0.044902145862579346	0.24309441447257996	0.04456789791584015	-0.028788458555936813	-0.30351710319519043	0.015818599611520767	-0.2096925526857376	-0.021452324464917183	-0.09633945673704147	-0.04586263746023178	-0.02090366929769516	-0.2513801157474518	0.10532926023006439	-0.18316620588302612	0.006001617759466171	0.24515433609485626	0.0032330453395843506	0.22065217792987823	-0.014099715277552605	0.06830339878797531	-0.07115323096513748	-0.006418965756893158	-0.0014906078577041626	0.06938217580318451	-0.15117020905017853	-0.41590753197669983	0.08081938326358795	0.04314959794282913	-0.1890156865119934	0.026890959590673447	-0.20533894002437592	0.028296709060668945	0.014560128562152386	0.038765326142311096	-0.20197397470474243	0.2737961411476135	-0.2366355061531067	-0.1277545988559723	-0.06654417514801025	-0.1274355947971344	-0.2437712401151657	0.18009841442108154	-0.0407467782497406	-0.015528492629528046	-0.14595772325992584	0.1092878058552742	0.02728767693042755	0.016250155866146088	0.14619264006614685	0.08557122945785522	-0.12927410006523132	-0.00842256098985672	0.156775563955307	0.23729091882705688	-0.17075319588184357	0.12808749079704285	-0.009494282305240631	0.035039544105529785	-0.07176856696605682	-0.1995764970779419	-0.0900583565235138	-0.06007767468690872	0.15112848579883575	-0.02491084672510624	0.036721356213092804	0.07668672502040863	0.017840653657913208	-0.10687723755836487	-0.011014959774911404	-0.19196265935897827	-0.0224265418946743	-0.040395140647888184	0.145469069480896	-0.023605868220329285	0.1104404479265213	-0.09759983420372009	0.023792583495378494	-0.20565658807754517	0.017216160893440247	0.03199153020977974	0.008152836933732033	0.0865635871887207	0.18502286076545715	0.18402475118637085	0.10668078064918518	0.03738187998533249	-0.40749138593673706	-0.04022970795631409	0.08458147943019867	-0.11117537319660187	-0.2528739273548126	0.1772470325231552	-0.18504604697227478	0.25140702724456787	-0.012714244425296783	-0.14831553399562836	0.16003580391407013	-0.05883257836103439	-0.06135762482881546	0.11166456341743469	-0.14569471776485443	0.14750556647777557	-0.3153150975704193	0.010786568745970726	-0.15187092125415802	-0.04359063133597374	-0.06345939636230469	-0.08884065598249435	-0.057771217077970505	-0.09834495186805725	-0.025062117725610733	0.077410027384758	-0.08065478503704071	0.12711864709854126	0.16980765759944916	-0.19458895921707153	-0.12635260820388794	-0.05503423884510994	-0.059657663106918335	-0.15294073522090912	-0.09047021716833115	0.05964618921279907	0.18547263741493225	0.02184929884970188	0.22969520092010498	-0.13329672813415527	-0.07195106148719788	-0.031211871653795242	-0.007724374532699585	-0.03858920931816101	-0.06347748637199402	0.01676541566848755	-0.3062668740749359	0.3932947814464569	-0.07541073858737946	-0.12833109498023987	0.009501293301582336	-0.2938949465751648	-0.05046503618359566	-0.12812213599681854	-0.15552155673503876	0.11012899875640869	0.03194745257496834	0.022123830392956734	-0.1495015025138855	0.1655261218547821	-0.1755107194185257	0.14531129598617554	0.18279139697551727	-0.14981436729431152	-0.21875371038913727	-0.1254919022321701	0.18674738705158234	-0.12732398509979248	-0.023174915462732315	0.03523150831460953	0.09008882939815521	0.11684711277484894	-0.21788248419761658	-0.011557105928659439	0.04720084369182587	-0.11769862473011017	0.1580275595188141	0.08140251040458679	-0.19042213261127472	-0.13775436580181122	0.085698202252388	-0.09668099880218506	-0.0751921609044075	-0.20052912831306458	0.10061246156692505	0.0772300586104393	0.20771969854831696	-0.04245453700423241	-0.0077914102002978325	0.155284121632576	-0.23522000014781952	-0.019018499180674553	0.01032567024230957	0.005619548261165619	0.1035580262541771	0.005051327869296074	-0.006235189735889435	0.15057383477687836	-0.02216281369328499	0.11417998373508453	0.060052067041397095	0.03639305382966995	0.058545950800180435	0.04371137171983719	0.029149487614631653	0.1614254117012024	0.0338212251663208	-0.17429260909557343	0.08662991225719452	0.1907781958580017	0.07996317744255066	-0.15227565169334412	-0.06010373681783676	-0.1148364469408989	-0.10470261424779892	-0.351959228515625	-0.08905256539583206	-0.0627356693148613	-0.014287147670984268	-0.013475310057401657	0.16722789406776428	0.0007054926827549934	0.07096557319164276	-0.044050395488739014	0.13617563247680664	0.03774983435869217	0.1689552515745163	-0.04593221843242645	-0.10215944051742554	0.03458018600940704	-0.1958983689546585	0.04508337751030922	-0.07737713307142258	0.1306924670934677	-0.014187037944793701	-0.025347799062728882	-0.19346599280834198	0.03332635387778282	-0.044809646904468536	0.1530659943819046	-0.008619595319032669	-0.07667975127696991	-0.20965468883514404	-0.18245428800582886	0.11576110124588013	-0.17064586281776428	0.0685030072927475	-0.0045300736092031	0.006939638406038284	0.038153842091560364	0.031017353758215904	-0.04618290066719055	0.04325740039348602	-0.15292240679264069	-0.40706923604011536	0.10185736417770386	-0.041732970625162125	-0.12702906131744385	0.03466501459479332	0.10160772502422333	-0.04065832495689392	-0.11958930641412735	-0.004099622368812561	-0.08482520282268524	-0.1460561603307724	0.03279965743422508	-0.16379690170288086	0.026055488735437393	-0.01987447217106819	-0.10404594242572784	0.02119811438024044	0.1465582549571991	-0.1705569326877594	0.04473309963941574	-0.2523265779018402	0.04228682816028595	-0.0610724501311779	0.11194583773612976	-0.07801030576229095	-0.11292272061109543	0.05578469857573509	0.04502081498503685	-0.16983440518379211	-0.025950297713279724	-0.06438185274600983	0.13353130221366882	-0.12403029203414917	-0.08875972777605057	-0.055613212287425995	-0.1716618835926056	-0.0921456441283226	-0.039017945528030396	-0.1410129964351654	0.07479323446750641	0.22649087011814117	-0.20450641214847565	-0.15849998593330383	0.3027251362800598	0.09420029819011688	0.15399420261383057	
cavallo	0.08151896297931671	0.019738033413887024	-0.002855615457519889	0.14331184327602386	0.008283649571239948	-0.130381241440773	0.1280452460050583	0.03905785456299782	-0.05711620673537254	-0.02072141319513321	0.006863329093903303	-0.04828418418765068	0.08067359030246735	-0.00195750268176198	-0.11980301141738892	0.12682674825191498	0.003479951061308384	-0.0035748935770243406	-0.13235898315906525	0.004643646534532309	0.08675893396139145	-0.06784515082836151	-0.10904398560523987	-0.026912961155176163	0.020884081721305847	-0.029560718685388565	-0.0661906972527504	0.04649857059121132	0.12090421468019485	0.11516441404819489	-0.011660152114927769	-0.08169498294591904	0.039757680147886276	0.0343957245349884	-0.08042990416288376	0.010566744953393936	-0.013978049159049988	0.05067908391356468	0.08547522872686386	-0.08368508517742157	0.025349989533424377	-0.035781607031822205	-0.06398666650056839	0.012528697028756142	-0.1254596710205078	-0.010283933952450752	0.02596590854227543	0.07907626777887344	-0.011300919577479362	0.02925269864499569	-0.08098003268241882	-0.06350068747997284	-0.04954266548156738	-0.015686476603150368	0.003876902163028717	0.034653712064027786	0.09372349083423615	-0.062310755252838135	-0.07526418566703796	-0.06316952407360077	0.023465663194656372	-0.012230034917593002	0.06373392790555954	0.005006611347198486	-0.06566964089870453	0.05536970868706703	-0.036257315427064896	0.08812456578016281	-0.04999891668558121	0.032619401812553406	0.019797980785369873	0.06492883712053299	-0.10759034752845764	0.029138874262571335	-0.08617502450942993	-0.018512442708015442	-0.03269230201840401	0.0051985736936330795	-0.008233390748500824	0.015583737753331661	-0.024944789707660675	-0.09020102024078369	-0.009334026835858822	-0.1775331348180771	-0.011389380320906639	-0.13184364140033722	0.004332828801125288	-0.014196407049894333	0.06931772083044052	-0.03880910202860832	0.04981974512338638	-0.00036362186074256897	-0.013258177787065506	0.12512899935245514	-0.017119649797677994	0.033103279769420624	0.07491106539964676	-0.020089231431484222	0.026684017851948738	0.025814363732933998	-0.0522991418838501	0.06012362986803055	-0.057529933750629425	-0.03017076477408409	-0.11034785956144333	0.0751904770731926	-0.033680547028779984	-0.021593235433101654	-0.09002164751291275	-0.11655770987272263	0.04683233052492142	-0.005739216692745686	0.06947311758995056	0.05586760491132736	-0.05984478071331978	0.030011966824531555	-0.06205430254340172	0.0670711025595665	-0.06980986893177032	-0.00154457101598382	-0.05158943310379982	0.011783643625676632	0.02760757878422737	-0.18585942685604095	-0.06656638532876968	-0.0033097006380558014	-0.05417585372924805	0.0600351020693779	0.08390549570322037	-0.043513767421245575	-0.035028040409088135	-0.04023268073797226	0.02238544635474682	-0.08350852131843567	-0.06834084540605545	-0.05440530180931091	0.12908998131752014	0.004230126738548279	0.10992506891489029	-0.0016830367967486382	-0.03369199112057686	-0.17764383554458618	-0.021680396050214767	-0.0163266584277153	-0.020710349082946777	0.048332538455724716	-0.1573188602924347	0.024842772632837296	-0.1134066954255104	0.0014511365443468094	-0.009850872680544853	-0.17781171202659607	0.004465075209736824	-0.07322191447019577	-0.0797756239771843	0.05370860919356346	0.03702583536505699	0.05754558742046356	-0.006942858919501305	0.1381564885377884	-0.04154808074235916	0.0552259162068367	0.08860458433628082	-0.006428365595638752	-0.010691450908780098	0.043130408972501755	0.058339834213256836	0.03467055782675743	0.08038678020238876	0.024258676916360855	0.1968572586774826	0.13528360426425934	-0.054286498576402664	-0.011537943035364151	-0.06656913459300995	-0.088519386947155	0.051165711134672165	-0.04226453974843025	-0.024729007855057716	-0.03934991732239723	0.13072609901428223	-0.059957996010780334	-0.0882941409945488	-0.08706685900688171	0.060117438435554504	0.006273728329688311	0.06455513089895248	0.0342799536883831	0.028709733858704567	0.004240068607032299	0.04876134544610977	0.026328042149543762	0.10058260709047318	-0.0405365414917469	-0.010703906416893005	0.027011683210730553	-0.1121596172451973	-0.06058046594262123	0.06915076076984406	0.02537229284644127	0.0055079385638237	0.027536991983652115	0.09908235818147659	0.042560506612062454	-0.0027120858430862427	0.08574694395065308	-0.02235519140958786	0.013606560416519642	0.11334147304296494	0.13021622598171234	0.013229629024863243	-0.006777040660381317	-0.053289808332920074	-0.09407650679349899	-0.02186611294746399	-0.21208803355693817	0.050250664353370667	-0.06445827335119247	-0.017641190439462662	0.01586378738284111	0.07226536422967911	0.07780788093805313	0.031718820333480835	0.02072964236140251	0.024683674797415733	-0.0029354256112128496	0.15963101387023926	-0.10500755906105042	-0.062123171985149384	-0.10060133785009384	-0.14879068732261658	-0.12811051309108734	-0.02918114699423313	-0.04177302122116089	0.0725008174777031	-0.031401097774505615	-0.02633613906800747	-0.057198770344257355	0.0464676171541214	-0.15008707344532013	0.0696810632944107	-0.025458887219429016	-0.0897107720375061	-0.09251759946346283	0.07055676728487015	-0.012071270495653152	-0.004391645547002554	-0.06794029474258423	0.03557233512401581	0.024368982762098312	0.0027544964104890823	-0.008615860715508461	0.11535897850990295	0.073337122797966	0.028494764119386673	0.031021757051348686	-0.10648742318153381	-0.08805152028799057	0.09299097955226898	-0.15050935745239258	-0.04626300930976868	-0.0707780122756958	-0.03395150601863861	0.0736897885799408	-0.046832963824272156	0.05218829587101936	-0.0914287194609642	0.02248602919280529	0.00013900268822908401	-0.0336638018488884	0.06545955687761307	-0.07846442610025406	-0.11942353844642639	0.05871709808707237	-0.137969508767128	0.02466571144759655	-0.04584044963121414	0.013255573809146881	-0.028443554416298866	-0.05388541892170906	0.10603809356689453	0.016779553145170212	-0.06649428606033325	-0.12491998076438904	-0.03848970681428909	0.15722441673278809	-0.07039807736873627	0.05442811921238899	0.022143365815281868	-0.011453229002654552	-0.06507348269224167	0.00261869840323925	-0.12046901881694794	-0.034078605473041534	0.12639302015304565	-0.14682476222515106	0.01145092025399208	0.14418531954288483	-0.019313067197799683	-0.07630215585231781	
scimmia	0.07347644865512848	-0.04436713084578514	0.044874247163534164	0.11095964908599854	0.01983269862830639	-0.13539613783359528	0.09831297397613525	-0.017463041469454765	-0.028358066454529762	0.024442534893751144	-0.0962316170334816	0.02965816855430603	-0.01866600289940834	0.07384472340345383	-0.04348050430417061	0.0953192412853241	0.027674604207277298	-0.026865273714065552	-0.013221974484622478	-0.0009929940570145845	0.00880812294781208	0.009710854850709438	0.057903535664081573	0.06471110880374908	0.008434672839939594	-0.03494243696331978	0.06934156268835068	0.030204132199287415	-0.018718240782618523	0.07892898470163345	0.0019161872332915664	-0.02607649564743042	0.03541038557887077	0.0465867817401886	-0.020775150507688522	-0.033737245947122574	-0.009021918289363384	0.049803998321294785	0.015648862347006798	-0.09452736377716064	0.08741772919893265	0.13751809298992157	-0.045756448060274124	0.002883350942283869	-0.12597598135471344	0.03461506962776184	0.011822512373328209	0.041624777019023895	-0.0017633893294259906	-0.030684394761919975	-0.05480542406439781	0.01384776085615158	-0.05925028398633003	-0.09919240325689316	-0.15070395171642303	0.01020028442144394	0.041464198380708694	-0.0023118227254599333	-0.01164142694324255	0.0726785883307457	0.03239448741078377	0.0750538632273674	0.08155131340026855	0.012176131829619408	-0.005954293999820948	0.015691857784986496	0.01622646488249302	-0.025846732780337334	-0.09958942979574203	0.026948992162942886	0.0016838893061503768	-0.05267322063446045	8.943230204749852e-05	-0.08124890178442001	-0.06672577559947968	0.041552718728780746	-0.0063465312123298645	-0.02619672380387783	-0.016013620421290398	0.006732304580509663	0.14110738039016724	-0.007665658835321665	-0.1291809231042862	-0.01162799634039402	0.01634008251130581	0.1235368475317955	-8.474737842334434e-05	0.03568729758262634	0.0467524491250515	-0.03762343153357506	-0.08483944833278656	-0.006588283460587263	-0.0026154816150665283	0.04673339053988457	0.012675786390900612	0.011761924251914024	0.034267608076334	0.004684959538280964	0.0874345526099205	0.10100340843200684	-0.009719441644847393	-0.06347233057022095	-0.05879690870642662	-0.008071182295680046	-0.07867299765348434	0.06630126386880875	-0.06018335372209549	0.038985952734947205	-0.11200813204050064	-0.043194275349378586	-0.018846450373530388	0.05673251673579216	-0.10110793262720108	0.030890677124261856	0.011247492395341396	-0.020492369309067726	-0.08337987959384918	0.12182866781949997	-0.031607337296009064	-0.0017092012567445636	0.032982829958200455	0.02107958309352398	-0.018473902717232704	-0.03735033795237541	0.049739640206098557	0.01614503562450409	-0.05854057893157005	0.010249817743897438	0.0193911325186491	-0.06019539758563042	-0.046807002276182175	0.03971409425139427	-0.08851714432239532	-0.06290069967508316	-0.042794737964868546	0.041972458362579346	0.08934072405099869	0.07871188223361969	0.03575863689184189	0.043701328337192535	-0.09230014681816101	-0.004689289256930351	0.017567774280905724	-0.04206788167357445	-0.04788860306143761	-0.06093151122331619	-0.12238394469022751	0.05141051486134529	0.042853958904743195	-0.05420514568686485	-0.03682228922843933	-0.033640824258327484	-0.029909122735261917	2.0782650608452968e-05	-0.03484603390097618	-0.06931164860725403	0.012945267371833324	-0.0008302301284857094	0.007918717339634895	-0.09393961727619171	-0.13535739481449127	0.03404008969664574	0.059020329266786575	-0.04862076789140701	0.10807152092456818	0.004122518468648195	0.022792724892497063	0.027281785383820534	0.08082401007413864	0.004565005656331778	-0.024615617468953133	0.04078417643904686	-0.007744412869215012	0.009225184097886086	-0.01642909087240696	-0.04690396413207054	0.0724453255534172	0.02784322202205658	-0.029611382633447647	0.08032093197107315	-0.07857891172170639	-0.008036637678742409	0.05321980640292168	-0.09577996283769608	0.0688653439283371	-0.03516994044184685	0.08855972439050674	-0.06203896924853325	-0.06045956164598465	0.10386054962873459	0.0048488229513168335	-0.0590781569480896	-0.024259766563773155	-0.048721544444561005	0.007957338355481625	0.016069892793893814	-0.0092459162697196	0.01974613219499588	0.00093805231153965	0.010976403951644897	0.013417682610452175	0.013030125759541988	-0.003710523946210742	0.016004381701350212	0.02073485031723976	-0.002260585082694888	0.026373131200671196	-0.06793468445539474	0.0716327577829361	0.06075170263648033	-0.06655849516391754	-0.027163643389940262	-0.05089430883526802	-0.04596025496721268	-0.032425783574581146	-0.011103340424597263	0.016105860471725464	-0.1040276288986206	0.05342339351773262	-0.022197190672159195	0.04243188723921776	-0.00327879935503006	-0.03333995118737221	0.059037722647190094	0.0627552717924118	-0.05849934369325638	-0.0770101323723793	-0.03130174055695534	-0.07299873232841492	0.06971033662557602	-0.051616121083498	0.02066013030707836	-0.01573888212442398	-0.01843707635998726	-0.01510361023247242	0.014299273490905762	-0.05023375153541565	0.07763800024986267	-0.02104361541569233	0.01158895529806614	0.06540711224079132	-0.022278903052210808	-0.03216763213276863	-0.05844671651721001	0.06733448803424835	0.1093759685754776	0.05875686556100845	0.04724831506609917	-0.09701928496360779	0.05550704151391983	-0.008794907480478287	0.016156882047653198	0.035488225519657135	0.09421795606613159	0.01760946214199066	0.051918406039476395	-0.09265726804733276	0.04280131682753563	-0.004261291120201349	0.02931554615497589	-0.03753015398979187	-0.04543769359588623	-0.04350581392645836	-0.004633514676243067	-0.0057899923995137215	-0.014500590041279793	-0.04899853095412254	-0.04507504031062126	-0.013858898542821407	0.00048438014346174896	0.03035624697804451	-0.05534873157739639	-0.11121358722448349	-0.024534020572900772	-0.03297186642885208	0.07059908658266068	-0.030502116307616234	0.03197513893246651	-0.0786706805229187	-0.06647350639104843	0.027078140527009964	0.028425289317965508	-0.052112605422735214	0.025222478434443474	0.02117784693837166	-0.07820625603199005	-0.10252580791711807	0.02144249714910984	0.001003166427835822	-0.1365610808134079	-0.03174204379320145	0.020934101194143295	-0.10228270292282104	0.08612795174121857	0.030379248782992363	-0.00034119823249056935	-0.05220925807952881	0.10362827777862549	-0.04376950487494469	-0.0192757248878479	
gufo	-0.02347194403409958	-0.016875389963388443	-0.022621549665927887	0.22523829340934753	0.21817231178283691	-0.14773127436637878	0.07170764356851578	-0.056162118911743164	0.18491508066654205	-0.07973422855138779	-0.13867826759815216	-0.4379693865776062	0.1108815148472786	-0.05319038778543472	-0.1521720588207245	0.2103453278541565	-0.09387192130088806	-0.2298283576965332	-0.1304188072681427	0.019081391394138336	0.1823265105485916	0.006353927776217461	0.08011438697576523	0.11387196183204651	-0.1278781145811081	-0.32760360836982727	-0.05644089728593826	0.06905430555343628	0.07926123589277267	0.4153897166252136	0.05491957813501358	-0.1426289677619934	0.13514642417430878	0.20881350338459015	-0.1644369214773178	-0.20642000436782837	0.14723405241966248	0.08061974495649338	-0.020827746018767357	-0.10913906246423721	0.1641322672367096	0.3157586455345154	-0.034907177090644836	0.13645003736019135	-0.29917123913764954	0.05431739240884781	0.17698386311531067	-0.03601207956671715	0.004348961170762777	-0.34065690636634827	-0.03640349209308624	-0.06113317981362343	-0.026281185448169708	0.27498725056648254	-0.12384753674268723	0.03994988650083542	0.1971491277217865	-0.13382981717586517	0.04175208881497383	0.06169193983078003	0.1475515067577362	0.44890326261520386	0.05062400549650192	0.026552781462669373	-0.19236329197883606	-0.08944529294967651	-0.0947548896074295	0.1825307011604309	0.027337467297911644	-0.14677828550338745	0.014665395021438599	-0.09667254984378815	0.10576770454645157	-0.024224119260907173	-0.2894247770309448	0.1231975257396698	0.2293967753648758	-0.10344499349594116	-0.11932041496038437	-0.005450427532196045	0.13545404374599457	-0.09317860752344131	0.08647821843624115	-0.12399899959564209	-0.13420091569423676	-0.07624317705631256	-0.0874759703874588	-0.0008021444082260132	0.09133696556091309	-0.08476955443620682	0.09038043022155762	-0.10028104484081268	-0.1198163852095604	-0.0007193158380687237	0.08203861117362976	0.03674079477787018	0.11044146865606308	-0.023612553253769875	0.07604090124368668	-0.005760379135608673	0.09984026849269867	0.011968396604061127	-0.06839103251695633	-0.02689405158162117	0.0767245888710022	0.2357800453901291	-0.25731900334358215	0.2159302681684494	0.07376744598150253	-0.09261481463909149	-0.1650773137807846	0.15541379153728485	-0.18947646021842957	0.0906449630856514	0.13685011863708496	0.07020176202058792	0.08110085129737854	-0.08117760717868805	-0.3553307354450226	-0.0166909322142601	-0.11649435758590698	0.0668884664773941	-0.0065483637154102325	0.018922340124845505	-0.18215668201446533	0.40486928820610046	-0.05387909710407257	0.09889767318964005	0.16259510815143585	-0.0415666289627552	-0.13205620646476746	0.09152527153491974	0.1803435981273651	-0.03807291388511658	-0.10070718079805374	-0.09939513355493546	0.2210976481437683	0.1508491188287735	0.18968608975410461	-0.16223154962062836	-0.16343629360198975	-0.07287131994962692	-0.022589370608329773	0.05071478709578514	-0.2777598798274994	-0.23485508561134338	-0.32618626952171326	0.2762373089790344	0.02339395135641098	-0.28578582406044006	-0.08105511963367462	-0.05911175161600113	0.1592174768447876	0.05067356303334236	-0.12668666243553162	-0.1803797483444214	0.0890323594212532	0.04467209801077843	-0.00784815102815628	-0.4509194791316986	0.09090634435415268	0.05778075009584427	0.194959819316864	0.05872678756713867	0.13752606511116028	-0.30180126428604126	0.24324429035186768	-0.05484846606850624	0.23162995278835297	0.2959291934967041	-0.1528315246105194	0.2165517807006836	0.14765308797359467	-0.014336347579956055	-0.037521518766880035	-0.11014573276042938	-0.19528692960739136	-0.24321424961090088	0.008369475603103638	0.21639160811901093	0.10888597369194031	-0.024681733921170235	-0.013752032071352005	-0.16914519667625427	0.21976952254772186	-0.11378572881221771	0.22657237946987152	0.029785342514514923	-0.09745482355356216	0.19401638209819794	-0.1229310929775238	-0.11771455407142639	-0.14029046893119812	-0.11323079466819763	0.009433448314666748	-0.1321624517440796	-0.128606915473938	-0.04448183253407478	0.315168559551239	0.08924855291843414	0.04225572943687439	-0.03919707238674164	-0.06770531833171844	0.15092669427394867	0.005328260362148285	-0.11564715206623077	0.13679784536361694	-0.14777016639709473	0.08189209550619125	0.0055990880355238914	-0.10796515643596649	0.001952826976776123	0.029999002814292908	-0.01953970268368721	0.2007465809583664	0.09366588294506073	0.059366531670093536	-0.3101692199707031	0.1821867823600769	-0.1169169694185257	0.10318133234977722	0.034588370472192764	-0.40843358635902405	0.1958695948123932	0.06934824585914612	-0.15139654278755188	-0.08163174986839294	-0.09485502541065216	-0.1365736871957779	0.06002943962812424	-0.12588025629520416	0.22868342697620392	0.14558066427707672	0.15864884853363037	-0.03592401742935181	0.0886649489402771	0.026079196482896805	0.19426538050174713	-0.05210186168551445	-0.058374471962451935	0.11620834469795227	0.0012526735663414001	-0.1624688059091568	-0.11352862417697906	0.15835894644260406	0.18460676074028015	-0.2001299262046814	0.11089394241571426	-0.3193399906158447	0.13547809422016144	-0.07833734154701233	-0.11652737110853195	-0.1314472258090973	-0.3099406361579895	0.16730555891990662	0.07738552242517471	-0.1957804560661316	-0.19499391317367554	-0.05196923017501831	-0.08351269364356995	-0.301033079624176	-0.027694717049598694	-0.06141917407512665	-0.07161872088909149	-0.15053419768810272	0.010471619665622711	-0.07480106502771378	0.08875604718923569	-0.05320996791124344	-0.08871862292289734	0.010424409061670303	0.038841135799884796	-0.15211473405361176	-0.08807671070098877	-0.13400639593601227	0.054719507694244385	-0.1335376799106598	0.00438423827290535	-0.15482886135578156	-0.16651912033557892	-0.046384911984205246	-0.12867413461208344	-0.11458032578229904	0.306862473487854	0.1029057428240776	0.1240018755197525	0.01894421875476837	0.05403903126716614	0.10171359032392502	-0.23660342395305634	0.012879114598035812	-0.20136554539203644	-0.20247669517993927	0.14073054492473602	0.18541887402534485	-0.47095292806625366	-0.03452343866229057	0.23213981091976166	0.1528225839138031	-0.06222676858305931	
coniglio	0.047559816390275955	-0.06562039256095886	0.04413337633013725	0.13998852670192719	0.08668298274278641	-0.044669974595308304	0.039276499301195145	-0.03880710154771805	-0.01169750839471817	0.031663622707128525	0.025948965921998024	0.012398703955113888	-0.012169654481112957	0.007166221272200346	0.027932433411478996	0.10566458851099014	0.041946493089199066	-0.12685416638851166	-0.013404319994151592	-0.05752626061439514	-0.07062724977731705	0.042601268738508224	-0.052600760012865067	-0.09240834414958954	0.02346772886812687	-0.16718487441539764	0.02987329661846161	-0.0037990293931216	0.0014243230689316988	0.10041775554418564	0.031719908118247986	0.03962084278464317	0.000333993200911209	0.053477805107831955	0.011410994455218315	-0.07017295807600021	0.01921743154525757	0.08607025444507599	0.06178358197212219	-0.06304048746824265	0.004716742783784866	0.13638482987880707	-0.09399941563606262	0.05525369197130203	-0.11487960815429688	0.05284029245376587	-0.04445064812898636	0.0542999804019928	-0.03885453939437866	-0.036121916025877	-0.10987114906311035	-0.07285555452108383	0.0401783213019371	-0.07889679074287415	-0.08302923291921616	-0.035472605377435684	0.04820188507437706	-0.01488014217466116	-0.045653313398361206	0.014128178358078003	0.03636471554636955	0.10452699661254883	0.024766189977526665	0.016029974445700645	0.018736422061920166	-0.04996797442436218	0.05289982631802559	0.05528733879327774	-0.08495410531759262	0.04626605659723282	0.011415672488510609	-0.00845774170011282	0.026469111442565918	-0.03626874089241028	-0.05179359391331673	-0.09730257838964462	0.07655438035726547	0.03009365312755108	0.03913421556353569	0.029994359239935875	0.05292503908276558	-0.07173282653093338	-0.007474308367818594	-0.056079596281051636	-0.030210500583052635	-0.01871023327112198	0.03762359544634819	0.030489621683955193	-0.05423945188522339	-0.04946513846516609	-0.02047070488333702	-0.12759549915790558	0.0009172946447506547	0.029788091778755188	-0.012949192896485329	0.0206048134714365	0.07046198099851608	-0.02311813272535801	0.0769524872303009	-0.07313265651464462	-0.11214416474103928	-0.10284639894962311	-0.051285386085510254	-0.03527849540114403	0.05291193351149559	-0.00014959127292968333	-0.044024404138326645	0.092551589012146	-0.07492294162511826	-0.15169136226177216	0.010195305570960045	0.07680714875459671	-0.06539792567491531	0.024824485182762146	-0.057785119861364365	-0.0005600504809990525	-0.08629398792982101	0.027288181707262993	-0.0683797225356102	-0.025566456839442253	0.03342665731906891	0.09277244657278061	-0.02441691793501377	-0.09926988929510117	0.0949680507183075	-0.011725122109055519	0.0574905090034008	0.12950891256332397	0.08193258196115494	-0.09607287496328354	-0.01999989151954651	0.019307060167193413	-0.04976312071084976	-0.06332395225763321	-0.10249795764684677	-0.037024617195129395	0.11616835743188858	-0.05112288147211075	0.11504776775836945	0.013313245959579945	-0.10329099744558334	-0.06212577968835831	0.01811208203434944	0.07324687391519547	-0.02350621111690998	-0.005713481456041336	-0.11074166744947433	0.0443711057305336	-0.023920295760035515	0.004747271537780762	-0.01743517629802227	0.008719198405742645	-0.02142520621418953	0.0069879936054348946	0.0052762809209525585	0.01021626777946949	0.03960917517542839	-0.05058373883366585	0.01208670437335968	0.007127316202968359	-0.0030168616212904453	0.005693030543625355	0.0633736401796341	-0.023752307519316673	-0.001365297706797719	0.004119110759347677	0.06224962696433067	-0.03782068192958832	0.05202384665608406	-0.017330123111605644	0.006997407414019108	0.0013563167303800583	-0.015361887402832508	-0.0391855351626873	0.054782431572675705	0.006830345373600721	-0.04049628973007202	0.008149168454110622	-0.042140234261751175	0.05814206600189209	0.04794701933860779	-0.018846040591597557	0.03813760355114937	-0.028493603691458702	0.14570140838623047	-0.0463927686214447	0.06946957111358643	-0.01701938360929489	-0.08364704251289368	0.08788426220417023	-0.03380483016371727	-0.034683432430028915	-0.03384564816951752	-0.07015100121498108	-0.005954036023467779	0.05221014842391014	-0.06030939891934395	0.023496447131037712	0.009147210977971554	0.009864956140518188	0.009516599588096142	0.03814660757780075	0.11172068119049072	0.06597897410392761	-0.013962051831185818	-0.03369862213730812	0.036861125379800797	-0.0053075929172337055	0.09309066832065582	0.06380456686019897	-0.05498297140002251	0.018490279093384743	-0.08136133849620819	-0.08052817732095718	-0.014572985470294952	-0.08491746336221695	-0.06931404024362564	-0.1160229817032814	0.05038820579648018	-0.03651471808552742	0.0062282695434987545	0.08255680650472641	-0.05851283296942711	0.04892168566584587	0.0461229644715786	-0.0391981303691864	0.057879429310560226	-0.15445445477962494	-0.05645064637064934	0.10627888888120651	0.061040498316287994	-0.007651676889508963	0.0008298754692077637	0.09727784246206284	-0.02823898196220398	0.0024191371630877256	-0.017750227823853493	-0.02717946283519268	-0.013204446993768215	-0.0057494426146149635	0.022380709648132324	-0.025516394525766373	-0.0006496060523204505	-0.06344243884086609	0.09013768285512924	0.023630833253264427	-0.10209741443395615	-0.14797590672969818	0.06580516695976257	0.07762163132429123	0.022889694198966026	0.05414010211825371	-0.059645116329193115	0.05503275990486145	-0.03352227434515953	0.07491569221019745	-0.09005513787269592	-0.037466615438461304	0.07281162589788437	-0.05938982963562012	-0.10508380085229874	-0.05522964522242546	-0.004173436667770147	-0.03078521601855755	-0.014703283086419106	-0.042846955358982086	0.027412155643105507	-0.01132684014737606	0.005730020813643932	0.012471538968384266	-0.0005119689158163965	-0.0036963254678994417	-0.06817914545536041	0.016577664762735367	-0.08785446733236313	0.0016746253240853548	-0.007800314109772444	0.0586392879486084	-0.03190090134739876	-0.07705086469650269	0.004077577497810125	0.04389556124806404	-0.024182504042983055	-0.06386028975248337	-0.04149262234568596	0.0006953299161978066	-0.09044834226369858	0.0191012192517519	0.06106797978281975	-0.04705033451318741	-0.030588490888476372	-0.07210415601730347	-0.043178897351026535	0.09239641577005386	0.08702448755502701	-0.041304804384708405	-0.05529041215777397	0.16013768315315247	0.025005299597978592	-0.015580630861222744	
gabbiano	0.12242208421230316	0.03782001882791519	-0.00017017064965330064	0.06870380789041519	0.010147219523787498	0.03847550228238106	0.018659789115190506	0.04889111965894699	-0.07004164159297943	0.03613227233290672	-0.09243285655975342	-0.04205580800771713	0.007556053809821606	0.01217799261212349	-0.07693366706371307	0.05885399505496025	0.013548796996474266	-0.024130001664161682	-0.011574119329452515	-0.0013907452812418342	-0.0273519866168499	0.0737682580947876	0.03666744381189346	-0.032879769802093506	-0.001927858917042613	-0.0647314116358757	0.059317804872989655	-0.0843304842710495	0.0339331328868866	0.11261674761772156	0.03590866178274155	0.08616787195205688	-0.00255114259198308	0.035438671708106995	-0.0011814137687906623	0.007193520665168762	0.05582621321082115	-0.007135744206607342	-0.012776082381606102	-0.09978805482387543	-0.003709259908646345	0.08298170566558838	-0.03465181589126587	-0.06185273081064224	-0.04896499961614609	0.03198844939470291	0.07785745710134506	-0.01404311042279005	-0.037290532141923904	0.0017093190690502524	-0.02509063482284546	0.003474995493888855	0.008222091011703014	0.002312376629561186	-0.006655925419181585	0.03328663855791092	0.025233199819922447	0.032896868884563446	-0.03233613818883896	0.0518997386097908	0.06318201124668121	0.051591333001852036	0.017762212082743645	-0.004573099315166473	-0.06733714044094086	0.01698974519968033	-0.01197206974029541	-0.07221505045890808	0.0028444535564631224	-0.07709899544715881	-0.05065522715449333	-0.036919839680194855	-0.02356817200779915	-0.023380350321531296	-0.07407951354980469	0.09481565654277802	0.020137399435043335	0.00946961808949709	-0.029637422412633896	0.036942027509212494	0.0932236760854721	0.011666315607726574	0.006215950474143028	0.009998983703553677	-0.01767049916088581	-0.11035355925559998	0.051070328801870346	0.0008408675785176456	0.05196193978190422	-0.026116229593753815	-0.014333105646073818	-0.08523660153150558	0.03936345875263214	0.0033001236151903868	0.004229145124554634	0.007658720016479492	0.05264429375529289	0.0805148333311081	0.12117000669240952	-0.05607078596949577	-0.06077051907777786	-0.003717274870723486	-0.0007925505633465946	0.012333374470472336	0.006346931215375662	0.06628760695457458	0.03400209918618202	0.12612280249595642	-0.02842738851904869	0.042943790555000305	-0.07415987551212311	0.08471332490444183	-0.16453592479228973	0.05173705145716667	-0.03366054594516754	0.0806608498096466	-0.0507335364818573	0.03435242176055908	-0.07640668749809265	0.044111888855695724	-0.08912911266088486	-0.024114247411489487	-0.03611467033624649	0.014532748609781265	-0.06020161509513855	0.024015218019485474	0.01760006882250309	0.02140086144208908	0.018976692110300064	-0.0694366991519928	0.07510294765233994	0.04363463819026947	0.040492232888936996	-0.0480787418782711	-0.017116164788603783	-0.05705028772354126	0.05930536240339279	0.04179728031158447	0.02961045503616333	-0.011782404035329819	-0.04408179968595505	0.10817673057317734	0.016160663217306137	0.04896970093250275	-0.024523720145225525	-0.06789205968379974	-0.11050041019916534	0.1081448644399643	0.02848759852349758	0.08036573231220245	-0.011535322293639183	-0.0007406088407151401	-0.024722760543227196	-0.02182982861995697	-0.10108497738838196	0.02088533341884613	0.027151327580213547	0.01565597578883171	0.021389693021774292	-0.06724336743354797	-0.06602774560451508	-0.0489465706050396	0.031731098890304565	-0.08353820443153381	0.06918177008628845	-0.01696670800447464	0.10004639625549316	0.028476959094405174	0.06195068359375	0.11715824902057648	-0.016854051500558853	-0.030450668185949326	0.003002005396410823	0.07706692069768906	0.06110943481326103	-0.12491955608129501	-0.003062364412471652	0.029094159603118896	0.039550621062517166	-0.0267422404140234	-0.008085278794169426	-0.006564527750015259	0.003205766435712576	-0.04562431573867798	-0.006157952360808849	0.046301018446683884	0.09975218027830124	0.02488948218524456	0.0470208041369915	-0.040875568985939026	0.04338640719652176	-0.06606395542621613	0.03133215755224228	0.06616894900798798	-0.12241696566343307	-0.008686545304954052	-0.000282368331681937	0.01960526406764984	0.055992525070905685	-0.007105030119419098	1.7611309885978699e-06	0.014129439368844032	0.05887557566165924	0.013879740610718727	0.04460206627845764	-0.04401051253080368	0.02415863424539566	0.016200225800275803	0.10730534046888351	0.0221385657787323	-0.044406674802303314	-0.11214019358158112	-0.005697158165276051	-0.012334844097495079	-0.049181025475263596	-0.08774425089359283	-0.03878564015030861	-0.04729905351996422	0.0030879746191203594	-0.02128625474870205	0.0016226570587605238	0.03129985183477402	-0.13476361334323883	0.02694079838693142	0.06081510707736015	-0.005131366662681103	-0.11630161106586456	-0.036400798708200455	-0.042153459042310715	0.006185644771903753	-0.012955787591636181	0.014314941130578518	0.06141772121191025	0.06686569005250931	-0.0632212832570076	0.03998351842164993	-0.0458679124712944	0.026101451367139816	-0.05878054350614548	0.05309317633509636	-0.06893958896398544	-0.04362497851252556	-0.0638742744922638	-0.040679845958948135	0.04243439435958862	-0.04462842643260956	-0.04338420554995537	-0.024729019030928612	-0.08108528703451157	0.03884214162826538	0.026279961690306664	-0.0022523310035467148	-0.03844084590673447	0.025833547115325928	0.03244292736053467	0.04338653385639191	-0.1112019345164299	-0.08941536396741867	0.011056734248995781	-0.07369831204414368	-0.031961750239133835	-0.020113592967391014	-0.031131675466895103	-0.04734968766570091	-0.02219398319721222	0.025643590837717056	0.017329100519418716	-0.010846837423741817	0.01089918240904808	-0.023052003234624863	0.008276347070932388	0.024347778409719467	-0.060536712408065796	-0.023533565923571587	-0.025046922266483307	0.06147349998354912	-0.009640063159167767	0.038519084453582764	-0.03349466621875763	-0.020950347185134888	0.032715972512960434	-0.06693753600120544	-0.029034897685050964	0.08758702129125595	0.07025548070669174	-0.02014276012778282	-0.027112893760204315	-0.0018548592925071716	0.014969035051763058	0.014370616525411606	-0.014779966324567795	-0.05749519169330597	-0.09226930141448975	0.05122270807623863	-0.045679956674575806	-0.09205123037099838	-0.07520931959152222	0.1135266050696373	-0.014379529282450676	0.007589451503008604	
passero	0.03496532887220383	0.053038112819194794	-0.036717794835567474	0.0558704137802124	0.013343676924705505	-0.009919481351971626	0.03296134993433952	0.005617502611130476	-0.020969461649656296	0.0661715567111969	-0.11408956348896027	0.015204660594463348	0.04766638204455376	-0.04173702746629715	-0.014856609515845776	0.08434292674064636	-0.059014610946178436	-0.050900898873806	-0.014107277616858482	0.012969753704965115	-0.0574868768453598	0.026072844862937927	0.014502341859042645	-0.0033767237327992916	-0.019368765875697136	-0.06902557611465454	-0.01815372332930565	0.02062797360122204	0.03927363455295563	0.15018032491207123	0.07675599306821823	-0.0473128966987133	0.005742778070271015	0.021894846111536026	0.04415154084563255	-0.01242791023105383	0.04532884806394577	-0.007694907486438751	0.027755489572882652	-0.0022151859011501074	0.015929946675896645	0.09116418659687042	0.013737792149186134	0.07373884320259094	-0.09921290725469589	0.028958536684513092	0.04000571742653847	-0.026220178231596947	-0.019792282953858376	-0.05957915633916855	-0.05347185954451561	-0.08909910917282104	-0.032256584614515305	-0.04408801347017288	-0.04156114533543587	0.03626589477062225	0.05933377891778946	-0.012360438704490662	0.0390968881547451	0.09155850857496262	0.11753016710281372	0.12535159289836884	-0.012965455651283264	0.018231157213449478	-0.04572754353284836	0.04230731353163719	-0.04022722691297531	0.018308140337467194	-0.060235317796468735	0.03434468060731888	-0.038854848593473434	-0.02368834614753723	-0.0726410448551178	-0.09541299194097519	0.01687021553516388	0.054456502199172974	0.04223104938864708	0.02769070491194725	-0.0020496398210525513	0.020643211901187897	0.06706441938877106	-0.02408304437994957	0.008216816931962967	0.023322340101003647	0.010298164561390877	-0.07259178906679153	-0.0029175877571105957	0.009251037612557411	0.02603345923125744	-0.0037856600247323513	-0.029209796339273453	-0.09581831097602844	-0.04072795808315277	0.01039799302816391	0.01575320214033127	0.02473452314734459	0.02706816792488098	0.07536865770816803	0.1214742586016655	-0.06034993752837181	-0.00574647169560194	0.06287858635187149	-0.07697934657335281	0.0014872762840241194	0.013509283773601055	0.09228264540433884	-0.0921778529882431	0.025442540645599365	0.05328982695937157	-0.046809762716293335	-0.005945501383394003	0.029374679550528526	-0.21523325145244598	0.0170594472438097	-0.1401924043893814	0.038206398487091064	0.10082563757896423	0.018018342554569244	-0.06442911177873611	0.017461325973272324	-0.07153940945863724	0.049854859709739685	0.04158896952867508	0.02828102372586727	-0.05976293608546257	0.06261301040649414	0.03738135099411011	0.10138189047574997	-0.05407758057117462	-0.029179556295275688	-0.02563532069325447	-0.012426026165485382	-0.011868363246321678	-0.06666018068790436	-0.05879288911819458	-0.09199362993240356	0.04554946348071098	0.04436434432864189	0.05331595987081528	-0.014268933795392513	-0.011570322327315807	0.06528494507074356	0.03509239852428436	0.07118947803974152	-0.04488116502761841	0.0049879662692546844	-0.10876636207103729	0.02065291255712509	0.01682497188448906	-0.00697875302284956	-0.03228146582841873	0.004241079092025757	-0.05997372791171074	-0.01882828399538994	-0.07313616573810577	-0.014459881000220776	0.018961137160658836	0.0355389341711998	0.05782962962985039	-0.1522037386894226	-0.0898209735751152	-0.10320991277694702	0.03004619851708412	0.015178728848695755	-0.015637891367077827	-0.0556749664247036	0.05925443023443222	-0.07503052055835724	0.04128555953502655	0.08546407520771027	-0.0175858736038208	0.05192001163959503	0.043454866856336594	0.0978476032614708	0.07831408083438873	-0.0583038292825222	-0.08371531218290329	-0.002485052216798067	0.009022913873195648	0.07466402649879456	0.059240199625492096	-0.012785847298800945	0.028031891211867332	-0.08883246779441833	0.025317272171378136	0.007774859666824341	0.02739328145980835	0.04778125509619713	-0.06809377670288086	0.07122477889060974	-0.05626615136861801	-0.03682098537683487	-0.003961165435612202	0.03932400792837143	-0.14497432112693787	-0.06322775036096573	-0.027519792318344116	0.05814451724290848	0.06489290297031403	-0.014108428731560707	0.010136647149920464	-0.007827253080904484	-0.03855707496404648	0.002363938605412841	0.027308166027069092	-0.05877600610256195	0.020697331055998802	-0.01697363704442978	0.05827680975198746	0.03402978181838989	-0.005593149922788143	-0.027405252680182457	-0.027491401880979538	-0.00887514092028141	0.010279334150254726	0.03365994989871979	-0.01010223850607872	-0.07183536142110825	0.06743434071540833	0.01309835072606802	0.04322291538119316	0.08576148003339767	-0.03561323508620262	0.08402997255325317	0.047641389071941376	-0.031610649079084396	0.05611047148704529	-0.016110572963953018	-0.03539204224944115	0.025682752951979637	-0.09728536009788513	0.06527306139469147	0.04057057574391365	0.03150489926338196	0.019403882324695587	-0.0028809523209929466	0.05114293843507767	0.08004318922758102	-0.03134826570749283	-0.00633378466591239	-0.059533219784498215	0.008552047424018383	-0.010371740907430649	-0.036343175917863846	0.05940321832895279	0.022904537618160248	-0.0769645944237709	0.02830265834927559	-0.06307858973741531	0.061260949820280075	0.06718944758176804	0.028208643198013306	-0.007554979994893074	0.009197886101901531	0.08669818937778473	0.04411179944872856	-0.013873592019081116	-0.13512849807739258	-0.015063256025314331	-0.06341497600078583	-0.10413059592247009	0.010009227320551872	-0.045515090227127075	-0.013720721006393433	-0.05057365447282791	-0.01675274595618248	-0.04585465416312218	-0.00954966526478529	0.011661308817565441	-0.007348500192165375	0.09179207682609558	-0.08593981713056564	-0.05687114596366882	-0.03420469909906387	-0.05731966346502304	0.031163573265075684	-0.05524635314941406	-0.025171343237161636	-0.02347901090979576	-0.02082255855202675	0.09361238777637482	-0.058677759021520615	-0.030985862016677856	0.011451054364442825	-0.04572969675064087	0.04875032231211662	0.030895665287971497	0.06542723625898361	-0.010637376457452774	-0.05423831567168236	-0.025292642414569855	-0.11481108516454697	-0.09142321348190308	0.140081524848938	-0.05432647094130516	-0.010018108412623405	-0.014144833199679852	0.08469988405704498	0.051423124969005585	0.0314985029399395	
elefante	0.04199821501970291	-0.0356694757938385	0.018628234043717384	0.07818980515003204	0.012311548925936222	-0.08091019839048386	0.02310727909207344	0.01549810916185379	-0.027916884049773216	-0.03503036871552467	-0.06735855340957642	-0.026452936232089996	-0.006581562105566263	-0.02470855601131916	-0.026176506653428078	0.06844121217727661	0.02631743997335434	-0.05316944047808647	-0.027837563306093216	-0.0020642452873289585	0.07530131191015244	0.03323797509074211	-0.01193168479949236	0.07161203771829605	-0.019809603691101074	-0.04178215190768242	0.03544800728559494	0.0595155768096447	0.04315732792019844	0.05725204199552536	0.005409140605479479	-0.03196422755718231	0.04345313459634781	0.05989827215671539	0.029421284794807434	0.059413328766822815	-0.0003057143767364323	0.028817107900977135	0.05624277889728546	-0.061608921736478806	0.03613601624965668	0.03747229650616646	-0.050037723034620285	-0.022143913432955742	-0.08830471336841583	0.012686068192124367	0.006925525609403849	0.04916257783770561	-0.03540463745594025	-0.009186962619423866	-0.022418132051825523	-0.06153196468949318	-0.05685727298259735	-0.08627066016197205	-0.012011739425361156	0.019965466111898422	-0.0014527847524732351	-0.05646270886063576	-0.008802882395684719	-0.104212187230587	0.04222835600376129	-0.010266048833727837	0.08866241574287415	0.03432703763246536	-0.032148730009794235	-0.006810126826167107	0.010335396975278854	0.051011137664318085	-0.022621888667345047	-0.008185910061001778	-0.0002418250951450318	0.02738330140709877	-0.026334384456276894	-0.040098778903484344	-0.046261612325906754	0.015340697951614857	0.0007607581210322678	-0.03381771594285965	-0.025952911004424095	0.007513865828514099	0.012334235943853855	-0.030934112146496773	-0.0874243825674057	-0.02859891951084137	-0.02888808213174343	-0.006138430908322334	0.04055902361869812	0.011836552992463112	0.01543838158249855	-0.020441781729459763	-0.010919313877820969	-0.023182598873972893	0.005141343455761671	0.06656479835510254	0.0018355740467086434	0.027882449328899384	0.04517224803566933	-0.05099914222955704	0.06463924050331116	0.05082431808114052	-0.0205084178596735	0.023958845064044	-0.019744254648685455	-0.028627848252654076	-0.019705582410097122	0.029473459348082542	0.04057588800787926	-0.07354924082756042	-0.10594208538532257	-0.0877796858549118	-0.01696839928627014	0.07591567933559418	-0.017483806237578392	0.03454267233610153	0.01913040690124035	-0.0030990606173872948	-0.07382561266422272	-0.0054604047909379005	-0.06821291893720627	0.013348572887480259	0.013333828188478947	0.001267134677618742	0.04040022939443588	-0.0943598523736	0.031363554298877716	0.011547383852303028	-0.07260137796401978	0.06652519851922989	0.06607963144779205	-0.01793762296438217	-0.05721529200673103	0.033723603934049606	0.01329113356769085	0.019486308097839355	-0.017059262841939926	-0.07563916593790054	0.07053100317716599	0.014609059318900108	0.09008453041315079	0.004625298082828522	-0.012903609313070774	-0.026825105771422386	-0.005341014824807644	-0.002124752616509795	-0.031296245753765106	-0.017650801688432693	-0.09530169516801834	0.017818566411733627	-0.0043959664180874825	-0.04589547961950302	-0.015805460512638092	-0.021311631426215172	0.06521143764257431	-0.025112731382250786	-0.046119384467601776	-0.03800906985998154	0.0047632562927901745	-0.006606359500437975	0.040119994431734085	-0.10014066845178604	-0.002362185390666127	-0.014835638925433159	0.07237756252288818	-0.0013134299078956246	0.08334726840257645	0.03653140738606453	-0.005813692696392536	-0.05111405625939369	0.06533228605985641	0.002020648680627346	0.034071024507284164	0.09147471934556961	0.023396408185362816	-0.011770125478506088	-0.0383618101477623	-0.026319188997149467	0.06761668622493744	0.05115043371915817	-0.0187514778226614	-0.013187157921493053	-0.035915423184633255	-0.015894312411546707	0.0389949232339859	-0.04797210171818733	0.05727488175034523	-0.01573801599442959	0.07077492028474808	-0.07791750878095627	0.01290668360888958	0.05510766804218292	-0.05852726846933365	-0.03107590042054653	-0.03269175440073013	-0.03299330174922943	-0.05919856205582619	0.0001382205227855593	-0.07670799642801285	0.041314005851745605	0.013716724701225758	0.025024747475981712	0.017889879643917084	0.008429163135588169	-0.025804532691836357	0.04052171856164932	-0.0031163273379206657	-0.0931616723537445	0.015865204855799675	0.009383182041347027	0.013471532613039017	0.04325542598962784	-0.06101055443286896	0.05652444064617157	-0.02886820398271084	-0.10331211239099503	0.08763193339109421	-0.05561518669128418	-0.03965998813509941	-0.05946420505642891	0.0003712188045028597	-0.0422857366502285	-0.03236369788646698	-0.014682102017104626	-0.017690366134047508	0.0021572932600975037	0.09712862223386765	-0.023117152974009514	-0.002195534063503146	-0.013591059483587742	-0.021975567564368248	-0.0003342873533256352	-0.036892037838697433	-0.01060432568192482	-0.0016879802569746971	0.018112076446413994	-0.020467011258006096	0.028731370344758034	0.03328516334295273	-0.0025891498662531376	-0.019163932651281357	-0.04943517595529556	0.05495573952794075	-0.005305738188326359	-0.06113318353891373	-0.05037807673215866	0.033865347504615784	0.009043402038514614	0.016090979799628258	-0.00032677690614946187	0.001970812678337097	0.03375896438956261	0.006458527408540249	0.003491908311843872	0.00857290904968977	0.012514378875494003	0.04214475676417351	0.05026789382100105	-0.05329985171556473	0.008720901794731617	0.05378228798508644	-0.004754731897264719	-0.07737389206886292	-0.01843830943107605	-0.03241901099681854	-0.03482484444975853	-0.02143855206668377	-0.03841715306043625	-0.049076009541749954	0.0516231507062912	0.030632153153419495	-0.009418892674148083	0.02221960760653019	0.0429113544523716	-0.03145464509725571	0.01170075312256813	-0.053694963455200195	-0.009790434502065182	-0.03488186001777649	0.0068356809206306934	-0.014453121460974216	-0.05646684020757675	0.011116023175418377	-0.05575406923890114	-0.03160795196890831	0.02105785720050335	0.07175622880458832	-0.052791379392147064	0.009873557835817337	0.03023691102862358	-0.04143738001585007	-0.07474012672901154	-0.012923338450491428	-0.01445990800857544	-0.04912085086107254	0.03564581647515297	0.0894070416688919	-0.022567298263311386	-0.050211090594530106	0.09399251639842987	0.004042947664856911	0.012070280499756336	
gatto	0.08105576038360596	-0.020832344889640808	-0.03326921537518501	0.28555282950401306	0.13959413766860962	-0.19772450625896454	0.1012829840183258	0.010853562504053116	-0.10382400453090668	0.043134160339832306	-0.1483379602432251	-0.16765351593494415	-0.15447042882442474	-0.141543447971344	0.12743812799453735	0.22790759801864624	0.07685638964176178	-0.13873423635959625	-0.2019081711769104	0.015285342931747437	-0.06999817490577698	0.11306947469711304	0.01669297367334366	0.11389008164405823	0.020948171615600586	-0.3162095248699188	0.09814467281103134	-0.1449248045682907	0.09949643909931183	0.22119730710983276	0.022250264883041382	0.06751259416341782	-0.06465218216180801	0.11267238855361938	-0.025699101388454437	-0.047654781490564346	0.03917776793241501	0.0016832053661346436	-0.1169130727648735	-0.27667975425720215	-0.060212258249521255	0.11350961029529572	-0.11300615966320038	0.083791583776474	-0.21970374882221222	0.0677114874124527	0.029664501547813416	-0.057832032442092896	-0.12882547080516815	0.09360312670469284	-0.0628323033452034	-0.08581617474555969	0.17381557822227478	-0.1004461720585823	-0.28967732191085815	-0.01837741583585739	0.016137544065713882	-0.015512796118855476	-0.11910666525363922	0.20571906864643097	0.23382779955863953	0.17166924476623535	0.07774842530488968	0.057951927185058594	-0.054626137018203735	-0.05604231730103493	0.0791344940662384	0.3293943703174591	-0.21045874059200287	-0.11304444074630737	0.057572297751903534	0.024024302139878273	0.04918412119150162	-0.0012388424947857857	-0.19010013341903687	-0.13446511328220367	0.21461042761802673	-0.034004151821136475	0.010461684316396713	0.07740843296051025	0.1620522290468216	-0.051873765885829926	-0.10297764837741852	-0.2242473065853119	-0.05481767654418945	0.027771035209298134	0.04504567012190819	0.02804480493068695	0.08349931240081787	-0.09476929903030396	-0.08598263561725616	-0.35680150985717773	0.1231132447719574	0.027387045323848724	-0.007853735238313675	0.0833057314157486	0.19943207502365112	0.04547388106584549	0.18876314163208008	0.1472475826740265	-0.3626478612422943	0.10352075099945068	0.04481023550033569	-0.0306919626891613	-0.04293905571103096	0.04981231689453125	-0.29237306118011475	0.3312762975692749	0.011189112439751625	-0.01366141065955162	0.04181359335780144	0.007979433983564377	-0.2226155698299408	0.08079233765602112	0.042928218841552734	-0.04677370935678482	-0.17992711067199707	0.11444859951734543	-0.02886740118265152	0.08800940215587616	-0.18215864896774292	-0.01429703552275896	-0.007139408960938454	-0.07557591795921326	0.07363671064376831	0.1583249270915985	-0.1281859576702118	0.2381107658147812	0.21621590852737427	-0.15509971976280212	-0.11514034867286682	-0.0011334531009197235	-0.0628226026892662	-0.19765827059745789	-0.06681901961565018	0.037575967609882355	0.18216723203659058	0.10831187665462494	-0.011817451566457748	-0.0028241686522960663	-0.22391851246356964	-0.11692670732736588	0.17321527004241943	0.015557264909148216	-0.12287116050720215	-0.01001603901386261	-0.29298973083496094	0.15872392058372498	-0.007171487435698509	-0.11472785472869873	0.012964978814125061	-0.20333676040172577	-0.050067655742168427	0.008615938946604729	-0.18058869242668152	-0.09512712061405182	0.05120577663183212	0.006694279611110687	-0.13531750440597534	0.10309117287397385	-0.0842808410525322	0.23800498247146606	0.1942075490951538	-0.04042050614953041	-0.05327505245804787	-0.14226166903972626	0.5043118000030518	-0.04709460586309433	0.07587084174156189	0.03680960461497307	-0.17633967101573944	0.20457302033901215	-0.35128822922706604	0.07051338255405426	0.0020193764939904213	0.051979564130306244	0.13930052518844604	0.07853405177593231	-0.28847765922546387	0.0774877518415451	0.11528098583221436	-0.01693372055888176	0.023081772029399872	-0.17261219024658203	0.1866787075996399	0.10301094502210617	0.20211388170719147	-0.04852750897407532	0.009526226669549942	0.043645214289426804	-0.2666221857070923	-0.12237130850553513	0.10129284858703613	0.05666918307542801	0.20795530080795288	0.09330829977989197	0.03482562303543091	0.11699660122394562	-0.0699942409992218	0.07376687228679657	-0.16195787489414215	0.021733805537223816	0.05140361189842224	0.18888497352600098	-0.04526789113879204	0.11575621366500854	0.07859205454587936	-0.045663006603717804	0.12501785159111023	0.16399984061717987	-0.04043661057949066	-0.1042884960770607	-0.050334930419921875	-0.19847214221954346	-0.07339809089899063	-0.10427585244178772	-0.005846986547112465	-0.15202471613883972	0.08722178637981415	-0.02139931172132492	0.06991025060415268	-0.06449133902788162	-0.034931182861328125	0.004900157451629639	0.024693604558706284	-0.10078497976064682	0.08396042883396149	-0.10625369846820831	-0.13869871199131012	-0.09136060625314713	0.12302251160144806	0.06168437376618385	0.02954457886517048	0.032034121453762054	0.04786261171102524	0.0192553848028183	-0.09616735577583313	0.09121769666671753	-0.053132038563489914	0.29551613330841064	-0.07371813803911209	-0.07504820823669434	-0.31784379482269287	-0.1746165007352829	0.11554234474897385	0.13955456018447876	-0.046808499842882156	-0.042063482105731964	0.008838724344968796	0.10709482431411743	0.028707101941108704	-0.0693221241235733	-0.05080306529998779	-0.03825629502534866	-0.28113165497779846	0.08925261348485947	0.0530654601752758	-0.13811951875686646	0.03621939942240715	-0.12643738090991974	-0.21391354501247406	-0.11981696635484695	-0.033001720905303955	-0.2208438515663147	-0.14211642742156982	-0.017993908375501633	-0.01686783693730831	0.16131749749183655	-0.07888834178447723	-0.09051519632339478	0.005297736264765263	-0.05524676293134689	-0.16600847244262695	0.04176328331232071	-0.26388120651245117	0.02039177343249321	-0.03363415226340294	0.1564866304397583	-0.1005592942237854	-0.12960714101791382	-0.1237497329711914	-0.07323534786701202	-0.17085005342960358	0.18332427740097046	-0.03379165381193161	-0.04543614014983177	-0.05318792164325714	-0.11366286873817444	-0.0478157103061676	-0.1940770447254181	-0.0510215125977993	0.12968569993972778	-0.10509466379880905	0.18691302835941315	-0.022982178255915642	-0.22713184356689453	-0.2255105823278427	0.2160658836364746	0.0690288245677948	0.0638887882232666	
leone	-0.0470571294426918	0.047141194343566895	0.07415247708559036	0.13620036840438843	0.021066879853606224	0.019888026639819145	0.017003323882818222	0.023210516199469566	-0.17895987629890442	-0.07613090425729752	-0.27825605869293213	0.03998376429080963	-0.1413266658782959	-0.1165776178240776	-0.09193168580532074	0.1616797149181366	0.08649944514036179	-0.1992681920528412	-0.063742995262146	0.057131536304950714	-0.10609866678714752	0.09771396964788437	0.0243043415248394	0.19170251488685608	-0.038820140063762665	-0.1915358304977417	0.09096904844045639	0.007149594835937023	0.026413455605506897	0.10235892236232758	0.11038323491811752	0.13906455039978027	0.10758450627326965	0.07958425581455231	-0.029316065832972527	-0.03832390531897545	0.06969711929559708	0.027720605954527855	0.1120712012052536	-0.2267700731754303	-0.01600462757050991	0.21290084719657898	-0.1623777598142624	-0.04648588225245476	-0.13028857111930847	0.10820641368627548	0.2019437998533249	0.016733180731534958	-0.09316970407962799	0.03068792074918747	-0.14697128534317017	-0.08107911050319672	-0.13412156701087952	-0.05973300337791443	-0.054978661239147186	0.06435483694076538	0.10714446008205414	-0.011897159740328789	-0.03299935162067413	-0.14057260751724243	0.10428716242313385	0.11367996782064438	0.27189138531684875	-0.05581602081656456	-0.009780901484191418	-0.02707020938396454	0.16800230741500854	0.16035601496696472	-0.10653536766767502	-0.0768437385559082	0.18779230117797852	0.0031194209586828947	0.03793209418654442	0.0038106576539576054	-0.198540598154068	0.1325071156024933	0.09175574034452438	-0.09297391027212143	-0.004537011496722698	0.07645761221647263	-0.02084227278828621	-0.06514568626880646	0.010027483105659485	-0.06618901342153549	0.09090687334537506	-0.09729108214378357	-0.003956285770982504	-0.024126742035150528	0.1033100113272667	-0.11469583213329315	-0.10827098786830902	-0.01566658541560173	-0.008029858581721783	0.07107824087142944	0.03295459970831871	-0.0034831713419407606	0.06115546450018883	-0.11944575607776642	0.16015179455280304	-0.013170957565307617	0.007726202718913555	0.03169776499271393	0.15338627994060516	-0.01655442826449871	-0.044275812804698944	-0.033125944435596466	0.12825295329093933	0.03782797232270241	-0.04141990840435028	-0.19138750433921814	-0.09456342458724976	0.08042965829372406	0.05728614330291748	0.04210467264056206	-0.02480030059814453	-0.018837571144104004	-0.12353967130184174	0.06276572495698929	0.03598729521036148	-0.09281149506568909	0.04230095073580742	-0.07194569706916809	-0.06986436992883682	-0.0551052987575531	0.07875517755746841	-0.00806349515914917	-0.2539796233177185	0.16766318678855896	0.09438072144985199	-0.12050088495016098	-0.11037042737007141	0.010687589645385742	-0.02011883445084095	-0.0749693363904953	-0.0887959823012352	-0.14179734885692596	0.13798999786376953	0.18946336209774017	0.10974322259426117	0.017257414758205414	-0.0046216947957873344	0.1148933470249176	-0.023884519934654236	0.03311014547944069	-0.1081918329000473	-0.0385858416557312	-0.19762250781059265	-0.05636809393763542	0.02189074084162712	-0.13565385341644287	-0.07915360480546951	-0.0579131543636322	-0.09444829076528549	0.022282011806964874	-0.1758936643600464	-0.12628903985023499	-0.031415991485118866	0.09701383113861084	0.12462307512760162	-0.09944885224103928	-0.057567156851291656	0.24296699464321136	0.1271863877773285	-0.09952236711978912	0.16516080498695374	-0.01192945521324873	-0.015205321833491325	0.010800058022141457	0.08461883664131165	-0.0915437564253807	0.057108841836452484	0.22436627745628357	0.006691955029964447	0.07424452155828476	-0.04541587829589844	-0.023121705278754234	0.012586410157382488	0.09659889340400696	-0.01571214385330677	-0.008084475062787533	0.007171436678618193	-0.05583205819129944	0.09897412359714508	-0.14348188042640686	-0.0327899232506752	0.01724393293261528	0.10184269398450851	-0.021245945245027542	0.0478244423866272	-0.03907487541437149	0.028777852654457092	-0.16504454612731934	-0.06010698899626732	-0.0069124735891819	0.053337227553129196	-0.05450936779379845	-0.018617382273077965	-0.11936712265014648	0.21513047814369202	-0.00779538881033659	-0.010575061663985252	0.07738839834928513	-0.035570573061704636	0.12739282846450806	0.05589719116687775	-0.15388062596321106	0.035209886729717255	0.09597639739513397	0.11718332767486572	0.0794023722410202	-0.027632689103484154	0.09969177842140198	-0.12445305287837982	0.03927752003073692	0.08175601810216904	-0.022697752341628075	0.05491293966770172	0.08850158751010895	0.028041020035743713	0.16712157428264618	0.1191653236746788	0.19102045893669128	-0.13711009919643402	0.10250180959701538	-0.027712877839803696	-0.01627304218709469	0.0401127003133297	0.003493289230391383	-0.14775215089321136	-0.0858805701136589	-0.15788616240024567	-0.14147230982780457	0.018231021240353584	0.055352114140987396	0.18891124427318573	0.04877721890807152	0.007106046192348003	0.17965775728225708	-0.3353117108345032	-0.06596973538398743	0.09941904991865158	-0.025739595293998718	-0.2545472979545593	-0.11068718135356903	0.12160654366016388	0.041493870317935944	-0.14915642142295837	-0.20950457453727722	0.05762757360935211	0.05752936750650406	0.020098228007555008	9.237602353096008e-05	0.05579930543899536	0.10000255703926086	-0.0055276695638895035	0.28540509939193726	-0.06520099192857742	-0.1551421731710434	0.11835958808660507	-0.02440360188484192	-0.03124113380908966	-0.10419459640979767	-0.059527575969696045	-0.03942669928073883	-0.12040775269269943	-0.1967184990644455	-0.15090611577033997	0.17365720868110657	0.11555874347686768	-0.056605737656354904	0.13422110676765442	0.07645176351070404	-0.11130651831626892	0.017289604991674423	-0.150764599442482	-0.1551593542098999	-0.07849087566137314	0.047730520367622375	-0.07318039238452911	-0.042080700397491455	0.11761491000652313	0.03547804430127144	-0.040834732353687286	-0.009108939208090305	0.057387109845876694	-0.013870897702872753	0.029387105256319046	0.012850905768573284	-0.028261441737413406	-0.16561487317085266	-0.05319808050990105	0.07531993091106415	-0.15499413013458252	0.027171295136213303	0.16345086693763733	0.01707887277007103	-0.15687432885169983	0.27461203932762146	0.12515854835510254	-0.10261736810207367	
maiale	0.10305410623550415	-0.18991397321224213	0.21413326263427734	0.30619046092033386	0.1698901653289795	0.055184610188007355	0.06920649111270905	-0.07680712640285492	0.011977186426520348	0.16942402720451355	0.032511088997125626	-0.14916318655014038	0.02333381213247776	0.05509117990732193	-0.25254201889038086	0.28617265820503235	-0.016321033239364624	-0.18980154395103455	-0.3684876561164856	0.02885274589061737	-0.09798833727836609	-0.07962898910045624	-0.12904572486877441	-0.13656145334243774	0.016360335052013397	-0.2646690607070923	0.09947692602872849	0.19386768341064453	-0.08993108570575714	0.1716485321521759	-0.05426398664712906	-0.08062960207462311	0.2681969106197357	0.1903051882982254	-0.14801320433616638	0.012050417251884937	0.009899899363517761	0.1872379183769226	-0.13097535073757172	-0.38893842697143555	0.13476984202861786	0.038975320756435394	-0.0885041207075119	-0.1483432948589325	-0.30375105142593384	0.07826023548841476	0.14458881318569183	0.07599921524524689	0.09076660871505737	-0.0010560527443885803	0.1302855908870697	-0.05538318678736687	-0.08594902604818344	-0.02974911406636238	-0.24722646176815033	-0.15701891481876373	0.08093766868114471	-0.06579005718231201	-0.09194419533014297	0.11947158724069595	-0.01557520404458046	0.19281645119190216	0.09008999168872833	-0.018743645399808884	-0.1704338937997818	0.18110816180706024	0.07547198235988617	0.03356211259961128	-0.17773635685443878	-0.058115795254707336	0.06572801619768143	0.060418155044317245	0.01670784503221512	-0.07253994047641754	-0.043994784355163574	-0.041046615689992905	-0.20642787218093872	0.173583984375	0.00013739615678787231	0.06997202336788177	0.3606297969818115	-0.2831001579761505	0.02788916788995266	-0.12127498537302017	-0.05643666163086891	-0.26327210664749146	0.11548953503370285	0.05219761282205582	-0.0600028820335865	-0.11569775640964508	0.09076867997646332	0.20854616165161133	-0.036888487637043	-0.10335090011358261	0.018231913447380066	0.003992602229118347	0.1624608039855957	-0.09691858291625977	0.12032996118068695	0.03343717381358147	-0.13433125615119934	-0.06153326854109764	-0.18856358528137207	-0.05490132421255112	0.04242730140686035	0.24229195713996887	-0.28537699580192566	-0.061714351177215576	-0.20892253518104553	-0.27829545736312866	0.04601825773715973	0.042215608060359955	-0.030499298125505447	0.07029883563518524	-0.004390943795442581	-0.08025765419006348	-0.4590238630771637	-0.011159026995301247	-0.08017653226852417	-0.1512070596218109	0.0813528448343277	0.21932591497898102	-0.11101693660020828	-0.16885538399219513	0.19676688313484192	-0.061905473470687866	-0.04053683578968048	0.1118796244263649	0.12260245531797409	-0.23766842484474182	0.010519701987504959	-0.18468467891216278	-0.05385613068938255	-0.2167626917362213	-0.07893787324428558	0.07515271753072739	0.25866079330444336	-0.09879729896783829	0.15079720318317413	0.18152256309986115	-0.11746464669704437	-0.23471558094024658	-0.20302842557430267	0.1124277412891388	-0.10138338059186935	-0.14344270527362823	-0.36292293667793274	0.16232000291347504	-0.13089531660079956	0.05244850739836693	-0.10976551473140717	-0.07067140191793442	-0.016988996416330338	-0.03925788775086403	-0.3220674991607666	0.09783288836479187	0.06487315148115158	0.1094876155257225	0.11057654023170471	-0.02913786843419075	-0.22534605860710144	-0.1055028960108757	0.12627637386322021	-0.251198410987854	-0.16507281363010406	0.2223118543624878	0.011908426880836487	-0.0731142982840538	0.3345724046230316	-0.02365117520093918	-0.019214803352952003	0.03186870366334915	-0.06892073154449463	-0.16980843245983124	0.12064249813556671	-0.02298981323838234	-0.09190566092729568	-0.037455469369888306	-0.08271072804927826	-0.11507166922092438	0.18257708847522736	-0.11919720470905304	-0.081755131483078	-0.09925273805856705	0.13717369735240936	-0.13649122416973114	0.275812566280365	-0.19268713891506195	0.0053113605827093124	0.13132497668266296	-0.19743576645851135	-0.05953119695186615	0.1575353443622589	-0.0336916521191597	0.03384982794523239	0.020357543602585793	-0.08733820915222168	-0.16122794151306152	0.06386420130729675	-0.007546350359916687	0.06421221792697906	0.09923063218593597	0.018371861428022385	0.19357456266880035	0.06264755874872208	-0.1758236289024353	0.061973586678504944	-0.023267779499292374	0.12969499826431274	0.12097779661417007	-0.14917749166488647	-0.04835355654358864	-0.11959459632635117	-0.09475361555814743	-0.184876948595047	-0.2214229702949524	-0.27391132712364197	-0.22723595798015594	0.1305636614561081	-0.049822740256786346	-0.029246315360069275	-0.0005439196829684079	0.07972210645675659	0.16554614901542664	0.2292705476284027	-0.01056293211877346	-0.07811850309371948	-0.025247544050216675	-0.1013781875371933	-0.1613609939813614	-0.0016795238479971886	0.02503088302910328	-0.04741976782679558	0.06337305903434753	-0.03137535601854324	0.016809357330203056	0.04004380479454994	0.11866698414087296	-0.13489963114261627	0.1440535932779312	0.2307685762643814	-0.09002415835857391	-0.3181922435760498	-0.1690487563610077	0.19874785840511322	0.12453867495059967	-0.14365844428539276	-0.1275000274181366	-0.00910261832177639	0.12159624695777893	-0.12493880838155746	0.04571101441979408	0.0047488734126091	0.11753150820732117	0.1797512024641037	-0.005771949887275696	-0.12864580750465393	-0.002746380865573883	0.05649413913488388	0.07766130566596985	-0.06978927552700043	-0.11935202777385712	0.01580217480659485	-0.06819427758455276	-0.04427146166563034	-0.017670532688498497	0.11670959740877151	-0.25700145959854126	-0.07908082008361816	-0.09156428277492523	-0.042173631489276886	-0.21741259098052979	-0.27250367403030396	0.0028504282236099243	-0.3414144814014435	-0.019444413483142853	-0.09753464162349701	0.08226585388183594	-0.18733417987823486	-0.22893673181533813	0.2508445382118225	0.1266619861125946	-0.07673530280590057	-0.0649947002530098	0.061674170196056366	-0.013216201215982437	-0.029081694781780243	-0.03713788092136383	0.0341704897582531	-0.23211544752120972	-0.10045497119426727	-0.055881474167108536	-0.21207383275032043	0.10638676583766937	0.39903587102890015	-0.008136527612805367	-0.14418989419937134	0.31662270426750183	0.2192295789718628	-0.24339433014392853	
mucca	0.16550835967063904	-0.13646447658538818	0.27083009481430054	0.28458917140960693	0.07207497954368591	0.01648479700088501	0.03875840827822685	-0.18018518388271332	-0.14691948890686035	-0.1794654130935669	-0.03470093011856079	-0.049033597111701965	-0.1367066651582718	0.2669147849082947	-0.2676070034503937	0.2935486435890198	0.1434469223022461	-0.16549958288669586	-0.2553046643733978	-0.019486553966999054	0.07383949309587479	0.003316005691885948	-0.025333190336823463	-0.1849110722541809	0.08199238032102585	-0.07975779473781586	0.14051835238933563	0.13440124690532684	0.3470380902290344	0.17311552166938782	0.06602480262517929	0.16625410318374634	0.257271409034729	0.09164579957723618	-0.35451820492744446	0.20933862030506134	0.02571973204612732	0.07299502938985825	0.06710077077150345	-0.4063359200954437	0.22487644851207733	-0.23090703785419464	-0.087764672935009	-0.17252494394779205	-0.3177635967731476	0.12929095327854156	0.06670928001403809	-0.04914984852075577	-0.1499054729938507	0.02377604879438877	-0.16415543854236603	-0.09430667757987976	-0.10084658861160278	0.088903047144413	-0.2506307065486908	0.0876067653298378	0.3280012309551239	0.10756415128707886	-0.06689814478158951	0.00849977694451809	0.086566261947155	-0.03038959950208664	0.3401907980442047	-0.008396677672863007	-0.22527404129505157	0.08026720583438873	0.08080034703016281	-0.029145479202270508	0.11308151483535767	-0.23517441749572754	0.16296711564064026	0.05017410218715668	-0.0421338714659214	0.22718052566051483	-0.20300951600074768	-0.12411879003047943	-0.11472107470035553	0.13872486352920532	0.05531224608421326	0.07279011607170105	-0.07979801297187805	-0.37805041670799255	-0.039009805768728256	-0.08562743663787842	-0.02885587327182293	-0.2742408812046051	0.14163875579833984	-0.00944305956363678	-0.09329324215650558	-0.07415218651294708	-0.02400236576795578	-0.08314177393913269	0.0754551887512207	0.028267372399568558	-0.02220185101032257	-0.05181005597114563	0.03656233474612236	-0.19725756347179413	-0.09814734756946564	-0.14106059074401855	-0.05369843542575836	-0.153609499335289	-0.05181266739964485	-0.051835864782333374	0.05268134921789169	0.0017513670027256012	-0.17792731523513794	-0.26865601539611816	-0.11102226376533508	-0.18065831065177917	0.1546265035867691	0.033689890056848526	0.07586285471916199	0.06537021696567535	0.0793769359588623	-0.1368703991174698	-0.18199165165424347	-0.01704232022166252	-0.13694311678409576	-0.17664660513401031	-0.10662497580051422	-0.08546025305986404	0.022809280082583427	-0.06531095504760742	0.12663483619689941	-0.06947825103998184	-0.10242046415805817	-0.0495617650449276	0.15855130553245544	-0.044772468507289886	0.11105085909366608	0.05413611978292465	0.05342862755060196	-0.17720359563827515	-0.2911053001880646	-0.1191093772649765	0.23899367451667786	-0.07904668152332306	0.15189048647880554	0.24678371846675873	-0.06258656829595566	-0.0784158706665039	-0.01492735929787159	0.008607420139014721	-0.05490534007549286	-0.2635548710823059	-0.3641323745250702	0.2030140906572342	0.07842624187469482	0.09032052755355835	-0.05387655273079872	-0.32564765214920044	-0.07985612750053406	-0.09092645347118378	-0.22234421968460083	-0.005149770528078079	0.010253306478261948	0.017928369343280792	0.07421908527612686	0.022710133343935013	-0.05671777203679085	0.16010822355747223	0.16418343782424927	-0.14588919281959534	-0.1362665891647339	0.06974652409553528	-0.1002192497253418	0.006407356355339289	0.48849207162857056	0.23020538687705994	-0.005225582513958216	0.13395839929580688	-0.27072426676750183	-0.06490831077098846	-0.1746138036251068	0.013180030509829521	0.05759631469845772	0.03717618063092232	0.049625951796770096	0.0021566003561019897	0.14490672945976257	-0.09147390723228455	0.09182754158973694	-0.20298747718334198	0.10617049038410187	-0.008090019226074219	0.2971794009208679	0.21339786052703857	0.1263590306043625	0.0420612134039402	-0.14492660760879517	-0.011481118388473988	0.35054436326026917	-0.047601357102394104	-0.013444215059280396	-0.08039264380931854	-0.14108847081661224	-0.02291758731007576	0.2592466175556183	0.0005690008401870728	0.05436578392982483	0.0681137666106224	0.0841820165514946	0.09633465856313705	0.014783278107643127	0.21200266480445862	-0.0745229423046112	-0.1283545345067978	0.14410176873207092	0.09307990968227386	-0.2113368809223175	0.10386158525943756	-0.1532260775566101	-0.06946422904729843	0.004962373524904251	-0.29583969712257385	-0.04407089948654175	-0.3914163410663605	0.1565619707107544	0.02189965359866619	-0.07512859255075455	-0.0016889162361621857	-0.18424589931964874	0.28355664014816284	0.219512939453125	0.017816178500652313	0.047030046582221985	-0.11673706769943237	-0.12737210094928741	-0.013376835733652115	-0.0600128211081028	-0.14503349363803864	0.024246323853731155	0.13122987747192383	0.05817185714840889	-0.0651123970746994	0.15290869772434235	0.10298693180084229	-0.0994270071387291	0.057287927716970444	0.26189860701560974	-0.006990835070610046	-0.039483506232500076	-0.15003345906734467	0.2152322381734848	0.05225735157728195	-0.02754550240933895	0.08214768022298813	-0.07190574705600739	0.06254760921001434	0.08580031245946884	-0.04396810755133629	0.018094774335622787	0.019861284643411636	0.12776044011116028	0.05816738307476044	-0.12231090664863586	-0.03354867175221443	0.13827064633369446	-0.05456854775547981	-0.1322457492351532	-0.22903329133987427	-0.02060389518737793	-0.14195498824119568	0.054548777639865875	0.024952631443738937	-0.0076646581292152405	-0.12158707529306412	-0.06279541552066803	-0.11377286911010742	0.11975281685590744	-0.19427362084388733	-0.2264004349708557	0.024763327091932297	-0.25405073165893555	0.13759419322013855	-0.17027664184570312	0.05689811706542969	-0.0914689153432846	-0.18539778888225555	0.1387353241443634	-0.07260511815547943	-0.09411467611789703	-0.09134282916784286	-0.016043327748775482	0.041226424276828766	0.05818221718072891	0.10564915835857391	-0.04134545475244522	-0.06330088526010513	-0.07095949351787567	0.09625706076622009	-0.41168051958084106	-0.22666506469249725	0.2906189262866974	-0.09513463079929352	0.10469043999910355	0.3741045296192169	0.10864593088626862	-0.0811680406332016	
serpente	0.00784967839717865	-0.03612081706523895	0.04177812859416008	0.13816285133361816	-0.034351639449596405	-0.031841348856687546	0.09310830384492874	-0.05043252930045128	-0.044580500572919846	-0.012892331928014755	-0.1300983726978302	-0.020308826118707657	-0.08950154483318329	-0.006826252676546574	0.07134172320365906	0.10340860486030579	0.05863945931196213	-0.11187310516834259	0.011124166660010815	0.020684663206338882	-0.027870362624526024	-0.0768289566040039	0.10179789364337921	0.12596288323402405	-0.01924045756459236	0.006430677603930235	-0.05138368532061577	0.09198366105556488	0.05130228400230408	0.1373768448829651	-0.0982745811343193	0.18162210285663605	0.09487153589725494	0.0032422859221696854	-0.0019212723709642887	0.026012202724814415	0.024081911891698837	0.050580523908138275	-0.035991158336400986	-0.20591884851455688	-0.050935208797454834	0.19709160923957825	-0.08929809927940369	-0.0064933644607663155	-0.11832685768604279	0.03553028032183647	-0.03598376363515854	0.007316656410694122	-0.08690904825925827	-0.0006592054851353168	-0.05821005627512932	-0.06592618674039841	-0.010987672954797745	-0.09176705032587051	-0.11182910203933716	-0.02675248123705387	0.060586366802453995	-0.04856972396373749	-0.07975830882787704	0.03167682886123657	-0.05894942581653595	0.02330184355378151	0.07189617305994034	-0.03697110339999199	-0.08802565187215805	0.12222584336996078	0.09355413168668747	-0.09627190232276917	-0.02401929534971714	-0.1020159125328064	0.011693518608808517	-0.0936567410826683	0.08500142395496368	-0.05803801864385605	-0.15341098606586456	0.044470325112342834	0.028649473562836647	-0.1613202691078186	-0.00023192167282104492	-0.004673825576901436	0.0555296316742897	0.038753166794776917	-0.0031397738493978977	-0.016448013484477997	-0.049066733568906784	-0.027016105130314827	-0.02415112778544426	0.02714858017861843	0.09957586228847504	0.018407151103019714	-0.016933299601078033	0.056934256106615067	-0.016260892152786255	-0.07120968401432037	0.019462689757347107	0.04444412142038345	0.03494266793131828	-0.03762846440076828	0.01370312087237835	-0.008665724657475948	-0.03417301923036575	-0.047892976552248	0.10284870862960815	-0.03117191232740879	-0.08042703568935394	-0.000610114075243473	-0.13100580871105194	-0.008835024200379848	-0.0652596727013588	-0.11816716939210892	-0.019278939813375473	-0.05571387708187103	-0.07255704700946808	0.05359353870153427	0.06726770848035812	0.024271178990602493	-0.11081412434577942	0.05804114043712616	-0.050763145089149475	0.03822162374854088	-0.00946030393242836	0.2060319185256958	-0.0453217476606369	-0.07877836376428604	0.029379067942500114	0.010911425575613976	0.016253720968961716	0.14285632967948914	-0.022754456847906113	-0.052040278911590576	-0.08071020990610123	-0.011089624837040901	-0.10752613097429276	-0.07963306456804276	-0.057159535586833954	-0.1283790022134781	0.09503328055143356	0.06048211082816124	0.0832805261015892	-0.10043685883283615	0.0034647416323423386	-0.03213890641927719	0.07991152256727219	-0.0432533398270607	-0.054992832243442535	-0.12355595827102661	-0.14204582571983337	0.03154411539435387	-0.12224902957677841	-0.11254376918077469	-0.04765485227108002	0.10236410796642303	-0.031066037714481354	-0.03962095454335213	-0.012580466456711292	-0.01379023864865303	0.023444093763828278	-0.02969757840037346	0.06866166740655899	-0.0854608342051506	0.04735882580280304	0.03450409695506096	0.0961344912648201	-0.036415111273527145	0.019175736233592033	-0.02187146618962288	0.232415109872818	0.018302835524082184	0.10339754074811935	0.051776204258203506	-0.02057316154241562	0.10643322020769119	-0.11905528604984283	0.012110598385334015	-0.047160107642412186	0.03627374395728111	0.09668929874897003	0.0575292631983757	0.07197286933660507	0.08959760516881943	-0.03693816065788269	-0.041856490075588226	-0.01204274594783783	-0.10427495092153549	0.07987016439437866	0.03862673044204712	0.12684591114521027	0.06021491810679436	-0.012516308575868607	0.11434071511030197	-0.07766254991292953	0.04117292910814285	-0.07579988986253738	-0.1293926239013672	-0.07918516546487808	0.04660576209425926	-0.02317040041089058	-0.013432161882519722	0.10420486330986023	-0.04351820796728134	0.023137256503105164	0.04713954031467438	-0.035858094692230225	0.04398997873067856	0.003882363438606262	0.13476121425628662	0.002035249024629593	0.006985870189964771	0.05554347112774849	0.0688253790140152	-0.034036263823509216	0.09559744596481323	-0.06563157588243484	-0.06159393489360809	-0.0660116896033287	-0.05059793218970299	0.024267956614494324	-0.14200657606124878	0.0829755961894989	0.01643284596502781	-0.034836623817682266	0.048784639686346054	-0.08482339233160019	0.10390610992908478	0.0628870502114296	0.0025701597332954407	0.08064138889312744	0.032422829419374466	-0.06019424647092819	0.09374337643384933	-0.03520599380135536	-0.08118091523647308	0.0466378852725029	-0.08092158287763596	-0.02042536996304989	-0.017122497782111168	0.01417999155819416	-0.04918750375509262	0.04031946510076523	-0.05199933052062988	0.1753450483083725	0.021641232073307037	-0.017118971794843674	-0.07668006420135498	0.08998199552297592	-0.018717877566814423	-0.04453549534082413	-0.052918940782547	-0.07084190100431442	0.028640571981668472	0.019599953666329384	0.019851934164762497	-0.045668065547943115	0.08128699660301208	0.12112872302532196	0.019298769533634186	-0.04812999069690704	-0.103806272149086	-0.034493930637836456	-0.08464504033327103	-0.14056962728500366	-0.035055503249168396	-0.04974221810698509	-0.015592362731695175	-0.07297961413860321	0.06308833509683609	0.01683121547102928	0.06832171976566315	-0.024243207648396492	-0.007844299077987671	0.022206056863069534	-0.07489647716283798	-0.09883906692266464	0.03609840199351311	-0.025791697204113007	0.06706379354000092	-0.06322291493415833	0.03435610234737396	-0.033918533474206924	-0.07633719593286514	0.0638967975974083	0.012691907584667206	-0.030888348817825317	0.051058221608400345	0.008228200487792492	-0.007765620946884155	0.03502759709954262	0.015761233866214752	-0.07128247618675232	-0.1518164724111557	-0.042940251529216766	0.035400938242673874	-0.08717978000640869	0.042379915714263916	-0.052934352308511734	-0.0636935755610466	-0.12517322599887848	0.15223123133182526	0.07474925369024277	-0.05335388332605362	
tigre	-0.03847666084766388	-0.03200116753578186	0.11685976386070251	0.11010073125362396	0.03561336174607277	-0.10578985512256622	0.07616114616394043	0.010390062816441059	-0.04369828850030899	-0.014476069249212742	-0.13782894611358643	-0.006322704255580902	-0.08219905197620392	-0.09636739641427994	0.08759090304374695	0.1020222157239914	0.0258287712931633	-0.14239682257175446	-0.01869848184287548	0.014397164806723595	0.017983373254537582	0.059946347028017044	0.07628295570611954	0.13329803943634033	0.040220364928245544	-0.049781616777181625	0.04298536479473114	0.10837627947330475	0.11348560452461243	0.10954836010932922	-0.0853208377957344	0.09143856167793274	-0.006345363333821297	0.10937783122062683	-0.06306290626525879	0.08504065871238708	-0.0016436891164630651	0.04094786196947098	0.17312690615653992	-0.04945267364382744	0.0006922096945345402	0.13851936161518097	-0.07671508938074112	-0.00428713858127594	-0.16251783072948456	0.07671910524368286	0.013189869001507759	0.04062097519636154	-0.15811818838119507	0.0024017002433538437	-0.12144289165735245	-0.05249717831611633	-0.018840722739696503	-0.039484985172748566	-0.09554925560951233	-0.05073028430342674	0.0064004817977547646	-0.02961769886314869	-0.0013709906488656998	0.06951142847537994	0.063297338783741	0.023864489048719406	0.13326233625411987	0.026332009583711624	-0.10065165907144547	-0.049336761236190796	-0.017491400241851807	0.09851996600627899	-0.14849230647087097	-0.1464850753545761	0.06742803752422333	-0.0035102441906929016	-0.0023999065160751343	-0.0006030411459505558	-0.0636642575263977	0.011592785827815533	0.049663323909044266	-0.03411874175071716	0.004238661378622055	0.0159137062728405	0.014373390935361385	0.14098823070526123	0.0027123671025037766	-0.14011995494365692	0.025365248322486877	0.09124650806188583	0.07546867430210114	0.027095312252640724	0.08585234731435776	-0.10377515852451324	-0.18223698437213898	0.012716091237962246	0.005740400403738022	0.015591382049024105	0.05414470285177231	0.015155220404267311	0.09610798954963684	-0.051530081778764725	0.0464182011783123	0.05728951096534729	-0.03501654788851738	0.05901828408241272	0.02019636332988739	0.00018082745373249054	-0.03285776078701019	0.011100312694907188	-0.014173146337270737	0.004802956245839596	-0.06974738836288452	-0.12365680187940598	-0.10594592243432999	0.035529449582099915	0.005984846502542496	0.027185022830963135	-0.014059048146009445	-0.08193762600421906	-0.10820356011390686	0.03627234324812889	-0.0781983733177185	0.0376993827521801	-0.07434345781803131	0.022822652012109756	-0.06106313318014145	-0.10029385983943939	0.05828281119465828	-0.015063205733895302	-0.18472641706466675	0.1097964271903038	0.02549006976187229	-0.03151736408472061	-0.10500179976224899	0.051756225526332855	-0.020488718524575233	-0.10023671388626099	-0.07985290884971619	-0.06435785442590714	0.1330840289592743	0.06706772744655609	0.17417696118354797	-0.0985061377286911	0.020566435530781746	0.011906883679330349	-0.03491272032260895	-0.001965570729225874	-0.027017291635274887	-0.0889551043510437	-0.16329148411750793	0.08162125200033188	-0.0033769370056688786	-0.16041330993175507	-0.010327257215976715	0.04855377599596977	-0.05699604004621506	-0.033844366669654846	-0.04206521436572075	-0.0334731787443161	-0.031114954501390457	-0.0415092334151268	0.07474774867296219	-0.11876258254051208	-0.0692356526851654	0.14314809441566467	0.030453696846961975	-0.0667966902256012	0.15586189925670624	0.026929795742034912	0.16331207752227783	-0.06481751799583435	-0.014786357060074806	0.03538239002227783	0.014813266694545746	0.2085145115852356	-0.12706464529037476	0.034694284200668335	0.012530762702226639	-0.07371675968170166	0.14532236754894257	0.1007394939661026	-0.1258869767189026	0.09544356912374496	-0.0717199519276619	-0.017413055524230003	0.07308360934257507	-0.09774184226989746	0.0475277453660965	-0.08260448276996613	0.09762672334909439	-0.04618013650178909	0.07611782848834991	-0.00555506581440568	-0.07807335257530212	-0.03771013021469116	-0.10067187994718552	-0.04148288071155548	-0.02311817556619644	-0.01996062509715557	-0.055545251816511154	0.01422970648854971	0.09890724718570709	-0.0344158336520195	0.01278403215110302	0.017639588564634323	-0.006985271815210581	0.08257964253425598	-0.0021283775568008423	0.02816794067621231	0.01890869438648224	-0.01916898600757122	0.025910988450050354	0.1552714705467224	-0.059689752757549286	0.14994579553604126	-0.04538195580244064	0.03551088273525238	0.013785459101200104	0.007778621278703213	-0.10099294781684875	0.01406803634017706	0.061033785343170166	0.006419087760150433	0.02198878303170204	0.13591575622558594	-0.0368102602660656	0.12022567540407181	0.050004370510578156	-0.02850497141480446	-0.07510412484407425	0.02619408443570137	-0.07641809433698654	0.04462548717856407	-0.06682226806879044	-0.008089989423751831	0.06655287742614746	0.03873147815465927	0.018591351807117462	0.06189138442277908	0.005102780647575855	0.0640246644616127	-0.07512786239385605	-0.07594263553619385	0.09158097952604294	0.010655809193849564	-0.2006913721561432	-0.0805015116930008	0.07846320420503616	-0.020231856033205986	-0.030720077455043793	-0.06364280730485916	0.07864882797002792	0.05769381299614906	0.05747944861650467	0.002111729234457016	-0.09505695849657059	0.06017303466796875	0.010078389197587967	0.1382891982793808	-0.01235977839678526	-0.040181443095207214	0.06932608783245087	-0.01776372641324997	-0.15036612749099731	-0.05729077011346817	-0.0292138010263443	0.003962778486311436	-0.051402054727077484	-0.1479523926973343	-0.008110533468425274	0.04413861036300659	0.025533748790621758	-0.009261265397071838	0.030806144699454308	0.034313276410102844	-0.1756967306137085	0.01849457249045372	-0.04881644248962402	-0.0005132127553224564	-0.08334717154502869	-0.01224604994058609	-0.0660603940486908	-0.06710123270750046	0.010196547023952007	-0.0841081365942955	-0.06589902192354202	0.08829590678215027	0.10665400326251984	-0.13379530608654022	-0.03443942219018936	0.008885206654667854	-0.021669453009963036	-0.05381036922335625	-0.04378046095371246	0.07013385742902756	-0.14495451748371124	-0.015642676502466202	0.07997550070285797	-0.09135687351226807	-0.03167080879211426	0.17079688608646393	-0.04344732314348221	0.02792890928685665	
topo	0.14361153542995453	-0.01715903729200363	0.052778493613004684	0.14552241563796997	0.06561832129955292	0.08073078095912933	0.04026278853416443	-0.049368925392627716	-0.1192217767238617	-0.17800182104110718	0.0029258709400892258	-0.06301058828830719	-0.09137248992919922	-0.003899729810655117	0.09056466817855835	0.08029831200838089	0.1262977570295334	-0.06971227377653122	-0.0072226920165121555	-0.05160050839185715	-0.1164519414305687	0.023440804332494736	-0.0564020574092865	-0.03752746060490608	0.02288450486958027	-0.11398456990718842	0.06175091117620468	0.06311210989952087	0.2170269787311554	0.17134572565555573	0.07775281369686127	0.02901662327349186	0.0060569364577531815	0.048368167132139206	0.03686295822262764	-0.015168290585279465	-0.0018036030232906342	0.07676484435796738	0.06190521642565727	-0.08897989243268967	0.10830847918987274	0.10304127633571625	0.05033166706562042	0.009263789281249046	-0.09934359043836594	0.04081716388463974	-0.018476560711860657	-0.03828209638595581	0.042921338230371475	-0.04986726492643356	0.10316304862499237	-0.06307035684585571	-0.03861037641763687	0.002940721809864044	-0.20592769980430603	-0.05677635595202446	0.010134601965546608	0.03758011385798454	-0.057839665561914444	-0.028939446434378624	0.14950695633888245	0.08139391988515854	0.04710151255130768	-0.004324629902839661	0.04779941588640213	0.013853655196726322	0.011182689107954502	0.08498954027891159	-0.13889436423778534	-0.065816730260849	0.03264971077442169	-0.1604456901550293	0.03926175832748413	0.015332892537117004	-0.09392806142568588	-0.028913725167512894	0.009525303728878498	-0.037621136754751205	-0.022240018472075462	0.009621314704418182	0.07311069220304489	-0.11152906715869904	-0.09590178728103638	0.02653941512107849	-0.000383034348487854	0.07294844835996628	-0.029197933152318	0.0538296177983284	0.13026416301727295	-0.020973242819309235	-0.04003071039915085	-0.09592609107494354	-0.014597665518522263	-0.06432804465293884	0.013503853231668472	0.034530363976955414	0.061440348625183105	-0.15119370818138123	0.07539060711860657	0.1374770700931549	-0.00734468549489975	-0.03242151066660881	-0.13414479792118073	-9.784195572137833e-05	0.02631702460348606	-0.042876847088336945	-0.031858574599027634	0.09800150990486145	0.06555598229169846	-0.05138020217418671	-0.01931753009557724	0.04049336910247803	-0.06538499891757965	0.039521992206573486	-0.01654520258307457	-0.08819612115621567	0.1358320713043213	0.06541016697883606	-0.042195264250040054	0.08415082097053528	0.04575750231742859	0.0965208113193512	0.02771833911538124	0.03323524445295334	0.07836434245109558	-0.017368381842970848	-0.05488584190607071	0.1656525582075119	-0.021630289033055305	-0.06469044089317322	0.05281536653637886	-0.0759306252002716	-0.005022261291742325	-0.039159178733825684	-0.03794557601213455	-0.013869237154722214	0.10880795866250992	0.008741641417145729	-0.06873548775911331	0.10074847936630249	-0.030444055795669556	-0.09507372230291367	0.1280234456062317	-0.11578353494405746	-0.01846679113805294	-0.011088146828114986	-0.1522563397884369	0.026798708364367485	0.13386806845664978	-0.0718473345041275	0.0042693521827459335	-0.09744594991207123	0.010156535543501377	0.04212268441915512	-0.17144905030727386	-0.10728403180837631	0.05893951654434204	-0.008614761754870415	0.07006010413169861	0.07430019974708557	0.026291154325008392	-0.023026838898658752	0.04653308913111687	0.0411405935883522	-0.021313998848199844	0.08959925174713135	0.04589077830314636	0.045350126922130585	-0.002397858304902911	0.011863273568451405	-0.01745264232158661	-0.04475284367799759	-0.027909040451049805	-0.01862204819917679	0.09543980658054352	0.05034073814749718	0.07013806700706482	0.07798463106155396	-0.07913677394390106	0.06735706329345703	0.03381836414337158	0.0057233236730098724	0.14319348335266113	-0.05635443702340126	0.15317320823669434	0.006038926541805267	0.07116419821977615	-0.008223931305110455	-0.04307352751493454	0.17028968036174774	0.009925087913870811	0.025004761293530464	-0.04571744427084923	-0.10265505313873291	-0.021314548328518867	0.14574892818927765	0.09883858263492584	0.049552809447050095	-0.08200378715991974	0.010358661413192749	0.06661088019609451	0.02890167571604252	0.015052927657961845	0.011207656934857368	-0.06638873368501663	-0.0017556494567543268	0.042007721960544586	0.015667008236050606	0.15984293818473816	0.06240014731884003	-0.021631527692079544	0.011037429794669151	-0.024820411577820778	0.06132590025663376	0.019654352217912674	-0.11968826502561569	-0.006261186674237251	-0.0757695734500885	0.18351255357265472	0.011601734906435013	0.09066139906644821	0.0893714502453804	-0.029595786705613136	0.016184255480766296	0.015920259058475494	-0.02758614905178547	-0.009827403351664543	-0.059522345662117004	-0.1110096424818039	-0.06837602704763412	0.16076764464378357	0.03761061280965805	-0.030746251344680786	0.16325147449970245	-0.04526999592781067	0.04246563836932182	-0.11494429409503937	0.0026082945987582207	-0.07549659162759781	-0.007115883752703667	-0.07529163360595703	0.02530323900282383	-0.09477046877145767	-0.07689034938812256	0.07241783291101456	0.040192220360040665	-0.04521472007036209	-0.0783877968788147	-0.0674627274274826	0.08442211896181107	-0.08176463842391968	0.026505984365940094	0.057779088616371155	-0.005499294027686119	0.0019696783274412155	0.06523851305246353	-0.10537752509117126	0.017785079777240753	0.062499403953552246	-0.05764569714665413	-0.200631782412529	-0.03522172197699547	-0.02813839167356491	-0.2836145758628845	-0.03512843698263168	-0.07288245111703873	0.12911885976791382	0.06590988487005234	-0.027941010892391205	-0.0197152029722929	0.07274219393730164	-0.04401726648211479	-0.0759868174791336	0.0007599908858537674	-0.1586400419473648	0.09166278690099716	-0.001181177794933319	0.04475286602973938	-0.06673626601696014	-0.06306929886341095	0.04259859025478363	-0.015220748260617256	-0.06536770612001419	0.026651713997125626	-0.09119536727666855	-0.0006096497527323663	0.01135821733623743	-0.0547315776348114	0.030814576894044876	-0.15837663412094116	0.0051618292927742004	-0.07057760655879974	-0.10825498402118683	0.1038500964641571	-0.04761268571019173	-0.10511869192123413	-0.098172627389431	0.11559019237756729	0.01613653637468815	-0.12764248251914978	
