word	vector
orso	-0.012562628835439682	0.003501331666484475	0.025171171873807907	0.05773567035794258	-0.007143666036427021	0.041102055460214615	0.0557871088385582	-0.006332782097160816	0.08147276937961578	0.009337719529867172	0.023238202556967735	-0.004308091942220926	0.021934783086180687	0.020799946039915085	0.020182715728878975	0.006194652058184147	-0.0008399731013923883	0.03506743162870407	0.014860809780657291	0.041475921869277954	0.00772193493321538	0.01381729356944561	0.032206568866968155	0.0009977241279557347	0.0029693343676626682	0.022280069068074226	0.005593228153884411	-0.03125540539622307	-0.00010098207712871954	0.0022402277681976557	-0.00967040192335844	0.2104087620973587	0.05750231072306633	0.005091262515634298	0.006284438073635101	0.012405694462358952	-0.0012994292192161083	0.00748792989179492	-0.004271667916327715	0.07275167852640152	-0.026671770960092545	-0.00763820530846715	0.03086557239294052	0.09967276453971863	0.07175043225288391	0.18503130972385406	0.041817326098680496	0.07030576467514038	0.0008105002343654633	0.06848469376564026	-0.050644777715206146	-0.009090093895792961	-0.0003045317134819925	0.0013130935840308666	0.012059773318469524	0.05384036526083946	0.06973995268344879	0.055464982986450195	0.1919655203819275	-8.634028927190229e-05	0.08634908497333527	0.014543775469064713	0.19792881608009338	0.002755512949079275	0.005932570435106754	0.00199888925999403	0.09887560456991196	0.06363445520401001	-0.00012385545414872468	-0.005631683394312859	0.025579942390322685	-0.01250782236456871	0.019917575642466545	0.0399879552423954	-0.0006998065509833395	0.0021134382113814354	0.07280562818050385	-0.002178041497245431	-0.006113860756158829	0.024805808439850807	0.1911037117242813	0.0023307600058615208	0.01040127594023943	-0.004422685597091913	0.01293907966464758	0.006617171224206686	0.0006964508793316782	0.022036710754036903	-0.00484006991609931	0.14108550548553467	0.016031447798013687	0.003598074894398451	0.015553596429526806	0.014327446930110455	0.6493979692459106	0.03219790756702423	-0.007538552861660719	0.007488478906452656	-0.0003171694406773895	0.02106866054236889	0.14252014458179474	0.03654547780752182	-0.00037088844692334533	0.017927322536706924	0.17534911632537842	0.07240841537714005	0.012933311983942986	0.12689366936683655	0.061223335564136505	0.0031409545335918665	0.053400591015815735	0.0010364565532654524	0.09170638769865036	0.10964950174093246	-0.011703881435096264	-0.0019287680042907596	0.0016957235056906939	-0.004361252300441265	0.002767652738839388	0.14995382726192474	-0.014704318717122078	0.0008206283673644066	0.01828353852033615	0.023895423859357834	0.036447811871767044	-0.00026671559317037463	-0.019245117902755737	0.024363191798329353	0.008021799847483635	0.05484955385327339	0.0012677459744736552	0.07744725793600082	0.06154109165072441	-0.018946228548884392	0.20515382289886475	0.022763263434171677	0.016986437141895294	0.004999553319066763	-0.0004082772647961974	0.002377100056037307	0.005628044717013836	3.421947985771112e-05	0.040671221911907196	0.015001730062067509	0.022441502660512924	-0.00021709244174417108	0.006271275691688061	0.0011039692908525467	-0.004399356432259083	0.2843708097934723	-0.009284191764891148	0.08017386496067047	-0.012111070565879345	-0.0007117661298252642	0.2733722925186157	0.07099086791276932	-0.0019135929178446531	-0.05027848854660988	-0.0025584783870726824	0.007138069719076157	0.05665528401732445	0.06810369342565536	-0.0025286125019192696	0.0025687844026833773	0.008294705301523209	0.07103307545185089	0.013152833096683025	0.04281669110059738	-0.01654406264424324	0.012239220552146435	0.00922826025635004	0.03539026156067848	0.14091022312641144	0.02777763642370701	0.018895769491791725	-0.0011991001665592194	0.0954446867108345	0.1514960527420044	0.006175789516419172	0.002593290526419878	-0.02329060435295105	0.06105107441544533	0.0371314212679863	-0.022504474967718124	-0.02274160087108612	-0.0039344672113657	0.044527024030685425	-0.003557811724022031	0.13384729623794556	0.010638365522027016	0.017136039212346077	-0.0008091578492894769	0.12373236566781998	0.05821282044053078	0.12780025601387024	0.027768222615122795	0.011625322513282299	0.05997776240110397	0.004371052607893944	-0.04181725159287453	0.06961571425199509	-0.000990729546174407	0.0034323767758905888	0.016272492706775665	0.021004002541303635	-0.00018321834795642644	0.3415658175945282	-0.002285572700202465	-0.016539815813302994	0.18164412677288055	0.0005190671654418111	-0.019557928666472435	0.03543027490377426	0.06445461511611938	0.008485573343932629	-0.005132630001753569	0.007930576801300049	0.02649277076125145	-0.024272868409752846	-0.021139612421393394	0.05303455889225006	-0.02117651142179966	0.17137494683265686	-0.05088166519999504	-0.004274836275726557	0.06121331825852394	0.0017855364130809903	0.07011862099170685	0.05189608782529831	0.0515904501080513	0.03854050859808922	0.15431728959083557	0.02491120621562004	-0.011872449889779091	0.17355261743068695	0.0033184767235070467	-0.00683199055492878	-0.003787457011640072	0.3993563652038574	0.042517971247434616	0.024326881393790245	0.03360464796423912	0.009255695156753063	0.0801401287317276	0.08603702485561371	0.13855664432048798	0.18881894648075104	0.12254957109689713	-0.00243260501883924	0.1520531177520752	-0.0060358173213899136	0.03950311616063118	-0.017551278695464134	-0.004881423898041248	0.1162647157907486	-0.021764736622571945	-0.007024663500487804	0.00991610437631607	0.06417600065469742	-0.003976189997047186	0.015168205834925175	0.005219683516770601	0.10932620614767075	0.036990609019994736	0.127053365111351	-0.017852788791060448	0.09691562503576279	0.03027581423521042	-0.039973631501197815	0.0710669606924057	0.02134399674832821	-0.024716559797525406	0.010551711544394493	0.01202024333178997	-0.011225659400224686	0.029307229444384575	0.014373366720974445	-0.015832645818591118	0.4563520848751068	-0.006967575754970312	0.03958573937416077	-0.011205474846065044	0.010928716510534286	-0.0018336664652451873	-0.016807710751891136	0.10965941846370697	-0.0006737543735653162	0.024728935211896896	0.007887216284871101	0.018475890159606934	0.07898566126823425	0.028576206415891647	0.04738856106996536	0.113734669983387	0.10535798221826553	-0.006751922890543938	-0.00042455486254766583	-0.0024979093577712774	-0.013612085953354836	0.04787097126245499	
cane	0.00983482040464878	0.0041915844194591045	0.00789940170943737	0.0691336989402771	-0.007120713125914335	0.007782480213791132	-0.018674321472644806	0.016529463231563568	0.09124475717544556	0.028547562658786774	0.0065149227157235146	0.03586297854781151	-0.008464684709906578	0.002708673710003495	0.022496331483125687	0.0030718971975147724	-0.0030474078375846148	0.03708827495574951	0.016944799572229385	0.020785238593816757	0.013958616182208061	0.008058769628405571	0.09568287432193756	-7.369872491835849e-06	0.0007712709484621882	-0.01930241845548153	-0.006095911376178265	-0.06207367405295372	8.424890256719664e-05	-0.0002932468196377158	0.003511090064421296	0.38346362113952637	0.06419051438570023	0.00368341407738626	0.02931760624051094	-0.019956208765506744	-0.00016887135279830545	0.0034861776512116194	0.004935341887176037	0.018427902832627296	0.02038198709487915	0.016872869804501534	0.049729812890291214	0.03586389869451523	0.01664084754884243	0.22516706585884094	0.012562069110572338	0.03255176916718483	0.0006837884429842234	0.0770893394947052	-0.02028401754796505	-0.0005631405510939658	0.009312346577644348	0.003547602565959096	-0.014619867317378521	0.08092965185642242	0.05994631350040436	-0.005171502009034157	0.12805214524269104	0.004287416581064463	0.20720329880714417	0.05694866180419922	0.28518375754356384	-0.004662312567234039	-0.0006341214757412672	0.01443883590400219	0.03989958390593529	0.04217712953686714	0.002781092654913664	0.03711411729454994	-0.0005099524278193712	-0.013197795487940311	-0.0028476440347731113	-0.014352265745401382	0.0008729966357350349	-0.004397868178784847	0.07367709279060364	-0.004453759640455246	-0.012244191952049732	0.08046327531337738	0.12107959389686584	-0.0038192234933376312	0.08899588137865067	0.029361698776483536	0.028379397466778755	0.01237552985548973	-0.0073434701189398766	-0.017034905031323433	-0.04653173312544823	0.19819363951683044	0.023032771423459053	0.08609689027070999	0.005449372809380293	-0.04665456712245941	0.4981241822242737	-0.012374182231724262	-0.01328995916992426	-0.012840177863836288	-0.01599031873047352	0.015218370594084263	0.16469302773475647	0.08555162698030472	0.0008699681493453681	0.008309033699333668	0.12924768030643463	0.1243216022849083	0.013704231940209866	0.20219303667545319	0.08738462626934052	-0.005096628796309233	0.014048437587916851	0.010319597087800503	0.057109929621219635	0.019492769613862038	0.0012308128643780947	0.0037384703755378723	0.01673649065196514	0.024451596662402153	0.002156688366085291	0.08734821528196335	0.009755526669323444	0.0197129026055336	0.0024604012724012136	0.030908839777112007	0.018211232498288155	-0.0008305651135742664	-0.0014154280070215464	0.016105519607663155	0.0027576214633882046	0.1052098348736763	0.00336226518265903	0.07286213338375092	-0.00019696378149092197	-0.003087292890995741	0.18734097480773926	0.029038015753030777	0.07872610539197922	0.005265971180051565	0.0038806882221251726	-0.019652243703603745	0.006544269621372223	0.013125835917890072	0.09757678955793381	-0.009267760440707207	0.04921651631593704	-0.0008051356417126954	-0.0023387002293020487	7.615834329044446e-05	0.0031301381532102823	0.2690620720386505	0.01037553045898676	0.03519657626748085	0.0064588128589093685	0.0012716618366539478	0.31908658146858215	0.018409177660942078	-0.0029799893964082003	-0.010450392961502075	-0.004728112369775772	0.01148246694356203	0.042934849858284	0.044490963220596313	-0.014430910348892212	0.003456283127889037	0.0010953480377793312	0.04496258124709129	-0.008055089972913265	0.03117416612803936	-0.0003330744511913508	0.006747050676494837	-0.000197253015358001	0.02574755996465683	0.15206702053546906	0.04873928427696228	-0.0038288168143481016	0.0012350620236247778	0.08007671684026718	0.13906100392341614	-0.022213125601410866	-0.01892547868192196	-0.0036553728859871626	0.046256422996520996	0.07665888965129852	0.02640460431575775	-0.028982721269130707	-0.01262984424829483	0.020488252863287926	0.0019293517107143998	0.04854965582489967	0.029165245592594147	0.03168400749564171	0.0024909123312681913	0.0384516566991806	0.062130581587553024	0.05332351475954056	0.029007133096456528	0.0003896862326655537	0.06190881133079529	0.0018787042936310172	0.023034529760479927	0.07830384373664856	4.061964773427462e-06	-0.001287751249037683	0.03176980838179588	0.030962824821472168	0.0018172657582908869	0.49866554141044617	-0.0012179147452116013	0.008677290752530098	0.20968374609947205	0.005597495939582586	-0.016908466815948486	0.14089398086071014	0.16726276278495789	0.03562488406896591	0.016518034040927887	0.0037110571283847094	0.07138271629810333	-0.005912743508815765	0.0071073174476623535	0.04308021441102028	0.019806861877441406	0.09473317861557007	-0.012055656872689724	-0.005478035658597946	0.01959674060344696	0.0005608811625279486	0.06470268219709396	0.09133482724428177	0.10205245018005371	0.0127393938601017	0.22769729793071747	-0.007740447763353586	0.009768115356564522	0.08909346163272858	0.0005794682074338198	0.07320456951856613	0.004591816104948521	0.38630571961402893	0.01505269668996334	0.00819444004446268	-3.7761612475151196e-05	0.006904375273734331	0.03246990591287613	-0.015762759372591972	0.054816875606775284	0.15880821645259857	0.06918606162071228	0.0009583093924447894	0.013503195717930794	-0.0017120859120041132	0.0546245276927948	0.060549985617399216	0.002821189584210515	0.046519581228494644	0.01415505725890398	0.004777941852807999	-0.01825464889407158	0.011566721834242344	-0.004223918076604605	0.016472749412059784	-0.0018491358496248722	0.08616195619106293	0.010117285884916782	0.018271196633577347	0.012818548828363419	0.0830986276268959	0.010903613641858101	0.06115090101957321	0.015614510513842106	0.02478298544883728	0.11799295991659164	0.00762786203995347	-0.004993706475943327	0.03341979905962944	-0.00428533460944891	0.006188222672790289	-0.016900042071938515	0.3339831531047821	0.008338064886629581	0.07973708212375641	0.013915559276938438	0.17488959431648254	0.00788756925612688	0.000846521754283458	0.06590361893177032	-0.0004449590924195945	-0.015099682845175266	-0.003181224688887596	0.03321566805243492	0.012988265603780746	0.017157260328531265	0.025380639359354973	0.12857858836650848	-0.00531972199678421	-0.0006396440439857543	0.0012369925389066339	-0.002802874194458127	0.0006488905055448413	0.08631762117147446	
cavallo	0.002034912584349513	0.00031907958327792585	-0.0018922066083177924	0.04564075171947479	0.015968836843967438	0.0041469004936516285	0.011447369121015072	0.009800604544579983	0.03441676124930382	0.0040449718944728374	0.006510358769446611	-0.007485581561923027	-0.009420424699783325	0.002763866214081645	0.03503558412194252	-0.0002596892009023577	0.0006160065531730652	0.02978861704468727	0.016097070649266243	-0.019490348175168037	0.02520330436527729	-0.009828349575400352	0.051525942981243134	0.0010098767234012485	0.0018849929329007864	-0.0038510190788656473	0.003137394320219755	0.023815255612134933	-3.8139136449899524e-05	-0.00029096161597408354	-0.0026837855111807585	0.1804181933403015	0.014515424147248268	0.006649303250014782	-0.012233566492795944	-0.005801181774586439	0.0011254571145400405	0.008330713957548141	0.0065003945492208	-0.02243121527135372	0.014633852988481522	0.016540732234716415	-0.01724952645599842	0.025982486084103584	0.043963201344013214	0.09122058749198914	0.009752703830599785	0.026991037651896477	-0.00019614631310105324	-0.00137032731436193	-0.008867940865457058	0.003818478435277939	0.00018199303303845227	0.004538835491985083	-0.005328268278390169	0.023388924077153206	0.015291205607354641	0.024872953072190285	0.012491947039961815	0.0014663160545751452	0.047132458537817	0.02671205624938011	0.08972522616386414	0.0041726091876626015	-0.0009217587066814303	0.005576129071414471	0.045379504561424255	-0.016009125858545303	0.0009367226739414036	0.027022717520594597	-0.022716855630278587	-0.010536445304751396	-0.012306364253163338	-0.019471921026706696	0.00043997139437124133	0.0007462097564712167	0.009153958410024643	-0.005926094017922878	-0.00038861040957272053	-0.00533733144402504	-0.026425499469041824	0.01596219651401043	0.026894325390458107	-0.002296051476150751	0.017261076718568802	-0.014980098232626915	-0.008600483648478985	0.008507698774337769	-0.002864627866074443	0.0029753984417766333	0.00224263034760952	-0.0013736574910581112	0.00988631509244442	0.007412949111312628	0.2189730703830719	0.005391348153352737	-0.0012674073223024607	0.001020913477987051	0.10206028819084167	0.0380123071372509	0.14989851415157318	0.004670784808695316	-0.00028569501591846347	0.007945365272462368	0.06804043054580688	0.09527665376663208	0.02483861707150936	0.13824106752872467	0.007182272616773844	0.00715884193778038	0.022471357136964798	0.00021059277059976012	0.013225833885371685	0.006880596745759249	0.009829532355070114	-0.0022826730273663998	-0.00011103872384410352	-0.01527990959584713	0.0002708434476517141	0.0723438709974289	-0.011372486129403114	0.009153290651738644	0.045135512948036194	0.004335810896009207	0.02356225624680519	0.0044254884123802185	-0.0017982100835070014	0.014234439469873905	-0.003750119125470519	0.07744167000055313	0.022841427475214005	0.06865125149488449	0.016206642612814903	-0.02184342034161091	0.06326115131378174	0.008382474072277546	0.03169063851237297	0.001532731344923377	0.005939914379268885	0.004631682299077511	-0.00041691752267070115	0.0016154419863596559	0.058106277137994766	-0.007380680181086063	0.03973561152815819	0.0005260291509330273	-0.0004784181946888566	0.0035774598363786936	-6.643377855652943e-05	0.15299008786678314	0.003017671871930361	-0.029570093378424644	-0.007669398561120033	0.0031801697332412004	0.1247449591755867	0.007181322667747736	-0.00263444846495986	0.0245092511177063	-0.00574500160291791	-0.008924350142478943	0.01934020034968853	0.026948731392621994	-0.009358611889183521	-0.0009208446717821062	-0.002174939261749387	0.039371050894260406	0.0010218688985332847	0.021402597427368164	0.027586260810494423	-0.0013213391648605466	-0.0010343078756704926	0.01050142664462328	0.03627775236964226	0.012774631381034851	-0.00836883019655943	0.00027259549824520946	0.02750965766608715	0.021388864144682884	0.007641492877155542	-0.000139831769047305	-0.0016093491576611996	0.036480311304330826	-0.014032418839633465	-0.0027163689956068993	0.013887898065149784	-0.01429810095578432	-0.0034094247967004776	0.0023356126621365547	0.0329873226583004	0.018474310636520386	-0.0026318600866943598	8.287513628602028e-05	0.0374763198196888	0.042181871831417084	0.040891047567129135	0.03044772893190384	0.004018717911094427	0.020598648115992546	0.002513144863769412	0.009340908378362656	0.041474904865026474	0.0001453511358704418	0.0015561158070340753	0.022208353504538536	-5.9757705457741395e-05	-0.0009049699292518198	0.13810302317142487	0.0008692705887369812	0.0035875611938536167	0.10708650201559067	-0.0075217378325760365	-0.0021688537672162056	0.038436003029346466	0.022564975544810295	0.01589292474091053	0.049229953438043594	-0.005381986498832703	-0.007371625397354364	0.007622966077178717	0.0009183443617075682	0.01985739916563034	0.011449230834841728	0.016046060249209404	6.259508518269286e-05	0.010194079019129276	0.04705847427248955	0.0013394819106906652	0.014706653542816639	0.004148362670093775	0.023978792130947113	0.004620715510100126	0.08534925431013107	0.002686997875571251	-0.0002934291260316968	0.07137726992368698	0.0008125863969326019	0.008873872458934784	0.00421868497505784	0.21442611515522003	-0.007988628931343555	0.03430397808551788	0.0004908618284389377	-0.007833104580640793	0.014063557609915733	0.05197882279753685	-0.0008070311159826815	0.04116969183087349	0.05527181178331375	-0.019618956372141838	-0.0015253176679834723	-0.0007766198250465095	-0.00023199853603728116	-0.005211914889514446	0.0015622128266841173	0.04035816341638565	-0.0009106210200116038	0.0003630469145718962	-0.00552603742107749	0.030852818861603737	0.004481726326048374	-0.002376119140535593	0.0020370432175695896	0.07287022471427917	0.0036812813486903906	0.016619432717561722	0.009103266522288322	0.02800198644399643	-0.01201670989394188	0.06925216317176819	0.005194330587983131	0.010550009086728096	0.0014056154759600759	-0.008176523260772228	0.019398411735892296	-0.005278485827147961	-0.04591374844312668	0.005524621345102787	0.0039220526814460754	0.1624200940132141	0.005751495715230703	0.03718782961368561	-0.001656763139180839	0.0546015128493309	-0.0031989070121198893	1.8837492461898364e-05	0.011817763559520245	9.078947914531454e-05	-0.006441448349505663	-0.015444105491042137	0.004854144994169474	-0.006730399094521999	0.008311940357089043	-0.005341576412320137	0.007320417556911707	-0.03360992670059204	-0.005312728695571423	0.000777301553171128	0.0003577391034923494	0.0015332996845245361	0.07433304190635681	
scimmia	0.004362236242741346	0.0009365470032207668	-0.004940326325595379	0.056430719792842865	0.0034493845887482166	-0.00430303206667304	-0.002101361518725753	-0.004713117610663176	0.029500553384423256	0.012321196496486664	0.008416532538831234	-0.0028108248952776194	-0.0005459788371808827	-4.8732163122622296e-05	0.035430360585451126	0.004592299461364746	-0.0017063202103599906	-0.004877754021435976	0.01224586833268404	0.00793607160449028	0.0008713226416148245	0.009535809978842735	-0.030200308188796043	0.0007877403986640275	0.0014466585125774145	0.017188066616654396	-0.00015529127267654985	0.04528115689754486	-5.598230927716941e-06	0.0007791502866894007	-0.0026710680685937405	0.030234314501285553	0.006892073899507523	0.0026023383252322674	0.000853529607411474	0.013609984889626503	0.020470844581723213	0.005284850485622883	-0.0055680302903056145	-0.005678380839526653	-0.00030089428764767945	0.013047466054558754	-0.012056007981300354	0.05173635482788086	0.019283849745988846	-0.048088494688272476	-0.00321142072789371	0.03524065017700195	0.0001244149316335097	0.005774326156824827	-0.008473876863718033	0.0028451085090637207	0.0041137561202049255	0.000867225113324821	0.02384057827293873	0.015452584251761436	0.029241878539323807	0.018733514472842216	0.007891842164099216	0.0007703054579906166	0.06895821541547775	0.07563608884811401	0.022974185645580292	-0.015153084881603718	-0.002522554947063327	-0.004905943758785725	0.04807903617620468	-0.022971585392951965	0.00048487528692930937	0.023992950096726418	0.024990800768136978	0.008376494981348515	-0.00914270244538784	0.04014505445957184	-0.0012619836488738656	-0.0039031587075442076	-0.011943506076931953	-0.005630848463624716	-0.003580185119062662	0.0076392474584281445	0.025483019649982452	0.01755194365978241	0.04074658825993538	0.03546399250626564	0.010207944549620152	0.002839677268639207	0.01157283689826727	0.0006488762446679175	0.002636811463162303	0.06114537641406059	0.004234984517097473	-0.0014312313869595528	-0.0097684096544981	0.053336694836616516	0.3621406555175781	-0.014749100431799889	0.014402501285076141	-0.012348308227956295	0.0310024656355381	0.04515102133154869	0.14305280148983002	0.032455530017614365	6.979810132179409e-05	0.0034488141536712646	0.05512816086411476	0.12541256844997406	-0.008617570623755455	0.10665076971054077	0.049752406775951385	0.0019163161050528288	0.019390670582652092	-0.001141826738603413	0.01934030093252659	0.01603042148053646	0.01823425479233265	-0.0011324374936521053	0.005854940041899681	0.01581566222012043	0.00041146643343381584	0.027670906856656075	0.0022043599747121334	-0.0032688737846910954	0.019567033275961876	0.0076436446979641914	-0.009427262470126152	-0.0016948421252891421	0.0056924838572740555	0.012385813519358635	0.004616167396306992	0.019512172788381577	0.04932345822453499	0.08061150461435318	0.025955932214856148	0.015206224285066128	-0.004009780939668417	-0.017835630103945732	-0.013632863759994507	-0.0017029078444465995	0.019364839419722557	0.0043182773515582085	-0.003515050280839205	0.005320812575519085	-0.0050615351647138596	0.005060696974396706	0.024816785007715225	9.337603114545345e-05	-0.005369943100959063	-0.0004064486129209399	0.005646787118166685	0.0970582515001297	-0.0055999793112277985	0.1093473881483078	0.012960908934473991	0.000471717503387481	0.06911315023899078	0.010200470685958862	0.0009685095283202827	0.022493569180369377	0.007502162829041481	-0.003859547432512045	0.04661406949162483	0.0640772357583046	0.007984434254467487	-5.3261326684150845e-05	0.0033187754452228546	0.03677080199122429	0.002536150859668851	-0.0026978778187185526	-0.0011334745213389397	0.0006310719181783497	-0.0005833389004692435	0.026146145537495613	0.05537613481283188	0.07148508727550507	-0.004756659734994173	0.0004245044256094843	0.04433223232626915	0.028165532276034355	0.00882837362587452	0.015930471941828728	-0.0061522177420556545	0.07689134776592255	0.028453247621655464	-0.008754801005125046	0.01791277527809143	0.013595144264400005	0.018925393000245094	0.00016741918807383627	0.08373202383518219	0.002314405282959342	0.01580330729484558	-0.0016697022365406156	0.021504193544387817	0.1509753316640854	0.015158270485699177	-0.015087166801095009	-0.00162300665397197	0.02915053814649582	0.020108116790652275	-0.018234429880976677	0.04103546217083931	0.000876429898198694	-0.00518236355856061	0.00939194392412901	0.0325634591281414	0.001467198715545237	0.20542626082897186	0.00046345804003067315	0.006270520389080048	0.11243421584367752	-0.016844753175973892	-0.0013910896377637982	-0.014160463586449623	0.03128707781434059	0.022926686331629753	0.0228266604244709	-0.0020633316598832607	-0.007073194719851017	0.021085863932967186	-0.00437031127512455	0.011897798627614975	-0.008276497013866901	0.05892146751284599	-0.007611903361976147	0.010396204888820648	0.005201528314501047	0.0010222304845228791	0.015368644148111343	0.0065729920752346516	0.02624357119202614	-0.000517935783136636	0.09889163821935654	0.01753339171409607	0.00648072361946106	0.06494111567735672	-0.0006998449098318815	0.009024807251989841	0.003227557521313429	0.17063836753368378	-0.004001012537628412	-0.00943660642951727	-0.0029374021105468273	0.017599554732441902	0.015225110575556755	0.026304420083761215	0.10020572692155838	0.12656670808792114	0.10384300351142883	0.01345914602279663	0.028622129932045937	-0.0035321733448654413	0.026406824588775635	-0.025375142693519592	-0.0004156762734055519	0.05266723409295082	0.0030848945025354624	-0.012849682942032814	0.006009376607835293	-0.0028069245163351297	-0.0025794259272515774	0.014507077634334564	-0.006369809620082378	0.029447363689541817	0.014897394925355911	-0.007371789310127497	0.03712394833564758	-0.01943414844572544	0.01526203379034996	0.037500977516174316	0.03819144144654274	-0.0032523893751204014	0.019894205033779144	0.009626150131225586	0.014476331882178783	0.007949940860271454	0.0367836132645607	0.009632211178541183	0.018151773139834404	0.11132601648569107	0.011712383478879929	0.0009757606312632561	0.013919342309236526	0.055063825100660324	-0.0019564558751881123	-0.0007347913342528045	0.041930120438337326	2.4235194359789602e-05	0.014393861405551434	0.014471662230789661	0.0040745809674263	0.016750581562519073	0.00032419266062788665	0.011014162562787533	0.04315226897597313	0.07230474054813385	0.001276609255000949	-0.0023643989115953445	-0.009735067375004292	-0.0034743768628686666	0.045853156596422195	
gufo	0.002552852500230074	0.007391187362372875	0.001029190607368946	0.13899311423301697	0.0665513426065445	0.02541131153702736	0.0033030498307198286	0.009763453155755997	0.06757920980453491	0.01735256053507328	0.020129427313804626	-0.0005824231193400919	-0.02450311928987503	0.009502052329480648	0.05249548330903053	0.008421477861702442	0.004247041419148445	0.013974206522107124	0.004189178813248873	-0.01122873555868864	-0.0063022952526807785	0.008400531485676765	0.10577653348445892	-0.0017581111751496792	0.0015452883671969175	-0.007971643470227718	0.0055360994301736355	0.07292301207780838	8.190664084395394e-05	0.002932954113930464	-0.00687984237447381	0.33055341243743896	-0.018518835306167603	-0.0117271663621068	0.01457954104989767	0.011093315668404102	0.038797467947006226	0.007127848453819752	0.05995073914527893	-0.000832409888971597	0.011527528055012226	0.029088906943798065	-0.015874434262514114	0.056560661643743515	0.08182824403047562	0.15094083547592163	0.11636186391115189	0.08376473933458328	1.7751694031176157e-05	0.01225160900503397	-0.027977585792541504	-0.00041223567677661777	-0.0005158063722774386	0.010271456092596054	0.029073039069771767	0.06651321798563004	0.1212022453546524	0.022883113473653793	0.0371515229344368	-0.00024202503846026957	0.16640251874923706	-0.039852432906627655	0.22008736431598663	-0.009398480877280235	-0.0032550152391195297	-0.01434601191431284	0.04273960739374161	0.015908246859908104	0.0001456662139389664	-0.04479515552520752	0.07300125062465668	-0.0026997679378837347	0.07719893008470535	0.06418157368898392	0.011505580507218838	0.003388791810721159	0.06751859188079834	-0.0016549997963011265	0.013880442827939987	-0.033600758761167526	0.055487118661403656	-0.024060983210802078	0.17130503058433533	0.025460196658968925	0.002529515651986003	0.010280421935021877	0.0036054281517863274	-0.006054460071027279	0.03174707666039467	0.15395063161849976	-0.007776331156492233	0.04041929543018341	-0.0008948196191340685	0.034722793847322464	0.6083755493164062	0.02173919975757599	0.03446732833981514	0.02134842425584793	-0.024431543424725533	0.07689942419528961	0.2826681137084961	0.04893907904624939	0.0011766150128096342	0.015171410515904427	0.054819654673337936	0.1951802670955658	0.025820475071668625	0.025406837463378906	0.1762399971485138	-0.007389487698674202	0.0908033549785614	-0.008124890737235546	0.0665377825498581	0.055346276611089706	0.002980276942253113	0.0003322757547721267	0.00416018720716238	0.012673335149884224	0.005165423732250929	0.0319826640188694	0.00568374851718545	-0.011714104562997818	-0.05381953716278076	-0.02314078062772751	0.020249245688319206	-0.0036758058704435825	-0.00486052455380559	0.010455184616148472	0.014523353427648544	0.03936369717121124	0.042280346155166626	-0.01642124354839325	-0.06805301457643509	0.02623189054429531	0.2852591574192047	-0.035100072622299194	0.009518143720924854	-0.010179071687161922	-0.04565982148051262	0.0474591962993145	0.0066480329260230064	-1.8165835626859916e-06	0.18300989270210266	0.016101060435175896	0.07565859705209732	-0.00108656648080796	0.005699664354324341	-0.0021081187296658754	-0.006159462034702301	0.19690126180648804	-0.0016691895434632897	0.05300521478056908	-0.03629852831363678	0.0027488090563565493	0.33742478489875793	0.06630486994981766	0.005999796558171511	-0.01564067229628563	-0.002095115603879094	0.03176714479923248	0.14047501981258392	0.01547095738351345	0.015841791406273842	-0.006801734212785959	0.005803441163152456	0.09105035662651062	-0.014559566974639893	0.004998618736863136	0.07116908580064774	-0.0023607697803527117	0.00330936536192894	0.13312043249607086	0.040329769253730774	0.23074600100517273	0.01806464232504368	0.0011028051376342773	0.1591760665178299	0.11158876866102219	0.04712044820189476	-0.014247197657823563	0.055729229003190994	0.20014412701129913	0.06433498859405518	0.02797246351838112	0.06619051098823547	0.005735473241657019	0.017373554408550262	-0.005074347835034132	0.1765131950378418	0.023649785667657852	-0.019605251029133797	-0.002020176500082016	0.1095336526632309	0.07900014519691467	-0.027820589020848274	-0.030743369832634926	0.0037617054767906666	-0.014566889964044094	0.05509764701128006	-0.04344934597611427	0.07846295833587646	-0.0018601102055981755	0.011768169701099396	0.0003598066105041653	-0.03607079014182091	0.0006793559878133237	0.5067620873451233	-0.0014395645121112466	0.009520777501165867	0.28926295042037964	0.07403481006622314	-0.0030159447342157364	0.025891749188303947	-0.014502719044685364	0.08856227993965149	0.023388462141156197	0.006278202868998051	0.05742264166474342	0.014990671537816525	-0.0015046506887301803	0.014314625412225723	0.023160450160503387	0.04317713528871536	0.004603229463100433	0.03185855597257614	-0.06006089597940445	-0.0005283185746520758	0.022063011303544044	0.03602505102753639	0.010223090648651123	0.016023503616452217	0.12196603417396545	0.055525995790958405	0.003657494205981493	0.12474110722541809	-0.0003325871075503528	0.01953836902976036	0.008757987059652805	0.5523894429206848	0.04316887632012367	0.002535175299271941	0.012018035165965557	0.03804858401417732	0.017476540058851242	0.02617071382701397	0.039228130131959915	0.07077893614768982	0.09830506891012192	0.06408672779798508	0.0058438279666006565	-0.004150427412241697	-0.053622741252183914	0.02945665270090103	0.005966619122773409	-0.008147140964865685	0.023889662697911263	-0.004595851991325617	0.028512274846434593	0.006078054197132587	0.010207058861851692	0.007683034986257553	-0.0010019218316301703	0.06044997647404671	0.021903017535805702	0.16459374129772186	0.02274264208972454	0.05049121379852295	0.019467273727059364	0.12280893325805664	0.04074989631772041	0.04181019589304924	0.029293391853570938	0.011870010755956173	0.0026129833422601223	-0.021227704361081123	0.032129231840372086	0.024142824113368988	-0.002167948056012392	0.31222003698349	-0.014056004583835602	0.06566011160612106	-0.016235576942563057	0.05911364033818245	0.0026824718806892633	0.0028728421311825514	0.03315460681915283	-0.0007395154680125415	0.04014238342642784	-0.008826196193695068	0.0862041562795639	0.052905578166246414	-0.0246126651763916	-0.06661416590213776	0.09377090632915497	0.011204052716493607	0.02050807699561119	7.75926309870556e-05	-0.003005755366757512	0.0075809527188539505	0.13266488909721375	
coniglio	0.0005407209391705692	0.0011476585641503334	0.0006487473146989942	0.08883209526538849	0.018246794119477272	-0.0011669087689369917	0.011728336103260517	0.004072112031280994	0.023355873301625252	0.006109163165092468	0.01169500406831503	0.0012665892718359828	0.000783588329795748	0.005755297839641571	0.03429533913731575	-0.0006724116392433643	0.0018457629485055804	0.005180444102734327	0.014078537933528423	0.0007380374590866268	0.0063382964581251144	0.014791760593652725	-0.02127784490585327	-2.9242815799079835e-05	0.0012026758631691337	-0.0026660265866667032	0.0010938199702650309	-0.0005451870383694768	-2.8711276172543876e-05	-0.00018067673954647034	-0.0011900142999365926	0.16420115530490875	0.006480660289525986	0.004955591168254614	0.007769954390823841	-0.012770874425768852	-0.004583335015922785	0.0026598733384162188	0.012464738450944424	0.014450578950345516	-0.0022786122281104326	-0.01241381373256445	0.023160746321082115	0.0011987907346338034	0.014697871170938015	0.09178474545478821	0.0403386652469635	0.018026383593678474	-0.00015156148583628237	0.012664488516747952	-0.00530744343996048	0.0010784853948280215	8.871425234246999e-05	0.004152888897806406	0.013497269712388515	0.005308741703629494	0.01634051837027073	0.041738077998161316	0.048093222081661224	0.000303092849208042	0.04756453260779381	-0.0036455749068409204	0.1430712789297104	0.009061120450496674	0.000954813149292022	0.003985666204243898	0.011457059532403946	-0.012594598345458508	-0.0003650251019280404	0.011512675322592258	0.01591360569000244	-0.000958781223744154	0.021118830889463425	0.047698941081762314	-0.0019531094003468752	-0.004254890605807304	0.024788154289126396	-0.0018511824309825897	-0.001166347530670464	0.007830667309463024	0.017566170543432236	0.005107029806822538	0.020502213388681412	0.01025577075779438	0.001494028838351369	0.002191094681620598	0.011224273592233658	0.0117031866684556	0.005698174238204956	0.07007119804620743	-0.009515531361103058	0.008555899374186993	0.03503825515508652	-0.006581069901585579	0.23616689443588257	-0.005950543098151684	0.008400031365454197	-0.0015814137877896428	0.019554870203137398	0.03845478966832161	0.08070298284292221	0.014150632545351982	-0.00015384706784971058	-0.00397447170689702	0.04750998318195343	0.09515094012022018	0.01884959451854229	0.07807086408138275	0.036482807248830795	-0.00028400711016729474	0.026804545894265175	-0.001597609487362206	0.03173305094242096	0.01622593216598034	-0.012984105385839939	0.003666854230687022	0.0011457090731710196	0.021131495013833046	0.0010969889117404819	0.031947650015354156	0.00546800484880805	0.012563923373818398	0.02000855654478073	0.008405367843806744	-0.0030712236184626818	0.001082305796444416	-0.0018531933892518282	0.018171263858675957	0.0033531533554196358	0.0302713792771101	0.02667512185871601	0.06294107437133789	0.010553528554737568	0.011933378875255585	0.06558707356452942	0.015061024576425552	0.00422722427174449	0.0015667448751628399	-0.005153198726475239	0.01023285835981369	0.00028250194736756384	-0.000462294410681352	0.0003175509918946773	-0.008027205243706703	0.06795923411846161	0.0007068675477057695	0.00036989658838137984	0.0017811943544074893	0.002121591940522194	0.10996778309345245	-0.006219422444701195	0.01126778218895197	0.015123815275728703	-0.0006272142636589706	0.17909392714500427	-0.007148407865315676	0.0023343756329268217	-0.0010841221082955599	0.000533483864273876	0.00965190026909113	-0.0077395630069077015	0.03455592319369316	-0.003947366029024124	0.0001044137025019154	0.011155269108712673	0.013154812157154083	-0.006460268050432205	0.012098399922251701	0.02307766303420067	0.004822662565857172	0.0007601777906529605	0.005763232242316008	0.06576239317655563	0.04209785908460617	0.004952044691890478	3.642515730462037e-05	0.05648115649819374	0.029859689995646477	-0.0004859237524215132	0.006138427648693323	0.011858507059514523	0.0760110393166542	0.013021470047533512	0.016953811049461365	0.014387535862624645	0.0006626929389312863	0.004400779493153095	-0.0014222776517271996	0.06762048602104187	-0.003961215261369944	-0.002324068685993552	-0.0003008396888617426	0.03468157723546028	0.03536762297153473	0.008981110528111458	0.009586256928741932	0.002406484680250287	0.012836039997637272	0.005183899775147438	0.0037850704975426197	-0.006982867140322924	0.00015250341675709933	0.00033607284422032535	0.005253856536000967	0.03688866272568703	0.0005510458722710609	0.22841234505176544	-2.5029541575349867e-05	0.006109194364398718	0.10543503612279892	0.01172768883407116	0.008234214968979359	0.06445339322090149	0.006268068682402372	0.009243582375347614	0.023732660338282585	0.0030871955677866936	0.03652208298444748	0.001960811670869589	-0.004102671984583139	0.004520356189459562	0.007612521294504404	0.01093970239162445	0.006786663085222244	0.017644720152020454	0.005554113537073135	0.001080737099982798	0.02171768806874752	0.02580101229250431	0.07027126848697662	0.003471643663942814	0.062327951192855835	0.0019913839641958475	0.00046080310130491853	0.034748390316963196	1.6796397176221944e-05	0.018519312143325806	0.0061965095810592175	0.21332955360412598	-0.003211173228919506	-0.013890302740037441	0.0030210113618522882	-0.0013717480469495058	0.020455216988921165	-0.0027581392787396908	0.024731257930397987	0.11760365217924118	0.05687437951564789	-0.0027877960819751024	0.010966472327709198	-0.002782300114631653	0.010851198807358742	0.006043261848390102	0.00410475954413414	0.03213995322585106	-0.0029131474439054728	-0.003606187179684639	0.003580177668482065	0.007680423557758331	0.003204666543751955	0.0006906547350808978	0.00033438720856793225	0.022881552577018738	0.013976210728287697	0.042112547904253006	0.011685367673635483	0.042477093636989594	0.0172144565731287	0.060487229377031326	0.011750614270567894	0.010128195397555828	0.020793268457055092	0.003336589550599456	-0.0021838212851434946	0.014515189453959465	0.036938659846782684	0.002128367545083165	-0.0006118526216596365	0.1860959231853485	0.004566613584756851	0.026528194546699524	0.003882619785144925	0.00986445602029562	0.005086468532681465	-0.0003312321787234396	0.03803616762161255	8.513512875651941e-05	-0.010137387551367283	0.012048079632222652	0.01075388677418232	-0.005428565200418234	0.014903533272445202	0.002714887959882617	0.05956060811877251	0.021546078845858574	0.0029969471506774426	-8.827241254039109e-05	-0.00038349689566530287	0.005240493919700384	0.042675405740737915	
gabbiano	0.0021649214904755354	-0.0025022360496222973	-0.004636542405933142	0.03541574254631996	0.028346151113510132	0.01587441749870777	0.016515443101525307	0.0096701979637146	0.0443684346973896	0.0036216408479958773	0.0013212946942076087	0.01984378509223461	0.0017701982287690043	-0.002980215474963188	0.024031544104218483	0.005505092442035675	0.0010775767732411623	-0.02602745033800602	0.0011841226369142532	-0.0041401623748242855	0.004698894917964935	0.00537875946611166	-0.0007618149393238127	0.0008241601753979921	-5.0576982175698504e-05	-0.0024602124467492104	0.002634099218994379	0.0283141378313303	-8.71120864758268e-05	0.00012227664410602301	0.004496185574680567	0.07434035837650299	0.03526684269309044	0.0021729054860770702	-0.011536287143826485	0.013854940421879292	0.0014606178738176823	-0.00447008665651083	0.00021572134573943913	0.016331475228071213	0.021363884210586548	0.0015551226679235697	-0.012320911511778831	0.010213416069746017	-0.04669725522398949	0.036699503660202026	-0.012148135341703892	0.051139432936906815	0.0012942762114107609	0.015620235353708267	-0.0013823510380461812	-0.00034041859908029437	0.004311130847781897	-0.0017465607961639762	0.018665574491024017	0.028195377439260483	0.05991768091917038	0.038003139197826385	-0.015065619722008705	0.0013687991304323077	0.026956409215927124	0.052076444029808044	0.12147058546543121	-0.005376947112381458	0.0027520540170371532	0.0020527925807982683	0.02790180593729019	0.0030735398177057505	0.00019570511358324438	-0.004954976495355368	-0.010244480334222317	-0.0006629840936511755	0.001497988123446703	0.037851426750421524	0.0014234656700864434	0.0034801256842911243	0.007800001185387373	-0.0036879735998809338	0.0037523142527788877	0.04739750549197197	0.09584502130746841	-0.004743826575577259	0.03703659400343895	-0.005259527824819088	0.00490942969918251	0.008787347935140133	0.010022534057497978	0.007912859320640564	0.0024938639253377914	0.055253107100725174	0.001393978949636221	-0.008571812883019447	0.012753154151141644	-0.0001825171202654019	0.2816508710384369	0.0009311831672675908	0.03683412820100784	0.004762379452586174	0.01788000948727131	0.0027701985090970993	0.15068906545639038	0.04695716127753258	0.00035268894862383604	-0.003946974873542786	-0.007263753563165665	0.04715678095817566	0.03451849892735481	0.11397454142570496	0.023049233481287956	0.0032426549587398767	0.055499300360679626	-0.005793267861008644	0.017202947288751602	0.026851728558540344	0.021339014172554016	0.0039025642909109592	0.0040369960479438305	-0.03321467339992523	0.001484155305661261	0.036745429039001465	-0.002875849138945341	-0.007710752543061972	0.026318702846765518	0.0022917038295418024	0.025621721521019936	0.0017420923104509711	-0.0012295377673581243	-0.0039002802222967148	0.002347340574488044	-0.02084476873278618	0.01631668023765087	0.0016772056696936488	-0.004419693257659674	-0.011937973089516163	0.0758129358291626	0.0288318432867527	-0.007977545261383057	-0.0014369103591889143	-0.0031317202374339104	-0.024629855528473854	0.0029250741936266422	-0.004088311921805143	0.009377987124025822	0.015834929421544075	0.09960048645734787	0.00048528623301535845	-0.013935728929936886	-0.0035112472251057625	-0.0020376592874526978	0.12936517596244812	-0.001523633603937924	0.010749074630439281	-0.004025887232273817	-0.0001919261267175898	0.12079162150621414	0.0019002404296770692	-0.0016234810464084148	0.007397645153105259	-3.4965301892952994e-05	0.015244829468429089	0.015439019538462162	0.05284302309155464	0.011436610482633114	0.0015924387844279408	0.004612928722053766	0.003752415766939521	-0.007351965177804232	-0.011046004481613636	0.013972662389278412	-0.0035250757355242968	-0.0050895242020487785	-0.010745629668235779	0.039316676557064056	0.03507286310195923	-0.0011575269745662808	-0.00023331635748036206	0.0012643603840842843	0.06938326358795166	0.018008390441536903	-0.00854441337287426	0.019497163593769073	0.006745269522070885	0.026908643543720245	-0.0018357340013608336	0.012243724428117275	0.007009450346231461	0.01681394875049591	0.0018344057025387883	0.1643829643726349	0.012455656193196774	0.0007547526620328426	0.0006209727725945413	-0.01571585424244404	0.10384814441204071	0.027334798127412796	0.006018470972776413	-0.005305093713104725	0.011027202941477299	-0.0162475798279047	0.019064299762248993	-0.003322150558233261	0.00012293057807255536	-0.0022412121761590242	0.006204843055456877	-0.023542465642094612	-0.00010219949035672471	0.16256940364837646	0.0005589735228568316	-0.0031935733277350664	0.1876061111688614	0.016674676910042763	0.0031903479248285294	0.03901921957731247	0.03875420615077019	0.0037842083256691694	0.007492109667509794	0.0019226237200200558	0.005444508511573076	-0.013981400988996029	0.003144357120618224	0.0006012509111315012	0.01819838210940361	0.011460582725703716	-0.02025049552321434	0.03309538587927818	-0.011143563315272331	-0.0013250557240098715	0.012323692440986633	0.03662259504199028	0.05768045410513878	-0.0030592724215239286	0.08160461485385895	0.05469691753387451	-0.0026906717102974653	0.03298716992139816	-0.0006798422546125948	0.03262792155146599	-0.005231719929724932	0.11561248451471329	-0.0007799527375027537	-0.035503167659044266	0.00874585472047329	0.012317992746829987	0.014914555475115776	0.009991459548473358	0.07536706328392029	0.08939772844314575	0.047817930579185486	0.03335665911436081	0.005357753485441208	0.005592529661953449	0.020204199478030205	0.04363957419991493	0.0037392822559922934	-0.006296616047620773	-0.005987710785120726	0.0030171487014740705	0.02115229144692421	-0.0036815123166888952	-0.0009247382404282689	0.002897445112466812	0.00010288198973285034	0.005747287999838591	0.026683038100600243	0.04795234277844429	0.006315457168966532	-0.02295304834842682	-0.011083700694143772	0.042602088302373886	-0.0018706106347963214	0.01328885555267334	0.012776149436831474	0.0026400152128189802	0.00621805852279067	0.03913413733243942	0.017392132431268692	-0.001423909910954535	0.0063199917785823345	0.19816401600837708	0.004488246515393257	-0.0016251183114945889	-0.0013738428242504597	0.009156783111393452	0.0036420852411538363	-0.0052717761136591434	0.07827851176261902	-0.0003749704046640545	0.005685761570930481	0.000128072701045312	0.01948782615363598	-0.012945343740284443	-0.017598526552319527	-0.001732379081659019	0.0058845882304012775	0.06404726952314377	0.0027139524463564157	0.0013277975376695395	0.007902922108769417	-0.0031753540970385075	-0.0024568771477788687	
passero	0.002703978680074215	-0.0011949405306950212	0.019333261996507645	0.030795587226748466	0.02281956560909748	0.015259495005011559	0.023388156667351723	0.0027282789815217257	0.045976582914590836	0.013184581883251667	0.021724697202444077	0.02359035424888134	0.00296124373562634	0.003397186053916812	0.03727197274565697	0.004857036750763655	0.0011773720616474748	0.021191485226154327	0.012236882001161575	-0.010742519050836563	0.004048533271998167	-0.010756151750683784	-0.008126727305352688	-0.0013960835058242083	-0.0026578016113489866	-0.01313758548349142	0.002573953941464424	0.04138915240764618	0.00010350665252190083	0.00022168512805365026	0.011757881380617619	0.15376663208007812	0.008035961538553238	0.0012731073657050729	0.009971965104341507	0.0047760712914168835	0.01052410714328289	0.010398998856544495	-0.000761937815696001	0.03401041775941849	0.01179403904825449	0.013050270266830921	0.03052050806581974	0.037062592804431915	0.04268181696534157	0.0935598760843277	0.05506793037056923	0.08106853812932968	-0.0001354610431008041	0.02241160161793232	0.025459107011556625	-0.003951991442590952	0.0013983332319185138	0.000228950273594819	0.02902974933385849	-0.01244344562292099	-0.0015203470829874277	0.03405898064374924	0.033945415169000626	-0.002086885506287217	0.018772553652524948	0.03020707704126835	0.1285994052886963	0.017714930698275566	0.002105989260599017	0.005544705782085657	0.0572165809571743	-0.015809519216418266	0.0007187728770077229	0.004096563905477524	0.026939846575260162	-0.00691524613648653	0.018969925120472908	-0.015221471898257732	0.0009372072527185082	-0.0023421726655215025	0.04836834594607353	-0.006078054197132587	0.01460393238812685	0.026507070288062096	0.06472328305244446	-0.0012677855556830764	0.057776741683483124	0.025133153423666954	0.05077338218688965	-0.005346804857254028	0.014585770666599274	-0.0011541044805198908	-0.006969376467168331	0.013268673792481422	-0.0012520962627604604	-0.02701013721525669	-0.01996145024895668	0.012735520489513874	0.35692015290260315	0.011373491026461124	0.019445929676294327	0.010673623532056808	0.03809212148189545	0.02268686518073082	0.11305365711450577	0.016996031627058983	0.00048112517106346786	4.026410897495225e-05	0.009462391957640648	0.0589347779750824	0.0002531624340917915	0.056677959859371185	0.10604742914438248	0.0009950664825737476	0.055970124900341034	-0.010963140986859798	-0.005974393803626299	0.04546760767698288	0.03501545637845993	0.00018794798234011978	0.0010035106679424644	-0.0191508699208498	0.001110262586735189	0.021671192720532417	0.010137083008885384	-0.005740148480981588	0.03405321389436722	-0.0018322330433875322	0.005773674696683884	-0.0036278916522860527	0.002006116323173046	-0.0016798762371763587	-0.0014391273725777864	-0.02529342845082283	-0.006233299616724253	-0.06168368458747864	-0.01666051521897316	-0.04352627694606781	0.007325293030589819	-0.032676566392183304	0.0048345583491027355	-0.007258440367877483	0.0013947716215625405	-0.039622385054826736	-0.006182139739394188	-0.004053970333188772	0.0641234964132309	-0.007732459809631109	0.12797045707702637	0.0004983599646948278	-0.0012552929110825062	-0.0015142300399020314	-4.262422407919075e-06	0.07166266441345215	0.006313029211014509	0.051173217594623566	-0.026412809267640114	0.0010895186569541693	0.11861914396286011	0.01007984671741724	-0.006818737369030714	0.01640305295586586	-0.0018537656869739294	0.005488485563546419	-0.0048845550045371056	0.005335408728569746	-0.01446659117937088	0.004581879358738661	0.007346137426793575	0.05876699090003967	0.0043846978805959225	-0.004256622400134802	0.030223002657294273	-0.0012962972978129983	-0.0030535405967384577	-0.02416999638080597	0.07600759714841843	0.10059737414121628	0.00613054633140564	0.0007259426056407392	0.001423825160600245	0.10235785692930222	0.011518745683133602	-0.005562108475714922	0.007854859344661236	0.010158402845263481	0.06750597059726715	-0.002829600591212511	0.030880985781550407	0.008378849364817142	0.024250680580735207	0.002074004150927067	0.0910806804895401	0.0022798399440944195	-0.012794391252100468	-0.0004189936153125018	-0.02801043726503849	0.09019175916910172	-0.0003969270328525454	-0.027423113584518433	0.005001179873943329	0.0034092434216290712	-0.003712935373187065	-0.010552837513387203	-0.012933479622006416	-9.536814468447119e-05	0.0009526719222776592	0.008150883950293064	-0.027192000299692154	0.002491266932338476	0.10549068450927734	0.0008272250415757298	-0.00392746040597558	0.2309122085571289	0.00416623055934906	3.859965090668993e-06	0.017749007791280746	0.09480772167444229	-0.023701008409261703	-0.02812323160469532	0.0026324947830289602	0.022996999323368073	-0.006144409533590078	0.004243542440235615	-0.01732085831463337	-0.00011264564818702638	0.055296752601861954	0.0085035040974617	0.007033934351056814	-0.00023469219740945846	-0.0005167806521058083	0.01131344586610794	0.028415629640221596	-0.03436477482318878	-0.0028313244692981243	0.07967153936624527	0.042364101856946945	0.002449851483106613	-0.027259832248091698	0.001402917318046093	0.002575259655714035	-0.0014994959346950054	0.1562882363796234	0.009914817288517952	-0.02395133674144745	-0.0012118244776502252	0.017724396660923958	0.025831229984760284	-0.03617783635854721	0.05746092274785042	0.06980647891759872	0.05936199054121971	0.02940445765852928	-0.0014963257126510143	0.009366187267005444	0.018979566171765327	0.007819650694727898	-0.006148702930659056	0.05532895773649216	0.01497676596045494	0.0023232523817569017	0.009465524926781654	-0.014094831421971321	0.002757460344582796	0.00243267510086298	0.0015821977285668254	0.038454920053482056	0.004152307286858559	0.008132990449666977	0.010807505808770657	-0.011818853206932545	-0.012758398428559303	0.04959999397397041	0.010238248854875565	0.007857291959226131	-0.002078344114124775	-0.008403143845498562	0.0009562715422362089	-0.010710232891142368	0.04463944584131241	-0.012141113169491291	-0.024085603654384613	0.20894362032413483	-0.010726836510002613	0.04276787117123604	-0.010109775699675083	0.03861386328935623	0.008826269768178463	0.0018680570647120476	0.030833415687084198	0.00047280837316066027	0.00683978758752346	-0.01031717099249363	0.02107338234782219	0.010030871257185936	-0.016708778217434883	-0.034488942474126816	0.0688418596982956	0.016547739505767822	-0.005992345046252012	-0.0010793551336973906	0.00023495468485634774	0.006291769910603762	0.0564589649438858	
elefante	0.0036524867173284292	0.0015555130084976554	0.005835601594299078	0.05500565841794014	0.0009648698614910245	0.00746349710971117	0.032137155532836914	-0.005706458352506161	0.025244714692234993	0.0022429139353334904	0.006928098853677511	-0.0056016454473137856	-0.0013822854962199926	-0.0005311067798174918	0.024571597576141357	-0.0026134545914828777	-0.002379058860242367	0.007832859642803669	0.012717519886791706	0.005396506283432245	0.01160502526909113	-0.004218659363687038	0.04775006324052811	0.0014164248714223504	0.00040120678022503853	0.008984563872218132	0.009901147335767746	0.02560422010719776	4.7906232794048265e-05	-0.0008554807282052934	-0.0027852123603224754	0.090150848031044	0.010215665213763714	0.00018729051225818694	0.0007738863932900131	0.0036867454182356596	0.0076074968092143536	0.0034217769280076027	-0.005714124068617821	0.006957634352147579	0.011898678727447987	0.005829931702464819	0.003407328389585018	0.02285796031355858	0.05355394631624222	0.07311821728944778	0.04402569681406021	0.014524919912219048	0.0005123543087393045	0.0050750356167554855	-0.001478157239034772	0.002767121186479926	-0.00029999593971297145	-0.0011121656280010939	0.01565363071858883	0.019698599353432655	0.03409418836236	0.009007192216813564	0.09517982602119446	-0.0013702540891245008	0.07152388989925385	0.02088799700140953	0.058157194405794144	-0.008171088062226772	0.001909491140395403	0.0003073894768022001	0.002446940867230296	0.027287563309073448	0.0003202794468961656	0.009812034666538239	0.01423727162182331	0.004123694263398647	-0.01804260164499283	0.02139086276292801	-0.0032417993061244488	-0.0009855559328570962	0.025869963690638542	-0.003970178309828043	0.0026004458777606487	0.02611788921058178	0.016771135851740837	0.00469846511259675	0.020450320094823837	0.014611179009079933	0.00076788425212726	-0.0009713831241242588	0.0015750047750771046	0.012874182313680649	0.006944572553038597	0.011414485052227974	0.00114820443559438	0.02309136651456356	0.01892053335905075	0.009672161191701889	0.24396242201328278	0.019838551059365273	0.016038106754422188	0.00037076816079206765	0.016558963805437088	-0.010375885292887688	0.09222855418920517	0.02976347506046295	-0.00014096027007326484	-0.002038303529843688	0.04283807799220085	0.04552815854549408	0.013478908687829971	0.11490260809659958	0.0339549295604229	0.005032053682953119	0.031308047473430634	-0.005351325962692499	0.025497084483504295	0.016367707401514053	0.00962085835635662	-0.006126449443399906	0.004641897045075893	0.0011530275223776698	-0.0010843885829672217	0.0732317566871643	0.0002133831148967147	0.0031531769782304764	0.011643706820905209	0.012873812578618526	0.018471719697117805	-0.0008104805601760745	-0.00547377485781908	0.0037448545917868614	0.004291730001568794	0.021318145096302032	-0.002554096281528473	0.06321239471435547	0.00804123654961586	0.013786730356514454	0.08086653798818588	-0.005769606214016676	0.015157774090766907	0.0004930089926347136	-0.0005080204573459923	0.017780184745788574	0.004532934166491032	0.0025186280254274607	0.012556695379316807	0.013538386672735214	0.023484617471694946	0.001088945777155459	-0.0006377514218911529	-0.0018490114016458392	0.000786966469604522	0.06349273025989532	-0.003486593021079898	0.022287312895059586	0.011582035571336746	-0.00037558612530119717	0.08290473371744156	0.006429617293179035	-0.002756941830739379	-0.018971668556332588	0.0006349000614136457	0.005159170366823673	0.04268168285489082	0.061001140624284744	0.004438973497599363	0.0019952126313000917	-0.0016804315382614732	0.030402392148971558	0.010660296306014061	0.01830909214913845	0.022721413522958755	0.006238570436835289	0.0017332012066617608	0.0009156016167253256	0.07320938259363174	-0.006607409566640854	0.0033944493625313044	-0.0013715270906686783	0.056207913905382156	0.06339947879314423	0.014688805676996708	-0.007218140177428722	-0.0011573581723496318	0.11060135066509247	0.03950410336256027	-0.010558536276221275	-0.0034996510948985815	0.009077836759388447	0.016539450734853745	-0.0009117925073951483	0.02850196696817875	-0.0008288330282084644	0.0004803282499779016	-0.00026446327683515847	0.03134901821613312	0.005498926155269146	0.0197907704859972	0.004943810869008303	0.003607814898714423	0.008179312571883202	0.005624312907457352	-0.0032788619864732027	0.05555669963359833	9.554994176141918e-05	0.0018098950386047363	0.00023707914806436747	0.025409935042262077	0.000320992898195982	0.20434187352657318	0.00036090073990635574	-0.0025246914010494947	0.08947480469942093	-0.0039319549687206745	0.00972561351954937	0.0031375731341540813	0.06668733060359955	0.03597094118595123	0.02011570706963539	0.0026042091194540262	-0.003941234201192856	0.013033066876232624	-0.004682941362261772	0.013372729532420635	-0.00947247352451086	0.05439935252070427	0.016287147998809814	0.007204729598015547	0.02707328461110592	0.0007253969088196754	0.025913994759321213	0.017328336834907532	0.06823740154504776	-0.001043115509673953	0.1148914024233818	-0.0037969937548041344	0.00734116742387414	0.048179276287555695	0.0005641228053718805	0.011219073086977005	0.005834420211613178	0.1544199436903	0.01329816970974207	-0.0006039478466846049	0.004513871390372515	-0.009889005683362484	0.03278537839651108	0.09225965291261673	0.05404059216380119	0.08942478150129318	0.08377878367900848	0.012099049985408783	0.05446647107601166	0.0033081138972193003	0.03119911625981331	-0.00372206699103117	0.0007292064256034791	0.02275754325091839	0.002876120153814554	-0.0032288108486682177	0.01818721555173397	0.020747696980834007	0.002433400135487318	0.009119091555476189	0.001127055031247437	0.05627278611063957	-0.0008726456435397267	0.05782301723957062	0.0033016600646078587	-0.023602835834026337	0.027498628944158554	0.01575879007577896	0.007625134661793709	0.009077508002519608	0.009620136581361294	0.0028919128235429525	0.012986208312213421	0.023729978129267693	0.018423065543174744	0.003693030448630452	-0.011957758106291294	0.1369304656982422	-0.00479535898193717	0.039050694555044174	-0.014072556048631668	0.04588676616549492	-0.0007817692821845412	-0.002046063542366028	0.02730516716837883	-0.00032250245567411184	0.020109688863158226	0.005371580831706524	0.0019530074205249548	-0.002682352904230356	-0.0009451662772335112	-0.003336831461638212	0.025152044370770454	0.038583334535360336	-0.002065795473754406	-0.00022733949299436063	0.005614373832941055	-0.0051808725111186504	0.05214307829737663	
gatto	0.0059868148528039455	-0.00012614823936019093	0.008369572460651398	0.05445724353194237	0.03119337372481823	0.014299919828772545	-0.0038534703198820353	0.002191184088587761	0.06856030225753784	0.02173789031803608	0.002475755289196968	0.022465882822871208	-0.00198925263248384	0.009779294021427631	0.031117107719182968	-0.00036433624336495996	-0.0008011549944058061	0.012529979459941387	0.018739407882094383	0.0065607912838459015	-0.026676051318645477	0.02274993620812893	0.0032337342854589224	-0.0003474914119578898	0.000577061262447387	-0.014803292229771614	-0.0007377340807579458	-0.028952978551387787	-1.8469836504664272e-05	0.0011417473433539271	0.01840868778526783	0.2780364155769348	0.01960475742816925	-0.0024156111758202314	0.022510098293423653	-0.011046788655221462	0.011921138502657413	-0.005359353963285685	0.01693919487297535	0.01832142472267151	-0.01876876875758171	0.018662236630916595	0.07472270727157593	0.012535846792161465	0.016983868554234505	0.18249668180942535	0.018257994204759598	0.025173669680953026	0.0005223332555033267	0.05233486369252205	-0.00045957579277455807	-0.0017103211721405387	0.0027043181471526623	0.008344716392457485	0.024833474308252335	-0.004928764887154102	0.04439382255077362	0.02390250936150551	0.09077433496713638	0.001532954047434032	0.15004146099090576	-0.014269172213971615	0.2421526461839676	-0.006131597328931093	-0.0011662248289212584	0.010615172795951366	0.001917271176353097	0.03949841856956482	0.0018047250341624022	0.006610694341361523	0.021321289241313934	-0.012271602638065815	-0.008016715757548809	0.04326188191771507	0.0007177038351073861	-0.005865912418812513	0.04368787631392479	-0.00781300663948059	-0.00826028361916542	0.041636817157268524	0.08667482435703278	0.005456902086734772	0.008009436540305614	0.02600591443479061	0.008660419844090939	0.001957360189408064	0.00873261597007513	0.0199904702603817	-0.003721945220604539	0.13852143287658691	0.009858852252364159	0.07539699226617813	0.0308332908898592	-0.007404286880046129	0.3493432402610779	-0.004895586054772139	-0.014912442304193974	-0.0061280145309865475	-0.00747001962736249	0.0008418114157393575	0.09297345578670502	0.008972740732133389	0.000774303509388119	0.003081509843468666	0.12882523238658905	0.13632404804229736	0.024479353800415993	0.10154715180397034	0.053045112639665604	0.0041277226991951466	-0.05614084750413895	0.0035248184576630592	0.06059800833463669	0.01759292185306549	-0.0028456849977374077	-0.002823615912348032	0.012719673104584217	0.008357874117791653	0.0016786782070994377	0.06855984777212143	0.012603150680661201	0.01475436333566904	0.018125584349036217	0.0135656101629138	0.018946832045912743	0.0013787706848233938	-0.0031003414187580347	0.01801021583378315	0.009541974402964115	0.0458034984767437	0.03865727037191391	0.08927451819181442	0.013633419759571552	0.029041282832622528	0.14063574373722076	0.03803563863039017	0.04054832085967064	0.0003723173285834491	-0.01107516698539257	0.0036378500517457724	0.0024813900236040354	0.001389798242598772	0.06125693395733833	0.004528068471699953	0.09395497292280197	-0.0005647428333759308	-0.0050678737461566925	-0.00047662906581535935	0.0036056211683899164	0.22168458998203278	0.004780496470630169	0.16622044146060944	0.0015590802067890763	0.0007186197908595204	0.293988436460495	0.02269905060529709	-0.00242693186737597	-0.010498964227735996	-0.004715925082564354	0.006336836609989405	0.059851329773664474	0.06263060122728348	-0.0047186072915792465	0.0006831418722867966	-0.0006125933723524213	0.029845720157027245	-0.002552151447162032	0.01929054968059063	0.025039145722985268	0.0031336932443082333	-0.0005147158517502248	-0.004969510715454817	0.10178294032812119	0.06676121056079865	0.007412318140268326	0.0001848335814429447	0.15065065026283264	0.07213368266820908	0.0013819276355206966	0.0004909879644401371	0.011808853596448898	0.075078584253788	0.05686325579881668	0.031574834138154984	0.009686481207609177	-0.004708197899162769	0.027662208303809166	0.0020070942118763924	0.09719271957874298	0.022390669211745262	0.007760810200124979	0.000524727744050324	0.03266754373908043	0.06257564574480057	0.03452831134200096	0.02865152806043625	0.005612023640424013	0.018186422064900398	0.001163806882686913	-0.0028379845898598433	0.02744164504110813	-0.0006517702713608742	-0.00020334163855295628	0.01627574861049652	0.01042131893336773	0.0017231140518561006	0.37367355823516846	1.5488836652366444e-05	0.007723760791122913	0.13378627598285675	0.009320967830717564	0.00035766829387284815	0.08318547904491425	0.09671473503112793	0.025828892365098	0.010508482344448566	0.006294774357229471	0.050610147416591644	0.0019439277239143848	0.0019574444741010666	0.017443839460611343	0.022603724151849747	0.04316787049174309	0.038776423782110214	0.0129099665209651	-0.0009901364101096988	0.000700427102856338	0.04922620952129364	0.06456945836544037	0.08746340125799179	0.018455790355801582	0.15016646683216095	0.05722671002149582	0.010721394792199135	0.053403813391923904	-0.0005684402422048151	0.03847184404730797	-0.001074215047992766	0.29710838198661804	0.009521253407001495	-0.007991333492100239	0.005720898043364286	0.011974707245826721	0.025645116344094276	-0.04311778023838997	0.03182871639728546	0.0728318989276886	0.10433643311262131	0.004612524528056383	0.006426239851862192	-0.006198502611368895	0.05380723252892494	0.03555557131767273	0.005454640369862318	0.03267638385295868	0.00715572340413928	0.004104623105376959	0.0030716632027179003	0.013653943315148354	-0.005500712897628546	0.01839081011712551	0.00138823629822582	0.05797596275806427	0.01703277789056301	0.04032788425683975	0.010563812218606472	0.04307590052485466	0.011006969027221203	0.06103988364338875	-0.014272494241595268	0.018334276974201202	0.07037042826414108	0.004621609579771757	-0.0058368961326777935	-0.005385803058743477	0.024171097204089165	0.005754437763243914	-0.01744118705391884	0.3351286053657532	0.0012473248643800616	0.07071363925933838	0.02488378807902336	0.09893853962421417	0.004185875877737999	0.00225142203271389	0.018940992653369904	-0.00043194161844439805	-0.0014130973722785711	0.012187745422124863	0.024708248674869537	0.02013460174202919	0.00501344446092844	0.029858751222491264	0.0868091732263565	0.02990899793803692	0.0003839640994556248	0.0011092418571934104	0.0003408168558962643	0.001781214028596878	0.08503258228302002	
leone	-0.017503771930933	-0.00010281526920152828	-0.013284577988088131	0.0935778021812439	-0.010573566891252995	0.0035447769332677126	0.018372884020209312	-0.010736790485680103	0.07784061878919601	0.004685134626924992	0.017693236470222473	0.030254146084189415	-0.010441984049975872	-0.001270194654352963	0.04045805707573891	-0.006943196058273315	0.0004886717069894075	0.01740865223109722	0.015666216611862183	0.011135569773614407	0.01064648013561964	0.00843116920441389	0.1041162833571434	0.000552414683625102	-0.002878805622458458	-0.007385355420410633	0.0038658538833260536	0.005855427589267492	5.517720273928717e-05	0.0012419659178704023	-0.007204999681562185	0.2444693148136139	0.052077487111091614	0.014081365428864956	0.00515326764434576	0.013614030554890633	0.013494353741407394	0.008453014306724072	-0.003602385986596346	-0.013132922351360321	0.048314597457647324	-0.020951218903064728	0.008337724022567272	0.03590702638030052	-0.012470492161810398	0.07757332175970078	0.06316813081502914	0.05549684911966324	0.0006554535939358175	0.005308226216584444	-0.02873540297150612	-0.0024660066701471806	-0.0031089403200894594	0.004359603393822908	0.0160666573792696	0.021218758076429367	0.040098510682582855	0.056354571133852005	0.06021619960665703	-0.0014219868462532759	0.08071177452802658	0.0034839941654354334	0.2344186007976532	0.017420224845409393	0.0068705035373568535	0.009596088901162148	-0.024047451093792915	0.008807086385786533	0.00023901178792584687	0.001828075502999127	0.0076458640396595	0.00047136680223047733	0.005856222938746214	0.04627490043640137	-0.003924843855202198	0.0029135809745639563	0.017446335405111313	-0.0038274507969617844	-0.007596623618155718	-0.01703260838985443	0.04199618846178055	0.027689047157764435	0.04455781355500221	0.008616304956376553	-0.0027526929043233395	-0.009902589954435825	-0.005352910608053207	0.027670374140143394	-0.01062597706913948	0.06944658607244492	-0.0017432179301977158	-0.023019053041934967	0.005887836217880249	-0.004383991006761789	0.42891013622283936	0.004122672602534294	-0.0033785104751586914	0.01776742935180664	-0.026432594284415245	0.02738514170050621	0.15130548179149628	-0.01581566594541073	-0.0005517190438695252	-0.003672099206596613	0.03833518549799919	0.21317216753959656	-0.003687052521854639	0.21303172409534454	0.06052558496594429	0.004997668322175741	0.03527148440480232	-0.006372549571096897	0.0398758128285408	-0.022598206996917725	0.003354109823703766	-0.004192447289824486	0.014619743451476097	-0.046080779284238815	-0.0034557534381747246	0.041531793773174286	0.00759965181350708	-0.000703799887560308	0.020170623436570168	0.005953935906291008	0.05596326291561127	-0.0009623361402191222	-0.005033438093960285	0.011670751497149467	0.005179738625884056	0.06032152473926544	-0.0368715263903141	0.052483223378658295	0.004013571422547102	0.009703767485916615	0.17562001943588257	-0.010434302501380444	0.006926961243152618	-0.0005585124017670751	-0.01924927346408367	0.01813041791319847	-0.004580421838909388	0.0013931595021858811	0.05753963813185692	0.023176070302724838	0.016560448333621025	0.0012704279506579041	0.0003919457085430622	0.004386690445244312	-0.017425185069441795	0.17285913228988647	-0.0031300869304686785	0.12031294405460358	-0.0010794081026688218	0.003188981208950281	0.23810569941997528	0.050793927162885666	-0.003237263299524784	0.0052986606024205685	0.0015654887538403273	0.008686942979693413	0.052020251750946045	0.03577807545661926	0.006899936590343714	-0.0007749843061901629	0.0006282725371420383	0.009856005199253559	0.01129026897251606	0.06550829857587814	0.013429135084152222	-0.00040508777601644397	-0.004304944071918726	0.011343623511493206	0.06867238134145737	0.18225204944610596	0.016207749024033546	-0.0017168294871225953	0.059970226138830185	0.099457748234272	-0.0029914493206888437	-0.003081896109506488	-0.0012896325206384063	0.03251100704073906	0.07956919819116592	-0.02990034967660904	0.004629001021385193	0.005419627297669649	0.0073180231265723705	0.002081910613924265	0.07445493340492249	-0.01071508415043354	0.00977537501603365	0.0015964932972565293	0.08123723417520523	0.06725359708070755	0.00605434738099575	0.030130822211503983	-0.0016867395024746656	0.04804141819477081	0.005013552028685808	0.008947589434683323	0.06237545982003212	0.0007354195113293827	0.005931132473051548	-0.007466260809451342	0.0135585255920887	-0.0007801040774211287	0.36129727959632874	-0.00022534842719323933	0.004923498723655939	0.1516236662864685	0.040873415768146515	-0.009402845054864883	0.07392462342977524	0.02576564997434616	0.050108205527067184	0.009071980603039265	0.007548633497208357	0.004943610168993473	0.010882198810577393	-0.010002926923334599	0.015003135427832603	0.0036961757577955723	0.1073136255145073	-0.0021295438054949045	-0.016706863418221474	0.07364409416913986	0.00135179387871176	0.06126883253455162	0.008077220991253853	0.04660923406481743	0.009843374602496624	0.1720258593559265	-0.032245442271232605	0.0005786314723081887	0.06724340468645096	0.0004921834915876389	0.03655014932155609	0.0012642722576856613	0.3142448663711548	0.024658171460032463	0.018465489149093628	0.021390525624155998	0.039699602872133255	0.02924131602048874	0.05463403835892677	-0.004880167543888092	0.13269981741905212	0.08411657065153122	-0.010391483083367348	-1.837948184402194e-05	0.002036802237853408	-0.022213555872440338	0.012810584157705307	0.0015565926441922784	0.07413782179355621	0.026876632124185562	-0.018873315304517746	0.021348852664232254	0.012209109030663967	-0.011730004101991653	0.02863254025578499	-0.004559547174721956	-0.02099720388650894	0.04219746217131615	0.10148796439170837	0.027952056378126144	-0.011807385832071304	-0.012314246967434883	0.05777999386191368	0.05217832699418068	0.004548999946564436	0.016219627112150192	0.007040198892354965	0.05217844247817993	0.0025421944446861744	0.06925780326128006	0.007484910544008017	-0.003988558892160654	0.27113455533981323	-0.0023472062312066555	0.05618661642074585	-0.011780492030084133	0.05695614218711853	0.00019524265371728688	-0.008004033006727695	0.10319320112466812	9.259234502678737e-05	0.006596677470952272	0.013285921886563301	-0.005148976109921932	-0.012165484949946404	0.040724970400333405	0.038802243769168854	0.051714107394218445	0.08419856429100037	-0.00721838278695941	-0.0018198314355686307	0.001130547490902245	-0.005658456590026617	0.08574313670396805	
maiale	-0.0028206086717545986	0.0016725868918001652	-0.003994481172412634	0.1272081881761551	0.007501587271690369	-0.01625167578458786	-0.007349709514528513	0.006746150553226471	-0.0482669435441494	0.003052551532164216	-0.00033037710818462074	0.0038202612195163965	-0.006661800667643547	-0.0007126069976948202	-0.026449404656887054	-0.0014723873464390635	0.003625402692705393	0.00914798490703106	0.01547933742403984	0.025930458679795265	0.020789600908756256	0.005786148831248283	0.005728357005864382	0.00018382913549430668	0.0007936470792628825	-0.014942136593163013	-0.007990696467459202	0.027466658502817154	0.00011190511577297002	-0.0011385270627215505	0.005278215277940035	0.1519944667816162	-0.0005534556112252176	0.0053027612157166	0.01670696958899498	0.009746778756380081	0.008920427411794662	-0.010308988392353058	-0.01656840555369854	-0.01716463640332222	0.010656941682100296	-0.0023002810776233673	0.013225673697888851	-0.0210444126278162	0.006905838847160339	0.13309338688850403	0.03188346326351166	0.01176091842353344	0.000806580123025924	0.011932077817618847	0.018111851066350937	0.0019631357863545418	0.0032413234002888203	-0.005057929549366236	-0.009703590534627438	0.030333712697029114	0.05958998203277588	0.0565355122089386	0.047431495040655136	-0.0021087098866701126	-0.008782858960330486	0.034362778067588806	0.1869499534368515	0.012814517132937908	0.0011750566773116589	0.0070083364844322205	0.010928806848824024	-0.00717631820589304	-0.00017108833708334714	-0.010266478173434734	0.007331011351197958	0.006367414258420467	0.02161126211285591	0.07449834793806076	0.0034624459221959114	-0.00585568230599165	0.03468601405620575	-0.007113443687558174	0.008273527957499027	0.01575230248272419	0.04193958640098572	0.013013268820941448	0.0706724002957344	0.02825244329869747	-7.807560177752748e-05	-0.006020777393132448	0.006651283707469702	-0.01576462760567665	0.01465894840657711	0.05474057048559189	-0.029024668037891388	-0.011060403659939766	0.013470562174916267	-0.02088143490254879	0.40073850750923157	-0.00391356460750103	0.010811681859195232	-0.005215924698859453	-0.011467338539659977	0.048068657517433167	0.11166755855083466	0.025056786835193634	0.00031705634319223464	-0.022155262529850006	0.10452781617641449	0.12612326443195343	0.016151592135429382	0.17916586995124817	0.000993457855656743	0.001943735871464014	0.03529589995741844	-0.0016254667425528169	0.029079603031277657	0.0396370030939579	-0.0057007623836398125	-0.0011473221238702536	-0.0006126487860456109	0.023115331307053566	0.0012644043890759349	0.05954168364405632	0.00691281957551837	0.011679795570671558	-0.014280904084444046	0.010103090666234493	-0.010724704712629318	-0.0017770868726074696	0.00014571640349458903	0.038407690823078156	-0.0033023979049175978	0.05995859205722809	-0.0013383976183831692	0.09449886530637741	0.007004083599895239	0.006319895386695862	0.11012125015258789	0.01409765426069498	-0.0021103061735630035	0.0003205298271495849	-0.03033454157412052	-0.0004993594484403729	-0.002700050827115774	0.0010417284211143851	0.02185545675456524	-0.02416839450597763	0.007450287230312824	0.00021380922407843173	-0.003701303154230118	-2.379497527726926e-05	0.00426874915137887	0.14539705216884613	0.0015661962097510695	0.0611797496676445	0.011327382177114487	-1.6821548342704773e-05	0.10485289990901947	-0.0027409966569393873	0.0021099539007991552	-0.019614487886428833	-0.0018269496504217386	-0.01497816201299429	-0.01342501025646925	0.08610869199037552	-0.008837088011205196	0.0027732676826417446	0.014065518975257874	0.02295786142349243	0.019033968448638916	0.028503742069005966	0.015894068405032158	0.012852521613240242	-0.004144856706261635	0.0029172345530241728	0.1776401549577713	0.017953790724277496	0.012906350195407867	0.0005231652176007628	0.07081015408039093	0.10095963627099991	-0.0010796986753121018	-0.002768223872408271	-0.00435941806063056	0.053474925458431244	-0.01676402986049652	0.012932151556015015	0.006471107713878155	-0.0009268829016946256	0.0005589212523773313	0.0015272320015355945	0.07038280367851257	0.013700862415134907	-0.007658418733626604	-0.0008376439800485969	0.08981381356716156	0.10439586639404297	0.03272991254925728	0.02207076922059059	0.0062279715202748775	0.028818653896450996	0.00980907678604126	0.029524371027946472	-0.019621549174189568	0.00011665223428281024	-0.0012012607185170054	0.002318058628588915	0.042178425937891006	-0.001147973584011197	0.347067654132843	-0.00013547380513045937	0.0005862240213900805	0.059249576181173325	0.011048907414078712	0.007755964528769255	0.027006400749087334	0.04489586129784584	0.02081982046365738	0.06949611008167267	0.0007796068675816059	0.059437043964862823	0.014259516261518002	0.0030826276633888483	0.014628645963966846	0.011202755384147167	0.10225951671600342	0.022135715931653976	0.0035323486663401127	0.01614995300769806	0.0025687203742563725	0.03035326674580574	0.019814997911453247	-0.021578609943389893	0.0006623052759096026	0.06088713929057121	-0.012815163470804691	-0.0015731928870081902	-0.013732017949223518	0.0003094278508797288	-0.0010064211674034595	0.00296027516014874	0.1153879165649414	-0.005286923609673977	0.027195563539862633	-0.005710402969270945	0.008276700973510742	0.039704691618680954	0.06043892726302147	0.04949408769607544	0.15488269925117493	0.04749256372451782	-0.007049544248729944	0.02008860372006893	-0.003060848219320178	0.014220315031707287	0.03857550024986267	-0.0034839576110243797	0.009139402769505978	0.010752268135547638	-0.004555358085781336	-0.014973638579249382	0.02408965677022934	0.003681776812300086	0.012355771847069263	0.000937341246753931	0.04487122595310211	0.027777530252933502	0.07264497131109238	-0.002936626086011529	0.031635481864213943	0.021642543375492096	0.04526139050722122	0.024805430322885513	0.0062737599946558475	0.008932258933782578	0.0016240711556747556	0.011467826552689075	0.02464265376329422	0.006133336573839188	0.00752683449536562	-0.002925232984125614	0.17135263979434967	0.010446113534271717	0.027993667870759964	0.0038655782118439674	-0.004065399523824453	0.008971025235950947	-0.0006099555757828057	0.01605902798473835	0.0004783144686371088	-0.01747075840830803	0.01679428666830063	0.014745080843567848	0.0026427367702126503	0.012867447920143604	0.005226162262260914	0.08195506036281586	0.05778726562857628	-0.015350952744483948	0.00031307278550229967	-0.01033702865242958	0.0014651431702077389	0.031708016991615295	
mucca	-0.012633045203983784	0.0002860811073333025	-0.009060833603143692	0.17066317796707153	-0.009376129135489464	0.015156046487390995	0.03242512792348862	-0.0019005147041752934	0.07676398009061813	0.0071067120879888535	0.013564848341047764	0.02936706691980362	-0.007938472554087639	-0.008052191697061062	-0.032594338059425354	-0.004119722172617912	0.0008265459910035133	-0.0006706261192448437	0.01710384152829647	-0.03645341843366623	0.03823622688651085	0.012368896044790745	0.023043371737003326	0.0009940554155036807	0.001210685120895505	0.016451243311166763	-0.021973971277475357	0.0005871328175999224	5.850195066159358e-06	0.00014812695735599846	0.014492705464363098	0.06764145940542221	0.005994040984660387	0.007390074897557497	0.019099051132798195	0.0009389245533384383	0.02240990474820137	-0.0018096385756507516	-0.009104897268116474	0.001915239728987217	0.023513857275247574	-0.03854616731405258	4.003290450782515e-05	-0.006252894178032875	0.0540618821978569	-0.013725259341299534	0.011426914483308792	0.03417785093188286	0.00010856212611543015	0.015160604380071163	0.00802758801728487	0.0035023819655179977	-0.002980997785925865	-0.0012309197336435318	0.021713117137551308	0.017618512734770775	0.09156801551580429	0.022191131487488747	0.009332830086350441	-0.001437459490261972	0.06755341589450836	0.11377396434545517	0.07035431265830994	0.005138486623764038	-0.0010777154238894582	0.0035054641775786877	0.11471786350011826	0.036002568900585175	0.0007302954909391701	0.012511488981544971	0.01377890445291996	0.010169208981096745	0.03440365567803383	0.08390428870916367	-0.003924322780221701	0.0014504805440083146	-0.0004912731819786131	-0.012307526543736458	-0.011902081780135632	-0.006834681145846844	0.02770216204226017	0.024582454934716225	0.0505877360701561	0.03483383730053902	-0.009180420078337193	-0.009628110565245152	0.0013608495937660336	-0.04006180539727211	-0.006719669327139854	0.11714563518762589	-0.02769647352397442	0.06855074316263199	0.005595305468887091	0.02312716469168663	0.496366947889328	0.018467403948307037	0.013517252169549465	-0.002776742447167635	0.0237725879997015	0.0317901074886322	0.06794960796833038	0.020906547084450722	0.000530236167833209	0.019394556060433388	0.08500272780656815	0.24004235863685608	0.04553436487913132	0.18087531626224518	0.03173964098095894	0.001952512888237834	0.09276697784662247	0.00075221509905532	0.039846111088991165	0.03294913470745087	-0.01664102077484131	-0.008295946754515171	0.007069723680615425	-0.0021054267417639494	0.0015917185228317976	0.05960848554968834	0.006839162204414606	-0.0032743350602686405	0.003887206083163619	0.0015781419351696968	0.016898490488529205	0.004931105766445398	0.0036362281534820795	0.0010643514106050134	0.00460637453943491	0.0226192157715559	0.0035847257822752	0.13795769214630127	0.010873948223888874	0.015483797527849674	0.11937166005373001	-0.003153795376420021	0.033775925636291504	-0.0034975854214280844	0.01901637203991413	0.03045385330915451	0.0007225007866509259	0.008303354494273663	-0.017667114734649658	-0.031157992780208588	0.05461905524134636	-0.00027273112209513783	-0.003032590262591839	-0.0036425518337637186	0.011754683218896389	0.20547400414943695	0.009212713688611984	0.1489102691411972	0.0175052247941494	-0.002620362676680088	0.1424398273229599	0.032681018114089966	0.004721309524029493	0.015018091537058353	0.01047399453818798	-0.029385581612586975	0.010631415992975235	0.09970621764659882	-0.015357475727796555	0.0014583480078727007	0.0030863876454532146	0.06844652444124222	0.058690037578344345	0.04875918850302696	-0.010441750288009644	0.02854311093688011	0.009497959166765213	0.019100133329629898	0.06568572670221329	0.0004128107975702733	0.009632544592022896	-0.0007278418634086847	0.12302552908658981	0.12718485295772552	0.011678451672196388	-0.0030065958853811026	0.007367788348346949	0.16057467460632324	-0.011722855269908905	0.010755863040685654	0.05073506757616997	0.003956187516450882	0.028764942660927773	0.004419982898980379	0.10278952121734619	0.007221402134746313	0.0016598748043179512	-0.0008281861082650721	0.10289862006902695	0.19933685660362244	-0.007492362521588802	0.0278336051851511	-0.001722179469652474	-0.021298687905073166	0.009358834475278854	0.00546318618580699	0.04256955161690712	0.00031662845867685974	-0.002582911867648363	0.010730241425335407	0.04908236861228943	0.0009319057571701705	0.39706745743751526	0.0017246404895558953	0.01338233146816492	0.1543535441160202	-0.01613488607108593	0.012031883001327515	0.03268328309059143	0.11307620257139206	0.09675830602645874	0.08113864064216614	0.004742445889860392	0.057215020060539246	0.022169115021824837	0.0011726522352546453	0.03453930839896202	-0.0008413598407059908	0.08556423336267471	0.025321869179606438	-0.011985297314822674	0.0021247577387839556	0.0021736344788223505	0.010218719020485878	0.0026645350735634565	0.07665577530860901	0.0098043167963624	0.11608520895242691	-0.018358467146754265	-0.008443154394626617	0.022809496149420738	0.002673492766916752	-0.0016855137655511498	0.010330349206924438	0.45012789964675903	-0.00941451545804739	0.062129128724336624	0.008050444535911083	-0.03753320872783661	0.0372372604906559	0.0234498493373394	0.15965569019317627	0.22919027507305145	0.1318555772304535	-0.00623249402269721	0.017886435613036156	-0.019605237990617752	-0.004130495712161064	-0.03638046234846115	-0.0031978602055460215	0.046860214322805405	0.018646974116563797	-0.007718412205576897	-0.014138449914753437	-0.026324331760406494	0.004169695544987917	-0.0012883043382316828	0.0034340049605816603	0.0818566381931305	0.0070373364724218845	0.05342932417988777	-0.0158613882958889	0.042098741978406906	0.022209471091628075	0.09357140213251114	0.0399811714887619	-0.014793184585869312	0.04460291936993599	0.00646200543269515	-0.011113975197076797	0.017927898094058037	-0.009505260735750198	0.004797890782356262	0.022590728476643562	0.23347237706184387	0.002865569433197379	-0.028673045337200165	0.03821079805493355	0.01930736005306244	0.013764170929789543	-0.00121955422218889	0.02623608708381653	-0.0001526521664345637	-0.0005180059815756977	-0.009309099055826664	0.04426225647330284	-0.002479126211255789	0.008902196772396564	0.005450244061648846	0.048663873225450516	0.09681147336959839	0.004627881571650505	5.155359758646227e-06	-0.006778557784855366	-0.0019521991489455104	0.0618862546980381	
serpente	0.002766770077869296	0.0018696982879191637	0.0035998940002173185	0.056181199848651886	0.006397511810064316	0.014785406179726124	-0.019352858886122704	0.005213073920458555	0.040980856865644455	0.0051104165613651276	0.01706174574792385	-0.01574098877608776	0.0021924322936683893	0.0010027141543105245	0.006758511066436768	0.0008615721017122269	-0.00035882560769096017	-0.005751732736825943	0.004475319292396307	0.029259739443659782	0.010758492164313793	0.0013493698788806796	-0.01014528889209032	0.0010231055784970522	-0.0009308653534390032	-0.0024326283019036055	0.004440059885382652	0.018053505569696426	-1.2244326796917449e-07	0.0004653082578442991	-0.011604865081608295	0.16705508530139923	0.012268555350601673	0.001902060816064477	0.0008392606978304684	0.004753495566546917	0.015190411359071732	0.001501896302215755	0.005093932151794434	0.025874784216284752	0.011747780255973339	0.002865612506866455	-0.02437702752649784	0.01103296410292387	0.0066384850069880486	0.08571420609951019	0.05703018978238106	0.0539088174700737	-0.00012248264101799577	0.009429462254047394	0.019656797870993614	0.0012587609235197306	0.0010309191420674324	0.007369339466094971	0.011189460754394531	0.02467692829668522	0.015351420268416405	0.008405596949160099	0.053336385637521744	0.0007601150427944958	0.023534491658210754	-0.008240485563874245	0.1327744424343109	0.01206787209957838	0.0009772960329428315	0.003167665796354413	0.0050453078001737595	0.02742217294871807	-0.00039400687091983855	0.00038508756551891565	0.0193465668708086	0.006200461648404598	0.003929382190108299	0.031930986791849136	0.0017761971103027463	-0.0014605983160436153	0.029920533299446106	-0.004450357053428888	-9.567073720972985e-05	-0.021275000646710396	0.03293798491358757	0.0035122556146234274	0.013061048462986946	0.03415565937757492	0.007148724980652332	-0.0046187154948711395	0.012062182649970055	0.02666463516652584	-0.013274871744215488	0.047797948122024536	-0.0014241900062188506	0.01973666623234749	-0.01587797701358795	-0.0234525166451931	0.24296680092811584	0.019699852913618088	0.010573319159448147	0.0026512620970606804	-0.00018933767569251359	0.02774558588862419	0.11928106099367142	0.035623710602521896	-7.238535999931628e-06	0.009946168400347233	0.025338470935821533	0.10283137112855911	0.012437433004379272	0.07863185554742813	0.03254597634077072	0.002245561918243766	0.050605230033397675	-0.0018340530805289745	0.017902594059705734	-0.010783717967569828	-0.003593131899833679	-0.004823295399546623	0.0030409132596105337	-0.005565618630498648	0.0002758976479526609	0.0624721497297287	-0.010059976018965244	0.001432213350199163	0.020920755341649055	-0.00032515154452994466	0.00928801205009222	-0.0010603382252156734	-0.0012526523787528276	0.01040781568735838	0.0012569971149787307	0.015764888375997543	0.013420892879366875	0.065621517598629	0.022410331293940544	0.007611461915075779	0.05890163779258728	0.006583957001566887	0.0015437800902873278	0.0006834511295892298	0.006016297731548548	0.023150358349084854	0.0038622489664703608	0.0008596732513979077	0.053947318345308304	-0.009292270056903362	0.07339423894882202	-0.00011105535668320954	-0.003974605351686478	-5.457111183204688e-05	0.0008269717800430954	0.13406221568584442	0.0070122843608260155	0.11488993465900421	-0.01030857115983963	0.0003366794262547046	0.14133979380130768	0.01673535630106926	-0.0006499426090158522	-0.002052547177299857	-0.0005030502798035741	-0.0018511164234951138	0.05328412726521492	0.027609562501311302	-0.006671847775578499	-0.0017339178593829274	-0.0029396156314760447	-0.004596577025949955	0.031221620738506317	0.05183327570557594	0.035361308604478836	0.008808191865682602	0.0006338308448903263	0.02938954345881939	0.05920897796750069	0.11562421172857285	0.0072259241715073586	-0.0006264634430408478	0.023863255977630615	0.014833221212029457	0.0021599058527499437	0.008533330634236336	0.0026721046306192875	0.03585466369986534	0.015114918351173401	-0.014457613229751587	0.03718455880880356	-0.008264850825071335	0.004198243375867605	1.0263597687298898e-05	0.07894376665353775	0.015620378777384758	-0.00274238595739007	-2.18740533455275e-05	0.05077480897307396	0.04179112985730171	0.0005549151101149619	-0.0035334997810423374	0.0004282014851924032	0.011677290312945843	0.010103785432875156	-0.008360542356967926	0.014705494977533817	-0.0004689876514021307	0.0005967469187453389	-0.012505348771810532	0.009251468814909458	0.0017784902593120933	0.20865678787231445	0.00042588490759953856	0.0031666590366512537	0.0934002548456192	-0.005835835821926594	0.01168208010494709	0.02038813754916191	0.045613400638103485	0.03367060422897339	0.003914978355169296	-0.0009260617662221193	0.007288986351341009	-0.005465405527502298	0.00442214822396636	0.007045296020805836	0.006352960132062435	0.051143694669008255	-0.007544539403170347	0.0003294158086646348	0.00426628440618515	-0.00013602408580482006	0.029021592810750008	-0.010862327180802822	-0.0017466760473325849	0.0053661176934838295	0.08792735636234283	-0.006533753592520952	0.003813610877841711	0.001436352264136076	-0.0007686173194088042	0.017768224701285362	-6.615710503865557e-07	0.1886046826839447	0.008997148834168911	0.037545833736658096	-0.006119363475590944	0.006926494184881449	0.007810352370142937	0.034215375781059265	0.013124748133122921	0.060045771300792694	0.018670018762350082	-0.002845614217221737	0.0027640110347419977	-0.003953735809773207	0.011142055504024029	0.03242742270231247	0.002399563090875745	0.03293126821517944	0.01174025610089302	0.00029950568568892777	0.008031527511775494	0.019224228337407112	-0.003015798283740878	0.013734480366110802	2.8091071726521477e-05	0.012817664071917534	0.019169854000210762	0.06593060493469238	-0.002385614439845085	0.03976956009864807	0.008401910774409771	0.05220266431570053	0.0036019859835505486	0.008690189570188522	-0.002053467556834221	-0.0009897887939587235	0.009756081737577915	0.03045809641480446	-0.006055034231394529	0.011828762479126453	0.006212321110069752	0.15347352623939514	0.0010738893179222941	0.04255535826086998	0.021476808935403824	-0.008958195336163044	-0.00109448644798249	-0.0012199550401419401	0.059681881219148636	0.00019117638294119388	-0.01728653721511364	0.003609373699873686	-0.008574578911066055	0.045886315405368805	0.011553330346941948	-0.005045688711106777	0.020204691216349602	0.061124082654714584	0.007468257565051317	-0.0010334834223613143	0.01095674280077219	-0.010609925724565983	0.02953970804810524	
tigre	0.0007223898428492248	0.0014338543405756354	-0.008834108710289001	0.11126018315553665	0.033206481486558914	0.004821740090847015	0.022375311702489853	0.000671797024551779	0.046926550567150116	0.006878946907818317	0.03027375414967537	0.009296107105910778	0.012785594910383224	-0.0029425895772874355	0.03243903070688248	-0.002520027570426464	-0.000912222545593977	-0.010030701756477356	0.018840424716472626	0.02289569191634655	0.023129472509026527	0.006899961736053228	0.03245062753558159	0.0015825595473870635	-0.001872172113507986	0.022632483392953873	0.0051598758436739445	0.018324028700590134	0.00012169342517154291	-0.0010739683639258146	-0.0139931570738554	0.0502181276679039	0.03474483639001846	0.005162851884961128	0.0037673020269721746	0.0006528050289489329	0.035217538475990295	0.014116570353507996	0.003271054243668914	-0.010486234910786152	0.013038755394518375	0.0005454178317449987	0.02377999760210514	-0.006703000050038099	0.05553349107503891	-0.011155670508742332	0.054915912449359894	0.09801390022039413	-0.00031662030960433185	0.03014335036277771	-0.029466839507222176	0.005264843814074993	-0.0007658054819330573	0.0008387326379306614	0.011108199134469032	0.07375482469797134	0.0932997390627861	0.03641367331147194	-0.027045294642448425	0.0018360473914071918	0.091872438788414	0.09120150655508041	0.12109469622373581	0.0011434921761974692	0.0001191212868434377	0.008484137244522572	0.05466263368725777	0.034098878502845764	0.00028205939452163875	0.010454198345541954	-0.003727337811142206	0.0003874179092235863	0.01670965366065502	0.06520847976207733	-0.010685000568628311	0.0066426279954612255	-0.012557114474475384	-0.01273229718208313	0.0059642912819981575	0.020550252869725227	0.09023703634738922	0.043998733162879944	0.011428769677877426	0.022724250331521034	-0.00534309446811676	0.0014393707970157266	-0.008031826466321945	0.03418934717774391	-0.01175281498581171	0.13387373089790344	0.011797551065683365	-0.00843159481883049	-0.002671541180461645	0.017396070063114166	0.46646323800086975	0.010792328044772148	-0.016145886853337288	0.002357016783207655	0.01928860694169998	-0.001715138670988381	0.25746291875839233	0.008456366136670113	0.00010593132901703939	0.004952699411660433	0.11486884951591492	0.2618272006511688	-0.0015177358873188496	0.08934125304222107	0.039543554186820984	0.01740679144859314	0.0791628286242485	-0.004629127215594053	0.024902338162064552	-0.015413809567689896	0.016180191189050674	-0.006765848491340876	-0.0075789387337863445	0.01534866914153099	-9.272185707231984e-05	0.11780285835266113	0.002492399886250496	0.006423525977879763	0.046169131994247437	0.004505678545683622	0.026425709947943687	0.004498732276260853	0.005821858998388052	-4.444535443326458e-05	0.00405525928363204	0.03909645974636078	0.006659445818513632	0.17235450446605682	0.01838451251387596	0.022565808147192	0.08796484768390656	-0.008176367729902267	-0.019717441871762276	-0.0018226344836875796	0.01999053917825222	0.021657563745975494	-0.0043813432566821575	-0.0011080942349508405	0.11073141545057297	0.0020854463800787926	0.052809037268161774	0.001776028424501419	0.0003498515288811177	-0.0006921038730069995	0.002635389333590865	0.13751588761806488	0.011435013264417648	0.15189053118228912	0.010943401604890823	0.001301183132454753	0.11467377096414566	0.05071176216006279	0.001407815725542605	0.02173360250890255	0.00847985502332449	0.022397784516215324	0.023267222568392754	0.040104907006025314	0.026123635470867157	0.0014964279253035784	-0.007252689450979233	0.07131029665470123	0.023673392832279205	-0.05198713019490242	0.0141500448808074	-0.009578350000083447	-0.00683409720659256	0.049579016864299774	0.0703200176358223	0.037802908569574356	0.01656757853925228	-0.001515658339485526	0.047064878046512604	0.11637508124113083	0.007743143010884523	-0.004967994522303343	-0.018772266805171967	0.0848938450217247	0.05414780601859093	-0.027663592249155045	-0.01708616316318512	-0.0016935239546000957	0.017816519364714622	0.0009892815724015236	0.1444568932056427	0.03126652538776398	0.004795105196535587	-0.0018921047449111938	0.06825140863656998	0.20508675277233124	0.017086250707507133	-0.010495816357433796	-0.0018187775276601315	0.027789749205112457	0.014347998425364494	-0.039663661271333694	0.08458340913057327	0.001098207663744688	-0.003917360212653875	0.0055887289345264435	0.057388994842767715	0.0014821921940892935	0.3641420602798462	-0.0002202156319981441	0.004929931368678808	0.15053898096084595	0.0028457369189709425	0.01876155659556389	0.05883440747857094	0.016244826838374138	0.01213003322482109	-0.002795988228172064	-0.006815397180616856	0.005210450384765863	-0.014443475753068924	-0.011567620560526848	0.02800730988383293	-0.007116681430488825	0.13246279954910278	-0.011840125545859337	0.003717112820595503	0.04611834138631821	-0.0005772669101133943	0.04741133376955986	0.06653241813182831	0.014422622509300709	0.00708657456561923	0.1423943191766739	0.014390228316187859	-0.0007464943337254226	0.0646655485033989	0.0014698628801852465	0.031764041632413864	0.0017021042294800282	0.4302346706390381	0.0041752406395971775	0.025462713092565536	0.007532190997153521	-0.01486766617745161	0.02270808443427086	0.11213676631450653	0.1195828765630722	0.20371995866298676	0.08960497379302979	-0.011114764027297497	0.04186370596289635	0.000958228309173137	0.04001668840646744	-0.028218278661370277	0.002261462388560176	0.05959275737404823	0.043157909065485	0.006635662168264389	0.018112534657120705	0.011546513065695763	-0.014173340983688831	0.027561070397496223	0.0022391958627849817	0.03482396528124809	0.028728917241096497	0.056705545634031296	-0.008923136629164219	0.04456384852528572	0.0010065971873700619	-0.0006089110393077135	-0.004228417761623859	-0.019202755764126778	0.04863015562295914	0.003093157196417451	0.012742684222757816	-0.006094337906688452	0.012125222943723202	0.02221156284213066	0.023083021864295006	0.2828485071659088	0.007818850688636303	-0.011548160575330257	0.031780265271663666	0.11025218665599823	0.010296696797013283	-0.002760550007224083	0.13913516700267792	0.00044449823326431215	-0.003974785562604666	0.015907052904367447	0.01936783641576767	0.07257501780986786	0.003995276987552643	0.0006319718086160719	0.06359435617923737	0.12758296728134155	-0.0024922939483076334	0.0005241977632977068	0.008440358564257622	-0.011448308825492859	0.09636900573968887	
