word	vector
orso	0.053220488131046295	-0.19783663749694824	0.41201481223106384	-0.028969965875148773	0.19490721821784973	-0.012912903912365437	0.048930805176496506	-0.05699900910258293	0.3512859642505646	0.3095744550228119	-0.16933134198188782	0.08835463970899582	-0.08612014353275299	0.008658836595714092	0.23106180131435394	0.04284455254673958	-0.15008969604969025	0.07720227539539337	-0.0005193189135752618	-0.18687748908996582	-0.16100282967090607	0.37549546360969543	-0.12729506194591522	0.22030089795589447	0.14274396002292633	0.2256135195493698	0.2355538159608841	-0.33779945969581604	-0.2429988831281662	0.2644118368625641	-0.2686832547187805	-0.03891065716743469	-0.1395733803510666	-0.4016958177089691	0.010921594686806202	-0.2321937382221222	-0.42544493079185486	-0.37449216842651367	0.2528029680252075	-0.08216021209955215	-0.01867079734802246	0.0684489980340004	-0.28342801332473755	0.11436926573514938	-0.15260529518127441	0.12240339070558548	-0.06012549251317978	0.2867872714996338	0.11354543268680573	-0.13255922496318817	0.02109444886445999	-0.09168580919504166	-0.25545910000801086	0.13055011630058289	0.12377387285232544	-0.06803784519433975	0.2207716405391693	-0.2598148584365845	0.2991025447845459	0.16199623048305511	0.39760473370552063	0.05647485330700874	0.0033387653529644012	-0.3813132643699646	-0.16898590326309204	-0.10797975957393646	0.035874418914318085	-0.3423243463039398	0.06096856668591499	-0.16484102606773376	-0.13172626495361328	0.18279513716697693	-0.0751376822590828	0.010330981574952602	-0.21758566796779633	-0.25129351019859314	-0.12278293073177338	0.04777732864022255	0.03518299385905266	-0.07527264207601547	-0.10175180435180664	-0.15759709477424622	-0.024980055168271065	0.038988929241895676	0.01354483887553215	-0.07077235728502274	0.03120134025812149	-0.010691415518522263	-0.09227898716926575	0.15646827220916748	-0.1295478492975235	0.10870393365621567	-0.23518067598342896	-0.5488619208335876	-0.1912756711244583	-0.02379460074007511	0.08672162890434265	0.10021130740642548	-0.06907228380441666	0.05239812657237053	0.08949439227581024	0.015551509335637093	0.25624510645866394	-0.03294755890965462	-0.4039330780506134	-0.47096410393714905	0.5542148947715759	-0.4104165732860565	-0.1045578271150589	-0.21478094160556793	-0.28255513310432434	0.1408725380897522	3.6551191442413256e-05	-0.28608766198158264	0.03328489139676094	0.05424642562866211	0.007334116846323013	0.16436029970645905	-0.13922016322612762	-0.09418757259845734	0.15687690675258636	0.04188079759478569	0.1448032259941101	-0.0993172898888588	-0.09965722262859344	0.09658002108335495	0.22120635211467743	0.3308876156806946	-0.08716355264186859	0.38366684317588806	-0.08282846212387085	-0.28738296031951904	0.21196208894252777	-0.06026348099112511	-0.19428107142448425	-0.14006422460079193	0.0077275000512599945	-0.03290170431137085	-0.5659918189048767	0.11011730134487152	0.08368024975061417	0.5618517398834229	0.2101336121559143	0.1206798106431961	0.05526907742023468	0.2576667070388794	-0.1084904670715332	0.4147959351539612	-0.28032171726226807	0.135640949010849	-0.01655634492635727	0.11118035763502121	-0.1304578185081482	-0.2738634943962097	0.11213357001543045	-0.026501009240746498	0.1771148294210434	0.22336819767951965	-0.0011429316364228725	-0.03133998066186905	-0.45385634899139404	-0.16740782558918	-0.25758692622184753	-0.13816960155963898	-0.30969318747520447	0.1929234117269516	-0.04148834943771362	0.04427036643028259	-0.014575140550732613	0.3163261115550995	-0.12573285400867462	0.16277451813220978	-0.027843356132507324	-0.059236835688352585	-0.02157173864543438	-0.16300664842128754	0.2393428087234497	0.17973314225673676	-0.14503274857997894	0.29516884684562683	0.008762664161622524	0.02173120155930519	-0.00295055634342134	-0.09650518745183945	0.24761934578418732	0.11373209953308105	-0.24467656016349792	-0.04963862523436546	0.41768932342529297	0.2483474612236023	-0.12277574837207794	0.2189110368490219	-0.02489490993320942	-0.14346371591091156	0.07710476964712143	-0.09132255613803864	-0.3832380175590515	-0.015060406178236008	-0.12337689101696014	0.004198899492621422	0.08333982527256012	-0.3060222268104553	0.015288581140339375	0.5428606867790222	0.004966963082551956	-0.23224478960037231	-0.061074063181877136	0.0019732133951038122	0.21705396473407745	0.19287700951099396	-0.06560282409191132	-0.09808439016342163	-0.1260533332824707	0.10122047364711761	-0.12227974832057953	0.05820227041840553	-0.4318057894706726	0.05616360902786255	-0.047840677201747894	0.14153921604156494	-0.16092288494110107	-0.14862936735153198	-0.11639691889286041	-0.08670254796743393	-0.30020520091056824	0.008107813075184822	-0.13250228762626648	0.10988034307956696	0.23660515248775482	0.041648752987384796	0.1440630853176117	0.005904595833271742	0.2383316308259964	0.19090649485588074	0.004492909647524357	-0.2884630560874939	0.0758078321814537	0.0961771309375763	0.1981101781129837	0.12088757753372192	-0.11856640875339508	-0.10741432756185532	-0.06709221005439758	-0.3159599006175995	0.14159533381462097	0.4471690058708191	-0.05765111744403839	-0.1807342767715454	0.10524891316890717	-0.23506927490234375	-0.18049810826778412	0.27166178822517395	-0.34437936544418335	0.500085175037384	-0.15469029545783997	-0.17542637884616852	-0.32245224714279175	-0.012017576955258846	0.42667779326438904	0.18376924097537994	-0.07461468875408173	-0.05697781220078468	0.10804260522127151	-0.23964260518550873	-0.5453076958656311	-0.2932218015193939	-0.1201721653342247	0.19236160814762115	0.3137396275997162	0.4036496579647064	-0.1774960160255432	-0.3527912199497223	0.01078825630247593	-0.1219446212053299	-0.0571780651807785	-0.06378254294395447	0.07123671472072601	0.2716948091983795	0.1964576691389084	-0.315187007188797	0.010573646984994411	-0.07663707435131073	0.22883951663970947	0.09598561376333237	-0.19711804389953613	-0.1569838672876358	-0.320583313703537	-0.05960554629564285	-0.10470988601446152	0.06629017740488052	-0.1853734254837036	0.41925692558288574	-0.07875101268291473	0.04900358244776726	-0.15748026967048645	-0.23484516143798828	0.027587203308939934	0.2299989014863968	-0.19165055453777313	-0.22487406432628632	0.16330668330192566	0.12343741953372955	-0.4602680504322052	0.12621517479419708	0.3015176057815552	-0.10263903439044952	-0.3761706054210663	0.16969701647758484	0.19367066025733948	0.21567969024181366	0.01025522779673338	-0.0228575449436903	-0.23106975853443146	0.08807845413684845	0.1356954574584961	0.24264882504940033	-0.24461951851844788	0.039072878658771515	0.1536761373281479	0.1673702448606491	-0.16889794170856476	0.06252209097146988	-0.10776887089014053	-0.28048959374427795	0.07508982717990875	-0.1889147162437439	-0.017681144177913666	0.17818835377693176	-0.17643511295318604	0.3172544538974762	0.3705904185771942	-0.19968868792057037	-0.014834100380539894	0.07203266769647598	-0.29839569330215454	0.057089854031801224	-0.11010876297950745	0.0461786687374115	0.019095750525593758	-0.1523445099592209	0.25897619128227234	-0.07081518322229385	0.4612692594528198	0.2345004826784134	-0.03299471735954285	-0.06954216957092285	-0.12926959991455078	-0.03644794598221779	-0.05936945602297783	0.21928684413433075	0.047014832496643066	0.06882792711257935	-0.37538960576057434	0.09120240807533264	0.1653536707162857	-0.3118613064289093	0.04550023004412651	0.09795041382312775	0.26666805148124695	-0.2666783630847931	-0.022777093574404716	-0.3122566342353821	-0.39249420166015625	-0.04779684543609619	0.199187234044075	0.059239208698272705	0.2566128671169281	0.22051763534545898	0.10722725093364716	-0.03420322760939598	-0.05962052196264267	-0.18582934141159058	-0.11908804625272751	-0.04132036864757538	0.05165112763643265	-0.05048727989196777	0.12355733662843704	-0.1906854808330536	-0.2808328866958618	-0.24913305044174194	-0.09846664220094681	0.17116238176822662	0.4134519696235657	0.023052049800753593	0.0382147952914238	0.055247962474823	-0.29575711488723755	-0.05097382888197899	0.24813376367092133	0.03908435255289078	-0.00981067679822445	0.055512718856334686	0.1196853443980217	0.48057809472084045	-0.2977316081523895	-0.07336928695440292	0.1382160484790802	-0.40268033742904663	0.2516801357269287	0.063634492456913	
cane	0.021202871575951576	-0.3445558547973633	0.1528453677892685	0.40612661838531494	-0.3338705003261566	-0.1438867747783661	-0.2678063213825226	0.20415687561035156	0.10664140433073044	0.09226167947053909	-0.0627729594707489	-0.019652284681797028	-0.16350527107715607	-0.18144093453884125	0.045158371329307556	0.20965218544006348	-0.2393920123577118	-0.008287678472697735	-0.045723721385002136	-0.22624769806861877	0.19785518944263458	0.17463858425617218	0.053814731538295746	0.1596226841211319	-0.06590308248996735	0.009165656752884388	0.3216833472251892	-0.13696278631687164	0.08203617483377457	0.04553501307964325	-0.06597596406936646	-0.1240258440375328	-0.0033495360985398293	0.04568971320986748	-0.028539365157485008	-0.274737149477005	-0.3495047688484192	-0.2697986662387848	0.06596740335226059	0.1548643559217453	-0.17022500932216644	-0.2537214457988739	-0.005685579963028431	-0.27134373784065247	-0.39393150806427	0.1967453509569168	-0.13457883894443512	-0.2919684946537018	-0.14391186833381653	0.18769046664237976	-0.09190209209918976	0.022997265681624413	-0.11653504520654678	0.011900885961949825	-0.22448930144309998	-0.057720158249139786	-0.06468816101551056	-0.3086213767528534	0.3022489845752716	0.2372724562883377	0.30423107743263245	0.3013826906681061	-0.10995491594076157	0.0868842676281929	-0.3391335606575012	-0.003341378876939416	0.14796417951583862	0.08196326345205307	0.053467895835638046	-0.1205950453877449	-0.16016298532485962	-0.0047368016093969345	-0.24738876521587372	-0.06552867591381073	0.008407576009631157	0.07987401634454727	-0.27371594309806824	-0.03709286078810692	0.10974346101284027	0.17377880215644836	0.2168847769498825	0.0999583825469017	0.013836232014000416	0.21779286861419678	-0.010678686201572418	-0.36149030923843384	0.07968300580978394	-0.2697020173072815	0.022733723744750023	-0.14528903365135193	0.20197135210037231	-0.0708482414484024	-0.11682350933551788	-0.33786216378211975	-0.10992736369371414	0.27330151200294495	0.03909479081630707	-0.12273135781288147	0.22580033540725708	0.09987042099237442	-0.08644948899745941	0.08170431107282639	0.2838466763496399	0.011391237378120422	-0.5083118081092834	-0.4454924464225769	-0.1621539294719696	-0.1344667673110962	-0.21504858136177063	-0.10627342015504837	-0.23767542839050293	0.24840067327022552	-0.14654326438903809	-0.06658782809972763	-0.12728364765644073	0.2875700294971466	-0.0039482940919697285	0.46785736083984375	0.13585326075553894	-0.05052580684423447	0.13223780691623688	0.037807900458574295	-0.13549982011318207	0.35855045914649963	-0.2346518337726593	-0.05160629376769066	0.2592754065990448	-0.015452423132956028	-0.15012408792972565	0.043704841285943985	0.1712942123413086	-0.1423967480659485	0.03714260831475258	-0.25995123386383057	0.30239424109458923	0.05249295383691788	-0.16300860047340393	0.15075181424617767	-0.4114760756492615	-0.08978864550590515	0.26642730832099915	0.06327193975448608	0.04655343294143677	-0.3210553526878357	0.1822512000799179	0.16824205219745636	-0.32342031598091125	0.12971721589565277	-0.3509460687637329	0.1429501622915268	0.17433971166610718	-0.05240733176469803	0.009780564345419407	-0.11648320406675339	0.1344403475522995	-0.11768364906311035	0.07082861661911011	0.13930223882198334	0.1513848900794983	-0.16313810646533966	-0.4544985890388489	-0.050247207283973694	-0.21735142171382904	0.06894277036190033	-0.2989242672920227	0.06609674543142319	0.050337765365839005	-0.09441734850406647	0.22883324325084686	0.25035786628723145	-0.09884323179721832	-0.24647942185401917	0.11447960883378983	-0.13669514656066895	-0.020630208775401115	0.24270981550216675	0.13557025790214539	-0.002783269388601184	-0.12432458251714706	-0.03739194944500923	0.2278473675251007	-0.4022889733314514	-0.09729907661676407	-0.16466598212718964	-0.13382036983966827	0.00852490309625864	-0.019534915685653687	0.29697710275650024	0.07161900401115417	-0.09194628149271011	-0.01178098563104868	-0.048444852232933044	0.09402209520339966	-0.19452840089797974	-0.4122757315635681	-0.0955033227801323	-0.07231836766004562	-0.08381268382072449	-0.15621481835842133	0.14463753998279572	-0.03258780762553215	0.012000041082501411	-0.08932879567146301	0.013784540817141533	-0.2023053616285324	0.07198301702737808	-0.03839845210313797	-0.04073762521147728	0.2884843051433563	0.015550471842288971	0.28508836030960083	0.1393366903066635	-0.028600988909602165	0.1656455546617508	0.017442474141716957	0.02648385427892208	-0.1992734968662262	0.03403685986995697	-0.11333821713924408	-0.02819782681763172	0.20050446689128876	-0.37165918946266174	0.0014901608228683472	-0.0682772845029831	0.17447054386138916	-0.031501658260822296	-0.28909415006637573	0.06402688473463058	-0.030994467437267303	0.42006802558898926	0.1083994135260582	0.122958242893219	0.10440573841333389	0.3530501425266266	0.15005668997764587	-0.11193931102752686	-0.04152153804898262	0.08794811367988586	0.02516830898821354	-0.14702275395393372	-0.06627116352319717	0.13906370103359222	-0.17456936836242676	0.17181122303009033	-0.10930334776639938	0.2284405380487442	0.14626507461071014	0.22572165727615356	0.07739784568548203	-0.1308336853981018	-0.3385637402534485	0.0893084928393364	-0.006123112048953772	0.12526878714561462	-0.24729640781879425	0.24360531568527222	-0.27800554037094116	0.02257782407104969	0.08318360149860382	0.0863436609506607	-0.2517123222351074	0.007619468029588461	0.2148122489452362	0.012536177411675453	-0.03921392187476158	-0.05832091346383095	0.06300429254770279	0.3858858048915863	0.28347334265708923	0.49647459387779236	-0.19159035384655	0.1411481648683548	-0.13309891521930695	0.02361566573381424	0.16527913510799408	-0.14427585899829865	-0.019894547760486603	0.062165092676877975	0.03665641322731972	0.05982164666056633	-0.10702008754014969	0.1814737170934677	-0.07380274683237076	-0.21137866377830505	0.05934413895010948	-0.06565685570240021	-0.07575362920761108	-0.05926842987537384	0.05915903300046921	-0.040640655905008316	-0.29687604308128357	0.12845590710639954	-0.19491815567016602	0.09825201332569122	-0.24409009516239166	-0.16039146482944489	-0.12843842804431915	-0.1066167950630188	-0.28315335512161255	-0.25001320242881775	-0.07114170491695404	0.07182545959949493	-0.30331793427467346	0.1023692786693573	0.062457840889692307	-0.012228391133248806	-0.41584721207618713	0.006963872816413641	0.21533454954624176	0.15991318225860596	-0.21812815964221954	-0.06183291971683502	-0.15874083340168	-0.47890985012054443	0.22324444353580475	0.30631083250045776	-0.07147693634033203	0.34356459975242615	0.049061309546232224	0.043616052716970444	-0.09581179916858673	-0.027591509744524956	-0.07422256469726562	0.05779355764389038	-0.06715358048677444	-0.10277073085308075	0.07420200109481812	0.3736456036567688	-0.10970501601696014	0.046730510890483856	0.19573600590229034	0.014120637439191341	0.06347324699163437	-0.04532387852668762	-0.1259128898382187	-0.11823727935552597	0.08783599734306335	0.29513993859291077	-0.20084121823310852	-0.2117299884557724	-0.009131241589784622	-0.17058590054512024	0.34616708755493164	0.13645759224891663	0.15968424081802368	0.038554273545742035	-0.24278420209884644	-0.297253280878067	-0.16419579088687897	0.07633594423532486	0.11901453882455826	-0.10365073382854462	-0.28015759587287903	0.04095223546028137	0.2522006928920746	-0.2935117185115814	0.32159438729286194	0.024212075397372246	-0.04211657866835594	-0.10932498425245285	-0.4234790802001953	-0.3088233768939972	-0.3271411657333374	0.05387597903609276	-0.09702161699533463	-0.14036643505096436	0.06590725481510162	-0.009166199713945389	0.04836173355579376	-0.17659054696559906	-0.034676071256399155	-0.2033388316631317	0.2362271100282669	-0.06837394088506699	-0.22403587400913239	0.03255730867385864	-0.19006560742855072	0.045132413506507874	-0.33726468682289124	-0.30742064118385315	0.038494620472192764	-0.19724324345588684	0.11406166106462479	0.24710895121097565	0.3266827166080475	-0.30799785256385803	-0.10471192002296448	0.2735268175601959	-0.026485227048397064	-0.08726700395345688	-0.08689232915639877	0.10103320330381393	0.12546493113040924	0.29205623269081116	0.02055875025689602	-0.18113364279270172	0.03311014175415039	-0.22708986699581146	0.06616347283124924	-0.2909739017486572	
cavallo	0.18924561142921448	0.017522599548101425	0.12284625321626663	0.0757279172539711	0.25541001558303833	-0.3794921040534973	0.08518774807453156	0.15562915802001953	0.16307534277439117	0.15192511677742004	0.18338324129581451	-0.0445852130651474	-0.17640383541584015	-0.0019078718032687902	-0.1918315291404724	0.18465492129325867	0.16431720554828644	-0.10055188089609146	0.13348151743412018	0.03716133162379265	0.16502583026885986	0.1481071561574936	-0.2502088248729706	-0.01809500716626644	0.15507803857326508	0.006599480751901865	0.29139530658721924	0.11477397382259369	0.29773831367492676	-0.2851233184337616	-0.03981512784957886	-0.23279614746570587	-0.08285869657993317	0.04726416617631912	-0.09054309874773026	-0.18393075466156006	-0.207817941904068	-0.14844778180122375	-0.10436023771762848	-0.10022254288196564	-0.2890831232070923	-0.1890098601579666	0.3834187686443329	-0.31522250175476074	-0.3189753592014313	-0.09706982225179672	-0.03780229762196541	-0.2585655748844147	-0.17237813770771027	-0.004223926924169064	0.0142391761764884	-0.29924848675727844	0.04400121420621872	-0.00019915199663955718	-0.1290755569934845	-0.007532955147325993	0.008680704049766064	0.019234945997595787	-0.032916612923145294	0.2652847170829773	0.07834292948246002	-0.18985630571842194	0.004748290404677391	0.09626542031764984	-0.31800657510757446	0.027834588661789894	0.15150833129882812	-0.013304107822477818	-0.08674944937229156	-0.2631598711013794	-0.22407232224941254	-0.13938282430171967	0.05207493156194687	-0.19746780395507812	0.12842725217342377	-0.026696858927607536	-0.29422542452812195	0.07632920891046524	0.09871857613325119	0.15286320447921753	-0.05426982417702675	0.22783878445625305	0.07293710857629776	0.2160033881664276	-0.010286085307598114	-0.01071945670992136	0.22583018243312836	-0.10459882020950317	0.1360533982515335	0.12226685881614685	-0.2588609457015991	-0.24408866465091705	-0.006234860513359308	-0.33803099393844604	0.1181831806898117	-0.07659076899290085	0.24872073531150818	-0.12780632078647614	-0.07610565423965454	0.03871334344148636	0.17156796157360077	-0.11860060691833496	0.11827142536640167	-0.20200978219509125	-0.20442761480808258	-0.16356094181537628	-0.17848005890846252	-0.13235299289226532	-0.3580150902271271	-0.10254551470279694	-0.10248485952615738	0.10070957243442535	0.18400269746780396	-0.18652158975601196	-0.09644211083650589	0.12488778680562973	-0.14008085429668427	0.394338995218277	-0.04011113569140434	-0.21925224363803864	0.10246098041534424	-0.2720498740673065	-0.10513512790203094	0.23690536618232727	-0.2070491909980774	-0.04181639477610588	0.13615882396697998	0.046526387333869934	-0.1682998538017273	0.2154967486858368	-0.011350389569997787	0.012516147457063198	-0.06441032141447067	0.0025567091070115566	-0.1452215313911438	0.16152958571910858	-0.22810466587543488	-0.15673676133155823	-0.4049651324748993	-0.17837074398994446	0.016657335683703423	0.22653965651988983	-0.12492851167917252	-0.09408758580684662	-0.030348798260092735	-0.13461926579475403	-0.24813154339790344	-0.0817120373249054	-0.4483717381954193	0.5282250642776489	-0.0890536680817604	-0.04812515527009964	-0.246358722448349	0.12811501324176788	-0.055192623287439346	-0.011695933528244495	-0.12858855724334717	0.009036372415721416	-0.4024752378463745	0.010253298096358776	-0.5255870819091797	-0.016976263374090195	-0.29549482464790344	-0.16412696242332458	-0.1720181554555893	0.017146917060017586	-0.1313687413930893	0.00926690548658371	-0.11862803995609283	0.1918525993824005	0.24440236389636993	0.061966799199581146	-0.2346142828464508	-0.10380179435014725	0.10587158799171448	0.14862339198589325	-0.307094544172287	0.01252432819455862	0.1937175989151001	0.09983797371387482	-0.016472753137350082	-0.13929547369480133	-0.012434255331754684	-0.14477980136871338	-0.031314849853515625	-0.043578509241342545	0.1565382033586502	0.1621854305267334	0.03932656720280647	-0.22938625514507294	0.04230772331357002	-0.10484034568071365	0.12343908846378326	0.04591767117381096	-0.03154613450169563	-0.21913714706897736	-0.27585095167160034	0.11887925863265991	0.016195878386497498	0.14638236165046692	0.18714793026447296	-0.3088867664337158	-0.09461099654436111	0.2034236043691635	-0.05780160054564476	-0.3411270081996918	-0.17284949123859406	-0.1340489387512207	0.29081860184669495	0.04445531219244003	-0.05264059454202652	0.2393769472837448	-0.2542482018470764	0.23530367016792297	0.020356295630335808	0.1675993949174881	-0.1885727494955063	0.32706418633461	0.013704643584787846	-0.03730158880352974	-0.09770777821540833	-0.0009502554894424975	-0.09572473168373108	0.08269678801298141	-0.011146395467221737	-0.20622415840625763	-0.22048653662204742	0.01937735266983509	0.09367167949676514	0.08320510387420654	-0.05734558030962944	0.1043311357498169	0.13160425424575806	0.4646984338760376	-0.039323095232248306	-0.16858980059623718	-0.023554576560854912	0.04854496568441391	0.12974140048027039	-0.07527332007884979	0.07758839428424835	-0.01663774624466896	-0.14106868207454681	-0.12123202532529831	-0.060319844633340836	0.1822504997253418	-0.11964511126279831	-0.24516792595386505	-0.10871231555938721	-0.07545596361160278	0.16151303052902222	0.12457168102264404	-0.29457056522369385	0.21177950501441956	0.03172855079174042	-0.05577586218714714	-0.20421187579631805	0.17570860683918	0.31658416986465454	0.18281619250774384	-0.05189928412437439	-0.2086644023656845	0.13438680768013	-0.043084438890218735	-0.030953070148825645	0.03198748454451561	0.0643339455127716	0.11441364884376526	0.5662615299224854	0.12293895334005356	0.040480244904756546	0.05426529049873352	-0.08492717891931534	-0.21916739642620087	0.2314983308315277	-0.30399659276008606	-0.09086733311414719	-0.11364500224590302	-0.10205208510160446	0.010643587447702885	0.08950124680995941	-0.16806361079216003	-0.04200061410665512	-0.10073909163475037	0.17575427889823914	0.057663388550281525	-0.04378793016076088	-0.010590902529656887	0.04480728507041931	-0.08382883667945862	-0.19551114737987518	-0.06733053177595139	-0.1662464737892151	0.25844964385032654	-0.010708585381507874	-0.2707095742225647	-0.28702494502067566	0.12131549417972565	0.00729136960580945	0.20836806297302246	-0.17685097455978394	-0.07861586660146713	-0.3224891424179077	-0.046339843422174454	0.1149718314409256	0.2746303677558899	-0.19203324615955353	0.01787297986447811	-0.056510280817747116	0.10667633265256882	-0.20807810127735138	0.18059533834457397	-0.29748591780662537	-0.2357574999332428	0.21922214329242706	-0.006840095389634371	-0.3743625581264496	0.010164421983063221	0.0545198917388916	-0.20616865158081055	-0.0353664867579937	0.058034949004650116	0.1432579904794693	0.06497195363044739	-0.15227867662906647	-0.031045816838741302	-0.04268963262438774	0.3020411431789398	-0.11471749097108841	0.3842504322528839	-0.20145048201084137	0.007043399382382631	0.2990698218345642	-0.0947752371430397	-0.1669415384531021	-0.17268401384353638	0.34296903014183044	0.2570546269416809	-0.3544939160346985	0.09008752554655075	0.2141532450914383	-0.03661911189556122	0.04736188054084778	-0.06182820722460747	-0.11571686714887619	-0.04179985448718071	-0.11396493017673492	-0.3884888291358948	-0.05110200121998787	-0.017583871260285378	0.11324956268072128	-0.3557291626930237	0.06079612299799919	0.18918904662132263	0.08576266467571259	0.000532228616066277	0.15461786091327667	0.2406386435031891	0.07308921217918396	-0.08037097752094269	-0.1086316853761673	-0.02732314169406891	0.04668981209397316	0.09985126554965973	-0.10557558387517929	0.12009353935718536	-0.05935218557715416	0.0538947694003582	-0.11763244867324829	-0.3439517319202423	-0.0775841772556305	-0.04584921896457672	0.15658999979496002	-0.12320182472467422	0.03097025491297245	-0.016679128631949425	-0.09724662452936172	-0.00447260495275259	0.03140696883201599	-0.18525218963623047	-0.0971531867980957	-0.013968742452561855	-0.1829586923122406	0.2906743884086609	0.23510025441646576	0.02978491596877575	-0.13533233106136322	-0.06821281462907791	-0.22729821503162384	0.11711207032203674	-0.013762458227574825	-0.0510849766433239	0.13489405810832977	0.22015857696533203	-0.2510325610637665	0.1410868763923645	-0.0027353274635970592	-0.21907055377960205	-0.013188119046390057	-0.07097135484218597	
scimmia	0.4201657176017761	-0.3076654076576233	-0.15471239387989044	-0.007153681013733149	-0.1917673945426941	-0.12779644131660461	0.0746312364935875	0.2579039931297302	-0.03492497280240059	0.3788142502307892	0.07509467005729675	-0.018635716289281845	-0.033450037240982056	-0.1690242886543274	0.00035169385955668986	0.41861802339553833	-0.036773864179849625	0.30874234437942505	0.03334151208400726	-0.05279981344938278	0.1346973180770874	-0.11384202539920807	-0.07657374441623688	0.0955701544880867	-0.0045047602616250515	0.019496848806738853	0.301515132188797	0.023479947820305824	0.22432473301887512	0.09160720556974411	0.05952727794647217	-0.010649125091731548	0.14044325053691864	0.08154808729887009	0.30264633893966675	-0.2148636430501938	-0.15495719015598297	-0.02013847976922989	-0.12649193406105042	-0.09506580233573914	0.022176817059516907	-0.16804824769496918	0.010002518072724342	0.11113590747117996	-0.06926015019416809	-0.27514782547950745	-0.05719005689024925	0.052850887179374695	-0.31368324160575867	0.039822205901145935	-0.012901020236313343	-0.09883660823106766	0.07711975276470184	-0.22272565960884094	-0.32434290647506714	0.14253047108650208	-0.05277441814541817	-0.13822627067565918	-0.02007640339434147	0.031161347404122353	0.012968727387487888	-0.161194309592247	-0.09004763513803482	-0.0284957904368639	-0.20129191875457764	0.15261581540107727	0.08147420734167099	-0.26340675354003906	0.3471473753452301	-0.2325880229473114	-0.21995821595191956	-0.06888484954833984	0.050576843321323395	-0.11040272563695908	-0.08273730427026749	0.12800414860248566	-0.2803038954734802	-0.3082822561264038	0.25079333782196045	-0.17506319284439087	0.018950052559375763	-0.04082923009991646	-0.02302643470466137	0.32243233919143677	0.07757445424795151	-0.06895501911640167	0.06207847222685814	0.10486609488725662	-0.12555597722530365	-0.0638309195637703	0.2515188753604889	-0.19726072251796722	-0.24273225665092468	-0.3013078570365906	-0.23688025772571564	0.146538645029068	0.13627886772155762	-0.5085928440093994	0.13626958429813385	0.1467750072479248	0.15595611929893494	0.1048281192779541	-0.09107711166143417	0.02250164933502674	-0.32169628143310547	-0.33201396465301514	-0.10739965736865997	-0.1296614110469818	-0.058145761489868164	-0.08029726147651672	-0.44114062190055847	-0.11383549124002457	0.18780195713043213	-0.3876785337924957	0.07625556737184525	0.5622721314430237	0.0635596513748169	0.05997905135154724	-0.07059544324874878	-0.025499971583485603	0.31003183126449585	0.07987012714147568	-0.12765119969844818	-0.09674072265625	-0.0799178034067154	-0.212467223405838	0.17744317650794983	-0.37215614318847656	0.046652622520923615	0.19313779473304749	-0.15712016820907593	0.013783153146505356	0.02128070592880249	-0.17406876385211945	-0.03516466170549393	0.035219307988882065	-0.10768934339284897	0.04791310429573059	-0.3376390337944031	0.07117336243391037	0.20191511511802673	0.27537378668785095	-0.28343290090560913	0.11721908301115036	0.020276932045817375	0.008985248394310474	-0.04668938368558884	0.020660990849137306	-0.2741265296936035	-0.005078613292425871	-0.14200814068317413	-0.1514344960451126	-0.10106276720762253	-0.2151818573474884	0.0233201552182436	-0.15212169289588928	0.26617056131362915	0.08016882836818695	-0.08970707654953003	0.32505369186401367	-0.3219601809978485	-0.1805751621723175	-0.2750808000564575	-0.12432284653186798	-0.23832187056541443	0.1306433081626892	0.3901893198490143	0.028727049008011818	-0.18408609926700592	0.15893904864788055	-0.11939235031604767	-0.18334774672985077	0.1839265376329422	0.06597378104925156	0.1316716969013214	-0.07922742515802383	0.2807738482952118	-0.09372884780168533	-0.07061917334794998	0.14798513054847717	-0.3012436628341675	0.08348597586154938	-0.07887253165245056	0.1115095466375351	-0.021151630207896233	0.07273507118225098	-0.002810776000842452	-0.05172383040189743	0.22449347376823425	0.15085723996162415	0.016885867342352867	-0.002203306183218956	0.30277910828590393	0.0972810685634613	-0.16341832280158997	-0.24193784594535828	-0.09129960834980011	-0.24658061563968658	-0.22310492396354675	0.0302288718521595	0.334963858127594	-0.14261670410633087	-0.13654324412345886	0.3816469609737396	-0.06559184193611145	-0.0435793362557888	0.07830747216939926	0.04419269412755966	-0.004666113760322332	-0.2669621706008911	0.026055363938212395	0.18069306015968323	0.14421994984149933	-0.1713341623544693	0.07022550702095032	0.15129779279232025	-0.08479707688093185	0.2577136158943176	-0.1551622748374939	-0.15897424519062042	-0.008821044117212296	-0.01836508885025978	-0.23989471793174744	-0.1768750697374344	0.09356767684221268	-0.23290450870990753	-0.06271559745073318	0.061820559203624725	0.22881436347961426	-0.014667264185845852	-0.053914789110422134	0.08768123388290405	-0.12942443788051605	0.11892000585794449	-0.08208803832530975	-0.13464926183223724	0.10250373184680939	-0.17501842975616455	0.19787485897541046	-0.034195754677057266	-0.03737220913171768	-0.007778341416269541	-0.12343348562717438	-0.18468619883060455	-0.10322683304548264	0.16134895384311676	0.1926148235797882	-0.14094290137290955	-0.05950285494327545	0.03547655791044235	-0.13244915008544922	0.08223918080329895	-0.17956045269966125	0.2654224932193756	0.3203137218952179	-0.09857013821601868	-0.3749465346336365	0.1085626482963562	0.2780705690383911	0.06384675204753876	-0.33820754289627075	0.2116871327161789	0.21142567694187164	-0.08603593707084656	-0.08271659910678864	-0.14060363173484802	-0.2825620174407959	0.33330994844436646	-0.10165417194366455	-0.02004989981651306	-0.31124719977378845	-0.15555718541145325	0.06627677381038666	-0.07385125756263733	0.13192692399024963	-0.2634267508983612	0.031939636915922165	0.06293588131666183	0.01943245902657509	0.09175282716751099	-0.13530974090099335	-0.13780610263347626	-0.0395638532936573	0.2657330632209778	-0.13668273389339447	-0.15058274567127228	-0.2475164383649826	-0.21186068654060364	-0.2361399382352829	-0.1260708123445511	-0.062314338982105255	0.22353589534759521	-0.08146266639232635	-0.15910989046096802	-0.017434794455766678	-0.09917335212230682	-0.22864364087581635	0.16392101347446442	-0.39696431159973145	-0.2138524353504181	0.01893100142478943	-0.027423663064837456	-0.16186000406742096	0.4061635136604309	0.27455461025238037	0.03367415815591812	-0.2830621600151062	-0.042508918792009354	0.023931395262479782	0.361814945936203	-0.11498934030532837	-0.013489311560988426	0.01593100093305111	0.16362528502941132	-0.052113838493824005	0.38534724712371826	-0.07247808575630188	0.3430653214454651	-0.13052338361740112	0.020813526585698128	-0.36974966526031494	0.1742859035730362	-0.14910228550434113	-0.21358411014080048	0.31693920493125916	-0.03643948212265968	0.26705116033554077	0.5234250426292419	-0.25095313787460327	0.37539324164390564	0.4272119104862213	0.03810465708374977	-0.13596348464488983	0.07644886523485184	-0.023130450397729874	-0.2734431326389313	0.045843832194805145	0.32205134630203247	-0.23036417365074158	-0.18530966341495514	0.23683179914951324	0.005912723019719124	-0.08919904381036758	0.001011143671348691	-0.057973381131887436	-0.1757991909980774	-0.30702003836631775	-0.11869737505912781	-0.12204765528440475	-0.1899784654378891	-0.09768350422382355	-0.043093036860227585	-0.12369845062494278	0.27542203664779663	0.3752473294734955	-0.19832351803779602	0.31017011404037476	0.12582232058048248	0.025917861610651016	-0.22922764718532562	-0.09334728866815567	-0.13478808104991913	-0.08043516427278519	-0.20888452231884003	0.22599904239177704	-0.022251751273870468	-0.052607420831918716	0.11040829867124557	-0.1843683421611786	0.03207068517804146	-0.24467259645462036	-0.26470670104026794	-0.2236059308052063	-0.14806199073791504	0.17580869793891907	0.049780216068029404	-0.26948413252830505	0.06252260506153107	-0.32872840762138367	-0.35906729102134705	0.011006301268935204	0.14716006815433502	-0.35420525074005127	0.3992909789085388	0.13281764090061188	-0.277710884809494	-0.2764645218849182	-0.2687843143939972	-0.009752265177667141	-0.05744403973221779	-0.26710614562034607	-0.16089722514152527	0.38988828659057617	0.21508564054965973	-0.029279200360178947	0.19947531819343567	-0.034019507467746735	-0.25400879979133606	0.1369507610797882	-0.031262703239917755	
gufo	0.2604810297489166	0.1314268410205841	0.29328522086143494	-0.11291737109422684	0.04488792642951012	-0.12665556371212006	-0.5228704810142517	0.28117048740386963	0.15621024370193481	-0.09658126533031464	-0.2561272084712982	-0.10620986670255661	-0.1533452719449997	0.019560687243938446	0.2344382256269455	0.03665517643094063	-0.11460504680871964	0.07354209572076797	0.21800439059734344	0.10940882563591003	0.07568787038326263	0.2597377598285675	-0.00215280894190073	-0.30626267194747925	-0.23233336210250854	0.1861594319343567	0.5595506429672241	-0.19357512891292572	0.0036144477780908346	-0.19844487309455872	-0.3993304669857025	-0.20730753242969513	-0.22449491918087006	-0.22648246586322784	-0.3452630341053009	-0.25833287835121155	-0.008155522868037224	-0.21254664659500122	0.002510635182261467	-0.1359710544347763	0.1270732879638672	-0.05678584799170494	-0.18969561159610748	0.12675461173057556	-0.0863294005393982	0.034966859966516495	-0.11939006298780441	0.019636046141386032	-0.05951999872922897	0.0938359946012497	-0.01359669677913189	0.03523419424891472	-0.022889018058776855	0.09253040701150894	-0.027743732556700706	0.161312073469162	0.25277408957481384	-0.021861311048269272	-0.2054801881313324	0.1936870515346527	0.15918989479541779	0.3574647009372711	0.11301349848508835	0.07240930944681168	-0.2929656207561493	-0.010370460338890553	0.14482630789279938	-0.17204301059246063	-0.044736992567777634	0.17010192573070526	-0.12395583838224411	-0.1384509652853012	-0.012502212077379227	-0.2604771852493286	-0.10473191738128662	0.03691301867365837	-0.30011218786239624	-0.08714591711759567	-0.053048063069581985	0.1802903413772583	-0.3301619291305542	-0.10236598551273346	0.14150936901569366	0.14301522076129913	0.14531560242176056	0.17866858839988708	0.10337165743112564	-0.09338485449552536	-0.12820161879062653	0.3201402723789215	-0.07324064522981644	0.07256042957305908	-0.316720187664032	-0.3238888680934906	-0.29843294620513916	0.10220366716384888	0.110443115234375	-0.10199839621782303	-0.26966220140457153	-0.07528743147850037	-0.24275366961956024	-0.059065114706754684	0.10152363777160645	0.04965537413954735	-0.1933850646018982	-0.34921780228614807	0.01107192412018776	-0.08202562481164932	-0.047387272119522095	-0.0725865364074707	-0.27389004826545715	-0.23405803740024567	0.21506142616271973	-0.23278526961803436	0.35419100522994995	-0.058690477162599564	0.10755177587270737	0.05770917981863022	-0.07207407802343369	0.08988170325756073	-0.19227732717990875	-0.04321761801838875	0.09412006288766861	0.3500240743160248	-0.26041924953460693	0.17774997651576996	-0.0428307019174099	0.18276920914649963	-0.5521119236946106	0.28870275616645813	0.05520835518836975	0.012716506607830524	-0.1910686194896698	-0.16715437173843384	0.09765584766864777	0.12617765367031097	-0.08078469336032867	-0.03536083921790123	-0.07222220301628113	0.05591754987835884	0.12969104945659637	0.36952468752861023	-0.2960200011730194	0.08090164512395859	-0.05053073540329933	0.3080643117427826	-0.2574639618396759	0.14324967563152313	-0.3436472713947296	-0.04470183700323105	-0.29722654819488525	-0.049168460071086884	0.09765224903821945	-0.19204452633857727	-0.005956724751740694	0.09354913234710693	0.4157090187072754	0.17297081649303436	0.2544287145137787	0.0787336453795433	-0.33685997128486633	-0.0964866653084755	-0.18746553361415863	-0.21981291472911835	-0.200401172041893	0.09624708443880081	0.0030417656525969505	-0.04978478327393532	0.10505390167236328	0.06804008781909943	-0.02316197007894516	0.1458149254322052	-0.13238196074962616	0.12122751772403717	0.6705366373062134	-0.043985579162836075	0.37554067373275757	0.1497071385383606	0.08489660173654556	0.23929181694984436	0.03904837369918823	-0.0015952585963532329	-0.03397837653756142	-0.05795567110180855	-0.050663262605667114	0.24006494879722595	0.09603716433048248	0.2842327952384949	0.19826549291610718	0.10899219661951065	-0.099681057035923	0.1803346574306488	0.1652405858039856	-0.008493216708302498	-0.008158355951309204	-0.2559272050857544	-0.19681741297245026	0.12819698452949524	0.1333330273628235	-0.09807756543159485	0.09042506664991379	-0.08882685750722885	0.13856279850006104	0.1767636388540268	-0.12406734377145767	-0.248280867934227	-0.049864813685417175	-0.1973903775215149	0.2305605411529541	-0.04501967132091522	0.1980547457933426	0.030972769483923912	-0.09414569288492203	0.29897594451904297	-0.1847306340932846	-0.2669730484485626	-0.47809290885925293	0.16518960893154144	0.26354295015335083	-0.038704775273799896	-0.29340386390686035	0.1320858895778656	-0.2156902402639389	0.022468894720077515	0.009148160926997662	0.1207132562994957	-0.26222720742225647	0.2882605493068695	0.15328848361968994	-0.04839503765106201	-0.3643454611301422	0.058654412627220154	0.17581669986248016	-0.22362300753593445	0.085303895175457	-0.12370021641254425	0.3707529902458191	-0.09717930108308792	-0.06522844731807709	0.23627954721450806	0.05138539522886276	0.17029285430908203	-0.3353675901889801	-0.23129048943519592	-0.15036185085773468	0.2639695405960083	-0.022429101169109344	0.22766168415546417	0.1303669810295105	0.09367392957210541	0.09533874690532684	0.32799071073532104	-0.0035628662444651127	0.2100886106491089	-0.1807807981967926	-0.4882967472076416	-0.372504860162735	-0.12048771232366562	0.23883205652236938	0.3528823256492615	-0.3518279790878296	0.014185030944645405	0.22715404629707336	0.39408934116363525	-0.18365433812141418	-0.058925971388816833	-0.21008315682411194	0.5087479948997498	-0.14466896653175354	0.5721630454063416	-0.17494289577007294	-0.16146644949913025	0.010730707086622715	0.015218518674373627	0.0507076196372509	0.1420825719833374	-0.06000562384724617	-0.07562235742807388	0.18377241492271423	-0.08741728961467743	-0.10255105793476105	-0.04111273214221001	0.2598130702972412	-0.22020795941352844	0.0036275966558605433	0.14766985177993774	-0.19817957282066345	-0.07829008996486664	0.040615491569042206	-0.161063089966774	-0.0632992759346962	0.08410031348466873	-0.25142544507980347	0.19583338499069214	0.08820068836212158	-0.1806274652481079	-0.37600618600845337	-0.0007403439376503229	-0.08675747364759445	-0.28983765840530396	0.06026880443096161	0.035147376358509064	-0.41428670287132263	0.14491277933120728	0.6233116388320923	-0.0645454004406929	-0.4041528105735779	0.15821139514446259	0.5191353559494019	0.21231476962566376	-0.08048596233129501	0.14860676229000092	0.2157161682844162	-0.23117810487747192	0.15655048191547394	0.37933671474456787	0.1871829628944397	0.2566387355327606	-0.016647474840283394	0.21182449162006378	-0.31493642926216125	-0.2694604694843292	-0.23395507037639618	-0.1288946270942688	0.4498847424983978	-0.15987947583198547	-0.06934259086847305	0.5650071501731873	-0.18617497384548187	0.14299362897872925	0.45908403396606445	-0.24531087279319763	-0.06830401718616486	-0.3419698178768158	-0.4459454119205475	-0.05183601751923561	0.223445326089859	-0.14620007574558258	0.009825863875448704	-0.022519083693623543	0.08344686776399612	0.20292770862579346	0.2922545373439789	0.08765437453985214	0.06349962204694748	-0.03340758755803108	0.03125128895044327	0.04356348514556885	0.1824766993522644	-0.12686331570148468	-0.15371835231781006	-0.12889905273914337	-0.3229063153266907	0.32250136137008667	-0.0005441154935397208	-0.3335176706314087	0.1227031946182251	0.16153304278850555	-0.1272599846124649	0.13618974387645721	-0.26342323422431946	-0.3089143931865692	-0.08855839818716049	0.12377274036407471	0.2929205000400543	0.2124764770269394	0.01743774116039276	-0.00822169054299593	0.07748045772314072	-0.006610469426959753	-0.28820300102233887	-0.1421908140182495	-0.01957874558866024	0.03528693690896034	0.16641570627689362	0.11447128653526306	0.059557367116212845	0.13922126591205597	-0.03334791958332062	-0.21863847970962524	-0.12015528976917267	0.22197876870632172	0.10469866544008255	0.004657064098864794	0.3468666970729828	-0.2788349688053131	-0.36420053243637085	-0.47160449624061584	0.3037331998348236	-0.08856084942817688	-0.032730426639318466	-0.04746141657233238	0.35062021017074585	0.3282630443572998	0.020924033597111702	-0.2242046296596527	0.3099308907985687	0.018699122592806816	0.26092198491096497	-0.16057248413562775	
coniglio	0.1596975326538086	-0.26322442293167114	0.02306460216641426	0.012755587697029114	0.2591066062450409	-0.006407992448657751	-0.4171927273273468	0.38330259919166565	0.027475370094180107	0.16045624017715454	0.022344693541526794	-0.13035710155963898	-0.23262451589107513	-0.13202893733978271	0.03494410961866379	-0.16273900866508484	-0.06361668556928635	-0.10966994613409042	0.16822916269302368	-0.24637916684150696	0.333147257566452	0.10432367026805878	-0.24781693518161774	0.11908472329378128	-0.2341640144586563	-0.17394877970218658	0.41299256682395935	-0.1663997620344162	-0.1971885710954666	-0.06321172416210175	-0.11024193465709686	-0.16530995070934296	-0.08013916015625	0.16154293715953827	-0.03213190659880638	-0.16786527633666992	-0.17732512950897217	-0.2659187316894531	-0.09554914385080338	-0.1473335176706314	0.05711314454674721	-0.06326358020305634	-0.1300707906484604	0.3586297631263733	-0.2705906629562378	-0.29193735122680664	-0.1918773204088211	0.18440042436122894	-0.33029454946517944	0.10788574069738388	-0.09156492352485657	0.07521208375692368	-0.008742702193558216	-0.2760941982269287	-0.29389429092407227	-0.06808340549468994	-0.03853499889373779	-0.16399091482162476	-0.08829037845134735	0.16248461604118347	0.07338505238294601	-0.17306964099407196	0.0722644105553627	-0.06034955754876137	-0.2944164276123047	-0.13812071084976196	-0.11596745252609253	0.3390507400035858	0.0046698227524757385	0.008530075661838055	-0.08649302273988724	0.15497741103172302	0.42494404315948486	-0.1468290537595749	-0.23893672227859497	0.04316771402955055	-0.05835256353020668	0.05566845089197159	-0.3844916820526123	-0.11774859577417374	0.11968258023262024	-0.14758379757404327	-0.04375692829489708	0.022061629220843315	0.2011939436197281	-0.23580166697502136	0.2373107671737671	-0.09808036684989929	0.2343614399433136	0.06516405194997787	0.030604228377342224	0.11407801508903503	-0.32641929388046265	-0.4542302191257477	-0.058914970606565475	-0.20995892584323883	-0.025999899953603745	-0.04285218194127083	-0.043063148856163025	0.005657419096678495	0.20720674097537994	-0.19257932901382446	0.013488813303411007	-0.29538652300834656	-0.4492543637752533	-0.5029597878456116	-0.03735773637890816	-0.46698707342147827	0.13703002035617828	-0.04471351206302643	-0.19565196335315704	-0.011461829766631126	0.22023843228816986	0.11474305391311646	0.19683536887168884	-0.015118042938411236	-0.13509121537208557	0.3774380087852478	-0.15162305533885956	0.05083378031849861	-0.001039891387335956	-0.004667227156460285	-0.007983819581568241	0.2881615459918976	-0.3961974084377289	-0.04332854971289635	0.1383495330810547	-0.23251205682754517	-0.16645009815692902	0.05438487231731415	0.04145613685250282	0.23304198682308197	0.13905677199363708	0.09003181010484695	0.0996529832482338	-0.07524915784597397	-0.10145226120948792	0.028635241091251373	-0.052157171070575714	0.01666943170130253	-0.038458362221717834	0.068752221763134	-0.1914815753698349	-0.031356945633888245	0.13982050120830536	0.22686299681663513	-0.2734341621398926	0.08669411391019821	-0.5142621397972107	-0.00834668893367052	-0.05804106965661049	0.02690327912569046	0.3891884982585907	-0.40725260972976685	0.07180116325616837	-0.21558091044425964	0.14596793055534363	0.1407320499420166	0.1282162219285965	0.30992329120635986	-0.48882102966308594	-0.21097511053085327	-0.023891465738415718	-0.42940688133239746	-0.10157812386751175	0.01638759858906269	-0.15073302388191223	-0.04202279448509216	-0.01844104193150997	0.054356612265110016	0.09397298097610474	-0.2153226137161255	0.12530726194381714	0.1206711009144783	0.26459503173828125	-0.06423912942409515	0.4434308409690857	-0.07674050331115723	0.020853284746408463	-0.08641282469034195	0.055571842938661575	-0.025178933516144753	-0.21241579949855804	-0.17083899676799774	0.2686820328235626	0.06392690539360046	0.19761207699775696	0.09005137532949448	0.3491976857185364	0.30084994435310364	0.09418734908103943	0.038753245025873184	-0.08872245997190475	-0.45470714569091797	0.07600410282611847	-0.245878666639328	-0.19298142194747925	-0.03261399641633034	-0.05322503671050072	-0.1268320083618164	0.06967435777187347	-0.04647604376077652	-0.08480204641819	0.03287220746278763	-0.05367420241236687	-0.05076206102967262	-0.07718131691217422	0.345441609621048	0.2534482777118683	-0.05610911175608635	0.16944676637649536	-0.1399102360010147	-0.036198247224092484	0.15073925256729126	0.016900351271033287	-0.13012954592704773	-0.04782465100288391	0.1398874968290329	-0.30369386076927185	-0.08051356673240662	-0.26807698607444763	-0.44925960898399353	-0.1626388430595398	-0.029984699562191963	0.14863742887973785	-0.14157253503799438	-0.17707227170467377	0.4430832862854004	0.4265391528606415	0.4163736402988434	0.04392281174659729	0.20723463594913483	-0.2308221161365509	0.02766319550573826	0.023405296728014946	-0.1612120121717453	-0.001620732364244759	0.10001944750547409	0.21512435376644135	-0.20305342972278595	-0.13140906393527985	-0.14142081141471863	-0.16194453835487366	-0.30770501494407654	-0.3524627089500427	0.08003915101289749	0.03950158506631851	0.026583492755889893	-0.1771211475133896	0.07041728496551514	-0.08802580833435059	0.10160970687866211	-0.025162579491734505	0.3257639408111572	-0.12236014753580093	0.08162630349397659	-0.16321159899234772	0.06651994585990906	0.2666308879852295	-0.15698640048503876	-0.16127613186836243	-0.13506464660167694	0.17151671648025513	-0.12605957686901093	0.005471805576235056	0.00679140305146575	0.008307103998959064	-0.024350959807634354	0.11359867453575134	0.3301171660423279	-0.3248736262321472	0.019556578248739243	-0.08214864134788513	0.015105833299458027	0.08757425844669342	-0.352594792842865	0.22736756503582	-0.003272837260738015	0.13411755859851837	0.1454748660326004	0.2323061227798462	-0.23471039533615112	-0.06927454471588135	-0.1546211838722229	-0.06797622889280319	-0.1491476446390152	-0.050641145557165146	-0.22637659311294556	-0.0361507311463356	0.2731733024120331	-0.019588682800531387	0.345371812582016	-0.27329662442207336	0.12280711531639099	0.09492973238229752	-0.3854622542858124	-0.3477120101451874	-0.18726004660129547	0.0024010841734707355	-0.31936076283454895	-0.23688282072544098	0.013100355863571167	-0.18863758444786072	0.31168243288993835	0.12902534008026123	0.27455809712409973	-0.03940959647297859	-0.11934493482112885	0.1252499371767044	0.375480055809021	-0.1539216935634613	0.15413682162761688	-0.13651731610298157	-0.27388808131217957	-0.0347592830657959	0.37889018654823303	-0.1886887401342392	0.01483625452965498	-0.18806105852127075	-0.20503437519073486	-0.3501070737838745	0.043295737355947495	-0.17209576070308685	0.03684806451201439	0.14510683715343475	-0.25530752539634705	-0.04435507580637932	0.4303893446922302	-0.2775205373764038	0.14751379191875458	0.1319754421710968	-0.25570952892303467	0.18524843454360962	0.06892500072717667	-0.1449313759803772	-0.006457361858338118	-0.03537432476878166	0.019773928448557854	-0.3437049090862274	-0.12088288366794586	0.030186226591467857	0.21736866235733032	0.33530864119529724	0.15168620645999908	-0.2038036584854126	-0.15089207887649536	-0.0923120528459549	-0.1435180902481079	-0.19747740030288696	-0.08903767168521881	-0.2362152636051178	-0.15446870028972626	-0.20429258048534393	0.3242992162704468	0.01315187755972147	-0.4412762224674225	0.4287647604942322	0.004851369187235832	-0.09667084366083145	0.10487250238656998	-0.22196802496910095	-0.20457056164741516	-0.05217985808849335	0.3489031195640564	-0.0734669491648674	-0.018983347341418266	-0.2002173662185669	-0.22047995030879974	-0.009626833721995354	-0.26254600286483765	0.25433847308158875	-0.6079080700874329	-0.10908354818820953	-0.0984521433711052	-0.0204890426248312	-0.04392186179757118	-0.1850200891494751	0.12315601110458374	-0.27222180366516113	-0.38856619596481323	0.15984411537647247	0.28700271248817444	-0.13439960777759552	-0.02604781463742256	0.4331981837749481	-0.10010667890310287	-0.2246556431055069	-0.2720780372619629	-0.004645125474780798	0.1442900151014328	-0.2610746920108795	-0.005242692306637764	0.16929160058498383	0.360615074634552	0.045317232608795166	0.0002014436904573813	0.02643132023513317	-0.12055017054080963	-0.11175552755594254	0.13764329254627228	
gabbiano	0.022957226261496544	0.05844757333397865	-0.0053386390209198	-0.2760290801525116	-0.49339962005615234	-0.11738373339176178	-0.1522723287343979	0.5952344536781311	0.32374221086502075	0.18105028569698334	0.02044389769434929	0.12659135460853577	0.12283056974411011	0.24756905436515808	0.05497044697403908	0.23636439442634583	-0.263443261384964	0.0705808475613594	0.21606771647930145	-0.16574737429618835	-0.01855204813182354	0.11665844917297363	0.4905005693435669	-0.21064531803131104	0.1345633566379547	0.35555702447891235	0.10640657693147659	-0.11877953261137009	0.10550159960985184	-0.3144419491291046	-0.2835536301136017	0.11636914312839508	0.012279643677175045	-0.10525864362716675	-0.09575194865465164	-0.18665717542171478	-0.40758779644966125	-0.10408975929021835	0.2723822295665741	0.3527574837207794	0.08915434777736664	-0.10230933874845505	-0.10043559223413467	0.3661733865737915	-0.1350490301847458	0.21104149520397186	-0.07696304470300674	-0.4567619562149048	-0.27197250723838806	0.023128846660256386	0.3620676100254059	0.1511307656764984	-0.06381133943796158	0.10196993499994278	0.12549680471420288	0.07905643433332443	0.4370117783546448	-0.3773312568664551	-0.16956068575382233	0.05368897691369057	0.1996818482875824	0.4551512897014618	0.071101114153862	0.12660378217697144	-0.5298358798027039	0.21667185425758362	0.0019179723458364606	-0.3949720561504364	-0.12714354693889618	-0.12797170877456665	0.07413806021213531	0.005503207445144653	0.18107695877552032	-0.20203983783721924	-0.13266590237617493	0.09541005641222	-0.16936542093753815	-0.46524080634117126	-0.053405992686748505	0.16685646772384644	-0.20164278149604797	0.21868079900741577	0.2212986797094345	-0.28780630230903625	0.19394764304161072	-0.030490925535559654	0.0825740173459053	-0.20978975296020508	-0.14158478379249573	0.06012185662984848	-0.2088765949010849	0.32583025097846985	-0.2955372929573059	-0.13028505444526672	0.10474791377782822	0.16408002376556396	0.29288193583488464	0.14709512889385223	0.009550074115395546	0.15145628154277802	-0.20000514388084412	0.12172747403383255	0.1024065688252449	-0.13315525650978088	-0.049955833703279495	-0.31043606996536255	-0.13485413789749146	-0.33876660466194153	-0.14229141175746918	-0.08352351933717728	-0.1298937350511551	0.09268601983785629	0.24647486209869385	-0.1976255625486374	-0.11628609895706177	-0.14358316361904144	-0.2866855561733246	0.3592206537723541	-0.08266495913267136	-0.037819862365722656	-0.25613540410995483	0.15449173748493195	0.12936489284038544	-0.035483118146657944	-0.25369301438331604	0.2742738723754883	0.3227962553501129	0.3587562143802643	-0.3792077302932739	0.3006365895271301	-0.10673868656158447	0.34395331144332886	0.42917391657829285	-0.3030908405780792	0.05888282135128975	0.06907130777835846	-0.06620856374502182	0.14476187527179718	0.3876187801361084	0.29141363501548767	0.008197339251637459	0.3823170065879822	-0.0600750595331192	0.15038350224494934	0.033209800720214844	0.05894872918725014	-0.3951248824596405	0.21227042376995087	-0.4703531861305237	0.230974942445755	-0.15909962356090546	0.1279289871454239	0.26863858103752136	0.014430481940507889	0.20216166973114014	0.2061423808336258	0.21363238990306854	0.28860998153686523	0.2546577453613281	0.026832517236471176	-0.318390429019928	-0.04898254945874214	0.05025114864110947	-0.06580936908721924	0.1872444450855255	-0.09949497133493423	0.22847603261470795	-0.005085980519652367	0.02549843117594719	-0.27672356367111206	0.010807928629219532	-0.4020096957683563	-0.20161676406860352	-0.06291057914495468	0.8128834962844849	0.18982157111167908	0.15409508347511292	0.08531230688095093	-0.022842803969979286	0.3241133391857147	-0.21953687071800232	0.4251360297203064	-0.5735570788383484	-0.07619202136993408	0.3366495966911316	0.052177853882312775	0.11024311184883118	0.31977784633636475	0.3966883420944214	0.04303455725312233	-0.2771131098270416	-0.1672922521829605	0.14806102216243744	0.18835294246673584	-0.2075350284576416	-0.05961281806230545	0.043241940438747406	-0.048979274928569794	0.22022013366222382	-0.014403228648006916	0.12128523737192154	-0.1583847999572754	0.1263200342655182	0.13348530232906342	-0.16259737312793732	-0.0641157254576683	-0.30521613359451294	0.098090760409832	0.02975199930369854	0.03509451448917389	0.1706407070159912	0.011409922502934933	0.0021280390210449696	-0.16713476181030273	-0.17409658432006836	-0.0883980318903923	-0.3001554608345032	0.7024913430213928	0.3650362193584442	-0.04738044738769531	-0.0826110914349556	0.06655124574899673	-0.21547538042068481	0.2626473009586334	-0.27194973826408386	0.05616107955574989	-0.22766655683517456	0.3478030860424042	-0.13069115579128265	-0.15841440856456757	-0.043452173471450806	0.3374229073524475	-0.0801764726638794	-0.04179194197058678	-0.07787780463695526	-0.5039160251617432	0.08683909475803375	-0.01865869015455246	-0.16859957575798035	0.5038543343544006	-0.027529312297701836	0.25627022981643677	-0.4339442849159241	-0.5811678767204285	-0.07514451444149017	0.4905356168746948	-0.04848796874284744	-0.23194997012615204	0.4615350365638733	-0.26901501417160034	-0.5382357835769653	0.2231523096561432	0.01054475363343954	0.15231306850910187	-0.15558718144893646	0.1866997331380844	-0.3814218044281006	0.12288927286863327	-0.36742308735847473	0.2936776876449585	-0.5072912573814392	0.29809826612472534	0.3000853359699249	0.26146459579467773	0.030175361782312393	0.22186172008514404	0.21171565353870392	0.4530967175960541	0.12946179509162903	0.4116746783256531	-0.16096724569797516	0.03577956557273865	0.09929477423429489	0.3261992335319519	0.0005661392933689058	0.0675739198923111	-0.17998425662517548	0.13451561331748962	-0.055311232805252075	0.20188406109809875	-0.1890489161014557	-0.11059904843568802	-0.27419254183769226	-0.13766391575336456	-0.05467100441455841	0.18717660009860992	-0.13601163029670715	0.1853664219379425	-0.22645315527915955	-0.3181081712245941	0.18331679701805115	-0.23010994493961334	0.13065867125988007	0.29621756076812744	-0.008582093752920628	-0.3998051881790161	-0.20267470180988312	0.21940957009792328	-0.06543634086847305	-0.21186600625514984	0.07355634868144989	-0.46770933270454407	-0.7180755138397217	0.14059144258499146	0.3406357169151306	-0.3971877694129944	-0.4816361963748932	-0.06649494916200638	-0.06721033900976181	0.16961434483528137	-0.12885066866874695	0.5491169691085815	-0.1217176765203476	-0.3849424719810486	0.015272451564669609	0.4592127799987793	0.1242532804608345	0.31611910462379456	-0.10555394738912582	0.05059985816478729	-0.10767171531915665	-0.07442096620798111	-0.2741563022136688	0.1061910092830658	0.2615897059440613	0.054367680102586746	-0.1623454988002777	0.5494236350059509	-0.2109750211238861	0.4234885573387146	0.3947768807411194	-0.140033558011055	0.38402101397514343	-0.002618131460621953	-0.04864860698580742	-0.2579084634780884	0.040798120200634	-0.014995545148849487	-0.26350632309913635	-0.13757957518100739	0.014959106221795082	-0.19882014393806458	0.13913318514823914	-0.03437570109963417	-0.4393603205680847	-0.06965665519237518	-0.2269173264503479	-0.12346930801868439	-0.08602697402238846	0.03423447534441948	-0.4266626536846161	-0.05922698229551315	-0.3307363986968994	-0.08928319811820984	0.20706820487976074	-0.33770278096199036	0.1889638751745224	0.4286290109157562	-0.37573108077049255	-0.20786632597446442	0.11936062574386597	-0.03904734551906586	-0.23815810680389404	0.328975111246109	0.21019092202186584	0.3649534285068512	-0.49222156405448914	0.05204550176858902	0.058379024267196655	-0.04963535815477371	-0.18529079854488373	-0.5075861811637878	0.046954937279224396	-0.23366206884384155	0.1458791196346283	0.48466983437538147	0.045613642781972885	0.06220632046461105	0.2608890235424042	0.10834095627069473	-0.4083191454410553	0.25140246748924255	0.4177539348602295	0.023148810490965843	0.07185505330562592	-0.2752889096736908	0.18392634391784668	0.07666600495576859	0.41497913002967834	-0.303615540266037	-0.35481345653533936	-0.24780751764774323	0.16640642285346985	0.15440036356449127	0.3870841860771179	-0.06104160472750664	0.43364739418029785	-0.005758223123848438	0.16336551308631897	0.3050670921802521	
passero	0.03750491142272949	-0.07392999529838562	0.038419973105192184	0.1978306919336319	-0.09013446420431137	-0.1890755593776703	-0.1341133564710617	-0.1136043444275856	0.3601827621459961	-0.08359312266111374	-0.24457710981369019	-0.0034723374992609024	-0.2796895205974579	0.23111368715763092	-0.014101607725024223	-0.16723695397377014	0.0942484438419342	-0.14916950464248657	0.2649991810321808	-0.05939844623208046	-0.1620265543460846	0.33768415451049805	0.135759636759758	-0.18967199325561523	0.19242534041404724	0.07246535271406174	0.40339577198028564	-0.24966420233249664	-0.11317314207553864	-0.07901901751756668	0.28796958923339844	-0.12277815490961075	-0.24404066801071167	0.07544698566198349	-0.28103697299957275	-0.05042524263262749	-0.0015443696174770594	-0.2947804927825928	0.3981308043003082	-0.01055680587887764	0.35000383853912354	-0.23590491712093353	-0.08896701037883759	0.1861729472875595	0.08800855278968811	0.2650447189807892	-0.029700657352805138	-0.025045737624168396	-0.06986556202173233	0.3296649158000946	0.47009098529815674	-0.2770758271217346	-0.012354959733784199	-0.11972712725400925	-0.20755191147327423	0.287818968296051	0.3434511423110962	0.11667775362730026	0.16331028938293457	0.20315270125865936	0.5993524789810181	0.19670799374580383	0.24542677402496338	0.20881818234920502	-0.10015712678432465	-0.023475652560591698	0.20444652438163757	-0.06539677083492279	-0.00861111655831337	0.18532103300094604	-0.0022493021097034216	0.40169066190719604	0.0357796847820282	0.15461499989032745	0.12071333825588226	-0.1948430985212326	0.026820622384548187	-0.08745253831148148	0.3200227618217468	-0.2172168642282486	-0.07836653292179108	0.20477674901485443	0.1974157989025116	-0.06033619865775108	0.4278646409511566	-0.25388744473457336	0.07763296365737915	0.1487608700990677	0.08284042775630951	-0.06597016751766205	0.08335524797439575	0.06772389262914658	-0.08703573048114777	-0.21188116073608398	-0.1595117747783661	-0.02212853729724884	0.009579394944012165	-0.17601560056209564	0.019129635766148567	-0.493966281414032	0.12030236423015594	-0.006649177987128496	0.1651814579963684	-0.0544193871319294	-0.23821905255317688	-0.09805379807949066	0.18578974902629852	-0.02054121531546116	0.14467111229896545	-0.11768674850463867	-0.1465293914079666	-0.11004482954740524	0.44191011786460876	-0.1014794111251831	0.33728352189064026	-0.03198328986763954	-0.5774360299110413	0.14924342930316925	0.10563229024410248	0.30081355571746826	-0.0025037892628461123	-0.026181211695075035	-0.32753288745880127	-0.13365629315376282	-0.2775017023086548	0.08654140681028366	-0.14146612584590912	0.28742167353630066	-0.6465694904327393	0.1479233205318451	-0.19640494883060455	0.4010457396507263	-0.1253949999809265	-0.15032923221588135	-0.11129823327064514	0.19388344883918762	-0.211611807346344	0.004774030763655901	0.12329502403736115	0.3390962481498718	0.05198271572589874	0.17908316850662231	0.02207847870886326	0.022209251299500465	-0.050728730857372284	0.03477037698030472	-0.20242340862751007	0.32774487137794495	-0.5169200897216797	-0.12086209654808044	-0.0012464754981920123	-0.037535879760980606	0.03169582784175873	0.06275857239961624	-0.010385404340922832	-0.29604586958885193	0.13510413467884064	0.25658220052719116	0.12902572751045227	0.09502927958965302	-0.24432121217250824	0.32190844416618347	-0.28932449221611023	-0.117205411195755	-0.40411078929901123	-0.10794913023710251	0.25497332215309143	-0.13610874116420746	-0.23016972839832306	0.15534372627735138	0.24884693324565887	-0.1814209520816803	-0.09642694145441055	0.12714992463588715	0.20527400076389313	-0.27835506200790405	0.4211392402648926	0.3402577340602875	-0.16651074588298798	0.5956228375434875	-0.26128873229026794	-0.09668079763650894	-0.1523824781179428	-0.26645615696907043	0.3597540259361267	0.3012450039386749	0.12525390088558197	0.12113475054502487	0.2786933183670044	-0.3769477903842926	0.0711844265460968	0.013814705424010754	0.31393614411354065	0.024556759744882584	0.05650373548269272	0.06195755675435066	-0.1608719527721405	0.18365123867988586	-0.03500747308135033	0.05450183153152466	0.3166583180427551	0.13256818056106567	-0.027441391721367836	-0.13192854821681976	0.038500092923641205	-0.009354312904179096	-0.3517138957977295	0.021353555843234062	0.3605339825153351	-0.12834280729293823	0.16011838614940643	0.5078820586204529	-0.11917102336883545	0.18328620493412018	0.06270316988229752	-0.17224062979221344	-0.25414738059043884	0.22487115859985352	0.1873888522386551	0.3134688138961792	-0.17314721643924713	0.04856046289205551	-0.23907685279846191	-0.27043476700782776	0.051348257809877396	-0.05974351614713669	-0.34793341159820557	0.4567916989326477	0.31823450326919556	-0.050863079726696014	-0.07680146396160126	0.022459903731942177	-0.028409305959939957	-0.19413909316062927	0.2778366804122925	-0.2245381623506546	0.012227675877511501	0.14982359111309052	-0.012586249969899654	0.2902930974960327	-0.24983929097652435	0.1561482548713684	0.05690019205212593	0.14456388354301453	0.0014459973899647593	0.17676642537117004	0.31622442603111267	0.02213631197810173	0.09191320836544037	-0.3154500126838684	-0.47291257977485657	-0.09296945482492447	-0.056236762553453445	0.02072988823056221	-0.021952897310256958	0.17005692422389984	-0.1599692553281784	-0.16572576761245728	0.03553664684295654	-0.020469030365347862	-0.5026125311851501	0.21435591578483582	-0.25052547454833984	-0.2111399918794632	-0.33984193205833435	0.12353973090648651	-0.02452545426785946	0.2969372868537903	0.20373454689979553	0.19242770969867706	-0.14233459532260895	-0.09006740152835846	0.1346624344587326	0.15883558988571167	0.07485675811767578	0.0486704558134079	-0.049324676394462585	0.028516465798020363	0.05260772630572319	-0.18710224330425262	-0.2283465415239334	0.002390223555266857	-0.007000340148806572	-0.1288832426071167	0.019894735887646675	-0.004636761732399464	-0.011414417997002602	-0.23321788012981415	-0.12469339370727539	-0.19056518375873566	0.2504846453666687	-0.3087758719921112	-0.14641191065311432	0.40882670879364014	0.13323555886745453	-0.2348085343837738	-0.20342689752578735	-0.07808899879455566	-0.21648013591766357	-0.34068894386291504	-0.2492535263299942	0.1892026960849762	-0.3105987310409546	0.49559569358825684	0.641840934753418	-0.0662866160273552	-0.4675769507884979	0.11586295813322067	0.18752595782279968	0.18101389706134796	0.15804997086524963	0.20515958964824677	-0.07645727694034576	-0.08089210838079453	-0.1738593727350235	0.21090348064899445	-0.01768612489104271	0.060105472803115845	0.15329597890377045	-0.24122436344623566	0.3390742838382721	0.32168489694595337	-0.3853282630443573	0.03330047056078911	0.19966921210289001	-0.23740799725055695	0.47413304448127747	0.3864229917526245	-0.2697374224662781	0.26260536909103394	0.22540630400180817	-0.21982848644256592	0.2158445119857788	-0.07533532381057739	0.017817500978708267	-0.027784040197730064	0.09126342833042145	0.07820767164230347	-0.29542723298072815	0.21364296972751617	-0.10638570040464401	0.014637389220297337	0.04751571640372276	0.15889185667037964	-0.34565699100494385	-0.3045208752155304	-0.20016440749168396	0.06490617990493774	0.13816264271736145	-0.02935037948191166	-0.30077841877937317	0.09897316992282867	0.212979257106781	0.16828744113445282	0.2040911763906479	-0.4489755928516388	0.24115364253520966	0.30027177929878235	-0.06917433440685272	-0.12475519627332687	0.10447730869054794	-0.2678394317626953	-0.020914703607559204	0.37052977085113525	0.16025012731552124	0.1686343252658844	0.06320443004369736	-0.30022117495536804	0.20804248750209808	-0.21113170683383942	-0.1956905871629715	-0.35647863149642944	0.3831741213798523	0.020045718178153038	0.20980142056941986	0.027633672580122948	0.2573169767856598	-0.06255348771810532	-0.1468411386013031	-0.14592279493808746	-0.38979533314704895	-0.03132238611578941	-0.1734781563282013	-0.08030403405427933	0.6218234896659851	0.18861469626426697	-0.1455528438091278	-0.3960847854614258	0.14184461534023285	-0.07268884778022766	0.11520327627658844	-0.2213512659072876	0.24345864355564117	0.3135890066623688	-0.18585950136184692	0.13755841553211212	-0.0032184843439608812	-0.3608393669128418	0.13684342801570892	0.294697105884552	
elefante	0.33174362778663635	-0.15209609270095825	0.23407115042209625	-0.09033404290676117	-0.05825675651431084	-0.28661537170410156	-0.15899403393268585	0.07790595293045044	0.055761270225048065	0.13113786280155182	0.006254237145185471	-0.11891355365514755	0.028921574354171753	0.1807616800069809	-0.031877633184194565	0.39457494020462036	0.21775400638580322	0.16007652878761292	0.31974148750305176	-0.09465084969997406	0.13551998138427734	0.0705527812242508	-0.11115307360887527	0.35714420676231384	0.19092805683612823	0.17448842525482178	0.17364242672920227	-0.12206155061721802	0.061935171484947205	0.012421561405062675	0.12792061269283295	-0.37226271629333496	-0.021834537386894226	-0.09113528579473495	-0.14025482535362244	-0.12142796814441681	-0.13339173793792725	-0.41143494844436646	-0.03181914612650871	-0.12870727479457855	0.0515645295381546	0.1036917194724083	-0.10252968221902847	0.287285178899765	-0.3631605803966522	-0.06386280059814453	-0.2798227071762085	0.04556553438305855	-0.23387564718723297	0.07418065518140793	-0.09961584955453873	-0.1503705531358719	0.11497047543525696	-0.02047864906489849	0.09343679994344711	0.1615724265575409	-0.08337029814720154	-0.25120559334754944	-0.1762900948524475	0.020878614857792854	0.2173386961221695	-0.0014113476499915123	0.17024320363998413	0.113761767745018	-0.14658604562282562	0.06037263572216034	-0.007013109512627125	-0.07843044400215149	0.03379380702972412	-0.21235927939414978	-0.2896535396575928	0.13566750288009644	-0.060270458459854126	-0.2783079743385315	-0.08793644607067108	-0.01208581868559122	-0.19262073934078217	-0.27769097685813904	0.19209247827529907	0.05946355685591698	0.06524869054555893	0.02350311353802681	0.01810571365058422	0.3369085192680359	0.06545032560825348	-0.2777024507522583	0.1695202887058258	0.012531539425253868	-0.27175894379615784	0.13354864716529846	0.08622343838214874	0.1335747390985489	-0.20568114519119263	-0.2687777280807495	-0.14252795279026031	-0.09674198180437088	0.2134491354227066	-0.05524802207946777	0.08959222584962845	0.14756295084953308	0.2044469267129898	-0.16184265911579132	0.13097183406352997	0.11172246187925339	-0.1541261374950409	-0.16095781326293945	0.08943559229373932	-0.28767144680023193	-0.08850506693124771	-0.32069697976112366	-0.19016790390014648	0.09018698334693909	0.22529207170009613	-0.24479815363883972	0.09733014553785324	0.36095091700553894	-0.1950082629919052	-0.034823425114154816	-0.157618910074234	0.1880033016204834	0.15809161961078644	-0.01435383502393961	-0.0597129762172699	0.11506877094507217	-0.2867506444454193	-0.06100211665034294	0.06325910240411758	0.03316598758101463	-0.1541253924369812	0.2524431645870209	-0.14076372981071472	0.059474557638168335	0.06720379739999771	0.0054970309138298035	-0.13265295326709747	-0.06403334438800812	0.08952518552541733	0.1141166016459465	-0.404514878988266	0.04313487187027931	0.04972224682569504	0.5768435001373291	-0.04391408711671829	0.1268390715122223	0.012821996584534645	-0.06402894854545593	-0.23297302424907684	0.22395962476730347	-0.5059933066368103	0.2259148508310318	-0.15153799951076508	-0.10250776261091232	0.07584360241889954	-0.23618489503860474	0.31298622488975525	0.05059807002544403	0.15958908200263977	0.08680300414562225	-0.17883068323135376	0.5056315064430237	-0.3163200616836548	-0.11929165571928024	0.03532550483942032	-0.04504607617855072	-0.08224649727344513	0.28731799125671387	-0.025762220844626427	-0.00015884092135820538	-0.07869771122932434	0.34016743302345276	0.028032412752509117	-0.1426381766796112	0.15615782141685486	-0.07314829528331757	0.09031856805086136	-0.026391543447971344	0.06417857110500336	0.34163331985473633	-0.1024722084403038	0.22283826768398285	-0.03844815120100975	0.01461171917617321	-0.11915390193462372	-0.07481934875249863	-0.016758644953370094	-0.11684982478618622	-0.05362414941191673	-0.12214335054159164	0.14291980862617493	-0.10192903131246567	0.006135651841759682	0.08835965394973755	0.05810628458857536	0.19040998816490173	0.28811022639274597	-0.14961379766464233	-0.20871102809906006	0.06626632064580917	-0.10660775005817413	0.1668921858072281	0.3100670278072357	-0.14560414850711823	-0.00872680451720953	0.20830653607845306	0.05436953157186508	-0.028424160555005074	-0.24830958247184753	0.2198239266872406	0.036305300891399384	-0.39767804741859436	0.0656437799334526	0.19462309777736664	0.1481991410255432	0.04289379343390465	0.06868311017751694	-0.03338246792554855	-0.29455700516700745	0.22475439310073853	-0.10589440912008286	-0.008782223798334599	-0.10053393989801407	-0.3299295902252197	-0.2261672466993332	-0.020355863496661186	0.0596122071146965	0.1494758576154709	-0.36674684286117554	-0.0817861557006836	0.0739159882068634	-0.1667383462190628	0.07081664353609085	-0.04686838760972023	0.08154241740703583	0.43122923374176025	-0.05791954696178436	0.050631411373615265	0.09276691824197769	-0.1153971329331398	0.0745217427611351	0.06342127174139023	0.21195751428604126	-0.05700116977095604	0.1550597995519638	-0.16592919826507568	-0.08492020517587662	0.3293572664260864	0.2199869304895401	-0.1395961344242096	0.029323635622859	-0.15294533967971802	0.09149913489818573	0.1618109941482544	-0.2335090935230255	0.3075653314590454	0.09965793043375015	0.078276127576828	-0.10172802954912186	-0.029442807659506798	0.625102162361145	0.31828150153160095	-0.009522813372313976	0.0684017762541771	0.28941258788108826	0.11676837503910065	-0.46569740772247314	-0.15281999111175537	-0.07395736873149872	0.20603716373443604	0.17599335312843323	-0.037453535944223404	-0.34747040271759033	-0.5274073481559753	0.18467481434345245	-0.04031310975551605	0.23086650669574738	-0.37903937697410583	0.05516000837087631	0.049143850803375244	0.2556370198726654	-0.2233264446258545	0.024325313046574593	-0.055167194455862045	-0.10263187438249588	0.04286433756351471	-0.17449627816677094	0.129802405834198	-0.11851925402879715	-0.03117583692073822	-0.06881263852119446	-0.013004481792449951	-0.22341519594192505	0.2908252477645874	-0.08351144194602966	0.1741722822189331	-0.09876111894845963	-0.16789653897285461	-0.20545613765716553	0.11364079266786575	-0.14847758412361145	-0.20907585322856903	-0.030767714604735374	0.006969223264604807	-0.14372588694095612	0.34932583570480347	0.4074368178844452	0.10612253099679947	-0.3453599214553833	0.2245018482208252	0.3024812936782837	0.09231419861316681	-0.053175441920757294	-0.08919303119182587	-0.34580564498901367	-0.04931846261024475	0.047259196639060974	0.5191423296928406	0.1317242980003357	0.23569843173027039	-0.13264890015125275	-0.182233989238739	-0.1307939738035202	0.18946968019008636	0.15258654952049255	-0.08416537940502167	0.1927712857723236	0.06517964601516724	-0.013110597617924213	0.2673244774341583	-0.1668761819601059	0.03336124122142792	0.35081979632377625	-0.07869074493646622	0.36233755946159363	-0.015478814952075481	-0.30457109212875366	-0.05570836737751961	0.1425560563802719	0.051871079951524734	-0.2939642369747162	-0.2589533030986786	0.014989737421274185	-0.10452598333358765	-0.07137560844421387	0.22788633406162262	-0.17568692564964294	-0.35579434037208557	-0.1210644394159317	-0.275160551071167	-0.1861812323331833	-0.02022252418100834	-0.008301974274218082	-0.09570655226707458	-0.583721399307251	0.2552911341190338	0.07811057567596436	-0.0707881823182106	0.24844244122505188	0.051471833139657974	-0.22788523137569427	-0.34193307161331177	-0.10084466636180878	-0.2207627147436142	-0.15440396964550018	-0.07353636622428894	-0.17388735711574554	-0.2164883315563202	0.3503568172454834	-0.25644615292549133	-0.07900691032409668	-0.057912882417440414	-0.3348501920700073	-0.18599899113178253	-0.0043874927796423435	-0.18764029443264008	-0.0654493048787117	-0.11692600697278976	-0.07262769341468811	0.07138903439044952	-0.6163880825042725	-0.30156588554382324	0.22152741253376007	0.16555319726467133	0.16674450039863586	0.21574470400810242	0.11904538422822952	0.08971596509218216	-0.1527712345123291	-0.04252269119024277	0.03932861611247063	0.0867035910487175	0.024351976811885834	-0.20565733313560486	0.1644076555967331	0.1692238599061966	-0.14902332425117493	0.08478432893753052	-0.2194843739271164	-0.3387433588504791	0.2045862078666687	0.008959935046732426	
gatto	0.00981099996715784	-0.37398651242256165	-0.06786710023880005	0.14930497109889984	-0.30474913120269775	-0.042357560247182846	-0.2480325549840927	0.24893416464328766	0.1906675398349762	0.29977864027023315	-0.002591741504147649	-0.3298816382884979	-0.28648871183395386	-0.17218247056007385	-0.0634138211607933	0.12217628955841064	-0.32874763011932373	-0.0718567818403244	-0.13370276987552643	-0.11216025054454803	0.32893145084381104	0.05671126767992973	-0.008906322531402111	0.2825108766555786	-0.21764566004276276	0.1756625771522522	0.3568359911441803	-0.1351567655801773	-0.09016788005828857	-0.08077611774206161	-0.1440029889345169	-0.07088135182857513	0.13810941576957703	-0.12003665417432785	-0.2542892098426819	-0.33074840903282166	-0.39952605962753296	0.03981395438313484	0.20520943403244019	0.09990769624710083	0.0991787388920784	-0.03416641056537628	-0.0646880567073822	0.03672066703438759	-0.4435918629169464	0.10781286656856537	-0.17497099936008453	0.03743944689631462	-0.11628717929124832	0.023734599351882935	-0.23669296503067017	0.0456019826233387	-0.029322924092411995	0.14002124965190887	-0.10506163537502289	-0.10392913222312927	-0.15397538244724274	-0.2789601981639862	0.24575164914131165	-0.131082683801651	0.2703152000904083	0.07346057146787643	-0.19182778894901276	0.09901987016201019	-0.25027230381965637	-0.003604697063565254	-0.10008268803358078	0.05902360752224922	0.0012951215030625463	-0.04598177224397659	-0.26896870136260986	-0.07105640321969986	-0.009006577543914318	-0.44924211502075195	0.09766723215579987	0.1569005399942398	-0.1523454189300537	-0.21138615906238556	-0.01606595702469349	0.15592223405838013	0.2613754868507385	0.012136717326939106	0.05087300390005112	0.07340464740991592	0.0914188101887703	-0.09054660052061081	0.22118453681468964	0.020706022158265114	0.18489821255207062	0.06208554282784462	-0.14351455867290497	-0.02896689623594284	-0.36021512746810913	-0.4160044193267822	0.019699689000844955	0.07829777896404266	-0.024999093264341354	-0.10220741480588913	0.23399920761585236	0.16091465950012207	-0.14162929356098175	0.14588972926139832	0.3029339909553528	-0.04190010577440262	-0.1553250402212143	-0.5755850076675415	-0.19542044401168823	-0.2668495178222656	0.046858176589012146	-0.013059921562671661	-0.059727463871240616	-0.14275000989437103	0.11667650938034058	-0.00022702128626406193	0.10388699918985367	0.07175653427839279	-0.09742610156536102	0.08816369622945786	0.09304572641849518	-0.12331607937812805	-0.16407844424247742	0.05658348277211189	-0.044970978051424026	0.3212982416152954	-0.29017356038093567	-0.10298163443803787	0.3404799997806549	0.021699028089642525	-0.18389083445072174	0.0923590436577797	0.3147341012954712	0.013913470320403576	0.09689751267433167	-0.13675011694431305	0.24990704655647278	0.3222752809524536	-0.22237949073314667	0.29620400071144104	-0.20059643685817719	-0.07021115720272064	0.08211898803710938	0.23783351480960846	-0.09875673055648804	-0.05083093047142029	0.3542313873767853	0.21288248896598816	-0.261922150850296	-0.02947871759533882	-0.3939027488231659	0.01735011301934719	-0.16925808787345886	0.07352901250123978	0.15816594660282135	-0.1951414793729782	0.121065154671669	-0.19960416853427887	0.03712235018610954	0.056102119386196136	0.04137836769223213	0.3424513041973114	-0.6809914708137512	-0.03831237182021141	-0.121831975877285	-0.08618050068616867	-0.3360587954521179	-0.061048272997140884	0.05438072606921196	0.04185156151652336	0.19206690788269043	0.07814189046621323	0.061322521418333054	-0.048751138150691986	0.08171522617340088	-0.004615893121808767	0.045786887407302856	-0.027974369004368782	0.25711530447006226	0.1853434145450592	0.08346626162528992	0.26599621772766113	-0.13495346903800964	-0.2511238753795624	-0.08977367728948593	-0.020495478063821793	-0.18135839700698853	-0.04540965333580971	-0.07439972460269928	-0.02783995121717453	0.27504098415374756	0.20377041399478912	0.10098627954721451	-0.04270639643073082	-0.06596790254116058	-0.35112133622169495	-0.09616594761610031	-0.258975088596344	-0.1745479702949524	0.00013433709682431072	0.01747433841228485	0.12936890125274658	0.14353787899017334	-0.1283329278230667	-0.28231745958328247	0.14856572449207306	-0.21574249863624573	0.0417029969394207	0.01625633053481579	0.093100406229496	0.351884663105011	-0.15619145333766937	0.17589685320854187	0.1406346559524536	0.019232595339417458	-0.037140436470508575	-0.19392895698547363	-0.2200341522693634	-0.22710536420345306	0.09548985213041306	-0.19231566786766052	-0.1789252609014511	0.004913571290671825	-0.4401634931564331	0.052896786481142044	0.03162967786192894	0.1994125247001648	0.13119739294052124	-0.18508411943912506	0.1349944770336151	0.10826849937438965	0.3404473662376404	-0.0020425731781870127	0.18763302266597748	0.2850665748119354	0.12098636478185654	-0.05353793129324913	-0.2155568152666092	0.021120363846421242	0.017460761591792107	0.27618783712387085	0.09614717215299606	-0.08309561759233475	0.026865176856517792	-0.3348477780818939	0.08155496418476105	-0.3262377977371216	0.178846538066864	0.029589936137199402	0.21671076118946075	-0.06658709794282913	-0.21270309388637543	0.01657887175679207	0.05971421301364899	-0.05906268209218979	0.1055365800857544	-0.13880914449691772	0.027005955576896667	-0.29156479239463806	0.10592271387577057	0.3650686740875244	0.1041635200381279	-0.2930077612400055	0.1396201252937317	-0.20929229259490967	-0.06898298114538193	-0.06470628082752228	-0.045283883810043335	-0.10480941087007523	0.17254066467285156	0.3501555621623993	0.3615005612373352	-0.3138558566570282	0.12293175607919693	-0.3093831539154053	-0.19343246519565582	0.0018431871430948377	-0.2491813600063324	0.24996443092823029	0.13734982907772064	0.3359060287475586	0.0541716106235981	0.07897818833589554	-0.016747495159506798	-0.07148127257823944	-0.2272460013628006	-0.1633390486240387	-0.0981912687420845	-0.026962535455822945	-0.1789238005876541	0.012681239284574986	-0.3140846788883209	-0.261309415102005	0.05155114457011223	0.019064199179410934	0.21758010983467102	-0.1504005640745163	-0.22494901716709137	-0.08997197449207306	0.04270506650209427	-0.2277783900499344	-0.3123869299888611	-0.2631082534790039	0.13593895733356476	-0.1096428781747818	0.13042467832565308	0.17739666998386383	0.005904244724661112	-0.4436635971069336	0.040003933012485504	0.2026633471250534	0.08224181085824966	0.005466920789331198	-0.14675448834896088	-0.15895795822143555	-0.3522423803806305	0.04997352510690689	0.23220326006412506	-0.026063058525323868	0.35890257358551025	0.18939906358718872	-0.023766454309225082	-0.3827832341194153	0.14401383697986603	0.006109232548624277	0.018928172066807747	-0.017802583053708076	-0.0997953861951828	0.0374552346765995	0.46328985691070557	-0.10718487203121185	-0.14599090814590454	0.603737473487854	0.04550250619649887	0.10304349660873413	0.06177440658211708	-0.25132253766059875	-0.04488451033830643	0.15047192573547363	-0.008537721820175648	-0.1250668615102768	-0.3561512529850006	0.005871906876564026	-0.26919353008270264	0.24087555706501007	0.11983905732631683	0.09961529076099396	-0.09429959207773209	-0.18938840925693512	0.021903907880187035	-0.029390446841716766	0.006992818787693977	0.3287864029407501	0.13451159000396729	-0.11882895976305008	0.13977186381816864	0.15415963530540466	-0.20113393664360046	0.4962197244167328	-0.03233997896313667	-0.13107003271579742	-0.25227123498916626	-0.22707563638687134	-0.1945113092660904	-0.15392859280109406	-0.00851727556437254	0.07144276052713394	-0.1568780243396759	0.09941016137599945	0.06718569248914719	-0.15298739075660706	-0.3725802004337311	-0.28580936789512634	-0.4487534463405609	0.23402464389801025	0.13903695344924927	-0.1352105289697647	0.19652581214904785	-0.18881766498088837	0.07505542784929276	-0.1647196114063263	-0.38478222489356995	0.3065713346004486	-0.1553376466035843	0.11149735003709793	0.3691164255142212	0.32167550921440125	-0.03938078507781029	-0.2223973125219345	-0.04541313275694847	0.17046451568603516	-0.21125538647174835	-0.10352979600429535	-0.13982143998146057	0.09907565265893936	0.11691204458475113	-0.04248518496751785	-0.1145305410027504	0.11161854863166809	-0.20177599787712097	-0.06620772182941437	-0.05737588554620743	
leone	0.3057183027267456	-0.11832749098539352	0.3779631555080414	-0.19313929975032806	0.14750435948371887	-0.0874936655163765	-0.3900606036186218	-0.0535263828933239	0.08658134192228317	0.6001096367835999	-0.09092043340206146	-0.051720403134822845	-0.15729518234729767	0.2960650622844696	-0.38000741600990295	0.2560608685016632	-0.15776760876178741	-0.19128243625164032	0.054217379540205	-0.17058506608009338	0.14460712671279907	0.2712322473526001	-0.05266997963190079	-0.0412241667509079	-0.008724648505449295	-0.09840009361505508	0.06174623221158981	-0.26459169387817383	-0.10388971120119095	-0.11260996758937836	-0.07211139798164368	0.02170105092227459	0.23968395590782166	-0.08327571302652359	-0.34009936451911926	-0.19888806343078613	-0.06407487392425537	-0.2996461093425751	-0.1760379523038864	-0.0226970873773098	0.006555726286023855	0.0870438814163208	-0.24762727320194244	0.07624945044517517	-0.2803354263305664	-0.10538256168365479	-0.2188034951686859	0.07504160702228546	-0.14156876504421234	-0.0483161136507988	-0.1270957738161087	-0.47873109579086304	-0.0028822352178394794	0.27931058406829834	0.008712256327271461	-0.3055519461631775	0.032625969499349594	-0.12834744155406952	-0.21796317398548126	-0.020126352086663246	0.199659064412117	-0.08590482920408249	0.25602126121520996	0.11552880704402924	-0.14954239130020142	0.20586949586868286	0.20418508350849152	-0.027443230152130127	-0.1927400380373001	0.002169275190681219	-0.09642326086759567	-0.5125178098678589	0.007167971692979336	-0.18926161527633667	-0.07637376338243484	0.30061808228492737	-0.10399547219276428	0.1502448171377182	-0.02013290673494339	0.10935428738594055	-0.11038196831941605	0.08397079259157181	0.14178484678268433	0.08234710246324539	-0.058212779462337494	-0.19623413681983948	0.024266207590699196	-0.2258811593055725	-0.160161554813385	-0.09995871782302856	-0.11874064058065414	-0.03178778290748596	-0.031366314738988876	-0.5750468373298645	-0.2119871824979782	-0.13709388673305511	-0.15668930113315582	0.04629150778055191	0.09031693637371063	0.17441630363464355	0.10371672362089157	0.36076971888542175	0.12524059414863586	-0.19423753023147583	-0.2725900709629059	-0.3596918284893036	0.249607115983963	-0.5384560823440552	0.20011046528816223	-0.15133102238178253	-0.042827002704143524	0.06742122769355774	0.06690063327550888	-0.06691296398639679	-0.2830134332180023	-0.10925912857055664	0.009040451608598232	0.13460321724414825	0.08483582735061646	-0.2170262187719345	0.31961551308631897	0.19238688051700592	0.06367998570203781	-0.14224262535572052	-0.14508892595767975	0.24144425988197327	0.2172892838716507	0.0894453153014183	-0.26794305443763733	0.11447463184595108	0.27495813369750977	-0.034669678658246994	0.318806916475296	0.25440987944602966	0.07176800817251205	-0.05373028665781021	0.07210567593574524	0.3429719805717468	-0.4825522005558014	0.22889122366905212	0.30683669447898865	0.3619900345802307	-0.31668081879615784	0.08433273434638977	0.04266827180981636	0.14978927373886108	0.0011227158829569817	0.21863675117492676	-0.18224191665649414	0.05943506583571434	-0.2478615790605545	0.27294594049453735	0.09303247928619385	-0.09977216273546219	0.2836916148662567	0.122479148209095	-0.1068890243768692	0.16152271628379822	-0.43128082156181335	0.09779581427574158	-0.19334819912910461	-0.24389444291591644	-0.08860044181346893	-0.38423648476600647	-0.33749353885650635	0.14416973292827606	0.2299991399049759	0.16935913264751434	-0.1848740130662918	-0.03145582228899002	0.2304694801568985	0.0685577541589737	-0.05309890955686569	-0.07768724858760834	0.06888234615325928	0.09463474154472351	0.11184626817703247	0.1570999175310135	-0.10336330533027649	-0.1936430186033249	-0.026155855506658554	0.10158972442150116	0.13043364882469177	-0.3893616497516632	0.015869438648223877	0.01747170276939869	0.028787456452846527	0.09449806809425354	-0.06281530112028122	0.1090233251452446	-0.04321778193116188	0.04030599445104599	-0.14324580132961273	-0.12547269463539124	0.2059301882982254	-0.12452948093414307	0.18234385550022125	-0.05867233872413635	0.039703503251075745	0.00882344227284193	0.25423744320869446	-0.1848972737789154	0.2031385451555252	0.31764695048332214	0.3512977361679077	-0.14544302225112915	-0.10771143436431885	0.2233302742242813	0.12505574524402618	-0.23617315292358398	0.1917540282011032	-0.4786161482334137	-0.20103208720684052	0.11120086163282394	-0.2554893493652344	-0.13667508959770203	-0.17654182016849518	0.045218002051115036	-0.14403343200683594	0.0709262415766716	0.06968186795711517	-0.08963324874639511	-0.20175117254257202	0.4145190119743347	-0.04225170239806175	0.31080883741378784	-0.045847032219171524	0.06891270726919174	0.12986257672309875	-0.27247560024261475	0.20487920939922333	0.24281951785087585	0.10232320427894592	0.23574358224868774	0.1008368730545044	0.012714351527392864	-0.22663480043411255	0.2879472076892853	0.31787317991256714	0.18929722905158997	-0.09032534062862396	-0.3498125374317169	0.11028435826301575	-0.05995506793260574	0.14864026010036469	0.1308307647705078	0.04611321911215782	-0.016446033492684364	-0.034784045070409775	-0.09470872581005096	-0.14075493812561035	0.0907912626862526	-0.21836403012275696	-0.08241839706897736	0.38704559206962585	-0.2495397925376892	-0.2789463996887207	0.11924983561038971	0.2420063614845276	-0.13502922654151917	-0.21637555956840515	-0.016424452885985374	0.17307250201702118	-0.16806477308273315	-0.11448998749256134	0.19522534310817719	0.1882144957780838	-0.02591954730451107	0.3541238605976105	0.29167258739471436	0.090654656291008	-0.13627837598323822	0.2100120484828949	-0.2833346128463745	-0.18670564889907837	0.03944198787212372	0.1613183617591858	0.5197888612747192	-0.15027809143066406	-0.3215891122817993	0.23576098680496216	-0.14600017666816711	-0.17896652221679688	0.00883360207080841	-0.5952469706535339	-0.05765325948596001	-0.34687477350234985	-0.06446404755115509	-0.1906563937664032	-0.13918307423591614	-0.36762988567352295	0.015376652590930462	0.02696177549660206	0.4131568968296051	-0.15004748106002808	-0.02231965772807598	-0.19835537672042847	-0.10930528491735458	-0.013443555682897568	-0.03335890918970108	0.36570072174072266	0.18115198612213135	0.018848048523068428	-0.12400628626346588	-0.2326863408088684	-0.16966407001018524	-0.31499171257019043	0.45122671127319336	-0.171052023768425	0.23242662847042084	0.05553041398525238	0.14861725270748138	-0.38552162051200867	0.18373419344425201	0.0011674852576106787	0.13949087262153625	-0.04861598089337349	0.660664439201355	0.10753504931926727	-0.1282837837934494	0.059861693531274796	0.20382829010486603	0.09104462713003159	-0.1458883434534073	0.2682011127471924	0.06064685434103012	0.12350230664014816	0.022983035072684288	-0.17619535326957703	-0.024957789108157158	0.1371825784444809	0.43920257687568665	0.04681693762540817	0.046549782156944275	-0.2761896252632141	-0.21597698330879211	-0.020955730229616165	-0.02121175266802311	-0.08723974972963333	-0.33870917558670044	0.18813826143741608	-0.03602404147386551	0.33080536127090454	0.2198251485824585	-0.031072458252310753	-0.0586419440805912	-0.14095093309879303	-0.284570574760437	-0.0697680115699768	0.016733167693018913	0.07653482258319855	0.11895204335451126	-0.10875488072633743	0.21117407083511353	-0.12546299397945404	0.12539364397525787	-0.02470915950834751	0.04082217067480087	0.09064525365829468	-0.4551982283592224	0.09673269838094711	-0.1235494539141655	-0.305742084980011	0.16150008141994476	0.20313721895217896	-0.2642740309238434	0.037550389766693115	-0.38442546129226685	-0.010251495987176895	-0.17131823301315308	-0.25813373923301697	-0.34173572063446045	0.07358958572149277	-0.2098083794116974	-0.030889147892594337	-0.3450533151626587	-0.2336055040359497	0.13423842191696167	-0.33963027596473694	-0.48974472284317017	0.03087838925421238	-0.11693093180656433	-0.035199765115976334	0.25114706158638	0.04394647851586342	-0.07062686234712601	-0.10414214432239532	-0.20672892034053802	-0.005910641048103571	0.02053641527891159	-0.11856468766927719	-0.14818130433559418	-0.06910496205091476	0.312875896692276	-0.09988714009523392	-0.14523373544216156	-0.029810842126607895	-0.2812280058860779	0.20557980239391327	0.11827265471220016	
maiale	0.19474999606609344	-0.12874330580234528	-0.010700389742851257	0.3002110421657562	0.1747240126132965	-0.3516932725906372	0.10112221539020538	0.3626149594783783	0.16613194346427917	0.12768089771270752	-0.10570362955331802	0.10286810249090195	-0.4686766564846039	-0.2593047618865967	0.09508650749921799	-0.05915629118680954	-0.09170754253864288	0.018244454637169838	-0.04241612181067467	-0.1985989809036255	0.2012595534324646	-0.015557985752820969	-0.10354436933994293	0.10916407406330109	0.11434391140937805	0.1590745598077774	0.27050521969795227	-0.1258518248796463	-0.19022570550441742	-0.058135341852903366	0.03952712565660477	-0.07261873036623001	0.17414474487304688	0.3688412606716156	0.3942452371120453	-0.30146676301956177	-0.30978506803512573	-0.006023048423230648	0.2335205078125	0.10484664142131805	-0.2504146993160248	-0.2938612401485443	0.19343788921833038	-0.14512290060520172	-0.4045148491859436	-0.21914084255695343	0.06685253977775574	0.17826394736766815	-0.36359745264053345	0.29195037484169006	-0.3009372353553772	0.19199849665164948	-0.3805377781391144	-0.030424360185861588	-0.266672819852829	0.04415050894021988	-0.2735014855861664	-0.15719421207904816	0.11127900332212448	0.29739096760749817	-0.07910287380218506	-0.3350902497768402	-0.1253536343574524	0.06400380283594131	-0.5609211325645447	-0.41339194774627686	-0.12926094233989716	0.5304931998252869	-0.07251963019371033	0.1743394285440445	-0.30144691467285156	0.23089152574539185	0.15904712677001953	-0.21450775861740112	-0.13597555458545685	-0.01694696769118309	-0.3107316493988037	0.19778716564178467	-0.19051571190357208	-0.2616126835346222	-0.042360153049230576	0.06754746288061142	-0.021256189793348312	-0.4078737497329712	0.14363326132297516	-0.24767203629016876	-0.017759891226887703	0.12063679099082947	-0.13423927128314972	0.22961807250976562	-0.11188172549009323	-0.16291861236095428	0.12067929655313492	-0.11779259145259857	-0.037672847509384155	-0.4477841258049011	-0.36032816767692566	-0.1541397124528885	-0.18700213730335236	0.21833571791648865	0.13701023161411285	-0.32585060596466064	-0.29019466042518616	-0.18455110490322113	-0.289468914270401	-0.4729028642177582	0.22412437200546265	-0.12637749314308167	0.04351188614964485	-0.26211556792259216	-0.3080407977104187	-0.194928839802742	0.1759038120508194	-0.17074796557426453	0.3338349163532257	0.2673264443874359	0.03510130196809769	-0.050447579473257065	-0.26242148876190186	0.3089284896850586	0.0521969348192215	-0.016567854210734367	-0.3562472462654114	0.3004934787750244	-0.05347735062241554	-0.0051379119977355	-0.18478260934352875	-0.30790460109710693	0.13375577330589294	-0.27891460061073303	0.11376748979091644	0.1446169763803482	-0.06536886841058731	-0.060226213186979294	-0.13808318972587585	0.07347703725099564	0.22727525234222412	0.12409001588821411	-0.2612899839878082	0.030256574973464012	0.10336551070213318	-0.2738215923309326	-0.0812557116150856	-0.2039709985256195	-0.04290378466248512	0.3744913935661316	-0.3012367784976959	0.24925261735916138	-0.313606858253479	-0.17526620626449585	-0.25980624556541443	0.15454386174678802	-0.47590675950050354	-0.18538200855255127	0.016342220827937126	-0.11823517084121704	0.41416308283805847	0.3317994773387909	0.24295511841773987	0.1624801605939865	-0.6634488701820374	-0.15919223427772522	-0.06921245902776718	-0.13551895320415497	-0.1270352452993393	0.08585623651742935	-0.019940081983804703	-0.057364270091056824	-0.32663893699645996	0.223188117146492	0.05901544541120529	0.43111300468444824	0.0877930074930191	-0.20060817897319794	0.21603482961654663	-0.09498077630996704	0.22685018181800842	-0.16455796360969543	-0.1133246198296547	0.28319594264030457	-0.21992938220500946	-0.25301456451416016	-0.24347563087940216	0.03566363826394081	0.27834466099739075	-0.15172085165977478	0.2227780520915985	0.17562367022037506	0.12580406665802002	0.38019171357154846	0.36072632670402527	-0.2721664011478424	0.04453805088996887	-0.2833806276321411	0.04559526965022087	0.14813566207885742	-0.17540574073791504	-0.37303945422172546	-0.25951918959617615	0.12590590119361877	0.020406991243362427	0.030613204464316368	-0.18909506499767303	-0.0312994122505188	0.13534706830978394	-0.006017393432557583	-0.00045750016579404473	0.2207978069782257	0.24072878062725067	0.07611919194459915	0.31433579325675964	-0.41751110553741455	0.0704747810959816	-0.21933545172214508	0.16328023374080658	-0.06833108514547348	-0.1886000633239746	0.34940841794013977	-0.5781457424163818	-0.25804319977760315	-0.04883108660578728	-0.3490433096885681	-0.09449650347232819	-0.3214132487773895	0.2507682144641876	0.009200516156852245	-0.14086481928825378	0.6950153112411499	0.48565030097961426	0.12410013377666473	0.18770462274551392	0.16775716841220856	0.21069741249084473	0.28491315245628357	0.030217068269848824	0.12045741081237793	0.18439319729804993	-0.04117598384618759	0.3314930200576782	0.08661797642707825	-0.29915651679039	0.0933455377817154	-0.05763675644993782	-0.29884326457977295	-0.0726688802242279	0.2734319567680359	-0.0444045327603817	0.17506957054138184	0.003699216991662979	0.09519010037183762	-0.011573761701583862	0.2317553460597992	0.1535840630531311	0.23796199262142181	-0.15012601017951965	0.017964746803045273	-0.16806328296661377	-0.048471808433532715	0.36855995655059814	-0.051606472581624985	-0.32368531823158264	-0.2844303548336029	0.15889255702495575	0.04454709216952324	-0.026376577094197273	0.21566742658615112	0.126826673746109	0.22740598022937775	0.32029667496681213	0.22340719401836395	-0.2964358925819397	-0.43486905097961426	-0.23339369893074036	-0.016403406858444214	-0.13700932264328003	-0.2292560338973999	-0.06781792640686035	-0.11564597487449646	0.0523231141269207	0.1619662195444107	0.26225993037223816	-0.2507229745388031	-0.2723981440067291	-0.35986217856407166	0.035198092460632324	-0.09718681871891022	0.28444695472717285	-0.19605670869350433	-0.13588197529315948	0.5789794921875	-0.15151387453079224	0.11555314809083939	-0.023515671491622925	0.2131667584180832	-0.1725301295518875	-0.061374273151159286	-0.06222178041934967	-0.20399901270866394	-0.15375733375549316	-0.3720454275608063	-0.018919184803962708	0.078537717461586	0.010993778705596924	0.20265525579452515	0.09539695829153061	0.21053095161914825	0.14242856204509735	0.06823065876960754	0.21356873214244843	-0.012036396190524101	0.0355810821056366	-0.14470188319683075	0.058453284204006195	-0.014174547046422958	-0.0021163125056773424	0.08983400464057922	-0.2062843143939972	0.20626267790794373	-0.29139190912246704	-0.33394476771354675	-0.019437843933701515	0.46293309330940247	0.10946235060691833	-0.15161511301994324	0.30701589584350586	-0.28669583797454834	-0.027275947853922844	0.6113608479499817	-0.22803352773189545	0.5543506741523743	0.16649919748306274	-0.139870747923851	0.14538916945457458	0.1413964033126831	-0.07990988343954086	-0.5375381708145142	0.03393104299902916	0.14244484901428223	-0.23739762604236603	-0.05487266555428505	0.23514424264431	-0.04834122210741043	0.32321709394454956	-0.17887715995311737	-0.2997478246688843	-0.2448928952217102	-0.10166788101196289	0.12668770551681519	-0.2710181176662445	-0.03838299959897995	-0.2676728367805481	-0.4462032616138458	-0.14793670177459717	0.2933322489261627	0.06255153566598892	-0.1355428397655487	0.16729767620563507	0.27489814162254333	0.19143542647361755	0.00654318742454052	-0.20193317532539368	-0.17654584348201752	-0.1887887418270111	0.13540664315223694	0.020985348150134087	0.04827079549431801	0.09566110372543335	-0.14322659373283386	-0.04588528349995613	-0.23583026230335236	0.1837240606546402	-0.4415476322174072	-0.3057079315185547	-0.3397253155708313	-0.3118021488189697	0.23427258431911469	-0.39948710799217224	0.21293428540229797	-0.2536950707435608	-0.2148825079202652	0.35834789276123047	-0.06210053712129593	-0.2616599202156067	0.11030115187168121	0.5056081414222717	-0.2516462206840515	-0.15273448824882507	-0.2943170368671417	0.1429739147424698	0.003999239299446344	-0.13475507497787476	0.2321494221687317	0.13517683744430542	0.3864916265010834	-0.18159034848213196	0.1890048384666443	-0.01755988411605358	0.04788980260491371	-0.33428144454956055	0.05535467714071274	
