phrase	xlm-roberta-large_vectors
giacca	-0.9211357831954956	-0.17165829241275787	-0.004857894964516163	0.04530246928334236	0.05272291973233223	-0.326266348361969	-0.20431919395923615	0.1661432832479477	-0.3070274293422699	0.06283324956893921	-0.1850864291191101	-0.05824631452560425	-0.060586798936128616	-0.18108925223350525	-0.2800784409046173	-0.375082403421402	-0.07765013724565506	0.2571817934513092	0.2952481508255005	-0.057914990931749344	0.08777020126581192	-0.28973323106765747	0.022340312600135803	0.09472949802875519	-0.11287975311279297	0.16370488703250885	0.3916792869567871	-0.21234899759292603	0.08562492579221725	-0.05993327498435974	0.018971210345625877	-0.0031124784145504236	0.2895539104938507	0.18233773112297058	-0.17328141629695892	0.10649947822093964	0.09024685621261597	0.04600559547543526	0.2510557472705841	-0.118983194231987	0.05591781809926033	-0.02160332351922989	-0.05645284056663513	-0.03238985687494278	0.211532860994339	0.1660756915807724	-0.165877565741539	-1.4972769021987915	-0.47919923067092896	0.015922851860523224	0.1438920646905899	-0.07149795442819595	0.14456690847873688	0.5926745533943176	0.11961677670478821	-0.06659677624702454	-0.4150226414203644	-0.6773148775100708	0.05749472975730896	0.20767004787921906	-0.023714572191238403	-0.2380593717098236	-0.12133055180311203	0.013820227235555649	0.13976731896400452	0.23016375303268433	0.04245550557971001	-0.059785615652799606	0.2458195835351944	0.04606027528643608	0.03794987499713898	-0.018798504024744034	-0.6825309991836548	-0.17175471782684326	0.1479472666978836	-0.16474097967147827	0.5989870429039001	-0.06566598266363144	-0.17359614372253418	0.07892788201570511	-0.37597519159317017	-0.019270695745944977	-0.04491812735795975	-0.07203409075737	-0.2869974672794342	-0.16545403003692627	0.15574942529201508	0.01705496571958065	-0.25691765546798706	-0.17037513852119446	0.313470721244812	-0.198390394449234	0.0828590840101242	0.18757469952106476	0.07486686110496521	0.2362709492444992	0.42205318808555603	0.2001022845506668	0.11786405742168427	-0.14953991770744324	0.060112785547971725	0.011067057028412819	-0.038680803030729294	-0.2555219829082489	0.40233132243156433	0.04254070296883583	-0.12129886448383331	-0.2095804214477539	-0.07030626386404037	0.5174247622489929	0.5088394284248352	-0.04390976205468178	-0.05817325413227081	-0.25248223543167114	0.13662375509738922	0.02962113358080387	-0.6710522770881653	-0.17138220369815826	-0.11025954782962799	0.025010285899043083	-0.13196855783462524	-0.27734485268592834	0.2001725733280182	-0.18186020851135254	0.19287638366222382	-0.2897220253944397	-0.05260381102561951	0.35689306259155273	-0.13258038461208344	0.026840489357709885	-0.03096337802708149	0.16278691589832306	0.08415699005126953	0.014351840130984783	0.020253513008356094	-0.009280766360461712	-0.03481674939393997	0.04302476346492767	-0.07435175776481628	-0.25219258666038513	0.013007706962525845	0.26485583186149597	0.22179260849952698	0.09658731520175934	-0.06631087511777878	-0.0035274496767669916	-0.4031018018722534	0.12328409403562546	0.12306096404790878	0.1322110891342163	-0.05507713183760643	0.6828967928886414	-0.20829974114894867	-0.10138853639364243	-0.26714736223220825	-0.15920840203762054	-0.3640359938144684	-0.38075897097587585	0.03931055963039398	-0.06946461647748947	0.34088701009750366	0.6127247214317322	-0.03503894805908203	-0.2566961348056793	-0.01921561360359192	0.0332011952996254	0.1444176584482193	-0.17989523708820343	0.01864214986562729	-0.2149783968925476	-0.07173067331314087	-0.036419712007045746	-0.1730310171842575	-0.03003745898604393	-0.0913906916975975	0.15677298605442047	-0.46533849835395813	-0.27657607197761536	0.23870573937892914	-0.2891220152378082	-0.03133431449532509	0.05215821787714958	-0.02162541262805462	-0.10392462462186813	-0.2275242954492569	-0.17199596762657166	-0.23874056339263916	-0.0007406426011584699	0.11159887909889221	-0.09125591069459915	0.14393799006938934	0.03435603901743889	-0.12985780835151672	0.34847912192344666	0.06697428971529007	0.008323322050273418	0.1966390460729599	-0.04405198618769646	0.010492823086678982	0.11327295750379562	0.17037612199783325	-0.016634372994303703	0.17898805439472198	-0.019688060507178307	-0.11906260251998901	0.1796645075082779	-0.43424949049949646	0.027931302785873413	-0.08844839781522751	-0.009491659700870514	0.252875417470932	-0.07609788328409195	-0.4059761166572571	-0.1350719928741455	0.012693546712398529	0.15463697910308838	0.06522941589355469	-0.4168410301208496	-0.14172746241092682	0.2365959733724594	0.07616742700338364	-0.33888790011405945	0.124224953353405	-0.032048944383859634	-0.05461249127984047	-0.441083163022995	-0.15907539427280426	0.010552030988037586	-0.1611952930688858	-0.2409088909626007	0.09760429710149765	0.45266157388687134	0.2573361396789551	-0.003259388729929924	-0.1997920125722885	-0.1410033106803894	-0.2981666028499603	0.2534410059452057	-0.027914591133594513	0.08979949355125427	-0.13261985778808594	0.1267847865819931	-0.1315569281578064	-0.088457390666008	-0.03605401888489723	0.02153797075152397	-0.2859683036804199	0.23011231422424316	0.1808597445487976	-0.08669784665107727	-0.04815824329853058	0.16143259406089783	-0.06301417201757431	-0.10496402531862259	-0.19996288418769836	-0.04828190430998802	0.12202692776918411	-0.016347454860806465	-0.021426420658826828	0.061565328389406204	-0.07287224382162094	0.1190250813961029	0.1550135314464569	0.26340073347091675	-0.04583149403333664	-0.11554468423128128	0.17087619006633759	0.47797420620918274	-0.11535463482141495	-0.5439568161964417	-0.22335860133171082	-0.023441152647137642	-0.22873446345329285	-0.056541796773672104	-0.05005984380841255	0.0956939086318016	-0.08400476723909378	-0.2903767228126526	0.3029402196407318	-0.07634792476892471	0.22258518636226654	-0.27851417660713196	0.09044931083917618	-0.02095293626189232	-0.03402591496706009	0.0700678676366806	-0.30451756715774536	-0.44575682282447815	-0.075480617582798	0.007866166532039642	-0.15206970274448395	-0.16757717728614807	1.8441873788833618	-0.22854585945606232	0.0010167049476876855	0.0936603993177414	-0.09428952634334564	-15.316327095031738	0.15061981976032257	-0.12842616438865662	0.0548575185239315	0.4946743845939636	0.17377299070358276	-0.030859731137752533	0.09765583276748657	-0.526322066783905	0.21479761600494385	0.20356793701648712	0.7146896719932556	0.14986129105091095	-0.013224841095507145	0.2229515016078949	0.186918243765831	-0.09413772076368332	-0.028258495032787323	-0.03863237425684929	0.36527219414711	-0.017156004905700684	0.12101137638092041	0.3911431133747101	-0.8082114458084106	0.052458684891462326	0.7320432066917419	-0.05605342984199524	-0.030757099390029907	0.012020925991237164	0.29701536893844604	-0.060120560228824615	0.09535031020641327	1.9941765069961548	0.1437772959470749	-0.006244603078812361	-0.012921991758048534	0.015266102738678455	0.12173745036125183	0.3833581805229187	-0.3593516945838928	0.13845190405845642	-0.11723309755325317	0.15012255311012268	-0.06013929471373558	-0.23533444106578827	-0.08993624895811081	-0.40660032629966736	-0.05626058205962181	-0.34186801314353943	-0.3298777937889099	0.15321627259254456	-0.008686852641403675	0.05168825015425682	0.3630240857601166	-0.04260937124490738	-0.31429219245910645	0.127431720495224	0.10965390503406525	-0.02898702211678028	-0.06002529338002205	0.19722981750965118	0.13677622377872467	0.04523768275976181	0.10303603857755661	0.24998816847801208	-0.002447181148454547	0.09650307893753052	0.04537356644868851	0.03610414266586304	-0.1999683827161789	-0.08013304322957993	0.184875950217247	0.011893798597157001	-0.06427916884422302	-0.07856817543506622	0.14651834964752197	0.1544453203678131	0.07232869416475296	0.12915141880512238	-1.5774962902069092	0.7125112414360046	-0.28792160749435425	-0.07778975367546082	-0.018892211839556694	0.1486818641424179	-0.15293745696544647	-0.10175494104623795	-0.013484267517924309	-0.19731654226779938	20.760343551635742	0.13094668090343475	0.18228372931480408	-0.20220761001110077	-0.42847010493278503	-0.14526616036891937	-0.22969117760658264	-0.08277484029531479	0.04417922720313072	-0.10959241539239883	-0.09895279258489609	-0.3129006028175354	-0.3866023123264313	-0.07070546597242355	-0.11073562502861023	-0.44972750544548035	0.020955855026841164	-0.053149666637182236	3.0319716930389404	-0.030009722337126732	-0.19682852923870087	0.5527522563934326	-0.14027459919452667	-0.1752336025238037	-0.40512773394584656	0.1996416598558426	0.06051351875066757	0.3508130609989166	0.18679942190647125	-0.046796947717666626	-0.027835676446557045	-0.1393728107213974	-0.37354010343551636	-0.19808600842952728	-0.19799363613128662	0.013830017298460007	0.020180951803922653	0.109853096306324	-0.3035358488559723	0.08080297708511353	0.21468955278396606	-1.197938084602356	0.2744297981262207	-0.313676655292511	0.11371534317731857	-0.079941526055336	-0.016845466569066048	0.02220812812447548	0.16436900198459625	0.05486423522233963	-0.4213157892227173	-0.06142254173755646	0.021816449239850044	-0.14179570972919464	0.36047011613845825	-0.043542712926864624	-0.13964112102985382	-0.07153191417455673	0.10267654061317444	-0.45220035314559937	-0.8699157238006592	0.7041803598403931	-0.11477062851190567	0.10039442032575607	0.23183493316173553	0.31865376234054565	0.1700926423072815	-0.2876570522785187	-0.1569748967885971	0.06806734949350357	-0.2426750659942627	0.07910887897014618	-0.12896142899990082	-0.09023690223693848	-0.24700714647769928	0.06009616702795029	0.03825844079256058	-0.15781491994857788	-0.6005648374557495	0.2569797933101654	0.2310078889131546	0.13601474463939667	0.09318287670612335	-0.23488301038742065	-0.09775401651859283	0.284249484539032	0.1353597491979599	-0.20019353926181793	-0.1350294053554535	-0.29451698064804077	0.24867260456085205	0.008567944169044495	-0.289450466632843	-1.0172786712646484	0.3452659249305725	-0.1238144114613533	0.2978551983833313	0.1419948786497116	-0.27745354175567627	0.4184120297431946	-0.2396964430809021	0.02077545039355755	-0.11303163319826126	-0.20900732278823853	-0.17640535533428192	0.14353913068771362	0.9141126871109009	0.36198776960372925	0.002011267701163888	0.24220815300941467	0.5130466222763062	0.07266470044851303	-0.07749097049236298	0.10025372356176376	0.08269528299570084	-0.2574114501476288	0.11383500695228577	0.2787449061870575	0.3593163788318634	0.13546350598335266	0.009368110448122025	0.23988600075244904	-0.09503468126058578	-0.2614384889602661	-0.0573420450091362	-0.09623187780380249	0.09975726902484894	-0.3042367100715637	-0.5269807577133179	-0.002724260790273547	-0.028188424184918404	-0.07149352133274078	0.031036539003252983	0.166624054312706	0.21758799254894257	0.021027494221925735	0.23178818821907043	-0.144600972533226	0.13205073773860931	0.0805184468626976	-0.14203566312789917	-0.06807160377502441	0.07261563837528229	0.25230225920677185	-0.2043917328119278	0.27415645122528076	0.19917765259742737	-0.32274600863456726	-0.08301075547933578	-0.1440691500902176	-0.3003227114677429	0.7392371296882629	-0.07736556977033615	0.10001616925001144	-0.2830863893032074	0.35008883476257324	0.04802576079964638	-0.03234585002064705	0.06302372366189957	-0.07639766484498978	-0.1211843341588974	-0.11955419927835464	0.2219868302345276	-0.6894050240516663	-0.0419585220515728	0.03254605457186699	0.38841497898101807	-0.2250669300556183	-1.070089340209961	-0.016109369695186615	-0.5595215559005737	-0.7532333135604858	0.15419018268585205	-0.26498886942863464	-0.3124988079071045	0.07967156171798706	-0.00748329097405076	-0.3083361089229584	-0.11267288029193878	-0.7487173676490784	-0.1386030614376068	-0.008601183071732521	0.09137601405382156	0.07755012810230255	0.05261627212166786	-0.16439491510391235	-0.016614263877272606	0.10713209211826324	0.1916072964668274	-0.30496230721473694	0.238366961479187	-1.1113033294677734	-0.6933332681655884	0.08192741870880127	-0.30963999032974243	0.19643063843250275	0.18111568689346313	-0.3337186872959137	-0.12558846175670624	-0.11226300150156021	0.3206949234008789	-0.218206524848938	0.11167973279953003	-0.1626737266778946	0.3217771649360657	-0.1769559234380722	0.2466856688261032	0.03339439257979393	-0.07140325754880905	-0.4210880696773529	0.26065054535865784	0.09537398815155029	-0.7414016127586365	0.03789515048265457	-0.2272554636001587	-0.5066410303115845	0.3642317056655884	-0.5458387732505798	0.09972696006298065	-0.049597181379795074	-0.31666043400764465	-0.2299855798482895	0.44437673687934875	-0.09106922149658203	-0.414264976978302	0.26467469334602356	0.0403718464076519	-0.09511900693178177	0.1741654872894287	-0.02205152064561844	2.5290327072143555	-0.17103615403175354	0.2874998450279236	0.13754333555698395	-0.25043874979019165	0.0273444764316082	0.25643667578697205	-0.1709255874156952	-0.1678914874792099	0.2541738748550415	-0.03929444029927254	0.12551288306713104	-0.05906663089990616	-0.2816152274608612	0.21088439226150513	0.10940085351467133	-0.19342923164367676	0.07897548377513885	0.3488529920578003	0.010319980792701244	0.17625151574611664	-0.14653077721595764	0.09119832515716553	-0.3434581160545349	-0.3094263970851898	0.021523378789424896	0.3804589807987213	0.002753044478595257	0.024810167029500008	0.3588178753852844	-0.12824630737304688	0.42677903175354004	-0.07559797912836075	0.06251049786806107	0.18980816006660461	0.0699365884065628	-0.2557680010795593	0.026958324015140533	-0.06789615005254745	0.3816441595554352	0.2726128399372101	-0.023626690730452538	-0.03435032442212105	0.41252610087394714	-0.17439088225364685	0.06725240498781204	-0.2956753075122833	0.4010535776615143	0.21058879792690277	-0.29534265398979187	-0.06881297379732132	0.0073824310675263405	0.1427736133337021	0.18164801597595215	-0.13643494248390198	0.5051448941230774	0.6128203868865967	0.15981513261795044	0.1331675797700882	-0.14442940056324005	0.368725061416626	0.02894067019224167	0.07282848656177521	0.06060151755809784	0.09154442697763443	-0.08879731595516205	0.05568927153944969	-0.6170371770858765	-0.021952003240585327	0.06663814932107925	-0.23055399954319	0.0914917141199112	-0.0017371184658259153	-0.17894305288791656	0.2116003781557083	-0.09900432080030441	-0.20049290359020233	0.08918122202157974	-0.021025044843554497	0.06798155605792999	-0.10908224433660507	-0.03270500898361206	0.05759323388338089	0.06132669746875763	-0.0775362104177475	0.1719346046447754	-1.0044512748718262	-0.03394259139895439	-0.12135622650384903	0.02157478965818882	-0.047279782593250275	0.10750914365053177	0.1867927461862564	0.08928743749856949	-0.07949870824813843	0.06980498880147934	-0.05761732533574104	-0.15346583724021912	0.32263466715812683	-0.24319368600845337	0.03141540661454201	-0.008490284904837608	-0.1040586605668068	-0.009888272732496262	0.19116495549678802	0.2682195007801056	0.2570933401584625	-0.004093959461897612	-0.09219025820493698	0.2470104694366455	-0.2475932389497757	0.4905377924442291	-0.6841201782226562	0.02112705074250698	-0.4390498995780945	0.15567530691623688	-0.2654527425765991	-0.014602909795939922	-0.12036878615617752	0.09650301933288574	-0.08467002213001251	0.4961448311805725	0.028485503047704697	-0.17332099378108978	0.22963397204875946	0.00030847813468426466	0.0025092102587223053	0.1514243483543396	-0.01381648425012827	0.03190132975578308	0.019374411553144455	0.04727013781666756	-0.15473094582557678	-0.3150905668735504	-0.10131849348545074	-0.32681214809417725	0.07384751737117767	0.054661598056554794	-0.5142084360122681	-0.02439802512526512	0.03601037338376045	0.04934202879667282	-0.08949188143014908	-0.6641160249710083	-0.05086646229028702	-0.043781381100416183	-0.16367264091968536	0.15323232114315033	-0.2030905783176422	0.20798930525779724	-0.1670505702495575	0.12844346463680267	0.02103482186794281	-0.3891264498233795	0.022855117917060852	-0.11281551420688629	0.3015560805797577	-0.04739365726709366	-0.3014266788959503	0.02937668189406395	0.25676989555358887	0.020554881542921066	0.011553987860679626	0.11401010304689407	0.06337336450815201	-0.03254019469022751	0.029624635353684425	-0.0033086463809013367	0.14991793036460876	0.03411279246211052	-0.07458239048719406	-0.09998073428869247	-0.057606376707553864	-0.14526008069515228	1.0479968786239624	-0.08712849020957947	-0.1570194810628891	-0.020446645095944405	0.1187097579240799	0.07157179713249207	-0.039827533066272736	0.059278495609760284	0.0784347876906395	-0.2283099889755249	-0.9700803756713867	0.02470744401216507	0.457000195980072	-0.03930652141571045	-0.29832908511161804	-0.020725205540657043	-0.30816352367401123	-0.044941406697034836	-0.12326233834028244	-0.5318507552146912	0.14563316106796265	-0.2623743414878845	-0.8440689444541931	-0.48111075162887573	0.1448410600423813	-0.12673258781433105	0.034173689782619476	-0.16375063359737396	0.1636091023683548	-0.03952047601342201	-0.1494748890399933	0.006430983543395996	-0.25465360283851624	-0.038356803357601166	-0.0716087818145752	0.014369008131325245	-0.4276139438152313	0.0363607183098793	-0.3874235451221466	0.1347886472940445	-0.11619198322296143	-0.3841228485107422	-0.16856452822685242	0.2329457700252533	0.6381238698959351	-0.09890953451395035	0.1354452222585678	-0.6541170477867126	-0.02245771326124668	0.005680386442691088	0.027198195457458496	0.07656436413526535	-0.04348210245370865	0.1885407716035843	0.12603099644184113	-0.17576292157173157	0.06822453439235687	0.09405101090669632	-0.06265699863433838	-0.07388041913509369	0.06439194828271866	0.09322663396596909	-0.1785072237253189	0.22570665180683136	-0.25887832045555115	0.17133410274982452	0.09773044288158417	-0.2594869136810303	0.23958872258663177	0.012964323163032532	-0.09177450090646744	-0.027151986956596375	0.060282833874225616	-0.10540321469306946	-0.489135205745697	0.2620702385902405	0.05540924891829491	-0.0077347299084067345	0.3092682659626007	-0.15713980793952942	0.36969488859176636	-0.6195476055145264	0.10759370774030685	0.42666593194007874	0.3736719787120819	0.03740428760647774	0.12340771406888962	-0.5423290729522705	0.13137009739875793	-0.05020409822463989	-0.16712749004364014	-0.12056940793991089	-0.1426836997270584	0.18366433680057526	-0.1370452493429184	-0.121453657746315	-0.2655206024646759	0.11481097340583801	0.1595076024532318	0.0477873869240284	-0.0772993266582489	0.00806612428277731	-0.06377765536308289	0.03000355325639248	0.00268826843239367	-0.12545894086360931	0.019047001376748085	0.13726632297039032	-0.22924360632896423	0.10115587711334229	-0.0755879208445549	0.5881510376930237	-0.18678581714630127	-1.294964075088501	0.03725453466176987	0.07541811466217041	0.10077323019504547	-0.29173743724823	0.0759829729795456	-0.21976475417613983	-0.1326640099287033	-0.08775961399078369	0.008864488452672958	0.11427630484104156	-0.10055515170097351	0.012101838365197182	0.2851007282733917	-0.020058250054717064	0.0878654196858406	0.026863183826208115	-0.05237863212823868	0.25513967871665955	-0.06827468425035477	-0.6571366786956787	-0.05545353516936302	0.2845399081707001	0.19744142889976501	0.019374944269657135	-0.152653306722641	0.07948856055736542	0.2023088037967682	-0.12120179086923599	-0.032698385417461395	-0.45518964529037476	-0.019832793623209	0.017420463263988495	-0.17660561203956604	-0.5340867042541504	0.1440671682357788	0.3341138958930969	-0.23728947341442108	-0.48935583233833313	0.18585970997810364	0.039753105491399765	-0.08928623795509338	0.4543074667453766	0.04409680888056755	-0.07932911068201065	0.211358442902565	0.02985372580587864	-0.014642995782196522	-0.11283569782972336	-0.02538292668759823	-0.29982423782348633	-0.024115029722452164	0.20842698216438293	-0.49847492575645447	-0.028638744726777077	0.37861010432243347	0.11298102885484695	0.15511055290699005	-0.28116947412490845	-0.3159850537776947	-0.015910545364022255	0.14974218606948853	0.30661746859550476	0.058765240013599396	0.03611709550023079	-0.44124776124954224	-0.04688142240047455	0.018846357241272926	0.028752582147717476	-0.47536328434944153	-0.15987761318683624	-0.03581871837377548	-0.18846668303012848	-0.5859796404838562	-0.27404212951660156	-0.2324821650981903	-0.016159525141119957	0.08521498739719391	-0.060527339577674866	-0.025173773989081383	-0.15218792855739594	-0.1210256814956665	-0.18971075117588043	-0.0970245897769928	0.011544361710548401	0.1818983554840088	0.05479045957326889	0.17231333255767822	-0.12137462198734283	0.07406052947044373	0.17351455986499786	0.35735800862312317	0.08437134325504303	-0.03610328212380409	0.247880756855011	-0.12046419829130173	-0.03228234499692917	0.21801993250846863	-0.06259610503911972	-0.1617400199174881	-0.21446196734905243	0.009657268412411213	0.028505593538284302	0.1680632382631302	0.21883541345596313	-0.06191747635602951	0.128289595246315	-0.4550977349281311	0.15635360777378082	0.018038222566246986	0.3572112023830414	-0.23483647406101227	-0.00016344395407941192	-0.2867808938026428	-0.04304851219058037	-0.3895925283432007	-0.08441375941038132	-0.14898928999900818	0.14898961782455444	-0.37432658672332764	0.01806456409394741	
orso	0.4067835807800293	0.014203639701008797	0.0008675072458572686	0.03518979623913765	-0.038131050765514374	-0.45632627606391907	-0.37873733043670654	0.10734435170888901	-0.17492929100990295	-0.028487732633948326	0.09075970202684402	-0.16303379833698273	-0.008225924335420132	0.06834426522254944	-0.14253830909729004	-0.2522304356098175	-0.19653551280498505	0.06596885621547699	0.10815338790416718	-0.1494683176279068	-0.20967499911785126	-0.10085140913724899	-0.0319114550948143	0.07392306625843048	-0.057401932775974274	0.6270161271095276	-0.16530834138393402	-0.23219381272792816	0.1837223470211029	0.13856922090053558	-0.043417274951934814	-0.08862863481044769	-0.10615096986293793	0.31748685240745544	-0.10252200812101364	0.11496478319168091	-0.14048327505588531	0.0651119127869606	-0.28173425793647766	0.05538516119122505	-0.3101575970649719	-0.2443849891424179	-0.0755721777677536	0.2820906341075897	0.30656278133392334	0.19473902881145477	-0.2180771678686142	-1.1535392999649048	-0.1161363497376442	-0.28149276971817017	0.018359040841460228	-0.1658405065536499	-0.2560693919658661	-0.5887258052825928	-0.10405822843313217	-0.1333538442850113	-0.01253919955343008	0.702018141746521	0.19012589752674103	-0.1525130420923233	0.034529201686382294	-0.310945063829422	-0.04944000393152237	0.0027188064996153116	0.07255803793668747	0.281515896320343	0.046542175114154816	-0.19634181261062622	-0.04151363670825958	0.03652099519968033	-0.2210884690284729	-0.09059314429759979	0.16057619452476501	-0.18742559850215912	-0.1150229200720787	0.1653755158185959	0.5180225968360901	-0.3241068422794342	0.04845874011516571	0.15617245435714722	-0.12910951673984528	0.024385102093219757	-0.2101191282272339	0.08555800467729568	-0.3850003778934479	-0.11854536086320877	0.066677026450634	0.18899068236351013	-0.02376735396683216	0.19052906334400177	0.10181337594985962	0.04501637443900108	0.15116780996322632	0.16112583875656128	0.0652737244963646	0.14130699634552002	0.2019139528274536	0.33216339349746704	0.042885672301054	0.02212422527372837	-0.08419521152973175	-0.10760058462619781	0.007833527401089668	-0.11822954565286636	-0.5511735677719116	0.1528576910495758	-0.4426693022251129	-0.1252618134021759	-0.1343843787908554	0.1092972680926323	-0.12956620752811432	0.09125823527574539	-0.2678000330924988	-0.22033452987670898	0.04947521910071373	0.04025597497820854	-0.243008092045784	0.05089740455150604	0.06931635737419128	0.1544674187898636	-0.15732166171073914	0.08246948570013046	0.48612257838249207	-0.2591922879219055	-0.03314082324504852	-0.15256661176681519	0.04055017977952957	0.1714957356452942	0.2995584309101105	0.024674147367477417	0.1554308831691742	-0.06844225525856018	0.08203307539224625	-0.06296977400779724	-0.005100483074784279	0.19041192531585693	-0.07002541422843933	0.08516737073659897	-0.20287646353244781	0.07477134466171265	0.27874019742012024	-0.5315506458282471	0.1054176539182663	-0.006862231995910406	0.07662184536457062	0.039388012140989304	-0.1835576593875885	0.054324910044670105	-0.053060196340084076	-0.013872657902538776	-0.06970137357711792	-0.22763024270534515	-0.9146307110786438	-0.18028327822685242	0.3309406340122223	-0.21687734127044678	-0.04400566592812538	-0.06426575779914856	0.24328190088272095	0.05802661180496216	0.011192956939339638	0.23636873066425323	-0.01566392369568348	-0.09328735619783401	-0.00785118155181408	0.08967749029397964	0.19191619753837585	0.09719578176736832	0.13384312391281128	-0.10376475006341934	-0.12358342856168747	-0.06484121829271317	-0.49576908349990845	-0.1229325607419014	0.1117386743426323	-0.006285465322434902	-0.54517662525177	0.535216748714447	-0.003990839701145887	-0.07951158285140991	-0.14145003259181976	0.17531266808509827	0.1441432386636734	-0.38517940044403076	-0.09844070672988892	-0.2195816934108734	-0.29033705592155457	-0.17736470699310303	0.10202531516551971	-0.1258021593093872	0.04205257073044777	-0.0357305109500885	-0.25293993949890137	-0.045235034078359604	-0.24629493057727814	0.22153985500335693	0.006611551623791456	0.5338021516799927	-0.07079189270734787	-0.11255820840597153	0.5091224908828735	-0.09245803207159042	-0.043249741196632385	-0.20847056806087494	-0.10695338249206543	0.18665064871311188	-0.4132962226867676	0.0658944696187973	-0.10863415896892548	0.009087301790714264	0.04769766703248024	-0.1237034872174263	-0.425333172082901	0.012547850608825684	0.1583406627178192	0.03912259638309479	-0.08282902091741562	-0.6492326855659485	0.08702613413333893	0.013604032807052135	-0.0897945985198021	-0.10924568772315979	-0.07075763493776321	0.20119604468345642	0.042862668633461	-0.21895551681518555	0.032172590494155884	-0.09829717874526978	-0.018318070098757744	-0.13900060951709747	0.475032776594162	-0.01649007573723793	0.10460514575242996	0.07824241369962692	-0.17569118738174438	-0.046913739293813705	-0.36222538352012634	0.1413164585828781	-0.08028015494346619	0.7507874965667725	-0.496017187833786	-0.052116844803094864	0.13693802058696747	-0.27844130992889404	-0.39061540365219116	0.33676740527153015	-0.09157659113407135	0.3207875192165375	0.20986458659172058	-0.0845225527882576	-0.33731144666671753	0.019424811005592346	0.2732836604118347	-0.09871363639831543	-0.2875787913799286	-0.06247090920805931	0.0735098123550415	-0.10784144699573517	0.16534431278705597	-0.08903426676988602	0.001616647350601852	-0.13079704344272614	-0.2413026988506317	0.24403567612171173	-0.043484654277563095	0.001954800682142377	0.15814059972763062	0.6254889369010925	0.1293325126171112	-0.4375647008419037	-0.12610994279384613	0.047626495361328125	0.0021761110983788967	0.10869995504617691	0.015475790947675705	-0.102292999625206	-0.4855653643608093	-0.01785019040107727	0.46520259976387024	0.1617906242609024	0.06802330166101456	-0.51861971616745	-0.07792456448078156	-0.12856438755989075	-0.061371978372335434	0.029566248878836632	-0.18556281924247742	0.0944792851805687	-0.07557682693004608	-0.15348711609840393	-0.10051172971725464	-0.3069341778755188	2.028449535369873	0.032117582857608795	0.10028933733701706	-0.18899595737457275	-0.04948416352272034	-16.153701782226562	-0.8106639385223389	-0.1620786488056183	0.10664921253919601	-0.05497328191995621	0.2731497287750244	0.27722740173339844	-0.2581130564212799	0.4357636272907257	0.08217637985944748	-0.4032291769981384	1.0325597524642944	0.14014878869056702	-0.2660938501358032	-0.1610061079263687	0.06936515867710114	-0.21670573949813843	0.014660283923149109	-0.1405637264251709	0.06441555172204971	-0.04809895530343056	0.8516327738761902	0.20153167843818665	-0.457660049200058	0.012576212175190449	-0.2312827855348587	-0.1135667935013771	0.14202116429805756	0.07839228957891464	-0.1651303619146347	0.08987896144390106	-0.19951188564300537	2.1223628520965576	-0.18251420557498932	0.027457190677523613	0.180996835231781	0.0421968549489975	-0.05755981430411339	0.21021154522895813	-0.1237550601363182	0.14467552304267883	0.1221676915884018	0.07155419886112213	0.018222160637378693	-0.16696935892105103	-0.05667173117399216	-0.13790838420391083	-0.07044761627912521	-0.23375025391578674	-0.09059766680002213	-0.02001914381980896	0.042299218475818634	0.2994817793369293	-0.10403691232204437	0.12845265865325928	-0.06229843199253082	-0.17778795957565308	0.11705873161554337	-0.10856541246175766	0.029196634888648987	0.1171717569231987	0.05638864263892174	0.16120897233486176	-0.2659890651702881	0.2517487704753876	0.033588144928216934	-0.10708068311214447	0.09878592193126678	-0.03151584044098854	0.03511573374271393	0.12678968906402588	0.12192504107952118	-0.0816657617688179	0.17253533005714417	0.18107321858406067	0.0883115828037262	-0.3129000961780548	-0.10570953041315079	-0.01984824240207672	-1.0934745073318481	-0.15982982516288757	0.01649416610598564	0.08694777637720108	0.07046081870794296	0.200462207198143	0.15550509095191956	-0.1047050729393959	0.13428142666816711	0.6095003485679626	20.064960479736328	-0.011241866275668144	0.07617288082838058	-0.1568484902381897	-0.2669970691204071	-0.1027875617146492	-0.23491337895393372	0.06161723658442497	0.026299402117729187	0.04249357804656029	0.04321124777197838	-0.2575262486934662	-0.12648673355579376	-0.06570606678724289	-0.1899036318063736	-0.29602065682411194	0.08372697979211807	0.1806555837392807	1.3594684600830078	0.041262295097112656	-0.051745716482400894	0.21169722080230713	0.35825473070144653	0.014801247976720333	-0.15976132452487946	-0.09205805510282516	0.01121822465211153	-0.14655274152755737	0.15005797147750854	0.03762699291110039	0.051058948040008545	0.1985519975423813	-0.20646652579307556	0.26620468497276306	-0.28093862533569336	0.1517832726240158	-0.9787818789482117	0.09352613985538483	-0.14357802271842957	0.21788348257541656	0.006312138866633177	-1.4969415664672852	-0.25371628999710083	-0.2680782973766327	0.1020033210515976	0.09388549625873566	0.08159510791301727	-0.22933508455753326	0.04988650232553482	-0.0581459179520607	0.3452879786491394	-0.1785304844379425	0.08859123289585114	0.031644340604543686	0.2391023337841034	-0.0668119564652443	0.021284453570842743	0.19758759438991547	0.14240676164627075	-0.1737186759710312	-0.12441020458936691	1.2729421854019165	-0.026902571320533752	-0.6438930630683899	0.012798195704817772	-0.40594592690467834	0.3624511659145355	-0.346964567899704	-0.3084273338317871	-0.16833613812923431	-0.6722636818885803	-0.03883691877126694	0.11507350206375122	-0.13466276228427887	-0.12892085313796997	-0.10298669338226318	0.1150592714548111	0.005549182184040546	-0.328083872795105	0.17488443851470947	-0.2532164454460144	0.07996825128793716	0.15953592956066132	-0.22579756379127502	0.1473073810338974	0.0012629148550331593	-0.10992664098739624	0.06485205888748169	0.09112171083688736	0.012444830499589443	-0.06521062552928925	0.0025625242851674557	-0.19419395923614502	-0.4141201674938202	-0.17048531770706177	-0.20515349507331848	-0.07468504458665848	-0.06517665088176727	-0.16296154260635376	0.296252578496933	-0.6369251012802124	-0.04823035001754761	-0.14405986666679382	-0.10529603809118271	0.6019641757011414	0.5888395309448242	0.10280124843120575	0.2202042192220688	0.020903268828988075	0.08653827756643295	0.08908307552337646	-0.0034070892725139856	-0.2961251139640808	-0.022633973509073257	-0.03721870109438896	0.12074463069438934	0.1359608918428421	0.08184659481048584	0.3504757285118103	-0.13227783143520355	0.12946867942810059	0.3310715854167938	0.05082397162914276	-0.20966294407844543	0.017901046201586723	-0.09476946294307709	-0.06650410592556	0.3262368142604828	-0.06502088904380798	0.05838390439748764	0.1397738754749298	0.6620790362358093	-0.5486566424369812	-0.018329890444874763	-0.25828585028648376	-0.18500745296478271	-0.2151486575603485	-0.2195078432559967	0.007607887499034405	0.2832667827606201	0.7326946258544922	0.23099197447299957	-0.012293251231312752	0.14489580690860748	-0.09091398864984512	0.5532423257827759	0.36423981189727783	-0.03656196966767311	-0.19513298571109772	0.11844679713249207	-0.21376244723796844	0.06707916408777237	-0.2263762652873993	0.16811487078666687	-0.07266202569007874	0.17400208115577698	-0.04093428701162338	0.22765128314495087	-0.02943473681807518	-0.035248104482889175	-0.17393116652965546	-0.08909866958856583	-0.42505893111228943	-0.3589458167552948	-0.10791461914777756	0.062283724546432495	-0.17700813710689545	-0.3885706961154938	-0.7965212464332581	0.09565992653369904	0.5188164710998535	-0.17780104279518127	0.13087916374206543	0.018877876922488213	0.26737940311431885	-0.18166887760162354	0.06981111317873001	-0.44220995903015137	-0.08546401560306549	-0.36055970191955566	-0.15816791355609894	0.3103030025959015	0.23477508127689362	-0.2394561618566513	0.18426156044006348	0.0286337211728096	0.04331973195075989	0.09370479732751846	0.15397970378398895	-0.1678222119808197	0.1215665265917778	-1.6185884475708008	0.4105479121208191	-0.09815174341201782	0.41107773780822754	0.14801737666130066	0.0985693708062172	0.08117587119340897	0.11086072027683258	-0.03419721499085426	0.24452637135982513	-0.138078510761261	-0.09023268520832062	-0.1668393909931183	0.053324710577726364	0.3365058898925781	0.13169389963150024	0.029034100472927094	0.041103389114141464	-0.11776188760995865	-0.013532493263483047	-0.004906202666461468	-0.25796493887901306	0.0742158442735672	0.3850301206111908	-0.0709327682852745	-0.5526058077812195	-0.03663282468914986	-0.0738915503025055	-0.014020060189068317	0.33658549189567566	-0.2434789389371872	0.0021831514313817024	-0.08596227318048477	-0.4387606382369995	0.2247299700975418	0.13681966066360474	-0.0640004426240921	0.04802630841732025	0.08673860132694244	2.38016939163208	0.4606958031654358	-0.33987322449684143	-0.23619526624679565	-0.08064810186624527	-0.186635360121727	0.022683462128043175	-0.13623571395874023	-0.35475513339042664	0.04386676102876663	0.09620736539363861	-0.28341299295425415	0.2520153522491455	-0.030457817018032074	0.07528399676084518	0.03093397058546543	-0.010836861096322536	0.12658944725990295	0.08663918823003769	-0.7852895259857178	0.13936127722263336	0.13653552532196045	0.21272562444210052	0.08102712780237198	0.28990426659584045	-0.1896740049123764	0.08155492693185806	-0.26588505506515503	-0.06150849908590317	0.12071362882852554	-0.13775064051151276	-0.026290681213140488	0.027864310890436172	-0.03688402846455574	0.06361123919487	0.17589086294174194	-0.21860037744045258	0.34382373094558716	0.0754106417298317	0.08741699904203415	0.09154149889945984	0.025004005059599876	-0.1910518854856491	-0.12457502633333206	0.057740844786167145	0.043675582855939865	-0.34605222940444946	0.02790764719247818	0.019166385754942894	0.05867072939872742	0.011407952755689621	0.11242584884166718	-0.180908203125	-0.4516039192676544	0.046720873564481735	0.83421790599823	0.2878745198249817	0.16138125956058502	-0.0904289036989212	0.13334707915782928	0.5018464922904968	-0.07575323432683945	0.016866212710738182	0.14892618358135223	0.08259374648332596	-0.15913040935993195	-0.020916752517223358	-0.5016239285469055	-0.159519225358963	0.053700853139162064	-0.06664939969778061	-0.3283233046531677	-0.1701713502407074	0.1911429613828659	-0.1862545907497406	-0.11214106529951096	0.050273697823286057	-0.1958431601524353	-0.14495494961738586	-0.04173121973872185	0.2342308759689331	0.12879081070423126	0.012716447003185749	-0.1290554404258728	0.1911628693342209	0.02512712962925434	0.48876672983169556	0.08107677102088928	-0.05909864604473114	0.048980824649333954	0.3961704969406128	-0.30517250299453735	0.1602829396724701	-0.3713906407356262	0.138292595744133	0.028540154919028282	-0.22243396937847137	0.1380205601453781	-0.34629708528518677	-0.14371782541275024	-0.010050107724964619	-0.049292340874671936	-0.0695963054895401	0.34753450751304626	0.07356481999158859	0.10920290648937225	-0.37880396842956543	0.02243020571768284	-0.2824549674987793	-0.40151679515838623	-0.1625673472881317	0.287724107503891	-0.12597882747650146	0.11496859788894653	-0.2637838125228882	0.07965768128633499	-0.08236535638570786	-0.17327375710010529	-0.06702519953250885	-0.04281160607933998	0.1498759239912033	0.33978262543678284	0.011820074170827866	-0.14766162633895874	0.1897907704114914	-0.028029773384332657	0.04795277863740921	-0.02387787401676178	-0.3036775290966034	-0.24115687608718872	-0.06696002185344696	-0.0761377140879631	0.07022114098072052	-0.2035423070192337	-0.06118560954928398	-0.15244494378566742	-0.05479106307029724	0.1569063663482666	-0.20409387350082397	0.07394193857908249	-0.24636699259281158	0.42243051528930664	-0.136417418718338	-0.343705952167511	0.06437572091817856	0.03533744439482689	-0.18820743262767792	0.042152177542448044	-0.17066191136837006	-0.06231383979320526	-0.08825883269309998	0.039625320583581924	-0.03149671107530594	-0.06768428534269333	0.2102448046207428	0.06339961290359497	0.07632923126220703	-0.16300757229328156	-0.11533631384372711	0.7107999324798584	-0.13910044729709625	-0.182931587100029	-0.006939547136425972	0.13630245625972748	-0.08171772211790085	0.09241063892841339	0.0061967032961547375	0.02779396064579487	0.1014614850282669	0.01599365845322609	0.12044160813093185	0.169483944773674	0.03181372582912445	-0.1412823647260666	1.251267671585083	-0.37831008434295654	-0.2516583800315857	0.23067432641983032	-0.2793905436992645	-0.0622682124376297	-0.23373836278915405	0.12825386226177216	0.045543309301137924	-0.19381004571914673	-0.51225346326828	-0.07822728902101517	0.03059821017086506	0.09685535728931427	-0.030764207243919373	-0.09945318102836609	0.2559385299682617	-0.10561809688806534	-0.026740415021777153	-0.052036102861166	0.18592840433120728	-0.21383298933506012	-0.5932751893997192	0.09941742569208145	0.0754956603050232	-0.07047905772924423	0.21445827186107635	-0.20989176630973816	-0.21997886896133423	-0.3465343117713928	0.227167010307312	-0.017953865230083466	-0.01621452160179615	0.03969867154955864	-0.24905142188072205	-0.14421354234218597	-0.08633152395486832	0.09532656520605087	-0.4896366596221924	-0.083240807056427	-0.3475395739078522	0.5048139691352844	0.17092765867710114	0.2728921175003052	0.20602551102638245	-0.06339874118566513	0.05709503963589668	-0.7320312261581421	-0.3341114819049835	-0.5773014426231384	-0.07222826033830643	0.030628154054284096	-0.9266138076782227	0.25723811984062195	-0.13777722418308258	-0.10583477467298508	0.031422942876815796	0.1113971620798111	-0.21724355220794678	0.01866140030324459	0.08060796558856964	-0.14285686612129211	0.15463116765022278	0.08490630239248276	-0.11749014258384705	0.3145619332790375	0.0882205069065094	-0.013822400011122227	0.3281712830066681	-0.002772410400211811	-0.1936437338590622	-0.10690527409315109	0.2113950550556183	0.19423744082450867	-0.034922804683446884	0.20149222016334534	0.12138733267784119	0.1449604481458664	0.12129449099302292	-0.26832085847854614	-0.5967422723770142	0.020842131227254868	0.2196558117866516	0.2880276143550873	0.08725180476903915	-0.017413394525647163	0.12137072533369064	0.1363256722688675	0.1713729351758957	0.11942445486783981	-0.1879686713218689	0.18459565937519073	0.03306341916322708	0.24392259120941162	0.009206977672874928	0.2041500359773636	-0.24162526428699493	0.1331394612789154	0.16136717796325684	-0.04720334708690643	0.027450591325759888	0.07284840941429138	0.0007303566671907902	-0.06972446292638779	0.15265198051929474	-0.08297301083803177	0.13428178429603577	0.09563640505075455	-0.22493572533130646	-0.31759142875671387	0.17241382598876953	-0.47441554069519043	0.020534154027700424	-0.884526252746582	0.05993418022990227	-0.09748239815235138	-0.04453620687127113	-0.23525363206863403	0.04302869737148285	-0.1854131519794464	-0.09822020679712296	-0.24275225400924683	0.06248104199767113	0.0016667054733261466	0.03907084837555885	-0.15021565556526184	-0.027602478861808777	-0.03784239664673805	0.05355190485715866	-0.1799875795841217	0.2220802754163742	0.020881563425064087	-0.17446765303611755	-0.7803362607955933	-0.16594010591506958	0.1812083125114441	0.07715398818254471	0.00088833476183936	-0.5793794393539429	0.14676187932491302	0.12590458989143372	0.06400825828313828	0.06063889339566231	0.06489139050245285	0.05727953091263771	0.04492523521184921	-0.12765894830226898	0.03254619240760803	0.4338483512401581	-0.02813560515642166	-0.2707092761993408	-0.2847053110599518	-0.033619098365306854	0.20462141931056976	-0.2273552566766739	0.1361887902021408	0.05333758890628815	-0.041250940412282944	0.20806559920310974	-0.12947173416614532	-0.08217803388834	0.08027319610118866	-0.15816599130630493	0.029176762327551842	0.08305615931749344	0.02921995520591736	-0.8048599362373352	0.2911001145839691	0.03951204568147659	0.17241068184375763	-0.11172273010015488	-0.03512580320239067	-0.3254348635673523	-0.0261995792388916	-0.003428798634558916	0.02242269366979599	-0.239874929189682	-0.016686199232935905	-0.335824191570282	0.04568878188729286	-0.22201508283615112	-0.042748305946588516	-0.015259401872754097	0.42696207761764526	-0.017433812841773033	-0.02935062348842621	0.217777818441391	-0.23132537305355072	0.12781137228012085	-0.014797867275774479	-0.49993300437927246	0.012977002188563347	0.12062352150678635	-0.2128198891878128	-0.10271663963794708	-0.5189025402069092	0.08045875281095505	-0.06876231729984283	-0.2923588156700134	-0.1694931983947754	-0.027064701542258263	-0.030869275331497192	3.362137795193121e-05	0.2638225853443146	0.02211110107600689	0.011321714147925377	0.42495661973953247	-0.02293996326625347	0.019164057448506355	0.2745033800601959	0.25600630044937134	-0.03415500000119209	-0.049493078142404556	-0.006590731907635927	-0.17187388241291046	0.006234284490346909	0.10451357811689377	-0.2748408913612366	-0.05961817875504494	-0.04508794844150543	-0.13470642268657684	-0.7650121450424194	-0.11371937394142151	0.07281079143285751	-0.343595951795578	0.08162000775337219	-0.13659675419330597	0.08915883302688599	-0.27315157651901245	0.13760113716125488	-0.10422210395336151	-0.017778240144252777	0.04087468981742859	-0.07636640965938568	
pennello	-0.21665261685848236	-0.11413335055112839	0.1897149533033371	-0.10625685751438141	0.1065746545791626	-0.23476679623126984	-0.08989695459604263	0.016099099069833755	-0.03343705087900162	0.010607803240418434	0.20114730298519135	0.2459671050310135	0.009344588033854961	-0.16966040432453156	0.07017917186021805	-0.16757693886756897	-0.1682000607252121	0.2536080777645111	0.34769514203071594	-0.44101187586784363	-0.08285480737686157	-0.158553346991539	0.12485997378826141	-0.12513265013694763	-0.15320496261119843	0.3721640706062317	-0.04815542325377464	-0.20553432404994965	-0.008219605311751366	-0.257272869348526	0.053015612065792084	0.05822945758700371	0.3208589553833008	0.22575940191745758	-0.20976558327674866	0.16273625195026398	0.03685419261455536	0.06239069253206253	0.43292248249053955	-0.02185969054698944	0.06848295778036118	0.2570154368877411	-0.05996574088931084	-0.10495243221521378	0.32942384481430054	-0.10749206691980362	-0.3178255558013916	-1.1220297813415527	-0.3176300525665283	-0.18212886154651642	-0.06443465501070023	-0.09416806697845459	0.2308531403541565	0.09845387190580368	-0.09546355903148651	-0.22482135891914368	-0.5291255116462708	0.7013566493988037	0.12503378093242645	-0.251600444316864	0.07142098248004913	-0.22905583679676056	0.46687448024749756	0.010526420548558235	0.13062481582164764	0.1837908923625946	0.01017095148563385	-0.06028974428772926	0.8194421529769897	-1.124648928642273	-0.0020060923416167498	0.03478098288178444	0.38195502758026123	-0.0986190214753151	0.023424463346600533	-0.13035960495471954	0.5609569549560547	-0.17538300156593323	0.008938288316130638	-0.003142787842079997	-0.06551168859004974	0.03548973426222801	-0.03226129710674286	-0.040164269506931305	-0.2010587751865387	-0.49044179916381836	0.13904020190238953	0.10821478068828583	0.007007187698036432	0.523925244808197	0.32542356848716736	0.14371970295906067	0.016371244564652443	0.1089269146323204	0.024407939985394478	0.26609107851982117	0.17867201566696167	0.1310172826051712	-0.052403151988983154	0.0051187011413276196	0.03945876657962799	0.2422647625207901	0.1632174402475357	-0.05085952579975128	0.4517219662666321	-0.046745412051677704	-0.16715088486671448	-0.2678110599517822	0.1255626082420349	0.6339196562767029	-0.06889994442462921	-0.08800508081912994	0.09805164486169815	-0.1421666145324707	0.09654411673545837	-0.007260099519044161	0.2609173655509949	-0.10406074672937393	0.013362071476876736	-0.023868024349212646	-0.4166739284992218	0.37806734442710876	0.0923021212220192	-0.05111316218972206	-0.009450938552618027	-0.11746826022863388	-0.007603677920997143	0.26696455478668213	0.1034957766532898	-0.055410247296094894	0.1031382605433464	0.32852616906166077	0.022413624450564384	0.0919845923781395	-0.0668029934167862	0.1976536512374878	-0.20066283643245697	0.04406870901584625	-0.06722676008939743	0.011775398626923561	-0.08050777018070221	-0.20709483325481415	-0.4149540662765503	0.11212509125471115	-0.11839302629232407	-0.2862699627876282	-0.2333848923444748	0.057803675532341	-0.02403438463807106	0.37744665145874023	0.061726320534944534	0.8587004542350769	-0.6307772397994995	-0.016604768112301826	0.14077210426330566	-0.37370336055755615	-0.11759952455759048	0.14422987401485443	0.38802793622016907	-0.20307768881320953	0.045090705156326294	0.29058143496513367	-0.01976414956152439	0.006641113664954901	-0.03939582780003548	-0.1298847794532776	0.10905855894088745	-0.02269878424704075	0.18331344425678253	-0.22327037155628204	-0.20450367033481598	-0.010408987291157246	-0.14975450932979584	-0.03209101781249046	-0.06326431781053543	0.12686152756214142	-0.27520307898521423	-0.21715374290943146	-0.1629544049501419	-0.28010207414627075	-0.2150283306837082	0.07460787147283554	-0.002220283029600978	0.17822924256324768	0.014060386456549168	-0.15305323898792267	-0.28051674365997314	-0.13953539729118347	0.016563378274440765	-0.09895668923854828	0.1081174910068512	-0.0727696567773819	0.20522625744342804	0.3238292336463928	-0.0648469626903534	0.036008063703775406	0.1825226992368698	-0.16372692584991455	-0.17926590144634247	-0.2570193409919739	0.4795423448085785	0.040165770798921585	0.3342418074607849	-0.5329617857933044	-0.07092448323965073	0.0780126303434372	-0.6816965937614441	-0.03855885937809944	-0.0835065245628357	-0.055351220071315765	0.3581749200820923	-0.18928976356983185	-0.10442105680704117	0.07051360607147217	0.1393027901649475	0.23751603066921234	-0.04760320112109184	-0.014497587457299232	0.029172027483582497	0.27024781703948975	-0.2418014258146286	-0.3039208650588989	0.10047329217195511	0.07958627492189407	-0.13062283396720886	-0.3250254690647125	-0.17592954635620117	0.08960472792387009	0.23110763728618622	-0.24843408167362213	0.06711313873529434	0.037861984223127365	0.2384302169084549	-0.11598435789346695	-0.4293672442436218	-0.09388817101716995	-0.11293821781873703	0.11759194731712341	0.10761422663927078	0.1847924143075943	0.032870326191186905	0.09035947918891907	-0.05205649137496948	0.07423870265483856	-0.31614333391189575	-0.1326381266117096	-0.2222701907157898	-0.2304815798997879	0.15325863659381866	-0.12033051252365112	-0.171589657664299	0.2589070796966553	0.2535514235496521	-0.2525778114795685	0.15419812500476837	0.055972788482904434	0.15331120789051056	-0.1085440143942833	-0.2350803166627884	0.22440680861473083	-0.2382887303829193	0.06290002912282944	-0.13279396295547485	-0.3278450667858124	-0.10081183910369873	-0.09297533333301544	0.09941466897726059	0.26734116673469543	0.022673748433589935	-0.3438791334629059	-0.036333292722702026	0.09097734838724136	-0.07022672891616821	-0.008023248985409737	-0.03622133284807205	0.3408980071544647	-0.09344112873077393	-0.05972400680184364	0.1318475306034088	-0.5152766108512878	0.24251717329025269	-0.42168861627578735	0.013917827978730202	-0.1688833385705948	-0.06668587028980255	0.2853952646255493	-0.2160487025976181	0.09897900372743607	-0.07896013557910919	-0.054518185555934906	0.23377229273319244	-0.26479947566986084	1.8132718801498413	0.14029891788959503	-0.5766034722328186	-0.3146761953830719	-0.2356507033109665	-15.325347900390625	0.0075813657604157925	-0.12376412749290466	0.1300896853208542	0.49640780687332153	0.1234964057803154	0.17582765221595764	0.22306720912456512	-0.16196076571941376	0.2448926568031311	-0.2005591243505478	0.6788831949234009	-0.6606525182723999	0.02536826767027378	0.31652382016181946	0.06058438494801521	-0.05530495569109917	0.01883096992969513	-0.14546488225460052	0.5475596785545349	0.19293510913848877	0.2956862449645996	0.19921594858169556	-0.5305291414260864	0.20573604106903076	-0.13915005326271057	-0.10780765116214752	0.3722347319126129	0.078000508248806	0.03210011497139931	-0.005124903749674559	0.39493370056152344	1.6830703020095825	0.052745260298252106	-0.11267921328544617	0.04664897173643112	0.15816432237625122	0.6446765661239624	0.20476903021335602	-0.3472643792629242	0.03220463544130325	-0.007053525652736425	0.1413828730583191	0.041885603219270706	-0.19371037185192108	0.14237503707408905	0.3298914134502411	0.13835473358631134	-0.579672634601593	-0.28941887617111206	-0.41451817750930786	0.042115624994039536	-0.007687794044613838	0.09271952509880066	-0.09572432190179825	0.06661636382341385	-0.021602196618914604	-0.024894721806049347	-0.05329809710383415	-0.0612698569893837	0.08276312798261642	0.0586104691028595	-0.018067361786961555	0.1305117905139923	0.16525055468082428	0.06137322261929512	-0.04816329479217529	0.2391168624162674	0.07957492768764496	-0.23085860908031464	-0.03782692179083824	0.13546112179756165	-0.14145174622535706	0.10906370729207993	0.1410268098115921	0.047968506813049316	0.5980406403541565	0.2158951461315155	0.044202812016010284	-1.662689208984375	0.18459130823612213	0.09154108911752701	0.06341855227947235	-0.15728414058685303	0.10939808934926987	9.120170579990372e-05	-0.15555299818515778	-0.0035440134815871716	-0.22060354053974152	20.76215171813965	-0.30296558141708374	0.18258750438690186	-0.3465474545955658	0.18909049034118652	-0.13367754220962524	0.0667419582605362	0.21201267838478088	-0.09364103525876999	0.0386216826736927	0.18290914595127106	-0.08423575013875961	-0.17449595034122467	0.06320632994174957	-0.054702941328287125	-0.10680821537971497	0.11680144816637039	0.15273350477218628	3.249368906021118	-0.08124278485774994	-0.10398608446121216	0.055310267955064774	-0.0679607093334198	-0.17909908294677734	-0.1563762128353119	-0.06936214864253998	-0.013811440207064152	-0.010438316501677036	0.1618226170539856	-0.12289249897003174	0.14441877603530884	0.02636127546429634	-0.37937554717063904	-0.5310466289520264	-0.14327472448349	-0.12320016324520111	0.055726151913404465	-0.0676622986793518	0.011250191368162632	-0.03464513272047043	-0.06347087770700455	-1.3188083171844482	-0.2568694055080414	-0.09846259653568268	-0.07758071273565292	0.0357709601521492	-0.014977717772126198	-0.23982571065425873	0.24930155277252197	-0.05941207706928253	0.059585731476545334	0.0783974900841713	-0.04231448471546173	-0.07951023429632187	0.33004945516586304	-0.0016686446033418179	0.030388465151190758	0.13084375858306885	-0.12796013057231903	-0.252331018447876	0.27451038360595703	0.3512786030769348	-0.25276267528533936	0.31776008009910583	0.18317373096942902	-0.13148899376392365	0.32608407735824585	-0.336880087852478	-0.09886551648378372	-0.07312791049480438	0.014900404959917068	-0.006464380770921707	-0.010066220536828041	0.19863909482955933	-0.20441655814647675	-0.03751583769917488	0.22537750005722046	0.11651036143302917	-0.416981965303421	-0.14512136578559875	-0.1166858971118927	-0.004091806244105101	0.08595550060272217	-0.21371881663799286	0.046523045748472214	0.10854580253362656	-0.3959130048751831	0.14020390808582306	-0.019418099895119667	-0.18569350242614746	0.04549874737858772	0.04557844623923302	-0.06382732838392258	-0.14960137009620667	0.009826591238379478	0.02607075683772564	0.09669150412082672	-0.022823061794042587	-0.06630928069353104	0.3166050612926483	-0.5703871250152588	-0.22143970429897308	-0.1260199397802353	-0.31208840012550354	-0.09336722642183304	-0.3340202867984772	0.36281687021255493	0.16149672865867615	-0.11594388633966446	0.10735870897769928	0.17898979783058167	0.03757612034678459	0.20155848562717438	-0.07764548063278198	0.027415700256824493	-0.04076824709773064	0.4402797222137451	0.2099059671163559	0.3531182110309601	0.058978430926799774	0.00928330048918724	0.2239236831665039	0.09982871264219284	-0.22218146920204163	-0.1185419112443924	0.08142783492803574	-0.03133535012602806	0.2514794170856476	-0.5079785585403442	-0.08650217205286026	0.19060219824314117	0.6109419465065002	-0.19921134412288666	-0.0034323290456086397	0.24650157988071442	-0.09453127533197403	0.3528641164302826	-0.12343695014715195	-0.21176661550998688	-0.05608920380473137	-0.3373536765575409	-0.15709416568279266	0.05769801139831543	0.3605145215988159	-0.2373189777135849	-0.1950094997882843	0.21770577132701874	-0.30715903639793396	-0.3053912818431854	0.041462257504463196	-0.3030659854412079	0.20901863276958466	-0.34695136547088623	0.12955009937286377	-0.13888312876224518	-0.31373143196105957	-0.0908968448638916	0.008329938165843487	0.39971116185188293	0.08454201370477676	0.09423361718654633	-0.08974574506282806	0.3449729382991791	-0.7995332479476929	-0.0012549455277621746	0.0698031559586525	-0.3108440041542053	-0.8452295660972595	-0.9736368060112	0.12097852677106857	-0.05661848187446594	-0.39680105447769165	0.07561914622783661	-0.21413080394268036	-0.2914440929889679	-0.0606725737452507	0.020872941240668297	-0.26970362663269043	-0.1940281093120575	-0.8919639587402344	-0.16975311934947968	0.07133545726537704	0.3625721335411072	0.1304897665977478	-0.1733720898628235	-0.31789448857307434	-0.19175022840499878	0.04535791277885437	0.12652339041233063	-0.04552846401929855	-0.13901418447494507	-0.9230735301971436	-0.19255787134170532	-0.06744902580976486	0.30584946274757385	-0.10833625495433807	0.5802606344223022	-0.4291054606437683	-0.030835561454296112	-0.16275429725646973	0.024401333183050156	-0.10201507806777954	-0.021676037460565567	-0.1413925141096115	0.03051953949034214	-0.07086873799562454	0.30165085196495056	-0.13857345283031464	0.009584615007042885	-0.271207720041275	0.09538174420595169	-0.10755065828561783	-0.528383195400238	0.020878100767731667	-0.3105457127094269	-0.2406807243824005	-0.5430997014045715	-0.5100923776626587	0.12445946037769318	0.016981372609734535	-0.10701122134923935	-0.2506486177444458	0.08617493510246277	-0.15119464695453644	-0.5817062854766846	0.11347272992134094	-0.0509234294295311	-0.005693760700523853	-0.11037032306194305	-0.19078859686851501	2.382580280303955	0.015175293199717999	-0.3705023229122162	-0.4814964830875397	-0.11094750463962555	-0.015701882541179657	0.222903311252594	-0.09951664507389069	-0.04057057946920395	0.29154136776924133	0.024349216371774673	-0.0739104226231575	0.02379493974149227	-0.009612470865249634	-0.0066454410552978516	0.04127158597111702	0.3442523181438446	0.15183022618293762	0.1899610012769699	-0.027100147679448128	0.1371573805809021	-0.2452434003353119	0.2472558617591858	-0.009196862578392029	-0.11337857693433762	-0.1523701697587967	0.10296940058469772	-0.08512789756059647	-0.08797084540128708	0.44563737511634827	-0.029015513136982918	0.37046000361442566	-0.009241643361747265	-0.03766009211540222	0.17391875386238098	0.2334924042224884	-0.31374356150627136	-0.1439228504896164	0.06287358701229095	0.03449791297316551	0.020641859620809555	0.07329907268285751	-0.10947463661432266	-0.41348838806152344	0.06682168692350388	-0.0018819484394043684	-0.1103270873427391	0.34894227981567383	0.29211339354515076	0.03264134004712105	0.1278967708349228	-0.21665622293949127	-0.2799558639526367	-0.17011971771717072	-0.1822989583015442	0.3478931188583374	-0.09509517252445221	-0.00894088950008154	-0.0669439360499382	-0.1733919382095337	0.2192339152097702	-0.03819029778242111	-0.020683225244283676	-0.1477890908718109	0.1663142591714859	-0.16441704332828522	-0.14344985783100128	-0.1212657243013382	-0.08508964627981186	0.18241535127162933	0.03249913081526756	-0.18609678745269775	-0.3221791386604309	0.3036990463733673	-0.30609965324401855	-0.0944252461194992	0.012531395070254803	0.24767807126045227	-0.3833277225494385	-0.2950829565525055	-0.10146887600421906	0.20486560463905334	0.026575785130262375	0.15117716789245605	-0.11701931059360504	0.09751079231500626	-0.8437836170196533	0.02477768436074257	0.04836228862404823	0.058394789695739746	-0.05493439733982086	-0.2195580154657364	0.12992826104164124	-0.2756205201148987	0.17918644845485687	0.03327707573771477	0.26280856132507324	0.23835855722427368	-0.05972716584801674	-0.23434309661388397	0.11738424748182297	-0.10192398726940155	-0.18140695989131927	0.3757932186126709	-0.1398375779390335	0.2047000378370285	0.3568025529384613	-0.10115984082221985	-0.2525888681411743	0.007584582548588514	-0.1053827777504921	-0.15431766211986542	-0.442772775888443	-0.13160879909992218	-0.2485688179731369	-0.1700504571199417	-0.19113101065158844	-0.014398953877389431	-0.04951891303062439	-0.15128138661384583	-0.10250193625688553	0.007593740709125996	0.05263042822480202	-0.20519596338272095	0.4044766426086426	0.2827487289905548	0.3349655270576477	0.10881368815898895	-0.054336611181497574	-0.33204084634780884	-0.0026770401746034622	-0.14882950484752655	-0.15821240842342377	-0.3181527853012085	-0.090434230864048	-0.21095506846904755	0.048049427568912506	-0.2577787935733795	-0.5860283374786377	-0.22617065906524658	-0.17636214196681976	-0.031556230038404465	-0.135981023311615	-0.25207462906837463	-0.045428745448589325	0.14201344549655914	-0.2970186471939087	-0.12022989243268967	-0.37697070837020874	-0.04886782914400101	-0.0825461819767952	0.18162848055362701	0.07122821360826492	-0.05824919044971466	0.026098506525158882	-0.06987280398607254	-0.03610190004110336	0.08081599324941635	-0.07166203111410141	0.028644103556871414	-0.056044384837150574	-0.43691426515579224	0.013489581644535065	0.12155983597040176	0.19005030393600464	-0.05976845324039459	-0.07798964530229568	0.02860722877085209	0.043330855667591095	-0.054166339337825775	-0.11925573647022247	-0.11748969554901123	-0.01098777074366808	0.045524753630161285	0.4185540974140167	0.13243770599365234	-0.390077143907547	0.03991284593939781	0.3765091896057129	0.0976252555847168	0.1105850338935852	0.02155652642250061	-0.10932330042123795	-0.03189441189169884	-0.05968336760997772	0.10232218354940414	0.22035929560661316	0.1320781111717224	-0.18549387156963348	-0.010388873517513275	0.31061914563179016	-0.02871759794652462	0.02130078710615635	0.3929067850112915	-0.018100939691066742	-0.3729865252971649	-0.6159589886665344	-0.562644898891449	0.08846127241849899	0.18302889168262482	0.035575028508901596	-0.1180335283279419	0.005295773036777973	-0.14061860740184784	-0.018216604366898537	-0.07303302735090256	-0.22535638511180878	0.1678401082754135	0.20397624373435974	0.7728227972984314	-0.24228233098983765	-0.18535174429416656	0.013037750497460365	0.21732968091964722	-0.11187488585710526	0.08471012860536575	0.31936535239219666	0.039265405386686325	0.37073278427124023	0.08499759435653687	-0.20226570963859558	0.15398462116718292	-0.014981986954808235	-0.26860448718070984	-0.008546702563762665	0.09248356521129608	-0.7512933611869812	-0.2297217845916748	-0.12609390914440155	-0.25498294830322266	-0.13718606531620026	0.032964885234832764	0.06105358898639679	-0.08311205357313156	-0.02837139554321766	-0.1713092029094696	-0.10806906223297119	-0.15655753016471863	-0.21422791481018066	0.3498116135597229	0.2081691473722458	-0.3066105842590332	0.5974394083023071	-0.0713898241519928	0.06733762472867966	0.06929019838571548	0.16288872063159943	-0.23759356141090393	-0.03497329354286194	0.0069684614427387714	0.17606155574321747	0.09949895739555359	-0.12989212572574615	-0.14610229432582855	0.29626864194869995	-0.12989747524261475	0.1587647795677185	0.17424003779888153	0.14802630245685577	-0.1309961974620819	0.29959967732429504	0.15861549973487854	0.22427357733249664	-0.07560079544782639	-0.228506401181221	-0.20775248110294342	-0.1258949637413025	0.3195297122001648	-0.09893181174993515	-0.4873232841491699	0.08364357054233551	0.10449047386646271	0.00883671548217535	-0.045080628246068954	-0.014044351875782013	-0.1675969511270523	-0.039793238043785095	-0.14909902215003967	0.4064289927482605	-0.04584956914186478	0.03554101288318634	-0.1499144285917282	-0.2657180726528168	-0.04747666046023369	0.06758372485637665	0.6975669264793396	0.018407171592116356	-1.0547518730163574	0.04175332188606262	-0.21446697413921356	-0.04386231675744057	-0.3553534150123596	0.20303037762641907	-0.24272523820400238	-0.08242864161729813	0.10675809532403946	-0.09224765747785568	0.062196992337703705	-0.0432400144636631	0.19392047822475433	-0.0639929547905922	-0.4876372218132019	0.11559039354324341	-0.20222128927707672	0.05031043291091919	0.09914492815732956	-0.24503226578235626	-0.7593826055526733	-0.06703212112188339	0.2544440031051636	0.3887815773487091	0.07347732782363892	0.07375815510749817	-0.03240516036748886	-0.009952088817954063	-0.11483697593212128	-0.24978280067443848	-0.21477122604846954	0.0053227548487484455	0.1469365805387497	0.2332848757505417	-0.4389764368534088	0.0025909380055963993	0.16031666100025177	-0.08852829039096832	-0.19666485488414764	0.07969217747449875	0.23054449260234833	-0.11947694420814514	0.1794442981481552	0.0805860161781311	-0.09793466329574585	-0.006220404990017414	0.04058297351002693	-0.2544841468334198	-0.13672560453414917	0.04231414571404457	0.07215606421232224	0.01523629855364561	-0.05947478860616684	-0.7061028480529785	-0.15229904651641846	-0.020863180980086327	-0.12547679245471954	-0.004725798033177853	-0.031185332685709	-0.3067345917224884	-0.13641564548015594	0.16126544773578644	0.08943399041891098	-0.3311094045639038	-0.13472670316696167	-0.24517948925495148	0.1553942710161209	0.10988407582044601	0.12557296454906464	-0.4107861816883087	-0.20772717893123627	0.021180342882871628	0.339428186416626	0.07462558895349503	-0.5219575762748718	-0.09894315898418427	-0.0930207371711731	-0.4443890452384949	0.07573831081390381	-0.14896118640899658	-0.17676398158073425	0.020906556397676468	-0.29088079929351807	0.17499396204948425	0.037773650139570236	-0.09530800580978394	0.045556072145700455	0.1150214672088623	-0.17536060512065887	0.04921098053455353	0.09803836047649384	0.07483644038438797	0.23627322912216187	0.2327219396829605	0.31346395611763	-0.04863908886909485	0.0012329292949289083	0.20593567192554474	-0.26275327801704407	0.19203750789165497	-0.2533760666847229	-0.03682515770196915	-0.09272273629903793	0.050489138811826706	0.017157893627882004	-0.2127668857574463	0.008561133407056332	-0.0005025711725465953	0.1599184274673462	0.1468273401260376	-0.05165088176727295	-0.07631256431341171	-0.09736666828393936	-0.05189082771539688	-0.048085957765579224	-0.24210762977600098	-0.10458352416753769	-0.19620740413665771	0.10213451832532883	0.13338741660118103	-0.09082826226949692	
cane	-0.03737621381878853	-0.19227145612239838	-0.031030388548970222	0.024306710809469223	0.06779248267412186	0.10369466245174408	-0.358783096075058	0.0033161467872560024	-0.07505524903535843	0.19728559255599976	0.034457914531230927	-0.13694727420806885	0.11958819627761841	0.15385453402996063	0.13303449749946594	-0.09301166981458664	-0.1928289532661438	0.004628352355211973	0.17361606657505035	-0.3738957345485687	-0.08921851217746735	-0.16789771616458893	0.2839169502258301	-0.150261789560318	-0.19056835770606995	-0.12817047536373138	-0.14137610793113708	-0.10364298522472382	0.34855952858924866	-0.002401272766292095	0.04701058939099312	-0.21354568004608154	-0.4642958343029022	0.08625903725624084	-0.24756595492362976	0.08074869215488434	-0.14283834397792816	0.014320047572255135	0.37831050157546997	-0.012284185737371445	-0.3536006510257721	-0.10053440183401108	0.010234525427222252	0.21255497634410858	0.2330264449119568	0.1498359739780426	-0.19388428330421448	-1.1797480583190918	-0.31422004103660583	-0.025385400280356407	0.10492973774671555	-0.19972063601016998	0.04260265827178955	0.2710082232952118	-0.4180518686771393	-0.22345194220542908	0.3920203149318695	0.2789258360862732	0.24938055872917175	-0.15864825248718262	-0.056195084005594254	-0.2734578847885132	0.07977419346570969	0.041285816580057144	0.09405229985713959	0.4637814164161682	0.02738320641219616	-0.15815098583698273	0.4179636836051941	-0.31124818325042725	-0.11962205916643143	0.03744913637638092	-0.4503709673881531	-0.15090148150920868	-0.05766434967517853	0.09785544872283936	0.41156598925590515	-0.22555047273635864	-0.29309916496276855	-0.14223958551883698	-0.1201152354478836	0.07027120143175125	-0.1276547759771347	0.03891493380069733	-0.2791151702404022	-0.01111918780952692	-0.09510329365730286	-0.18395641446113586	-0.1181083396077156	0.3900063633918762	0.14480072259902954	0.19435910880565643	0.20265154540538788	0.4030873477458954	-0.19708208739757538	0.1208459660410881	0.44394171237945557	0.2890479564666748	0.053008824586868286	0.002323178807273507	0.24756178259849548	0.6126843094825745	-0.10968245565891266	0.009427743032574654	-0.25364938378334045	-0.18192988634109497	0.2587205171585083	0.04248955100774765	-0.20197612047195435	0.34771034121513367	0.810710608959198	-0.11028219759464264	-0.11032553762197495	-0.12495212256908417	-0.002516465960070491	-0.0029285121709108353	0.01734144426882267	0.006818836554884911	0.0786731019616127	0.056216057389974594	-0.22514180839061737	0.1584867238998413	0.3164125084877014	-0.2269890457391739	0.21091531217098236	-0.12237798422574997	0.03205815702676773	-0.2569023668766022	0.1889856457710266	-0.010888515040278435	0.03844265267252922	0.09450548142194748	-0.007953549735248089	-0.07049538195133209	-0.05172942578792572	0.2060946524143219	-0.07323361933231354	0.15691572427749634	-0.08822091668844223	0.0022553149610757828	0.3302455246448517	0.415662944316864	-0.06607921421527863	0.09469575434923172	0.050697751343250275	-0.03081214800477028	-0.20329751074314117	-0.02964865416288376	-0.03716844320297241	0.19073747098445892	0.07935751229524612	0.39494821429252625	-0.22803030908107758	-0.049290481954813004	0.12463635206222534	-0.014715084806084633	-0.2993094325065613	0.141485333442688	0.5818320512771606	0.015012184157967567	-0.18036653101444244	0.07031459361314774	-0.02379489317536354	-0.06868436187505722	-0.19983987510204315	-0.30840805172920227	0.25869059562683105	0.43211373686790466	0.20674552023410797	0.15994039177894592	-0.262555330991745	0.015082422643899918	0.06427542120218277	-0.07275575399398804	-0.11149440705776215	0.07495015114545822	-0.3596508502960205	-0.02707013115286827	0.03177226334810257	-0.3001415729522705	-0.22297146916389465	0.24007433652877808	0.0462382510304451	-0.0490669310092926	0.012985313311219215	-0.18241846561431885	-0.14902766048908234	-0.21292853355407715	0.07447521388530731	-0.2389756590127945	0.15479020774364471	-0.19017601013183594	-0.0009137585293501616	-0.018233945593237877	-0.08506302535533905	-0.0355108380317688	-0.042984459549188614	0.5950254201889038	-0.09125393629074097	0.0965176597237587	0.7280693650245667	-0.039889443665742874	0.46343445777893066	-0.37293553352355957	-0.1952168196439743	0.2312617301940918	-0.4405161440372467	-0.15178349614143372	-0.13942891359329224	-0.29365217685699463	-0.08353446424007416	-0.2466042935848236	-0.587529182434082	-0.2147386521100998	0.17105025053024292	0.016906796023249626	-0.16688843071460724	-0.2998363971710205	0.13083915412425995	0.0859900563955307	-0.04143091291189194	-0.18786689639091492	0.09385515004396439	0.35005447268486023	0.018985509872436523	-0.27426737546920776	-0.03728891536593437	0.05966457352042198	-0.23472380638122559	-0.27958670258522034	0.2369871586561203	-0.06871502101421356	0.22173051536083221	0.12429369986057281	-0.08478454500436783	-0.04986264184117317	-0.15400190651416779	0.32616469264030457	-0.08843982219696045	0.3789408802986145	0.14389827847480774	0.18748238682746887	0.10012790560722351	0.01996619440615177	0.4028507471084595	-0.3138740062713623	-0.17863062024116516	0.2725145220756531	0.2628127634525299	0.08770682662725449	-0.33439651131629944	0.1544312983751297	0.3626844584941864	-0.23620764911174774	-0.5686466097831726	-0.05181390047073364	0.01548573188483715	-0.04867873713374138	-0.04115361347794533	-0.0007466190145350993	-0.09328849613666534	0.10383129864931107	-0.14510825276374817	-0.33569619059562683	-0.061765581369400024	0.21268771588802338	0.08534213155508041	0.12486105412244797	0.07367730885744095	-0.46777108311653137	-0.12722575664520264	0.09489893168210983	-0.027590490877628326	0.06366921961307526	0.14315709471702576	-0.11236279457807541	-0.41568800806999207	0.01352943666279316	0.07071759551763535	-0.6321393251419067	0.08076231926679611	0.18563085794448853	-0.22651542723178864	-0.032189685851335526	-0.03371364250779152	0.057591650635004044	-0.3330221176147461	-0.04923611134290695	-0.004544224590063095	-0.1698269546031952	-0.11384876072406769	-0.027244528755545616	1.8250030279159546	-0.07488109171390533	0.23625704646110535	-0.28785645961761475	-0.27036842703819275	-16.218164443969727	-0.15720102190971375	-0.19488640129566193	0.261227011680603	0.045589372515678406	0.13084907829761505	0.40214112401008606	-0.0475141741335392	-0.19636745750904083	0.014240565709769726	-0.43831390142440796	0.8146705627441406	-0.020823312923312187	-0.1800895482301712	0.5430441498756409	0.12620100378990173	-0.1255532056093216	-0.019367603585124016	-0.060519877821207047	0.5917340517044067	-0.04528052732348442	0.34234410524368286	-0.048347942531108856	-0.29223760962486267	0.11758531630039215	-0.16901510953903198	-0.13368837535381317	-0.06011827290058136	0.16705964505672455	0.04449901357293129	-0.03104792907834053	0.07146045565605164	1.5767147541046143	-0.12717513740062714	0.004492848180234432	0.3888916075229645	0.31873002648353577	-0.2479836791753769	0.30132853984832764	-0.14753010869026184	0.1323063224554062	-0.06713094562292099	0.16691379249095917	0.03147490322589874	-0.16427306830883026	-0.2455131858587265	0.3241316080093384	9.569540270604193e-05	-0.23266644775867462	-0.21874670684337616	-0.2704959213733673	0.1020689457654953	0.233782559633255	0.213596910238266	-0.0669136717915535	0.5050760507583618	-0.3780805766582489	-0.08587418496608734	0.16927705705165863	0.1945503205060959	0.14238648116588593	-0.15339989960193634	0.03849811479449272	-0.7171947956085205	-0.09784500300884247	0.04035060852766037	-0.10541406273841858	0.20935563743114471	0.05934493988752365	-0.07752681523561478	0.04980909824371338	-0.06675384938716888	-0.16287033259868622	0.25927919149398804	0.28916823863983154	0.15449556708335876	-0.2965298891067505	-0.3045021891593933	-0.10881667584180832	-1.7421828508377075	0.0391850471496582	-0.19559386372566223	-0.11030825972557068	0.3245052099227905	0.19748236238956451	-0.18479453027248383	-0.17485187947750092	0.12390103936195374	-0.5100983381271362	20.781396865844727	-0.355821430683136	-0.15199464559555054	0.14087803661823273	0.07207674533128738	-0.11145805567502975	0.055212121456861496	0.008574048057198524	-0.08325652778148651	0.007261599414050579	-0.031393863260746	-0.2612343728542328	-0.2707231044769287	0.05382489413022995	-0.30857717990875244	-0.10804722458124161	0.2659893333911896	0.04895351827144623	2.3352644443511963	0.009978518821299076	-0.19829998910427094	0.06321447342634201	0.30023983120918274	-0.05117109417915344	-0.1938748061656952	0.002522168681025505	0.07588810473680496	-0.08231230825185776	0.19412800669670105	-0.12507286667823792	0.16284464299678802	-0.06512141972780228	-0.2793765962123871	-0.5303184390068054	-0.2101065069437027	-0.020009661093354225	-0.05239883065223694	-0.30418261885643005	-0.09542791545391083	0.04053923860192299	-0.20547568798065186	-1.9272651672363281	-0.2688528895378113	-0.27298349142074585	0.10201957821846008	-0.06446129083633423	-0.0009833137737587094	0.20694668591022491	0.05377485975623131	0.06818514317274094	-0.5224968791007996	-0.03193925321102142	0.05907353013753891	-0.0776480883359909	0.18731629848480225	0.0168288666754961	-0.07525503635406494	-0.15604473650455475	0.09620872884988785	-0.19135154783725739	-0.3180065453052521	0.7948310971260071	-0.4219156503677368	0.5873090624809265	0.0434696264564991	0.053976841270923615	-0.2548672556877136	-0.14974623918533325	0.0739881694316864	-0.00019912395509891212	-0.3994528651237488	0.0009720115922391415	-0.08146871626377106	0.019130894914269447	-0.21739216148853302	-0.13529954850673676	0.13135986030101776	-0.03584730625152588	-0.0864412859082222	0.2875331938266754	-0.08407580107450485	0.03856794163584709	0.09304063022136688	-0.06488627940416336	0.02728060819208622	0.21772079169750214	-0.23226122558116913	0.22164836525917053	-0.025073932483792305	0.04288289695978165	-0.16770422458648682	-0.028428105637431145	-0.34830763936042786	-0.19417963922023773	-0.0041075353510677814	-0.019341472536325455	-0.02904505282640457	-0.006409033667296171	0.049523402005434036	0.6897993683815002	-0.11160483956336975	0.04719999432563782	-0.005384616553783417	-0.06266166269779205	0.2444780170917511	-0.4422967731952667	0.33527565002441406	0.24571938812732697	-0.1987505555152893	0.05090790614485741	0.44873541593551636	-0.11280030012130737	-0.186775341629982	-0.21279606223106384	0.03946508467197418	0.304830938577652	0.3580333888530731	0.10591096431016922	0.2014036923646927	-0.1383572369813919	0.02875799499452114	-0.023895621299743652	0.030007831752300262	-0.1297038495540619	0.11014404892921448	-0.06946051120758057	-0.18222041428089142	0.1899072825908661	-0.4967285096645355	0.1118038073182106	0.18689671158790588	0.27975642681121826	-0.6587040424346924	0.127358540892601	0.44326624274253845	-0.28623485565185547	-0.34017354249954224	-0.2794532775878906	-0.04827403277158737	0.5081396102905273	0.4876605272293091	0.3139841556549072	-0.004930651281028986	0.4542345106601715	-0.09248925000429153	0.06338831782341003	-0.08605943620204926	0.21126002073287964	-0.10853779315948486	-0.17005108296871185	-0.48416388034820557	0.21608804166316986	-0.2854451835155487	0.10232296586036682	-0.11434813588857651	-0.09719677269458771	0.002587046241387725	0.08776504546403885	-0.442744642496109	-0.024053307250142097	-0.13146719336509705	-0.006370839662849903	-0.5372568964958191	0.21974891424179077	0.01899288408458233	0.5091813802719116	0.029170619323849678	-0.635867714881897	-0.35371527075767517	0.004857900086790323	0.433870404958725	-0.24308031797409058	-0.0030055101960897446	0.111843042075634	0.2679201662540436	-0.6070935726165771	-0.1645316183567047	-0.36916792392730713	0.24266834557056427	-0.19928638637065887	-0.23259921371936798	0.31914037466049194	0.15898002684116364	-0.0574650876224041	-0.04202266037464142	0.11975524574518204	-0.04200444743037224	-0.04400492087006569	0.2564529776573181	-0.09022679179906845	0.19813357293605804	-1.3922672271728516	-0.07736530154943466	-0.20593154430389404	0.1761082410812378	0.05132905766367912	-0.07564979791641235	0.1234062910079956	0.12553493678569794	-0.0878608450293541	0.46555089950561523	0.09001610428094864	-0.07435987889766693	0.2574364244937897	-0.07189321517944336	0.28493472933769226	0.22572143375873566	-0.019848676398396492	-0.04888514056801796	-0.09435676783323288	-0.05926050245761871	-0.13799168169498444	-0.1032620519399643	0.0805181935429573	-0.04216250404715538	-0.5728630423545837	-0.6940386295318604	-0.7002599239349365	0.08486437052488327	0.08592673391103745	0.1829269826412201	-0.26789987087249756	0.13255442678928375	-0.04306301474571228	-0.28689560294151306	0.20488308370113373	0.04415478929877281	-0.2567974627017975	0.013530081138014793	-0.027491267770528793	2.6614482402801514	-0.32406097650527954	-0.6473597884178162	0.059763796627521515	-0.27313879132270813	0.02579907514154911	0.19684427976608276	-0.27374082803726196	-0.24371053278446198	0.08862387388944626	0.25312674045562744	0.3737303912639618	0.06186271086335182	0.32003167271614075	0.11587345600128174	-0.18024234473705292	-0.017692046239972115	0.09539761394262314	-0.08305006474256516	-0.25724491477012634	0.21289676427841187	-0.02329195663332939	0.2996467649936676	0.04411482438445091	0.32943180203437805	-0.023026179522275925	0.22140422463417053	-0.23490113019943237	-0.25185808539390564	0.36010274291038513	-0.09683549404144287	-0.010788943618535995	-0.09925840049982071	-0.038039229810237885	0.16667647659778595	0.3046962320804596	-0.26772740483283997	0.22217032313346863	0.1598997861146927	0.16371987760066986	0.017505116760730743	0.06433583050966263	-0.12551997601985931	-0.1978461891412735	0.31475305557250977	0.14035803079605103	-0.3538419008255005	0.2916419506072998	0.0076606180518865585	0.10014231503009796	-0.00504677789285779	0.01430401299148798	-0.22512401640415192	-0.44923830032348633	-0.24928022921085358	0.34586217999458313	0.32489582896232605	0.29001545906066895	-0.1054205521941185	-0.15515448153018951	0.13024833798408508	-0.11182872951030731	-0.057255253195762634	0.4558616876602173	0.041855089366436005	-0.2744000554084778	0.016058029606938362	-0.2563679814338684	-0.24685756862163544	0.00667404243722558	-0.02758108451962471	0.03961572051048279	-0.22437338531017303	0.24900439381599426	-0.27466487884521484	-0.2155572921037674	-0.054339777678251266	-0.2347581535577774	-0.34161192178726196	0.0021656572353094816	0.23343907296657562	0.40952470898628235	0.14778798818588257	-0.1415218710899353	-0.13233232498168945	0.17174388468265533	-0.517626166343689	0.20312489569187164	0.010062805376946926	0.1720825433731079	-0.4578895568847656	-0.16874070465564728	0.16897200047969818	-0.13113649189472198	-0.31310027837753296	-0.1509310007095337	0.22729726135730743	-0.18285712599754333	0.07584124803543091	-0.36346524953842163	0.013242536224424839	-0.09136421978473663	-0.06670613586902618	0.40909311175346375	0.22784604132175446	0.04973113536834717	-0.3458462059497833	-0.13708248734474182	-0.005920689087361097	0.04548512399196625	-0.16818580031394958	0.05459681898355484	0.13924948871135712	0.03308219090104103	-0.26298147439956665	0.148955836892128	-0.21706050634384155	-0.1644507199525833	-0.1242215633392334	-0.18782944977283478	-0.0501655675470829	-0.02242131531238556	0.041849929839372635	-0.40774935483932495	0.33301448822021484	0.23289425671100616	-0.03195865824818611	-0.03878320753574371	0.04337821900844574	-0.10976345092058182	0.023587703704833984	-0.11204584687948227	-0.12944211065769196	-0.3045242428779602	0.1131221354007721	0.04795076698064804	-0.04818528890609741	0.01663084328174591	-0.34754621982574463	-0.07851100713014603	-0.18830165266990662	-0.06107838451862335	-0.30709511041641235	-0.07135716825723648	0.1645180732011795	0.01791968382894993	-0.17759597301483154	0.02442389726638794	-0.3129364252090454	-0.15554769337177277	-0.1816944032907486	-0.02509148046374321	-0.07874088734388351	-0.20478087663650513	0.08612199127674103	0.10876663774251938	-0.0800357237458229	0.04892352595925331	-0.09580213576555252	0.41321077942848206	-0.15309427678585052	-0.41472235321998596	0.11039384454488754	0.16107797622680664	0.2763040065765381	0.15023265779018402	-0.016774307936429977	0.020701052621006966	0.10572965443134308	-0.03801218792796135	-0.2033517062664032	0.15829026699066162	-0.05542689561843872	-0.04533585533499718	0.003893384477123618	-0.2063833624124527	0.06435269117355347	0.21448783576488495	0.21160057187080383	0.1607160121202469	-0.09337858855724335	-0.007429886609315872	0.10441731661558151	-0.1357642263174057	-1.1747690439224243	0.010298940353095531	0.08747446537017822	0.1361299604177475	0.019144196063280106	-0.15507826209068298	-0.07692214101552963	-0.07090206444263458	-0.17763586342334747	-0.16586609184741974	0.2080489993095398	-0.4528651833534241	-0.38178306818008423	-0.07883718609809875	0.06651098281145096	-0.08484437316656113	0.11775806546211243	-0.2795770764350891	-0.17082829773426056	-0.10439684987068176	0.371176540851593	-0.16404733061790466	0.0324702151119709	0.19810685515403748	-0.3870938718318939	0.377725750207901	-0.07768172770738602	-0.29039472341537476	-0.21674145758152008	0.1550177037715912	-0.1352366954088211	0.2909786105155945	-0.30231010913848877	0.5041117668151855	0.06279627978801727	0.027390364557504654	-0.12638220191001892	0.12210841476917267	-0.2548607885837555	-0.533735454082489	-0.26223912835121155	0.0708339735865593	-0.19891737401485443	0.1415199339389801	0.014615155756473541	-0.17049084603786469	-0.15008218586444855	0.0873710885643959	-0.019294392317533493	0.026896385475993156	-0.08144398778676987	0.07532940804958344	0.15484599769115448	0.10844218730926514	-0.24917079508304596	0.2410166710615158	0.12129800021648407	0.026855869218707085	-0.037791308015584946	-0.15246166288852692	-0.3108851909637451	-0.13703030347824097	0.2265477180480957	-0.0876769870519638	0.04574054479598999	0.193345308303833	0.08575606346130371	0.11390876024961472	0.1433597207069397	-0.2514362335205078	-0.04543080925941467	-0.33435186743736267	0.08361796289682388	0.2670291066169739	-0.12617546319961548	-0.27282723784446716	0.13913121819496155	-0.18997861444950104	0.08895667642354965	0.14897572994232178	-0.3209385871887207	0.326198935508728	-0.058164115995168686	0.36279234290122986	-0.04400311037898064	-0.3171650469303131	0.29020819067955017	0.29340338706970215	-0.0023708664812147617	0.1776207685470581	0.03647579997777939	-0.264625608921051	0.11315619945526123	-0.08823444694280624	0.2862999737262726	0.0892745777964592	0.3475552797317505	0.17763110995292664	-0.1263061910867691	0.020514553412795067	0.2000712752342224	0.31229835748672485	0.07325297594070435	-1.426915168762207	-0.07714950293302536	-0.053343404084444046	0.12539854645729065	-0.2247280776500702	0.025796856731176376	-0.0010417114244773984	0.011029132641851902	-0.3205423951148987	-0.19414366781711578	0.010096702724695206	0.08642551302909851	-0.12681886553764343	0.22401989996433258	-0.275139182806015	0.20797483623027802	-0.15457746386528015	0.16433754563331604	0.09823864698410034	-0.08382387459278107	-0.19982187449932098	-0.04579990729689598	-0.12990815937519073	0.137393519282341	0.06615316867828369	0.2428271621465683	0.22781877219676971	0.2759711444377899	0.01120382733643055	-0.30083537101745605	0.06338750571012497	-0.19890455901622772	0.16423998773097992	0.14002978801727295	0.06597445160150528	0.17018553614616394	-0.11495352536439896	-0.22419200837612152	-0.18226929008960724	-0.18863025307655334	0.20226965844631195	-0.21753501892089844	0.22628137469291687	-0.015121378004550934	-0.035324711352586746	0.009966869838535786	-0.2888665497303009	0.0010679129045456648	-0.059024468064308167	0.06520499289035797	0.16527080535888672	0.05263223126530647	-0.22915019094944	-0.6829180717468262	-0.0023182881996035576	-0.09373650699853897	0.0761934146285057	-0.09672632068395615	-0.16043110191822052	-0.13040262460708618	-0.005539555102586746	-0.06982254236936569	0.09003268927335739	-0.2721085250377655	0.05593255162239075	-0.4241549074649811	0.19941745698451996	-0.16990996897220612	0.14066840708255768	-0.2503854036331177	0.1327861100435257	0.05822313204407692	-0.48395273089408875	-0.35700559616088867	-0.3172928988933563	-0.024613389745354652	0.04946621507406235	-0.6397607922554016	-0.22908343374729156	0.2509046196937561	-0.18926496803760529	-0.10410015285015106	-0.3797968029975891	0.17543962597846985	0.01770293526351452	-0.25168856978416443	0.015502672642469406	-0.026189006865024567	-0.22705845534801483	-0.003398811211809516	0.13042892515659332	0.24036748707294464	-0.04343275725841522	-0.43213319778442383	0.27343854308128357	-0.08426898717880249	0.11120249330997467	0.42754441499710083	-0.09782244265079498	-0.05629979446530342	-0.05715031921863556	-0.12283068150281906	-0.014364326372742653	-0.08740312606096268	-0.11174476891756058	-0.17508818209171295	-0.18192625045776367	0.25410547852516174	-0.04558073729276657	-0.014497827738523483	0.08470971882343292	-0.17393380403518677	0.0473976731300354	-0.22674432396888733	0.13691219687461853	-0.0985560342669487	0.08656386286020279	-0.13311663269996643	0.05022862181067467	-0.15939861536026	-0.017998183146119118	
