phrase	xlm-xxl_vectors
giacca	26.40627098083496	-22.82730484008789	15.539687156677246	-0.5059481859207153	23.10474395751953	-44.53228759765625	12.327265739440918	-7.448343753814697	9.039935111999512	-9.56779670715332	-1.658230185508728	18.38313865661621	-35.89116287231445	11.527981758117676	3.984896421432495	-13.099822044372559	-9.582737922668457	-17.30951499938965	-14.265235900878906	17.699230194091797	0.11681357771158218	-14.08362865447998	-2.6262476444244385	2.403006076812744	-2.0885300636291504	1.9626387357711792	10.837218284606934	6.565390586853027	12.480480194091797	-1.0993586778640747	-5.051922798156738	2.1339004039764404	12.242239952087402	-9.816476821899414	1.0677508115768433	-11.142600059509277	5.1962504386901855	-3.8174655437469482	2.651932954788208	9.514191627502441	-12.59196662902832	-3.055204391479492	-20.260068893432617	-9.318142890930176	-6.3511834144592285	19.269397735595703	-11.981128692626953	14.647597312927246	0.3949364125728607	12.502798080444336	-18.88459014892578	-4.122847080230713	-16.653480529785156	0.5111654996871948	-0.493429958820343	-9.52490520477295	-5.180253028869629	-15.649462699890137	4.671473979949951	-15.813862800598145	6.053159713745117	4.351959705352783	4.426233291625977	-17.981069564819336	11.840086936950684	17.71560287475586	-11.82390308380127	0.8882304430007935	9.942837715148926	9.445196151733398	7.602321147918701	-0.8963460326194763	12.788519859313965	-9.338362693786621	36.21017837524414	18.910158157348633	-19.82724952697754	-4.677640914916992	12.24889087677002	7.864624977111816	-24.014127731323242	-3.1826632022857666	31.505205154418945	17.018198013305664	7.43225622177124	-3.845775604248047	17.144699096679688	4.213634014129639	-15.572488784790039	14.541898727416992	16.77007293701172	-3.5278379917144775	17.403684616088867	15.967592239379883	4.8279805183410645	12.328596115112305	-9.180414199829102	7.30063009262085	3.6329267024993896	-3.3713581562042236	7.829792022705078	15.278935432434082	-6.306052207946777	-21.80942726135254	-8.327237129211426	-2.7140190601348877	-21.841228485107422	-2.9562036991119385	5.516146183013916	9.005059242248535	-7.937553882598877	0.26921728253364563	20.73247718811035	-20.843385696411133	-11.7823486328125	13.963959693908691	-1.0689289569854736	-13.710653305053711	1.7674227952957153	5.503800392150879	5.027388572692871	11.210176467895508	-7.926845073699951	-6.650916576385498	1.3710840940475464	-3.9485788345336914	6.701077938079834	-0.6002014875411987	36.47392654418945	10.132475852966309	6.2325029373168945	-1.1988632678985596	6.409465789794922	-16.41084098815918	-16.26552391052246	15.188063621520996	7.746737003326416	-5.932733058929443	3.2498068809509277	9.9251070022583	-12.473121643066406	6.599806308746338	-0.6420094966888428	30.615758895874023	-39.45713806152344	0.7407251000404358	5.061574459075928	-5.134640693664551	-7.5504469871521	-30.27126693725586	4.8030195236206055	-7.995926856994629	7.338293552398682	-2.86163330078125	1.0109429359436035	-7.424536228179932	11.0701904296875	4.200894832611084	3.377244710922241	-21.783489227294922	-10.738068580627441	-5.77036714553833	3.771850824356079	-8.697729110717773	-0.4237600564956665	-5.685586452484131	4.210711479187012	2.24800968170166	18.25594139099121	-4.447162628173828	-7.045551776885986	-13.577689170837402	-1.4676060676574707	8.491971015930176	26.605329513549805	12.466209411621094	2.7639753818511963	14.26185131072998	1.6588737964630127	-7.28468656539917	0.6117367148399353	-18.199615478515625	-3.1027534008026123	-15.33510971069336	11.948387145996094	-21.337560653686523	-24.966068267822266	-12.829659461975098	15.167146682739258	-18.142942428588867	7.006260871887207	24.686853408813477	-4.269753456115723	-5.324782371520996	-1.1752326488494873	26.267366409301758	-7.694321155548096	25.324621200561523	-24.487407684326172	14.585029602050781	12.516471862792969	-6.505068778991699	0.24781011044979095	16.508264541625977	-4.843546390533447	5.210700511932373	22.952838897705078	21.50896644592285	9.66567325592041	12.583928108215332	15.012187957763672	0.5065771341323853	-2.8483619689941406	-30.48796844482422	-12.713451385498047	-16.674667358398438	-12.639318466186523	-2.5025715827941895	-7.589829921722412	5.722334384918213	-7.322287559509277	4.309074878692627	13.05273151397705	6.755765438079834	17.641719818115234	0.06420189142227173	7.607983589172363	6.269761562347412	0.08107161521911621	0.28833794593811035	-22.45732307434082	11.215096473693848	3.81453013420105	-29.479442596435547	-2.057955503463745	3.6610512733459473	-20.00860023498535	1.499123215675354	21.21745491027832	9.222551345825195	-27.922090530395508	19.70453453063965	22.105663299560547	-2.924309730529785	-0.23799273371696472	-5.018560886383057	-0.8993532061576843	12.183390617370605	-0.3874340355396271	7.574993133544922	-12.075498580932617	-31.590456008911133	2.117380142211914	12.042797088623047	26.077186584472656	12.966586112976074	19.791027069091797	-7.810906410217285	1.7044470310211182	-2.766090154647827	-2.535101890563965	-17.92629623413086	4.8763203620910645	-16.3937931060791	-10.15463924407959	-6.183272361755371	0.762017011642456	2.996291399002075	8.740301132202148	6.742408275604248	17.826841354370117	-4.107250213623047	13.686561584472656	-15.4373140335083	-25.83639144897461	8.6547269821167	-10.787545204162598	-9.099026679992676	-1.0615572929382324	-4.232474327087402	-18.402938842773438	-34.306976318359375	22.903593063354492	-1.6931604146957397	-10.711191177368164	17.76477813720703	0.45320871472358704	-21.380699157714844	-5.202610015869141	-9.680551528930664	-7.9867048263549805	-6.150219440460205	4.279844284057617	20.85245132446289	-5.909526824951172	10.453470230102539	-24.284330368041992	-16.365991592407227	15.660919189453125	-10.2636137008667	-6.1389899253845215	3.1662607192993164	-0.7267289757728577	-31.02742576599121	-7.6452555656433105	2.1200497150421143	-4.7004265785217285	15.578452110290527	34.438053131103516	-12.11066722869873	2.281952142715454	-19.12286376953125	-17.60915184020996	14.773070335388184	-4.167179584503174	863.5094604492188	5.0021820068359375	-10.54604434967041	-2.606689929962158	5.101728916168213	-36.202293395996094	-18.385583877563477	-7.951821804046631	3.080209493637085	30.698244094848633	-4.977738857269287	-3.9006636142730713	-13.8701171875	19.529592514038086	17.933897018432617	8.011302947998047	-7.238011837005615	-20.31881332397461	-19.08579444885254	-7.309528350830078	-7.573657512664795	-25.203767776489258	12.150444984436035	-6.979604244232178	-19.75291633605957	-18.475046157836914	11.766716957092285	7.054564476013184	-18.20301055908203	-6.63906192779541	17.863712310791016	17.67156219482422	-22.82857894897461	2.4646756649017334	7.072452545166016	11.847838401794434	-6.459375381469727	18.023086547851562	45.371070861816406	-18.54372787475586	-1.088098168373108	-16.95083236694336	9.457945823669434	6.115204811096191	-4.6100664138793945	-36.04231643676758	0.8155902624130249	2.2900402545928955	26.762296676635742	7.824869155883789	21.501453399658203	-1.0119491815567017	0.4929773509502411	14.419037818908691	-6.374558925628662	10.954387664794922	16.039775848388672	5.096086502075195	5.887488842010498	-13.634442329406738	2.3039772510528564	1.1424039602279663	-18.45474624633789	6.669090270996094	-0.04523497074842453	17.226879119873047	2.6523842811584473	-19.62063217163086	7.942060470581055	20.941986083984375	-12.837663650512695	-17.693941116333008	-11.141815185546875	-34.93478775024414	15.928030014038086	-3.926100254058838	-10.47602653503418	16.798093795776367	7.115483283996582	-16.067716598510742	-1.2159558534622192	-38.97574234008789	-4.574270248413086	7.276571750640869	-27.527257919311523	-5.096452236175537	8.831467628479004	31.583446502685547	48.91338348388672	-27.576047897338867	-21.703338623046875	1.2637438774108887	-10.238080978393555	-17.62622833251953	-13.354020118713379	0.4014885425567627	-14.489580154418945	-28.129234313964844	12.127252578735352	17.630088806152344	10.191936492919922	-17.689708709716797	9.43514347076416	-2.379669427871704	-3.3751401901245117	-4.9116716384887695	-4.073798179626465	-11.844684600830078	10.939623832702637	-4.426146030426025	18.673603057861328	-1.619183897972107	-0.3162379562854767	14.758930206298828	-0.08704587072134018	-19.21331024169922	9.376043319702148	6.198177814483643	-1.1296167373657227	5.330913066864014	-0.5266856551170349	12.238924980163574	0.4543512165546417	-19.648836135864258	-6.871566295623779	12.905858039855957	2.52134108543396	2.384525775909424	-11.393739700317383	0.9211690425872803	2.1929819583892822	-1.8586955070495605	-19.07049560546875	2.785820484161377	-43.37995910644531	-77.31710052490234	-12.162342071533203	6.264540195465088	1.7714707851409912	-19.81931495666504	3.475703001022339	-29.6137638092041	-10.401989936828613	-9.858854293823242	-4.7171311378479	1.8629789352416992	2.9209697246551514	-2.1400413513183594	-9.05850601196289	8.119928359985352	-5.812822341918945	6.62562370300293	24.99345588684082	-15.68380355834961	-20.12364387512207	-7.718669891357422	-26.184053421020508	-9.851142883300781	-12.599441528320312	-16.317590713500977	17.097776412963867	-12.88478946685791	1.252720594406128	2.9786534309387207	6.835068225860596	-14.652076721191406	33.80710983276367	-27.436588287353516	7.935355186462402	6.175926685333252	-23.188800811767578	2.8588626384735107	-6.80509090423584	6.9466166496276855	1.6816315650939941	-3.2652716636657715	81.81953430175781	21.66413688659668	7.3281965255737305	-9.11825180053711	15.692113876342773	-2.6617729663848877	-13.474733352661133	-8.309579849243164	-11.623921394348145	10.193413734436035	-11.370718955993652	18.315500259399414	3.2505626678466797	-6.433968544006348	12.315486907958984	-3.6845521926879883	4.165158748626709	-1.5178618431091309	8.646567344665527	15.011048316955566	19.008058547973633	-1.5713127851486206	-12.142559051513672	-11.63145923614502	-0.784839391708374	-10.086989402770996	-10.12083625793457	20.212106704711914	0.4243442714214325	-8.80482292175293	2.6758873462677	1.241431713104248	-10.54018783569336	3.1112613677978516	-14.704413414001465	-19.441120147705078	23.44426155090332	34.63799285888672	-7.967719554901123	22.794286727905273	8.907005310058594	7.388619422912598	1.8862063884735107	-6.315380096435547	12.339041709899902	-1.5589685440063477	-14.0186128616333	-19.607065200805664	-11.478228569030762	15.596240997314453	12.403738975524902	-8.895047187805176	-12.603798866271973	-7.9342427253723145	-3.772027015686035	-7.89096212387085	-9.770612716674805	-20.41332244873047	8.95960521697998	29.45532989501953	-14.708928108215332	-15.361916542053223	-2.997211456298828	-2.8241021633148193	3.3189079761505127	-0.6811291575431824	3.7509868144989014	-5.062191486358643	7.433279991149902	3.606442451477051	-7.649909973144531	-0.4362548589706421	0.3248008191585541	-0.10327775031328201	-18.42779541015625	12.872245788574219	9.686301231384277	-9.415755271911621	-5.815269947052002	5.320864677429199	2.684863805770874	0.890381932258606	-0.24097612500190735	-6.156343460083008	16.568273544311523	-10.957876205444336	8.893132209777832	24.838972091674805	11.592930793762207	4.0872626304626465	-9.958220481872559	3.4194107055664062	-16.29012680053711	-6.524993896484375	27.140670776367188	-14.408674240112305	-3.68761944770813	-7.743849277496338	-4.272441864013672	6.701586723327637	-13.826306343078613	6.083103656768799	-12.41340446472168	0.9312841892242432	-8.399049758911133	0.7805936932563782	-4.370240211486816	7.445438385009766	-12.653424263000488	-1.8523036241531372	5.342692852020264	-14.631309509277344	-17.463518142700195	3.5275211334228516	5.459368705749512	19.282581329345703	14.102914810180664	-17.254840850830078	-18.531597137451172	-7.087657928466797	13.729292869567871	5.300731658935547	-25.269712448120117	-10.9609375	-28.751405715942383	22.517040252685547	-23.085599899291992	-11.748727798461914	-2.960871696472168	-0.1470596045255661	-20.45934295654297	-3.9567601680755615	18.258237838745117	-9.537121772766113	-16.053613662719727	-4.806826114654541	-6.2890496253967285	0.03786023333668709	-8.68664836883545	-26.642812728881836	27.678131103515625	6.936047077178955	12.92781925201416	-1.9524914026260376	-19.31993865966797	23.675647735595703	-19.834129333496094	13.07044506072998	3.945526123046875	-15.437559127807617	13.183135032653809	-22.32266616821289	-6.332704544067383	-1.957060694694519	-17.08898162841797	18.527936935424805	14.623552322387695	-14.267918586730957	-3.8479807376861572	14.020792961120605	4.244789123535156	3.0597739219665527	-3.7481000423431396	-3.119260787963867	-20.588848114013672	1.282357096672058	-4.450115203857422	16.341405868530273	-3.980458974838257	17.159255981445312	-2.2665975093841553	-34.01217269897461	6.257462978363037	-2.1038739681243896	11.391766548156738	4.233825206756592	-11.102198600769043	16.07874870300293	-3.601135492324829	13.139986038208008	28.466814041137695	-9.053317070007324	5.9377217292785645	1.1602109670639038	2.98146915435791	-23.420242309570312	6.728679180145264	-3.540025472640991	12.593632698059082	-15.394043922424316	-3.842299461364746	16.91524314880371	-22.90106201171875	-23.588871002197266	-21.8450927734375	-5.421000957489014	11.689799308776855	-12.094711303710938	-1.133558988571167	14.598154067993164	9.551033973693848	15.102317810058594	6.937298774719238	-4.897336483001709	-21.162601470947266	16.143783569335938	-0.19132055342197418	-6.422115802764893	-7.551652431488037	1.9257819652557373	20.862306594848633	0.7317594289779663	18.658735275268555	3.710294723510742	6.47565221786499	34.65321731567383	-4.414216041564941	-13.925482749938965	1.5583707094192505	-16.357345581054688	-7.55655574798584	-19.36110496520996	1.698906660079956	14.254528999328613	17.31407356262207	6.265130996704102	-14.899672508239746	10.726628303527832	-1.4912418127059937	11.120002746582031	-16.630369186401367	-19.65656089782715	-3.705045461654663	-17.220951080322266	-4.841788291931152	-15.539133071899414	17.36865997314453	-14.77310848236084	8.976564407348633	9.23162841796875	3.0199263095855713	-1.7253384590148926	-10.462740898132324	18.050443649291992	10.961705207824707	-14.899614334106445	10.073909759521484	-15.299590110778809	12.318588256835938	5.145542621612549	-4.473569869995117	-5.4929609298706055	3.523707628250122	21.30085563659668	-11.53941535949707	-4.124999046325684	-1.8123877048492432	-18.087520599365234	5.784138202667236	3.2756006717681885	16.523937225341797	12.759026527404785	-10.832347869873047	-2.4280688762664795	8.536482810974121	-12.704819679260254	-5.880823135375977	-1.3649109601974487	7.581086158752441	0.25113701820373535	-3.7097206115722656	28.46607780456543	-8.70989990234375	3.5336644649505615	0.5549049377441406	-1.8164678812026978	3.5031511783599854	6.368912220001221	-0.9542816877365112	-4.036957263946533	46.47978210449219	1.5106477737426758	39.28398513793945	4.21446418762207	-15.099403381347656	6.828400135040283	-6.496227264404297	21.131559371948242	-7.602478981018066	-17.910926818847656	-10.09401798248291	-13.828872680664062	-14.98038387298584	-10.570636749267578	-8.323461532592773	7.684532165527344	-12.891002655029297	10.687370300292969	-20.492616653442383	-13.686710357666016	-1.2476394176483154	6.204931735992432	-7.577251434326172	-11.004199981689453	-0.5502155423164368	-5.552212715148926	18.92133903503418	-13.67620849609375	-11.49231243133545	38.264163970947266	-8.365744590759277	10.043360710144043	9.120734214782715	10.647006034851074	15.381256103515625	-4.406739711761475	-11.464507102966309	10.024991035461426	17.807659149169922	12.369176864624023	-9.773887634277344	8.773050308227539	10.97248363494873	10.886452674865723	4.966757297515869	3.6914095878601074	4.961823463439941	5.483895301818848	6.943989276885986	-5.561939239501953	13.396830558776855	3.971768856048584	-2.9056055545806885	-8.26648235321045	-0.36806780099868774	-4.975324630737305	-30.526668548583984	-16.693336486816406	-2.426327705383301	-16.114330291748047	10.426840782165527	14.869865417480469	-23.60781478881836	10.925491333007812	-0.3416328430175781	8.977734565734863	4.429854869842529	-10.919387817382812	-21.10654640197754	-6.604893684387207	-13.576990127563477	-19.048351287841797	-3.5143487453460693	-5.341403007507324	6.349374771118164	20.05963706970215	2.0064685344696045	18.134288787841797	-10.88471794128418	-0.9163017272949219	-3.200237274169922	-6.9495415687561035	8.359024047851562	-20.4543514251709	8.534279823303223	-1.7707626819610596	2.696840286254883	-13.731596946716309	7.784027099609375	19.11808204650879	-20.610990524291992	26.108596801757812	1.6085374355316162	-12.134529113769531	-1.4157441854476929	4.579423427581787	-17.603240966796875	-13.198404312133789	22.27678871154785	-1.8284456729888916	3.062387466430664	3.457629442214966	0.0746263936161995	12.991189956665039	0.3122023642063141	24.587682723999023	15.38386058807373	-13.589187622070312	-4.085814952850342	7.379932403564453	-6.650307655334473	-1.9815093278884888	-22.700279235839844	13.558695793151855	-9.125930786132812	15.071176528930664	-15.339129447937012	-6.815181255340576	-14.1182861328125	-1.3431591987609863	-11.525419235229492	-25.62069320678711	4.571736812591553	-41.279300689697266	1.2828949689865112	-7.537326335906982	-8.883601188659668	7.9444451332092285	2.3224658966064453	-2.4830610752105713	-14.834574699401855	-7.344705581665039	-1.3812202215194702	7.300198078155518	-10.224071502685547	-4.775495529174805	14.594498634338379	-8.629377365112305	18.235326766967773	4.769476890563965	-6.639449119567871	-6.67393684387207	4.956816673278809	-24.68121337890625	4.2569732666015625	5.165251731872559	-9.933785438537598	-11.582980155944824	-13.086296081542969	-2.528717041015625	-5.069302558898926	21.50887680053711	-14.557948112487793	0.7592816948890686	10.14482593536377	-10.831039428710938	3.503204584121704	-19.45183563232422	-14.028524398803711	8.043941497802734	8.887059211730957	2.8200440406799316	3.8584415912628174	11.718110084533691	4.973773002624512	-2.2267003059387207	1.165034294128418	-25.594194412231445	12.653820037841797	8.405159950256348	6.3943400382995605	0.4478139281272888	-10.35917854309082	-1.122666597366333	6.422690391540527	13.16967487335205	-3.670883893966675	29.12555694580078	-6.978387832641602	-7.058534622192383	11.108774185180664	-36.541221618652344	-29.492027282714844	-14.729680061340332	-5.590425968170166	-11.609930992126465	-16.797842025756836	13.480195999145508	-19.433326721191406	1.9478358030319214	-9.891129493713379	-11.547638893127441	8.48691177368164	-8.161805152893066	-13.098654747009277	-0.3242127299308777	-2.0213887691497803	11.578387260437012	8.942618370056152	17.496335983276367	10.97772216796875	-6.3234734535217285	-6.7835893630981445	-7.1269612312316895	-1.789729118347168	16.155916213989258	5.60868501663208	18.75276756286621	-7.3037028312683105	13.979053497314453	22.40375328063965	1.7865664958953857	-2.339203119277954	-15.488253593444824	12.111145973205566	14.565628051757812	5.778881549835205	6.007097244262695	-16.546384811401367	16.57735824584961	-12.628812789916992	9.872220039367676	16.197423934936523	13.962608337402344	5.62764835357666	-4.484849452972412	18.224899291992188	-17.094663619995117	-8.714704513549805	-1.8279855251312256	9.857221603393555	18.325410842895508	-4.306867599487305	6.7170729637146	10.166868209838867	-7.729637622833252	-6.018172264099121	-20.122346878051758	20.617706298828125	12.68834114074707	-25.459993362426758	23.391536712646484	-12.193561553955078	2.591045379638672	14.70548152923584	-1.1686352491378784	18.084762573242188	16.316707611083984	-5.146392345428467	9.097397804260254	-1.1479229927062988	30.720243453979492	5.703815937042236	-15.591251373291016	10.648970603942871	-1.6012576818466187	5.93625545501709	31.967449188232422	-8.883564949035645	-6.1690802574157715	-20.274799346923828	3.8759496212005615	-1.3297550678253174	2.1981008052825928	14.115021705627441	9.120171546936035	0.02708674781024456	-24.971561431884766	142.85289001464844	6.055221080780029	15.595291137695312	2.9975452423095703	-10.913514137268066	-13.958452224731445	-42.887969970703125	12.763118743896484	-5.420561790466309	3.3670525550842285	-6.745488166809082	10.586244583129883	7.008837699890137	8.001440048217773	-25.935611724853516	14.239137649536133	1.0656362771987915	-22.86492919921875	-0.4160781800746918	9.718714714050293	0.3129597008228302	9.956143379211426	13.017433166503906	3.255983352661133	-45.10105895996094	-4.859346866607666	-60.81185531616211	-6.854672908782959	7.995074272155762	-7.864658832550049	5.830918312072754	-4.341272830963135	-11.525391578674316	39.45735168457031	-6.561173915863037	1.977241039276123	-22.806772232055664	-10.066688537597656	0.3598872125148773	-18.870981216430664	-10.004056930541992	14.274383544921875	-6.734899044036865	-21.984018325805664	3.5476865768432617	7.005619049072266	1.552769422531128	25.379711151123047	-10.243823051452637	-14.923545837402344	23.326980590820312	-11.943434715270996	15.450858116149902	-2.1991021633148193	7.240780353546143	-6.2622857093811035	9.059906959533691	-16.231081008911133	-3.077045440673828	16.859365463256836	6.539196491241455	5.925246238708496	5.911664962768555	-2.9227051734924316	15.136178970336914	-9.28786849975586	6.399636268615723	9.985514640808105	-0.8221195936203003	-6.870445728302002	-1.3511812686920166	-10.459670066833496	11.038529396057129	-22.962312698364258	18.483680725097656	14.559891700744629	-25.21768569946289	-19.80111312866211	6.622251510620117	1.7354466915130615	20.54746437072754	-7.025972843170166	-33.625732421875	-10.9942045211792	20.64785385131836	16.645092010498047	11.590380668640137	-1.5296632051467896	-11.858768463134766	8.785141944885254	-2.414316415786743	0.6810257434844971	-21.66301727294922	2.905658006668091	21.854135513305664	-0.7577296495437622	23.21833038330078	5.972382068634033	-8.205512046813965	7.328528881072998	-16.896263122558594	65.16129302978516	5.665395259857178	27.285245895385742	1.493091106414795	8.442526817321777	32.62639617919922	15.11284065246582	2.535710573196411	-6.839059829711914	-17.259437561035156	-24.112398147583008	20.537555694580078	22.900957107543945	20.108497619628906	17.637340545654297	-6.029780864715576	-14.795092582702637	-10.5471830368042	8.133810043334961	6.136007308959961	46.127933502197266	5.6297197341918945	-2.5846304893493652	-4.763716697692871	15.475906372070312	-10.536786079406738	-14.430177688598633	12.198232650756836	-6.380955219268799	2.412882089614868	-0.7099184989929199	23.1976318359375	2.5312771797180176	8.56596851348877	-4.811307907104492	-0.01529763825237751	51.4720458984375	-8.479827880859375	-6.363359451293945	-0.9261922240257263	13.893830299377441	22.156326293945312	-3.7172343730926514	-11.117205619812012	-24.954526901245117	-13.284348487854004	18.888370513916016	24.975862503051758	-1.495007038116455	-7.544404029846191	20.168107986450195	1.5156923532485962	-0.7892060279846191	-15.752753257751465	-15.519850730895996	13.721303939819336	-29.73366355895996	9.41700553894043	-1.9293893575668335	2.9687938690185547	-9.072394371032715	10.582672119140625	-2.7625904083251953	-3.258507490158081	-10.187433242797852	-14.032721519470215	21.812381744384766	-9.680889129638672	-4.35527229309082	-2.045039176940918	15.010952949523926	-17.394771575927734	7.603740692138672	-6.9695587158203125	-1.5897176265716553	9.086593627929688	-6.301603317260742	8.811615943908691	10.511676788330078	-6.926572322845459	-7.312957763671875	-1.7816802263259888	-6.2063984870910645	-7.166475296020508	-2.842033863067627	15.321078300476074	-3.811976194381714	0.683961033821106	0.5221058130264282	-14.91880989074707	7.668776035308838	-9.508732795715332	-9.038129806518555	-4.476528167724609	12.979907035827637	-9.440925598144531	-3.2868778705596924	6.099917888641357	-21.572797775268555	10.645148277282715	-3.1054184436798096	-5.388228893280029	1.1668002605438232	6.6353607177734375	-3.50515079498291	7.055251121520996	-13.158053398132324	2.6979048252105713	-16.31787109375	4.860674858093262	6.4664082527160645	-24.499340057373047	-22.232513427734375	15.12846851348877	8.846170425415039	24.457443237304688	-24.444917678833008	-8.095133781433105	4.098701477050781	-4.2340545654296875	-18.97923469543457	-21.47358512878418	-7.996948719024658	-0.5142136216163635	-11.051065444946289	41.206119537353516	-12.085549354553223	17.64348030090332	23.05071258544922	-21.247432708740234	-10.816864013671875	-8.026155471801758	35.18846893310547	-23.211427688598633	-1.4202326536178589	-3.3999814987182617	21.557950973510742	-20.17270278930664	8.334410667419434	-11.57484245300293	1.366085171699524	6.671086311340332	-11.346488952636719	-14.172901153564453	-22.017364501953125	11.134880065917969	0.08582471311092377	-7.734678268432617	9.959482192993164	-21.466123580932617	2.9321112632751465	-6.77796745300293	15.311656951904297	9.951756477355957	16.764698028564453	3.1651103496551514	1.1183785200119019	-44.829017639160156	13.92859172821045	13.62585735321045	0.2686634659767151	6.967275619506836	-15.259946823120117	-9.360633850097656	-16.35642433166504	6.714567184448242	-2.801889657974243	-5.181535720825195	-11.887134552001953	11.191061973571777	-12.546407699584961	-7.576327323913574	3.0930449962615967	18.429244995117188	-17.586008071899414	-164.4468231201172	-3.6348907947540283	14.227355003356934	11.046524047851562	6.85350227355957	-17.107912063598633	25.06752586364746	2.697894811630249	-5.7477264404296875	1.7408651113510132	5.031983375549316	-0.02600581757724285	-10.017251968383789	13.095385551452637	-9.47954273223877	-11.430939674377441	-13.025554656982422	16.510936737060547	3.7059123516082764	-20.537166595458984	-15.41096019744873	2.4525225162506104	-7.302244663238525	10.549474716186523	19.00063133239746	11.920419692993164	-4.159054279327393	13.3031644821167	-2.3238720893859863	1.786681890487671	25.511085510253906	10.40591049194336	-13.389522552490234	-19.659975051879883	13.548686981201172	4.771488189697266	20.854053497314453	1.1599302291870117	7.618553638458252	4.561115264892578	-31.025135040283203	-18.30721092224121	11.537227630615234	20.29725456237793	-10.3149995803833	8.007848739624023	-3.535311222076416	1.1098819971084595	-3.422564744949341	-2.9053847789764404	0.990772008895874	19.202470779418945	-16.239606857299805	7.207070350646973	-14.460105895996094	-11.40919017791748	-9.110566139221191	24.95345115661621	-19.461156845092773	9.417276382446289	2.9868812561035156	-16.979829788208008	-1.6825112104415894	8.23244571685791	-23.54096221923828	-3.900449752807617	-18.264110565185547	14.295635223388672	7.817625522613525	-2.153003692626953	14.620343208312988	-18.201181411743164	-12.910452842712402	-10.855279922485352	-2.2536449432373047	23.928585052490234	-2.5680558681488037	4.7828874588012695	-16.760032653808594	-10.622506141662598	16.482988357543945	17.048315048217773	-2.893524646759033	15.222224235534668	-4.658066749572754	12.495147705078125	24.287458419799805	-17.095855712890625	-25.16152572631836	-11.217561721801758	1.9150885343551636	1.9502590894699097	26.955503463745117	8.563271522521973	-24.395845413208008	10.963566780090332	11.714405059814453	11.612977027893066	-12.069364547729492	7.297504901885986	-1.6029049158096313	11.086251258850098	22.223617553710938	-4.321091175079346	-2.902735471725464	6.624178409576416	-33.248443603515625	-13.462915420532227	-19.156551361083984	-18.573144912719727	17.80554962158203	9.09915828704834	21.90879249572754	-23.719139099121094	-9.41694164276123	4.682523250579834	-15.807161331176758	5.284936904907227	12.798656463623047	25.293352127075195	42.085636138916016	2.7721974849700928	10.941267013549805	-17.764583587646484	11.905107498168945	7.16724157333374	-6.691181659698486	5.310466289520264	-0.8841062784194946	-10.565689086914062	-12.797039985656738	1.3762431144714355	-8.37612533569336	-4.395431995391846	-2.601431131362915	7.113612651824951	0.43287649750709534	-16.758403778076172	2.903965473175049	-28.12738800048828	-20.8680477142334	-14.380022048950195	-20.311752319335938	-6.044004917144775	-20.012977600097656	7.8610520362854	3.4179179668426514	25.43157958984375	-14.082512855529785	-2.065955877304077	23.790376663208008	-6.727503299713135	11.27017879486084	11.631399154663086	-18.748291015625	-16.444011688232422	3.7021541595458984	23.589866638183594	-3.049423933029175	19.704866409301758	-10.104701042175293	-19.355484008789062	-22.210651397705078	-27.732681274414062	1.8338077068328857	-29.159360885620117	-17.9212589263916	-12.437926292419434	20.91692352294922	-12.008752822875977	9.879815101623535	10.050381660461426	16.209007263183594	5.370262145996094	-15.186363220214844	12.393595695495605	3.2239840030670166	12.38604736328125	8.40357780456543	16.709667205810547	3.6386096477508545	-15.02161693572998	13.142962455749512	17.915952682495117	-7.7756524085998535	-4.455597400665283	-2.1103556156158447	1.6893504858016968	11.425973892211914	-1.3836866617202759	-0.6775078177452087	-19.78832244873047	-20.431673049926758	-19.316959381103516	14.314282417297363	-30.04096221923828	27.855892181396484	-13.584510803222656	15.397582054138184	-28.894468307495117	2.4764113426208496	-3.264289140701294	0.49235108494758606	9.675832748413086	-12.187268257141113	-29.72163200378418	1.6328128576278687	-13.455516815185547	9.604035377502441	10.896546363830566	-13.464835166931152	11.512553215026855	14.270451545715332	0.4870060682296753	-54.76054763793945	-19.710798263549805	-2.670133113861084	-3.364133834838867	-1.4801971912384033	-2.3450279235839844	-32.38858413696289	-5.672656536102295	19.238222122192383	-7.798983097076416	13.921917915344238	10.34482192993164	1.5200413465499878	19.657167434692383	15.615182876586914	6.167026996612549	34.086570739746094	-17.16375732421875	5.46596097946167	28.825632095336914	-4.562112331390381	-3.3243913650512695	-11.734879493713379	18.986347198486328	19.32552719116211	-14.23253059387207	10.03207015991211	-6.99647331237793	-1.8144726753234863	-10.264972686767578	-10.217856407165527	-8.721430778503418	12.299674987792969	-18.620264053344727	13.335733413696289	-10.42274284362793	6.594388484954834	24.540363311767578	-5.5075788497924805	28.206745147705078	2.450212240219116	15.832629203796387	9.244878768920898	-2.751119613647461	6.361701965332031	-6.944916248321533	5.204294681549072	10.920372009277344	5.4760236740112305	-2.270112991333008	20.779037475585938	9.190714836120605	10.624420166015625	-15.768838882446289	-3.0729238986968994	-0.9759090542793274	15.792858123779297	-5.1600422859191895	-14.232209205627441	-9.841882705688477	17.425058364868164	29.731718063354492	2.1928436756134033	-8.202115058898926	-17.02570343017578	-14.60055160522461	12.269309997558594	-7.1802873611450195	-9.188645362854004	10.421646118164062	-3.6612496376037598	6.355869770050049	11.629371643066406	18.141340255737305	-3.664705514907837	5.628335475921631	7.494415760040283	11.031974792480469	5.723873138427734	7.0261945724487305	0.9644995927810669	16.37520980834961	7.476768493652344	-17.924575805664062	7.995663642883301	22.222515106201172	-0.5167877674102783	19.964313507080078	3.053151845932007	-22.1619873046875	7.778163909912109	0.05244629085063934	-3.219567060470581	-2.9294488430023193	-11.186744689941406	-3.1822187900543213	-5.053653240203857	7.285104274749756	17.831390380859375	-19.92388153076172	6.883098125457764	-13.584206581115723	-18.152368545532227	4.422635555267334	-17.64568328857422	7.775618553161621	10.199687004089355	-5.997409343719482	-5.6022539138793945	2.3030447959899902	-10.274650573730469	12.761727333068848	24.167949676513672	11.657510757446289	2.588132858276367	-6.586908340454102	-4.719264030456543	-11.903339385986328	11.395872116088867	20.57130241394043	-41.278160095214844	-19.172143936157227	-11.82497787475586	19.715513229370117	-5.828671932220459	19.167089462280273	20.87826919555664	19.970653533935547	2.3841073513031006	10.68367862701416	5.471341609954834	5.053551197052002	2.6795217990875244	-6.56961727142334	-7.6522369384765625	-16.956424713134766	1.7370988130569458	-2.2947211265563965	-6.149568557739258	-6.052207946777344	-13.42052173614502	11.12946891784668	-25.240026473999023	22.61924171447754	20.13528060913086	0.32593032717704773	-26.95227813720703	13.195442199707031	2.394343614578247	9.055181503295898	28.438379287719727	16.499736785888672	2.846320867538452	3.7479588985443115	-1.6457916498184204	12.519261360168457	12.757383346557617	-23.960208892822266	-4.4898762702941895	11.33195972442627	-23.33188819885254	14.643189430236816	-29.520280838012695	-3.4455933570861816	4.9011454582214355	27.93094253540039	-9.00288200378418	1.2560005187988281	17.157283782958984	-27.9262638092041	-6.589104175567627	-21.161489486694336	10.26129150390625	3.2332265377044678	-1.2757257223129272	-15.080187797546387	9.816184997558594	-5.842935085296631	5.8245954513549805	-16.329025268554688	1.8993821144104004	-20.934494018554688	11.429617881774902	-3.5222043991088867	7.790148735046387	-9.771777153015137	-22.429996490478516	22.611658096313477	13.942117691040039	-15.993646621704102	2.3897910118103027	0.39092499017715454	21.268125534057617	15.256858825683594	-5.1211957931518555	6.346765041351318	10.293742179870605	23.69793128967285	-11.403030395507812	6.787033557891846	5.762660503387451	1.7069995403289795	22.209331512451172	-12.294707298278809	-15.791814804077148	24.348407745361328	3.2407569885253906	-9.967814445495605	6.764908790588379	-22.93804359436035	-39.18109130859375	34.49555969238281	-15.435879707336426	15.627153396606445	-6.5763630867004395	-18.80437660217285	-19.09051513671875	4.4535932540893555	23.50003433227539	20.399673461914062	1.4376826286315918	-4.994232177734375	0.7362877130508423	-2.777791738510132	3.6870768070220947	3.4586310386657715	-9.621484756469727	-5.759101867675781	-2.1413681507110596	2.7824060916900635	8.743169784545898	6.47104549407959	-4.6904449462890625	-0.0733790248632431	3.177304267883301	1.4895062446594238	-2.0284647941589355	3.231370210647583	-1.5387067794799805	19.65925407409668	8.305997848510742	6.130989074707031	10.526418685913086	13.410009384155273	-5.0110087394714355	18.952407836914062	7.47030782699585	-36.651100158691406	-7.679337501525879	-1.2488425970077515	7.085382461547852	-0.5184202790260315	26.94003677368164	-7.212218761444092	12.56615924835205	-22.15203094482422	3.162505865097046	10.379914283752441	-1.3384898900985718	18.640716552734375	21.725204467773438	-13.530055046081543	16.766647338867188	4.906406879425049	-16.219436645507812	-20.02443504333496	-15.182756423950195	-14.167431831359863	-7.125911712646484	24.38007926940918	-12.043167114257812	25.952749252319336	13.154158592224121	-1.9398515224456787	1.6328245401382446	-20.14773941040039	14.212800025939941	-5.271601676940918	-11.651164054870605	-16.31101417541504	-0.8588186502456665	-8.611008644104004	16.154008865356445	12.622176170349121	20.558679580688477	-9.001498222351074	-2.0427498817443848	2.434636354446411	-15.123957633972168	-10.201021194458008	-11.231810569763184	-19.076522827148438	-2.806750774383545	20.128751754760742	25.199417114257812	-10.053313255310059	-16.43179702758789	-1.981610655784607	29.8641300201416	15.944738388061523	-6.525617599487305	-7.694929599761963	-1.4340871572494507	-7.278246879577637	-22.861005783081055	-18.013412475585938	-0.7886369824409485	2.1971182823181152	12.093859672546387	-1.745021939277649	-22.429079055786133	16.67434310913086	5.531113147735596	6.999727725982666	-34.01081466674805	17.593664169311523	13.02379035949707	-13.838584899902344	-18.33784294128418	24.722671508789062	-2.728853940963745	-16.901084899902344	-9.373719215393066	-18.94282341003418	1.5140982866287231	2.2722132205963135	36.44259262084961	-16.95595932006836	5.094596862792969	-22.404647827148438	11.434213638305664	20.191478729248047	-15.311792373657227	4.650712013244629	17.386011123657227	-12.936300277709961	-3.9430418014526367	26.076141357421875	17.54546356201172	-11.482118606567383	15.270337104797363	-1.9240920543670654	-9.267361640930176	-11.721038818359375	-11.590327262878418	5.559746742248535	12.499956130981445	7.685848712921143	-6.25067663192749	-12.873051643371582	-8.132442474365234	6.2929558753967285	27.1640567779541	10.585453987121582	-7.279045581817627	15.81280517578125	3.9517462253570557	4.84584379196167	-23.602888107299805	12.973453521728516	-10.058186531066895	-8.903620719909668	23.78692626953125	8.001848220825195	-16.57035255432129	-0.3125569820404053	-0.48705002665519714	15.343725204467773	-12.250473022460938	23.34217643737793	3.4044697284698486	2.6247940063476562	27.26383399963379	0.8327851295471191	21.6127872467041	-19.979965209960938	-8.321693420410156	2.1427388191223145	5.59352445602417	-4.591665267944336	-27.832826614379883	7.610499858856201	1.8890495300292969	-15.909317016601562	-0.9994522333145142	24.240049362182617	-0.5513302683830261	-23.58454132080078	8.917428970336914	-0.7325881719589233	13.996879577636719	4.583896636962891	17.285985946655273	9.19786262512207	13.000542640686035	12.94752025604248	-0.3864283561706543	-6.561594009399414	-11.627159118652344	26.692760467529297	13.153557777404785	7.248836517333984	2.797666549682617	19.92403793334961	-0.16859197616577148	13.688192367553711	5.915302276611328	3.847703695297241	-26.28403091430664	-14.674863815307617	10.541603088378906	8.892677307128906	-12.272074699401855	-23.24506950378418	5.650383949279785	9.097055435180664	11.44792652130127	13.703189849853516	-4.326700210571289	19.61115837097168	-4.751016616821289	0.31158146262168884	-3.6020684242248535	20.32740592956543	4.130288600921631	-4.632639408111572	-24.52224349975586	0.5868781208992004	-0.9439749121665955	7.814281940460205	1.458191990852356	-4.083664894104004	-11.697046279907227	-0.644848644733429	24.326541900634766	-16.904085159301758	9.624910354614258	9.25947093963623	17.474668502807617	-8.648383140563965	-14.202103614807129	0.779944896697998	0.955033540725708	-3.68025279045105	-14.098527908325195	19.67470932006836	3.7690272331237793	-21.65401268005371	-11.820599555969238	-7.831062316894531	16.038333892822266	12.418081283569336	-12.925590515136719	25.33907127380371	-14.18833065032959	0.985956072807312	-3.3864710330963135	1.815382719039917	10.42591381072998	14.136529922485352	-4.717421054840088	11.874159812927246	9.852124214172363	30.55146026611328	2.554546356201172	-11.499170303344727	15.719219207763672	12.615462303161621	-5.564929485321045	-9.952473640441895	17.68014907836914	-3.9732818603515625	-14.804986953735352	20.418106079101562	-3.855517625808716	-15.971179008483887	-5.977705955505371	6.789826393127441	-6.8296685218811035	-16.74964714050293	-2.4727447032928467	5.123078346252441	-5.090338706970215	21.08466148376465	-10.731654167175293	-15.898358345031738	12.046321868896484	20.13996124267578	23.01821517944336	-15.465909957885742	36.26496505737305	-21.65144920349121	0.3743085265159607	-12.911499977111816	4.217418670654297	-20.45319938659668	2.753579616546631	-1.5697441101074219	-23.258544921875	-6.309667587280273	15.237618446350098	21.37809944152832	-18.41034698486328	6.610668659210205	-30.28302574157715	14.678377151489258	-13.165451049804688	22.9727783203125	6.9025797843933105	-10.311718940734863	8.400638580322266	2.6388683319091797	12.686271667480469	-9.258907318115234	31.42938232421875	-4.904294967651367	7.002573013305664	-11.633722305297852	14.641030311584473	-2.0915119647979736	-0.3656806945800781	16.2943115234375	-1.6238113641738892	-10.363260269165039	-16.305988311767578	9.72691535949707	16.100868225097656	-13.285985946655273	15.330949783325195	-25.155874252319336	11.993618965148926	-12.011207580566406	-12.861620903015137	12.44460678100586	12.755435943603516	-17.52520751953125	1.7736296653747559	2.631256103515625	12.268648147583008	-4.288773536682129	-13.825481414794922	-2.087705373764038	17.423072814941406	0.957030713558197	8.78737735748291	4.061212062835693	18.80711555480957	10.808110237121582	1.7542670965194702	5.598875045776367	-7.162835597991943	-0.31065845489501953	23.48374366760254	24.250141143798828	-10.889728546142578	5.215356826782227	6.829414367675781	-13.739192962646484	-33.57249069213867	3.110792636871338	-15.433831214904785	-9.698057174682617	4.37117338180542	0.9254011511802673	5.397856712341309	6.985390663146973	-12.449936866760254	-660.6959838867188	-3.9125163555145264	-27.210908889770508	7.6912055015563965	2.478496789932251	0.6766186952590942	-4.7637176513671875	6.980467796325684	-14.271106719970703	-10.617226600646973	16.052799224853516	-11.847217559814453	-2.17734694480896	-16.15161895751953	4.316494941711426	-12.952885627746582	-3.052988290786743	1.0533552169799805	2.831146478652954	-7.794610023498535	12.353609085083008	12.21072006225586	-3.8626651763916016	-4.423284530639648	4.406004905700684	-14.868019104003906	15.634522438049316	-21.702096939086914	6.135595798492432	-12.29056167602539	1.14191472530365	-2.417064905166626	2.471877336502075	10.022928237915039	-7.235666275024414	1.6277472972869873	7.239264488220215	-23.074506759643555	3.632272243499756	29.554838180541992	21.454023361206055	-1.6760481595993042	-12.810296058654785	4.577694892883301	-6.905440807342529	-8.7327299118042	9.615126609802246	0.8187227249145508	28.196548461914062	-3.1233928203582764	-0.8746790885925293	-3.280569553375244	-13.368614196777344	-7.7120890617370605	-9.389654159545898	-0.9714330434799194	-24.53458595275879	-11.943387031555176	3.813185691833496	-4.006568431854248	-12.953115463256836	-12.068717002868652	-18.571704864501953	2.828979253768921	-0.7434860467910767	17.159473419189453	0.6487852334976196	-10.883856773376465	4.5868916511535645	-5.5219221115112305	-7.507505893707275	-0.03868507221341133	-18.064687728881836	-9.526786804199219	-7.994938850402832	-2.7098031044006348	2.762690544128418	-10.853837966918945	-20.245574951171875	-20.341638565063477	-9.251410484313965	-9.625556945800781	-10.866180419921875	16.219226837158203	22.22808074951172	2.495898962020874	-25.94769859313965	13.380231857299805	-6.652588844299316	-18.48174285888672	-9.68641185760498	21.068233489990234	13.28945255279541	-21.834657669067383	4.931412696838379	-9.56006145477295	-7.048573970794678	-10.441752433776855	-1.6973377466201782	-16.179105758666992	2.076125383377075	-15.876742362976074	-11.785213470458984	0.9637176394462585	-6.910428047180176	14.652174949645996	6.431058406829834	-1.2904853820800781	-8.220916748046875	-19.106040954589844	-4.508291721343994	7.213078498840332	-74.22433471679688	14.249387741088867	4.382530212402344	8.279152870178223	-6.669096946716309	-11.782135963439941	-21.22461700439453	-18.548093795776367	16.801300048828125	-25.47062873840332	-0.8103336095809937	1.3256852626800537	-16.515727996826172	-20.013599395751953	-2.466717004776001	10.237384796142578	18.216171264648438	6.201004505157471	-10.336660385131836	-16.940845489501953	13.795121192932129	3.709913492202759	1.047346830368042	1.3603057861328125	-12.083599090576172	-27.45915985107422	-0.11429709196090698	1.3214601278305054	-15.289665222167969	6.420100212097168	5.115969657897949	-12.94460678100586	6.799275875091553	6.993708610534668	-3.8880763053894043	20.886764526367188	15.371252059936523	-15.93038558959961	10.522457122802734	-11.984304428100586	13.109807014465332	20.77835464477539	1.9485729932785034	-0.06538426131010056	-21.733562469482422	-9.822012901306152	-3.6699700355529785	-26.873966217041016	4.106045722961426	-139.65481567382812	34.129966735839844	-17.629322052001953	-1.3708854913711548	-5.6429877281188965	-3.3432869911193848	19.723642349243164	4.3587260246276855	-11.631781578063965	-21.614200592041016	17.529335021972656	27.194032669067383	10.730854988098145	8.958426475524902	0.18909405171871185	13.565131187438965	0.4905942678451538	0.6947020292282104	-13.776997566223145	-22.954334259033203	-9.251127243041992	-14.251550674438477	0.4971525967121124	-5.097637176513672	6.313880443572998	11.790485382080078	-0.9844814538955688	-12.089337348937988	22.22284507751465	19.97957420349121	0.18565332889556885	3.465939998626709	9.673009872436523	5.457194805145264	13.596752166748047	-2.356708288192749	0.22528162598609924	-5.214428424835205	-4.11269998550415	32.7267951965332	3.7699551582336426	-5.7369384765625	-6.710142135620117	-6.82206916809082	2.8459041118621826	-9.34974479675293	24.884429931640625	-18.070661544799805	9.102180480957031	-13.050470352172852	-9.958093643188477	-9.3583345413208	-17.361122131347656	9.2683687210083	4.223573207855225	-8.74040699005127	-22.359519958496094	-11.493013381958008	7.767608642578125	22.284791946411133	6.532364368438721	10.95428466796875	3.7131056785583496	17.872499465942383	-3.5416102409362793	22.638965606689453	-25.302465438842773	0.8928526639938354	-6.590810775756836	5.219985008239746	12.625961303710938	-16.694034576416016	-15.143305778503418	-10.875399589538574	-8.376921653747559	6.531744003295898	8.516348838806152	-0.09015312790870667	4.13316535949707	6.239463806152344	-7.032979965209961	-3.92579984664917	3.9327547550201416	-0.9673968553543091	2.7332379817962646	3.1711695194244385	12.835012435913086	-9.392438888549805	2.0498838424682617	-3.6464014053344727	20.575380325317383	2.174396514892578	-2.1179046630859375	0.1922093629837036	8.733176231384277	-22.885021209716797	6.060533046722412	-11.858933448791504	12.121416091918945	-14.329641342163086	-21.1390380859375	12.352352142333984	15.216853141784668	-12.833024024963379	-16.55927848815918	-8.609129905700684	-6.784026145935059	-28.79235076904297	5.788245677947998	9.734965324401855	-5.804555416107178	-3.8061811923980713	-13.461543083190918	24.796663284301758	8.075861930847168	20.45690155029297	32.81095886230469	-8.726252555847168	0.5561325550079346	-17.567964553833008	24.69031524658203	-9.869706153869629	21.608600616455078	-3.2157599925994873	3.0735116004943848	-9.078356742858887	-12.873085021972656	-0.4693157374858856	-13.609338760375977	9.47144889831543	-7.855296611785889	6.220026969909668	4.537333965301514	-1.3252586126327515	5.966142177581787	2.7041306495666504	-5.727497100830078	8.629029273986816	18.729738235473633	12.93200969696045	-6.558029651641846	-735.5540161132812	21.686126708984375	7.695997714996338	-0.8991716504096985	18.106952667236328	-26.594221115112305	2.8305039405822754	-9.086700439453125	-7.615869998931885	-8.094449043273926	11.070338249206543	14.9391508102417	4.8312859535217285	26.33857536315918	3.4322354793548584	23.109582901000977	13.94908618927002	-9.670683860778809	-5.812994956970215	-17.08182716369629	10.254302978515625	16.827524185180664	-2.03696608543396	-37.442989349365234	-2.194939374923706	25.51872444152832	15.336713790893555	-10.14042854309082	-15.79495620727539	14.407864570617676	12.403589248657227	-19.519227981567383	0.8841005563735962	-14.735471725463867	15.134016036987305	33.2720832824707	-8.555778503417969	5.1755194664001465	-16.36379623413086	-0.636210024356842	10.034764289855957	-1.0334482192993164	-30.935182571411133	19.53853416442871	12.178433418273926	-20.470714569091797	10.483924865722656	5.8482842445373535	-32.710227966308594	4.401647090911865	11.984123229980469	-6.567073345184326	12.830395698547363	-5.493771553039551	1.685465931892395	-11.8941650390625	29.038013458251953	16.97972297668457	2.112440347671509	1.0648590326309204	18.429777145385742	5.806957721710205	1.6916120052337646	6.934511661529541	15.244714736938477	8.771429061889648	17.291133880615234	3.7160987854003906	-10.372809410095215	-12.453021049499512	-26.030290603637695	0.6814024448394775	3.380445957183838	9.642889022827148	-7.8727898597717285	37.132774353027344	0.23897336423397064	2.4920549392700195	13.810001373291016	3.583139657974243	-8.176609992980957	13.489376068115234	10.282663345336914	-3.354961633682251	-13.21749210357666	9.46426010131836	9.167223930358887	-40.1766242980957	-0.05171036347746849	-39.360023498535156	-10.635428428649902	-2.4595725536346436	1.246970295906067	-18.932201385498047	-0.706441342830658	-12.706604957580566	-12.147624969482422	11.237112998962402	7.309990406036377	-2.1312241554260254	8.519421577453613	-1.0814310312271118	21.980304718017578	-8.997206687927246	12.790679931640625	6.506620407104492	18.46358871459961	-2.380380868911743	4.967881679534912	17.352947235107422	-20.161075592041016	-10.95083999633789	-14.025314331054688	-22.13521385192871	6.127028942108154	2.3452844619750977	10.640090942382812	-15.361926078796387	4.149489402770996	-17.173751831054688	23.172653198242188	-0.21073539555072784	-11.320487022399902	3.465683937072754	-14.715259552001953	24.43433380126953	-10.06579303741455	5.3826904296875	1.7516772747039795	-22.4155330657959	5.675273418426514	-23.488325119018555	12.6583251953125	-7.87768030166626	-2.2534830570220947	-7.347691059112549	-18.310457229614258	16.696603775024414	6.866639614105225	19.862716674804688	-4.38802433013916	4.684100151062012	1.5005797147750854	-17.864770889282227	-4.703136444091797	11.542302131652832	13.45648193359375	-0.6575452089309692	36.36770248413086	2.8638291358947754	21.280309677124023	-1.9594194889068604	2.0497121810913086	-4.444303512573242	11.206817626953125	-0.656129002571106	-13.149980545043945	-2.2190568447113037	28.15106201171875	19.028154373168945	16.75716781616211	-32.414981842041016	2.46340274810791	-2.0713155269622803	5.851634979248047	10.299925804138184	-9.778031349182129	33.93792724609375	-10.384512901306152	-4.077289581298828	0.9916145205497742	1.1495189666748047	16.83866310119629	-12.821105003356934	-13.901432991027832	-23.65462303161621	23.789398193359375	-20.468889236450195	5.647220611572266	11.617473602294922	22.97789764404297	6.008602619171143	-10.131641387939453	-17.093427658081055	-6.937620639801025	9.930856704711914	-7.076529026031494	3.304473638534546	14.357346534729004	-1.1440176963806152	-0.2810313403606415	23.597904205322266	-7.873119831085205	-8.654749870300293	-18.68721580505371	11.644844055175781	0.15357191860675812	-0.4826531708240509	-5.261961460113525	3.174722909927368	-3.667900323867798	-7.436148643493652	-14.119047164916992	-10.532958030700684	10.362996101379395	13.54924201965332	-12.568572998046875	-18.3928165435791	-0.7748169302940369	-20.55825424194336	3.141047477722168	0.8974176049232483	-8.064353942871094	17.291288375854492	-18.418916702270508	11.543522834777832	17.73546600341797	13.698415756225586	-6.486496925354004	1.2809885740280151	-10.235413551330566	13.12279224395752	5.5990447998046875	3.235895872116089	-6.763307094573975	2.5590479373931885	3.322266101837158	-14.117069244384766	11.441829681396484	-4.007217884063721	-15.123103141784668	-21.578153610229492	26.084842681884766	147.71701049804688	9.215522766113281	-10.9039945602417	7.153702735900879	-22.487302780151367	-14.731204986572266	6.380815505981445	-2.9145913124084473	-21.43372917175293	-3.6913607120513916	-0.3652217984199524	17.790542602539062	-17.46933364868164	-5.826324939727783	-7.555238246917725	-23.699106216430664	-43.6130485534668	2.7860162258148193	-20.3167781829834	-11.230110168457031	-12.792327880859375	5.3585076332092285	1.8539658784866333	2.840379238128662	0.6804192662239075	17.398679733276367	-16.019227981567383	-4.951873302459717	-5.529375076293945	14.781438827514648	2.6276159286499023	-13.5426664352417	-0.9737286567687988	1.0107454061508179	17.361345291137695	-5.505236625671387	-0.4453355669975281	12.815216064453125	23.490869522094727	-4.867834091186523	17.09878921508789	-11.924692153930664	-11.38481330871582	-13.270378112792969	-27.20172691345215	10.118476867675781	11.329463005065918	-7.709105014801025	-7.0823974609375	-9.56551456451416	2.908106803894043	7.058297157287598	-7.842304706573486	7.722421169281006	12.00651741027832	-23.55730438232422	-12.198939323425293	4.544380187988281	23.773365020751953	-9.871850967407227	-17.682493209838867	-14.164844512939453	14.461480140686035	-9.336997032165527	8.231561660766602	-10.657132148742676	-29.35024070739746	8.83634090423584	6.897517204284668	1.9025983810424805	-3.972769260406494	-1.5142343044281006	3.5543534755706787	-4.18702507019043	-17.68547821044922	-11.246304512023926	4.153284072875977	-6.28384256362915	-37.30909729003906	-6.984557151794434	-16.809776306152344	13.469524383544922	-2.640911340713501	-13.593403816223145	29.437047958374023	-7.816413402557373	-5.356279373168945	-10.557472229003906	-1.5823863744735718	-19.540212631225586	-19.842056274414062	-5.835838317871094	-4.83950662612915	-15.66076946258545	-0.6601598858833313	-6.176017761230469	4.117678642272949	29.95355796813965	-0.7217572927474976	-20.162118911743164	-15.625779151916504	-29.138120651245117	-1.723199486732483	-8.716005325317383	30.658063888549805	-12.014630317687988	1.932023525238037	-2.5164196491241455	-15.919382095336914	15.593551635742188	11.801959991455078	-17.38915252685547	1.5701481103897095	-6.370038986206055	16.975013732910156	-1.007917046546936	3.8347883224487305	15.122459411621094	-26.465126037597656	4.2990946769714355	38.24744415283203	-41.33204650878906	12.893433570861816	-3.5486414432525635	-4.483452320098877	-6.125269889831543	1.8176831007003784	-4.990542411804199	-19.849166870117188	-3.315831422805786	7.478403091430664	14.709640502929688	-8.885043144226074	-17.900259017944336	-5.822874069213867	-19.200109481811523	-4.779207706451416	-6.05387544631958	5.040456295013428	-20.129560470581055	2.4366402626037598	21.215421676635742	-17.0985107421875	-8.15670108795166	-6.172611713409424	17.39817237854004	2.1472597122192383	-15.166081428527832	33.16318893432617	-15.092253684997559	-11.669429779052734	15.845819473266602	25.092729568481445	-14.923229217529297	-16.629940032958984	-12.276361465454102	17.308307647705078	7.021553993225098	-5.9861626625061035	24.529769897460938	-6.118845462799072	-13.606048583984375	-12.313928604125977	-16.27589988708496	10.789565086364746	22.687719345092773	4.873824119567871	-5.997657299041748	-2.8632278442382812	0.29746589064598083	-30.853477478027344	1.0122876167297363	17.96162986755371	9.80766773223877	0.7588559985160828	-19.365968704223633	-31.34017562866211	15.633980751037598	-5.009068965911865	-25.24161720275879	-12.748737335205078	-9.464129447937012	-5.9544291496276855	-13.234335899353027	-8.417450904846191	-3.9492430686950684	6.016393184661865	-0.6790338754653931	-4.397459506988525	23.837886810302734	0.9403030872344971	17.289512634277344	-3.6251673698425293	-14.484580993652344	6.7885637283325195	-2.1941263675689697	19.552549362182617	-11.318560600280762	-1.0338990688323975	5.112788677215576	6.515199184417725	14.177263259887695	14.577672004699707	14.509770393371582	-4.212955951690674	-1.8683816194534302	-9.16283893585205	4.664636135101318	3.1803410053253174	-25.604873657226562	-16.030344009399414	-11.4885892868042	5.098033905029297	28.358047485351562	-8.395966529846191	31.403472900390625	-50.34621810913086	-6.810887336730957	6.887296199798584	-9.017724990844727	11.018264770507812	17.29475212097168	-1.733903169631958	2.4729514122009277	29.812335968017578	-2.6515140533447266	6.717324733734131	16.166234970092773	4.055686950683594	11.870074272155762	-0.9028855562210083	3.027831792831421	-1.711624026298523	10.944937705993652	-25.94815444946289	8.716073989868164	-10.897787094116211	6.120655059814453	8.815963745117188	-33.810428619384766	-7.058964729309082	3.3354477882385254	-8.198272705078125	-24.517772674560547	-13.229666709899902	26.36147117614746	0.1283552050590515	21.28772735595703	-14.639321327209473	-23.736364364624023	-20.704172134399414	-37.997005462646484	5.035739898681641	-1.9952154159545898	-10.38209342956543	-8.94878101348877	1.179467797279358	-0.22111736238002777	15.038915634155273	9.808735847473145	-13.24325942993164	-7.968589782714844	10.807544708251953	10.07671070098877	-13.633171081542969	-12.033742904663086	-2.376378297805786	-2.5441787242889404	-18.780179977416992	12.717035293579102	7.6974663734436035	0.9461119771003723	14.835545539855957	13.059518814086914	15.613250732421875	11.212939262390137	32.18684768676758	-7.960946559906006	6.084476947784424	18.748823165893555	-4.666459083557129	-1.4133052825927734	2.5318684577941895	26.476232528686523	16.06939697265625	-8.724100112915039	13.970956802368164	-2.9370193481445312	-4.725484848022461	10.042263984680176	20.223861694335938	6.075680732727051	-15.077731132507324	-2.761559009552002	-22.729312896728516	5.916006565093994	-12.716575622558594	21.36011505126953	9.821118354797363	-26.802873611450195	9.004549026489258	-20.680282592773438	-3.1077659130096436	6.367762088775635	-13.651567459106445	20.480966567993164	11.24244499206543	-1.9752119779586792	-19.570735931396484	16.932342529296875	24.72587013244629	-3.2448408603668213	19.879581451416016	6.809738636016846	18.357532501220703	-239.72210693359375	-6.269853591918945	9.663026809692383	2.800797939300537	-6.486417770385742	28.57350730895996	5.003516674041748	-0.17523202300071716	-2.0683162212371826	-14.741532325744629	8.238103866577148	-7.675201892852783	-5.352249622344971	-19.328096389770508	6.532273769378662	-12.072670936584473	-11.04507064819336	-10.586319923400879	16.255897521972656	-14.21398639678955	-10.920991897583008	8.074028968811035	-6.218127727508545	-12.291638374328613	-4.71014928817749	4.591442108154297	-1.069641351699829	-20.324644088745117	-22.097196578979492	5.668216228485107	-25.292020797729492	-1.5568925142288208	-2.238107204437256	-0.8613564372062683	-1.1836411952972412	7.048266410827637	22.660694122314453	0.24967490136623383	0.09094427525997162	-17.99288558959961	15.580183029174805	-2.885554790496826	15.648727416992188	13.45338249206543	16.748071670532227	16.894067764282227	11.20659351348877	8.866814613342285	1.194087266921997	4.808246612548828	-4.6071929931640625	-5.248889923095703	-10.811814308166504	30.085390090942383	6.414521217346191	-4.8564066886901855	-2.290402889251709	-5.043490409851074	-4.044815540313721	0.9766879677772522	-8.203509330749512	-5.102132797241211	-12.995279312133789	-2.7018487453460693	-1.5716211795806885	-27.27878189086914	-13.824957847595215	2.808547019958496	12.73802661895752	13.891814231872559	-34.985084533691406	-16.660465240478516	-17.351972579956055	1.2527724504470825	-13.851385116577148	7.253547668457031	8.692066192626953	5.946316719055176	-5.856210708618164	20.99392318725586	8.22714900970459	38.51502227783203	5.056883811950684	1.1307907104492188	4.450360298156738	8.898482322692871	-19.193893432617188	12.835471153259277	1.0978609323501587	-0.4863360524177551	4.380425930023193	11.92808723449707	-12.1571626663208	9.082659721374512	7.727389335632324	-3.365976333618164	-10.824478149414062	2.0494678020477295	-5.949125289916992	9.255996704101562	6.68815803527832	-13.582125663757324	36.42509078979492	-12.816652297973633	18.05868911743164	-0.055778868496418	15.21640682220459	-13.944403648376465	-18.85956382751465	6.247209548950195	20.83576774597168	-8.385680198669434	-6.520602703094482	2.3830862045288086	-22.22207260131836	-6.79232931137085	-6.848573684692383	-23.478195190429688	21.823719024658203	-7.502763271331787	9.623409271240234	-9.060800552368164	-13.255636215209961	-9.117365837097168	-11.535133361816406	-15.557727813720703	2.842421293258667	0.5685600638389587	12.903939247131348	-4.602466106414795	16.05978012084961	3.6957812309265137	-4.013488292694092	22.05403709411621	12.949050903320312	3.4588282108306885	29.16644287109375	5.864986419677734	-14.733132362365723	12.278722763061523	-4.810859203338623	9.391777992248535	0.6283497214317322	27.007736206054688	15.918834686279297	12.863487243652344	2.916673183441162	3.673201322555542	10.469005584716797	-2.2715072631835938	-19.67865562438965	-4.640348434448242	-5.332834720611572	-13.40311050415039	-24.001684188842773	-22.048446655273438	39.957191467285156	-2.835888385772705	16.194875717163086	1.1708225011825562	3.9837794303894043	-11.95448112487793	-0.5891247391700745	-9.982351303100586	8.276939392089844	-1.7196033000946045	-25.7689266204834	-5.838411331176758	10.419818878173828	-9.468677520751953	-7.0703444480896	0.8325086832046509	4.606998920440674	2.65765118598938	-23.69502067565918	-10.149141311645508	-15.505536079406738	23.284175872802734	-7.974336624145508	27.421104431152344	-9.20263385772705	6.4851179122924805	23.887672424316406	-18.291160583496094	7.991294860839844	-7.339905738830566	0.13044379651546478	-22.096965789794922	-5.113598346710205	1.3595550060272217	-3.7511093616485596	-7.295663356781006	8.47769546508789	13.329436302185059	2.9685182571411133	-18.695449829101562	-9.94831371307373	-50.548152923583984	-25.393945693969727	-42.78120803833008	11.93716049194336	-33.42787170410156	-8.880985260009766	0.0772714614868164	-5.4218292236328125	2.962150812149048	-5.145482063293457	21.24721336364746	13.335321426391602	-9.441685676574707	19.205764770507812	-12.155295372009277	-18.748483657836914	4.696041584014893	17.1835994720459	9.254351615905762	8.914742469787598	-1.813905954360962	-1.2972263097763062	18.08277130126953	-6.826400279998779	3.0883402824401855	22.473983764648438	-4.709751605987549	-2.500704765319824	-11.885406494140625	-29.14255142211914	7.138862133026123	7.709344387054443	6.665522575378418	33.225746154785156	-9.890542030334473	-713.992431640625	-2.986635208129883	-13.362092971801758	-5.501587390899658	-7.79988956451416	5.843729496002197	1.294520616531372	-9.399452209472656	-24.6745548248291	-14.485962867736816	15.386255264282227	2.3083837032318115	-10.401070594787598	-14.949295997619629	7.463808536529541	-0.5449023842811584	12.718131065368652	21.865062713623047	-7.265585422515869	-29.246179580688477	-0.148948535323143	-7.173408031463623	8.116035461425781	-26.59581756591797	-12.354581832885742	17.16262435913086	4.024783134460449	10.185574531555176	4.427562236785889	-28.465068817138672	18.63233757019043	0.5968166589736938	-22.443357467651367	-13.198427200317383	6.876501083374023	-9.46908950805664	-11.190829277038574	12.420757293701172	-22.711423873901367	-1.6879725456237793	-0.31030917167663574	-5.058556079864502	3.434736728668213	3.5338165760040283	3.660874605178833	-26.944747924804688	-14.688985824584961	23.402877807617188	1.3681471347808838	19.967845916748047	29.724498748779297	16.794607162475586	1.2292464971542358	-3.873739719390869	3.343057155609131	-2.5760066509246826	-5.939639568328857	10.0411376953125	-14.874154090881348	-17.73267364501953	6.268555641174316	22.800657272338867	-10.469691276550293	-6.477804660797119	6.774625778198242	-6.88702917098999	-21.00154685974121	18.273427963256836	23.957908630371094	-31.290010452270508	16.19593048095703	-7.298094272613525	21.30242347717285	3.9322924613952637	11.5597562789917	2.3968136310577393	14.554616928100586	7.640096187591553	16.608272552490234	-23.95358657836914	13.436979293823242	29.241329193115234	7.863673686981201	20.14425277709961	1.9157145023345947	-12.123793601989746	-0.7726970911026001	-15.370098114013672	20.236032485961914	-8.819448471069336	-9.624597549438477	11.607861518859863	0.2580925524234772	-23.22321891784668	-28.106689453125	-7.866594314575195	-3.6256141662597656	7.361263275146484	-17.41969108581543	4.979543209075928	-17.665468215942383	17.71395492553711	-5.327628135681152	-36.97791290283203	7.298734188079834	11.827765464782715	1.4095568656921387	-1.3487348556518555	-5.233009338378906	31.875696182250977	3.3318264484405518	-4.35772705078125	-0.06044983118772507	13.377164840698242	-28.40542221069336	7.140880107879639	8.234766006469727	-8.515193939208984	11.077933311462402	1.6160160303115845	-3.4433248043060303	4.481361389160156	20.112173080444336	-5.52467679977417	20.97693634033203	-11.617878913879395	25.89527130126953	-2.2083499431610107	21.94449234008789	-7.725958347320557	11.543094635009766	-13.420940399169922	-4.452059268951416	11.609606742858887	29.31460952758789	12.328222274780273	-5.301116943359375	3.3578102588653564	10.633081436157227	17.38996124267578	30.80753517150879	1.2865893840789795	15.378798484802246	-1.2982220649719238	-10.857438087463379	6.1432061195373535	6.984154224395752	-24.618328094482422	3.2171618938446045	2.36838960647583	-12.183554649353027	7.517446517944336	-13.266097068786621	-7.448897361755371	-3.229311227798462	-15.205331802368164	0.9576212763786316	1.9451512098312378	-11.414380073547363	-27.411640167236328	-5.2677388191223145	-17.30353546142578	24.662811279296875	-0.5432911515235901	10.737408638000488	21.961299896240234	8.564628601074219	0.18184532225131989	3.802523136138916	-4.715723037719727	30.53563117980957	-9.03546142578125	19.52640151977539	-7.385068416595459	11.59012508392334	1.1901204586029053	7.242706298828125	15.941200256347656	3.223613739013672	-4.821246147155762	-1.8021612167358398	9.94006061553955	-29.86031723022461	-6.774603366851807	8.254277229309082	7.526587009429932	3.777048110961914	-8.159430503845215	18.5835018157959	2.333198308944702	-0.7094093561172485	34.05967712402344	3.3954601287841797	11.813820838928223	29.95205307006836	2.09960675239563	-14.391240119934082	-21.762256622314453	-13.505486488342285	15.937219619750977	-4.990701675415039	25.600671768188477	-12.86330795288086	20.847618103027344	9.990923881530762	6.540307998657227	-11.966252326965332	72.06891632080078	16.088851928710938	-5.707272052764893	-19.098861694335938	23.35167121887207	-7.375237941741943	2.4596540927886963	1.8663264513015747	-34.8325080871582	13.410983085632324	-1.5574129819869995	28.658634185791016	-27.783342361450195	24.355762481689453	12.138530731201172	-9.346131324768066	-2.358699321746826	10.373824119567871	15.105758666992188	-17.179122924804688	15.164519309997559	0.19335949420928955	-10.68709945678711	33.64577865600586	-15.309972763061523	-13.063776016235352	6.498727798461914	5.3442301750183105	-26.725168228149414	10.480592727661133	-2.238016366958618	7.148125648498535	11.410625457763672	-3.250403642654419	-10.633974075317383	-12.74288272857666	3.1032819747924805	-11.076265335083008	-0.34873369336128235	5.381545543670654	7.9071946144104	-24.99382781982422	-7.20602560043335	18.167367935180664	4.309190273284912	5.451934814453125	14.82131290435791	17.65460205078125	7.105595111846924	0.21048302948474884	-1.2663806676864624	8.927254676818848	14.049869537353516	-25.79531478881836	14.607890129089355	7.017487525939941	-2.4014785289764404	22.352397918701172	9.235475540161133	-14.902539253234863	7.513522148132324	-6.543368339538574	-6.63090181350708	14.017251014709473	-9.187911987304688	9.765668869018555	-2.7377560138702393	-2.209686279296875	-3.9076616764068604	14.537694931030273	-9.742912292480469	8.780001640319824	-10.19430923461914	-3.801426410675049	-2.6437718868255615	27.280004501342773	-15.159210205078125	-11.398482322692871	0.17997904121875763	8.575251579284668	3.0361855030059814	0.056568752974271774	24.64854621887207	1.9840290546417236	19.129135131835938	-8.559466361999512	5.408278942108154	10.94632339477539	-13.363885879516602	-5.565494060516357	7.712958812713623	-16.364559173583984	5.839343070983887	-20.27006721496582	-21.525550842285156	12.256128311157227	8.774842262268066	-14.540579795837402	11.702845573425293	-0.6658472418785095	-3.0051958560943604	20.10084342956543	4.379958152770996	10.161566734313965	-4.725471019744873	18.443519592285156	-13.40343952178955	-15.611398696899414	7.970198631286621	-11.049139022827148	-17.02928924560547	7.305631160736084	-16.487611770629883	-3.18253755569458	-23.43009376525879	-12.50658130645752	-2.9646918773651123	-3.7556071281433105	-62.5655403137207	19.34457778930664	-29.14691925048828	0.2776275873184204	-16.827739715576172	-26.872350692749023	-3.04133939743042	-0.5211724638938904	-11.930867195129395	-12.437834739685059	-8.155498504638672	10.183856964111328	4.0572710037231445	3.8383634090423584	-4.03809928894043	51.5370979309082	6.001000881195068	-12.493329048156738	14.971715927124023	8.610642433166504	50.16587448120117	8.521084785461426	-10.970009803771973	-17.54897689819336	-10.144213676452637	13.709226608276367	5.163971900939941	18.92939567565918	-8.748368263244629	3.4112491607666016	21.764198303222656	-14.647884368896484	0.44273853302001953	5.245108604431152	9.303079605102539	15.584529876708984	-2.4095189571380615	17.683998107910156	-2.448733329772949	-10.150029182434082	-18.698928833007812	-1.0293153524398804	0.17766566574573517	16.91922378540039	-15.154425621032715	-21.003692626953125	-5.6491241455078125	-6.479804039001465	9.868646621704102	-7.637103080749512	1.6929945945739746	-5.358528137207031	2.3442084789276123	-7.764203071594238	-17.84867286682129	24.527912139892578	-11.283622741699219	0.6214295029640198	7.939547538757324	15.376486778259277	9.826567649841309	21.80437469482422	8.430967330932617	-24.9095516204834	-1.2672851085662842	-6.993852615356445	-38.984779357910156	-0.8625931143760681	7.464139938354492	-1.1148916482925415	22.46434211730957	27.60718536376953	14.552718162536621	9.550350189208984	9.758960723876953	14.97390079498291	31.017929077148438	-13.421940803527832	1.6494078636169434	-23.10400390625	20.601133346557617	18.082935333251953	4.9621357917785645	5.240546703338623	3.1078178882598877	-6.725102424621582	-0.9449847340583801	-7.036237716674805	-31.464967727661133	-6.673874378204346	-19.80965232849121	15.629961967468262	1.6857712268829346	-9.890464782714844	-11.947293281555176	1.2855812311172485	-3.880047082901001	-2.599466562271118	-9.634620666503906	-5.119956016540527	-11.520923614501953	12.781500816345215	-1.8738365173339844	-5.041319370269775	-5.09283971786499	-15.727457046508789	5.839191913604736	-14.426058769226074	1.5087887048721313	8.373207092285156	4.458154678344727	21.574798583984375	2.8203957080841064	-4.1682329177856445	1.5004231929779053	-27.306406021118164	18.36351203918457	-1.4163917303085327	-29.852375030517578	1.2445268630981445	-6.566448211669922	3.9530649185180664	6.417113780975342	-7.961906909942627	29.26664161682129	2.869257926940918	-8.194440841674805	-1.060562252998352	4.1769700050354	-5.030998229980469	2.2316272258758545	20.154163360595703	-25.161043167114258	-3.3914287090301514	7.023003101348877	1.7129106521606445	13.454386711120605	39.234737396240234	13.62904167175293	0.6294081211090088	-15.397103309631348	15.62757396697998	13.816864967346191	14.205597877502441	4.562154769897461	-3.5767643451690674	-2.197510242462158	9.277584075927734	7.133125305175781	-1.0710663795471191	13.587021827697754	5.395201206207275	13.32900333404541	-3.9122698307037354	3.306840658187866	-7.7817606925964355	-11.864045143127441	1.9491466283798218	15.071523666381836	20.175434112548828	6.7592668533325195	-11.042784690856934	-18.01477813720703	20.025650024414062	-10.336807250976562	-16.3956298828125	22.08657455444336	-5.079185485839844	0.34088897705078125	-3.7675323486328125	-0.3140873908996582	-13.680482864379883	-3.3048813343048096	0.08043431490659714	-17.295639038085938	4.910438060760498	-29.03366470336914	-4.4566545486450195	-16.037893295288086	20.808828353881836	6.351926326751709	-10.930314064025879	-1.0463224649429321	13.38542652130127	-7.156171798706055	-3.6696462631225586	-1.017935037612915	16.29167938232422	13.248719215393066	0.6564701199531555	-0.26410987973213196	0.8530328273773193	19.158628463745117	1.2631853818893433	-3.6150903701782227	-13.039907455444336	7.912853240966797	11.096128463745117	-7.645401954650879	-7.057505130767822	16.474695205688477	14.659871101379395	1.3507065773010254	-10.36752986907959	16.514026641845703	20.16309356689453	13.160560607910156	22.3172664642334	-3.9810221195220947	-0.386838436126709	-30.259620666503906	-7.902405261993408	28.051332473754883	-9.705735206604004	-11.445009231567383	3.956580877304077	-22.303768157958984	-1.575684905052185	4.876862525939941	-19.57442283630371	8.835949897766113	12.918001174926758	-10.396520614624023	-3.8877930641174316	-2.723785161972046	15.894994735717773	31.369951248168945	-7.452575206756592	7.945400714874268	7.173724174499512	6.888560771942139	-3.1176095008850098	10.697364807128906	4.092371940612793	-8.474967956542969	-9.109682083129883	-4.436133861541748	-5.310534477233887	-25.263151168823242	-2.8530924320220947	3.020772695541382	3.5285773277282715	1.1711316108703613	-10.880489349365234	24.538463592529297	-21.953340530395508	-4.534074306488037	-21.305707931518555	0.5011997818946838	4.852452754974365	599.4830932617188	-22.504236221313477	-20.64735984802246	4.915672302246094	18.264442443847656	14.449779510498047	-4.900763988494873	28.17504119873047	13.715119361877441	17.011682510375977	-5.773300647735596	-3.68843412399292	-3.725268840789795	-4.879983425140381	-17.63994598388672	13.884502410888672	-0.37748003005981445	36.9588623046875	-5.488164901733398	-0.7584158182144165	6.276680946350098	-0.8783494234085083	-21.6353702545166	1.2760952711105347	-12.681523323059082	6.094135761260986	11.649398803710938	-3.2763335704803467	19.020212173461914	-5.851144790649414	-5.2457733154296875	7.439652919769287	-4.214878559112549	7.195422172546387	6.778426170349121	3.8832080364227295	4.057825088500977	17.352535247802734	24.219247817993164	8.443916320800781	9.408882141113281	-3.840789556503296	6.354002475738525	-2.77474045753479	-2.0565598011016846	18.13474464416504	16.938228607177734	15.200071334838867	16.418413162231445	-5.409181118011475	5.8762969970703125	-5.662865161895752	14.7526273727417	-18.492029190063477	28.863632202148438	0.46513229608535767	-0.7744086980819702	-3.4241952896118164	19.8543701171875	5.062149524688721	10.095633506774902	2.242358922958374	4.307755470275879	1.4828805923461914	2.630592107772827	7.645529270172119	5.765546798706055	29.229381561279297	4.954859733581543	2.9894566535949707	-12.261235237121582	-13.652562141418457	18.547229766845703	38.71467971801758	-10.664512634277344	14.62825870513916	-20.36211395263672	-15.395130157470703	10.688422203063965	-3.4832985401153564	-10.645758628845215	20.237503051757812	-8.388444900512695	4.439488887786865	26.18248748779297	10.43200397491455	3.2849555015563965	4.08189582824707	-7.542346954345703	6.220470905303955	-88.12614440917969	1.3487616777420044	9.39533805847168	2.6301944255828857	31.998079299926758	41.275596618652344	-9.152360916137695	14.643794059753418	-0.15092049539089203	28.07183265686035	-34.039546966552734	-17.816417694091797	0.37716296315193176	-14.657418251037598	-12.407336235046387	0.17472636699676514	4.1704792976379395	-4.828607082366943	-3.920936346054077	-3.3029682636260986	8.321303367614746	4.697084426879883	0.5911376476287842	5.333533763885498	30.26119041442871	13.971161842346191	12.953289985656738	-0.20272111892700195	-7.732304573059082	-11.802347183227539	52.86958312988281	-5.839420795440674	2.734936475753784	-2.30720853805542	-0.39867672324180603	6.197958469390869	26.417531967163086	-75.07181549072266	8.16287612915039	2.6473610401153564	-19.595487594604492	12.385917663574219	-4.971738815307617	12.833796501159668	6.355050086975098	16.482818603515625	2.772000551223755	10.066132545471191	-7.7983198165893555	7.109395980834961	7.2415313720703125	1.0857911109924316	-4.453134059906006	-26.150896072387695	6.882757186889648	-1.0042071342468262	12.274346351623535	-25.35725212097168	10.610785484313965	-14.596160888671875	-7.356288433074951	10.701842308044434	-15.018056869506836	-7.134187698364258	-7.18765115737915	-15.358518600463867	-9.490930557250977	7.743939399719238	1.7830582857131958	4.006019115447998	-23.403675079345703	-9.617888450622559	-5.042705059051514	20.93768310546875	-5.646143913269043	7.313060283660889	-3.8959290981292725	8.311877250671387	-30.076709747314453	15.545586585998535	12.087652206420898	1.2386438846588135	6.642770290374756	17.670509338378906	18.55389976501465	-12.654107093811035	1.3131994009017944	-12.538046836853027	20.920730590820312	-0.5377922058105469	-21.181835174560547	-6.49995231628418	11.366000175476074	-0.11534688621759415	1.3371927738189697	17.8934383392334	14.020129203796387	-2.8912997245788574	4.579541206359863	-0.7506777048110962	4.09773063659668	-5.189540386199951	10.24530029296875	-15.369536399841309	6.824974536895752	-1.3936505317687988	4.937175273895264	-25.882219314575195	4.33951473236084	-19.708965301513672	-19.73543930053711	11.781233787536621	-9.68821907043457	-7.218216419219971	34.536460876464844	-26.804630279541016	2.7746644020080566	7.552036762237549	-2.981390953063965	1.1710939407348633	-9.000962257385254	17.7520809173584	-10.533674240112305	1.5031495094299316	5.11060094833374	-7.1653876304626465	-7.289799690246582	14.198214530944824	-13.444347381591797	3.666806936264038	-5.688409805297852	-14.36847972869873	-9.761835098266602	7.39225435256958	-7.587656021118164	13.079257011413574	-8.576582908630371	-22.33786392211914	-1.5817325115203857	-14.87911605834961	2.2955117225646973	1.491603136062622	-3.280755043029785	-9.889948844909668	0.11858496069908142	-34.64435958862305	-16.840545654296875	-21.734643936157227	-8.251696586608887	7.600510597229004	2.879692554473877	4.9358134269714355	-11.297469139099121	-2.561291456222534	1.7698376178741455	2.709155797958374	13.986838340759277	9.35118579864502	-5.607847690582275	5.1230878829956055	12.784345626831055	-4.949548721313477	19.682022094726562	11.837657928466797	8.773085594177246	0.5388674139976501	-7.707965850830078	0.3213663399219513	22.008769989013672	20.82212257385254	-18.90921974182129	-3.3849728107452393	23.440982818603516	22.408464431762695	-5.952107906341553	8.169447898864746	-14.500397682189941	-12.167028427124023	-12.563915252685547	10.342511177062988	-17.541824340820312	-18.293886184692383	5.343368053436279	-10.385436058044434	-17.39820098876953	8.502880096435547	-17.98725700378418	29.90779685974121	18.977201461791992	0.7435632348060608	-18.813627243041992	7.318767070770264	8.255789756774902	8.021018028259277	-12.30578327178955	-14.52924919128418	-15.144060134887695	7.203401565551758	-2.111284017562866	8.531866073608398	4.593520164489746	0.8760884404182434	11.570693016052246	3.0241236686706543	-17.673439025878906	10.35148811340332	10.740464210510254	-8.784577369689941	12.17138385772705	18.183378219604492	1.6950222253799438	-1.1656960248947144	0.05432392284274101	-9.217028617858887	5.069697380065918	11.342148780822754	2.8663032054901123	10.70980453491211	-18.150148391723633	10.53060531616211	0.46709540486335754	-11.050909042358398	12.923421859741211	-18.314008712768555	8.527745246887207	8.360207557678223	-4.725476264953613	3.613614559173584	3.672390937805176	2.4009664058685303	13.817127227783203	7.567923069000244	3.0687737464904785	-6.983016014099121	-6.914798259735107	-26.505462646484375	13.8793363571167	27.40970802307129	14.066951751708984	-11.517948150634766	7.590910911560059	-13.892583847045898	1.0503716468811035	-5.531531810760498	26.36021614074707	-12.036271095275879	10.684974670410156	-28.61818504333496	-12.007643699645996	-11.782200813293457	2.9780142307281494	-9.416810035705566	11.58321762084961	
orso	10.246613502502441	-36.351707458496094	1.0695698261260986	12.61730670928955	10.727399826049805	-15.025753021240234	15.69282054901123	-17.877307891845703	-12.866772651672363	37.61591720581055	-11.255898475646973	4.803628921508789	-7.819039344787598	5.259891033172607	15.194416999816895	-12.836334228515625	21.837661743164062	0.38959166407585144	-20.955041885375977	-4.504459381103516	17.397552490234375	-18.149700164794922	-2.8840062618255615	14.119653701782227	-8.995712280273438	-11.087831497192383	11.007695198059082	-6.507258892059326	4.132569789886475	-5.306236743927002	-3.224607229232788	-3.6012816429138184	2.6912434101104736	4.855478763580322	18.368749618530273	3.5952327251434326	-8.829644203186035	-13.778420448303223	-17.145524978637695	6.480961322784424	-12.684541702270508	1.766762375831604	-3.6660940647125244	-9.612007141113281	9.343737602233887	8.982763290405273	15.249006271362305	-14.676218032836914	-12.122302055358887	9.596543312072754	-1.2968515157699585	11.307779312133789	-5.551636695861816	0.4848463833332062	7.0691728591918945	11.158318519592285	11.527685165405273	-25.91489601135254	4.4961323738098145	0.5637031197547913	-16.305870056152344	-7.759889602661133	-22.604516983032227	-0.49994879961013794	26.055438995361328	-6.821197032928467	9.951921463012695	2.5734729766845703	-0.4585338234901428	4.511797904968262	21.239479064941406	5.903054237365723	1.1801445484161377	13.634315490722656	25.412582397460938	12.907161712646484	-0.1196000799536705	-3.652883768081665	2.786302328109741	-14.505682945251465	-4.266955375671387	-6.954135417938232	15.011126518249512	19.237380981445312	-2.594796657562256	11.973343849182129	-23.390554428100586	1.2119990587234497	-22.6954402923584	-7.034701347351074	-11.067160606384277	-27.240556716918945	-11.633137702941895	-0.9392417073249817	2.445629596710205	-8.621275901794434	-3.321866989135742	6.827239990234375	19.466472625732422	13.841440200805664	-0.8781238198280334	-6.609318733215332	8.094648361206055	-25.556232452392578	1.2245131731033325	-9.228999137878418	16.383533477783203	11.606880187988281	-0.3773469626903534	2.6214797496795654	-27.13657569885254	1.1705185174942017	-2.992863893508911	-0.10070540755987167	-0.00395324919372797	-6.564949035644531	0.865876317024231	4.646531105041504	7.741174221038818	11.109892845153809	8.036308288574219	1.6976345777511597	8.2732515335083	-13.315500259399414	-0.23032720386981964	14.652334213256836	14.039641380310059	-4.117220401763916	7.475246906280518	9.638672828674316	-2.332303524017334	12.662220001220703	2.69842791557312	-2.875490427017212	-23.482250213623047	5.435889720916748	-18.268423080444336	3.7120447158813477	10.932262420654297	3.6653635501861572	11.28653335571289	-0.6448585391044617	15.2785005569458	17.52725601196289	-27.20210838317871	0.8960461616516113	11.968673706054688	-13.077244758605957	-1.6402748823165894	-3.8857083320617676	5.437771320343018	23.506271362304688	35.98838806152344	-10.149524688720703	-6.744908809661865	-6.292412281036377	-12.973146438598633	6.075007438659668	11.286773681640625	2.0757226943969727	6.712095737457275	-16.49103355407715	0.8471747040748596	10.602761268615723	10.908636093139648	-7.013070583343506	1.2026429176330566	0.4340747594833374	20.715124130249023	6.862671852111816	9.272444725036621	-2.0670721530914307	5.7615556716918945	3.7178657054901123	-2.6934313774108887	30.749738693237305	-30.443965911865234	-11.229249000549316	-10.032712936401367	-8.457265853881836	-5.957303047180176	6.4478888511657715	3.292919397354126	-24.4444580078125	4.463835716247559	19.233110427856445	5.263884544372559	-8.519567489624023	-8.124775886535645	-15.15847110748291	10.171948432922363	15.61385440826416	0.06502201408147812	-3.2022836208343506	5.223433971405029	-1.4404206275939941	5.403810024261475	10.504541397094727	-21.081111907958984	-3.546405076980591	15.163322448730469	-8.32555866241455	2.442547559738159	12.422796249389648	5.08245325088501	28.40288734436035	20.866147994995117	13.960786819458008	30.176210403442383	-7.509432792663574	-12.559831619262695	3.057224750518799	7.877801418304443	-12.028719902038574	5.715803146362305	-20.34596061706543	4.452355861663818	1.3324253559112549	1.5916632413864136	-3.415764331817627	4.492130756378174	-6.774234771728516	11.980478286743164	-0.4885028004646301	20.61577033996582	-8.930191993713379	-14.070889472961426	4.909304141998291	7.33981466293335	-6.587418079376221	17.003021240234375	-20.629222869873047	-4.21852970123291	13.50366497039795	-14.247209548950195	-11.14503288269043	-16.960330963134766	10.893880844116211	-27.328819274902344	-14.978479385375977	-32.36640167236328	12.877036094665527	12.757292747497559	-10.163325309753418	2.611992359161377	18.999059677124023	-4.337501049041748	-25.46259307861328	1.2310516834259033	-0.20756599307060242	-5.341025352478027	5.6905131340026855	-16.79147720336914	18.3135929107666	-21.821346282958984	4.456611633300781	23.72163200378418	22.16666030883789	-8.701355934143066	11.259170532226562	0.3690137267112732	-3.8810536861419678	-16.400402069091797	-3.646723747253418	-3.1965949535369873	-6.747665882110596	16.803682327270508	11.280998229980469	4.116133213043213	-0.8419237732887268	-9.077157020568848	-2.58005428314209	19.723901748657227	-7.359111309051514	-0.6961197853088379	-7.123124122619629	7.0526862144470215	-7.5312180519104	-10.718347549438477	4.851652145385742	3.5780558586120605	3.1181461811065674	12.13399600982666	5.362117767333984	12.286380767822266	4.867219924926758	17.540502548217773	10.543794631958008	-16.672197341918945	3.157986879348755	11.187591552734375	-9.821399688720703	12.24804401397705	28.050905227661133	-7.168679237365723	19.817590713500977	-14.544225692749023	-8.314431190490723	6.077395439147949	-11.303894996643066	-12.715864181518555	-2.823188066482544	-3.3771438598632812	0.45203346014022827	-11.313087463378906	7.235021591186523	7.602778911590576	-4.492556571960449	7.473392486572266	-5.512191295623779	9.94334602355957	-3.7747535705566406	0.6767199635505676	0.44636645913124084	-1.7163269519805908	728.46728515625	5.61610746383667	-1.6452093124389648	-24.460561752319336	3.7687885761260986	20.188108444213867	-11.143239974975586	11.170916557312012	-1.5831782817840576	17.12701988220215	6.45433235168457	-8.309300422668457	-10.713123321533203	3.9518561363220215	6.140305042266846	-17.347305297851562	-7.476167678833008	-20.03489112854004	10.190169334411621	-10.68007755279541	2.9299252033233643	-8.546785354614258	-7.448570728302002	-17.262619018554688	-3.9861252307891846	-10.26266098022461	0.3498544692993164	14.095808029174805	-15.308609008789062	-6.459024429321289	-4.928502082824707	16.00514793395996	-16.371543884277344	11.226189613342285	23.821439743041992	-1.0580941438674927	-4.304328918457031	15.017841339111328	-6.620540142059326	-14.89671516418457	-3.8800811767578125	-10.933836936950684	2.4881558418273926	2.312004327774048	-2.4141669273376465	-5.732764720916748	-3.7313411235809326	-4.9726457595825195	16.146852493286133	7.990528583526611	27.155776977539062	3.577991485595703	4.540560722351074	-5.741365432739258	8.284308433532715	6.939590930938721	-17.664886474609375	-25.979610443115234	0.2807600498199463	-5.795422554016113	5.354643821716309	-5.8133015632629395	-1.1965041160583496	-9.257227897644043	2.2373738288879395	13.671817779541016	-0.7575292587280273	-6.2912492752075195	9.82949161529541	16.154067993164062	-12.901222229003906	-9.451991081237793	-5.327178001403809	-14.217418670654297	6.069127082824707	10.003946304321289	6.800380229949951	-10.71875	7.955132961273193	-16.52415657043457	-11.0943603515625	-12.84707260131836	-8.140008926391602	13.665326118469238	-30.245159149169922	-27.061298370361328	-5.932239532470703	14.947341918945312	7.716145992279053	-12.623727798461914	11.297907829284668	-3.7399179935455322	-17.052810668945312	4.805493354797363	20.869367599487305	10.897905349731445	-10.854131698608398	1.019993782043457	1.276757001876831	20.71668815612793	-9.759573936462402	-1.2994636297225952	-2.0989623069763184	10.371698379516602	-18.38759994506836	0.5029267072677612	13.500641822814941	-6.448882579803467	1.305002212524414	-8.34779167175293	-3.5718350410461426	-9.329946517944336	-9.625382423400879	16.86754608154297	0.06864840537309647	-5.429160118103027	-9.122647285461426	17.611793518066406	-11.429075241088867	-5.1376423835754395	-13.875288009643555	-5.023807525634766	11.400790214538574	-5.631465435028076	-1.1720805168151855	20.26830291748047	5.2360382080078125	-3.9753129482269287	12.568506240844727	-20.3335018157959	-26.265073776245117	19.897768020629883	-24.8592586517334	6.331844806671143	-34.719581604003906	-74.59590148925781	-8.835661888122559	3.08349609375	8.745594024658203	4.635675430297852	-8.684000968933105	-22.819616317749023	-19.928808212280273	-10.982898712158203	0.48598048090934753	3.8576395511627197	-10.611675262451172	-3.4259891510009766	2.105013132095337	-3.3455915451049805	-5.511038303375244	-22.68935203552246	8.257177352905273	0.17477792501449585	-0.48151683807373047	9.40380573272705	-8.932241439819336	-8.979269981384277	-11.291335105895996	-18.3739013671875	17.49177360534668	-15.763498306274414	-8.593240737915039	-12.897619247436523	-6.924999713897705	-31.193500518798828	25.846208572387695	-0.430108904838562	-15.619585037231445	-9.175419807434082	16.670345306396484	13.820893287658691	1.0378344058990479	-4.888900279998779	-4.039021015167236	8.47603988647461	44.01803207397461	10.9657621383667	-1.1958633661270142	-21.742380142211914	6.496562957763672	4.482227802276611	21.148895263671875	-8.030349731445312	-1.1031508445739746	2.769810914993286	6.838310241699219	-16.56557846069336	0.8887889385223389	-2.697143077850342	-9.070286750793457	5.862569332122803	10.934893608093262	1.5710654258728027	-1.526089072227478	16.09256362915039	-12.965977668762207	11.16497802734375	7.97749662399292	-13.505362510681152	6.345676898956299	1.2611936330795288	34.614402770996094	-9.2194185256958	-17.22673797607422	-28.757991790771484	12.993205070495605	14.097683906555176	-2.8334152698516846	20.894241333007812	1.0131996870040894	17.91312599182129	5.943480968475342	-10.851872444152832	-8.87086009979248	-5.892787456512451	-17.915111541748047	9.784571647644043	15.601210594177246	12.707778930664062	18.215761184692383	-1.2725272178649902	5.598140239715576	14.268333435058594	5.719936370849609	17.61634635925293	30.33941650390625	-5.921219825744629	-11.342745780944824	-20.73988151550293	-0.46310916543006897	0.3172203302383423	4.588973045349121	-1.8609989881515503	14.228723526000977	14.437828063964844	-5.20560884475708	21.38284683227539	-7.58317232131958	-21.63953399658203	-6.721428871154785	-2.431367874145508	3.4711225032806396	11.197264671325684	2.1780190467834473	5.571883678436279	30.37919807434082	2.7930960655212402	-1.5718655586242676	13.672284126281738	15.02630615234375	5.524882793426514	-23.835269927978516	20.037687301635742	-9.122118949890137	8.612505912780762	14.547823905944824	1.9798738956451416	1.217050313949585	-4.786383152008057	-11.323687553405762	-5.046569347381592	-0.20133893191814423	8.36759090423584	6.758153438568115	8.835991859436035	-16.360368728637695	18.30127716064453	7.595902919769287	2.8857128620147705	-8.450199127197266	-11.651395797729492	-7.524474620819092	1.0275402069091797	-5.4608683586120605	0.03934768587350845	8.450611114501953	-6.93061637878418	-13.484336853027344	14.977984428405762	-9.481462478637695	3.2572250366210938	4.247501850128174	-12.534279823303223	-6.292415618896484	1.1784186363220215	-6.132514476776123	-6.289235591888428	-33.934940338134766	-20.883092880249023	-5.525612831115723	-6.874552249908447	7.063180446624756	-1.7440190315246582	-5.457440376281738	17.05536460876465	11.48293399810791	-8.983875274658203	9.157625198364258	-7.628428936004639	-5.6325554847717285	-7.179738998413086	2.9012134075164795	8.342477798461914	-24.197053909301758	14.724894523620605	-6.100166320800781	8.125346183776855	14.794346809387207	8.14664077758789	3.972296714782715	11.589669227600098	0.914787232875824	-28.786619186401367	3.1552555561065674	-11.467251777648926	26.7348690032959	6.394158363342285	17.6085147857666	8.361909866333008	-15.18696403503418	-1.6060272455215454	-20.60500717163086	7.628717422485352	-21.009990692138672	-18.578420639038086	-5.691086769104004	-11.919190406799316	-13.044048309326172	-20.467042922973633	-22.77659797668457	2.5238547325134277	12.162419319152832	26.382801055908203	2.6629090309143066	-1.7111053466796875	9.460047721862793	17.552799224853516	-4.047679901123047	2.6270954608917236	-35.687992095947266	-19.706480026245117	12.390521049499512	-7.401876926422119	-4.174112796783447	-6.850116729736328	0.5853091478347778	-3.508592128753662	-2.3668267726898193	-13.207029342651367	4.062494277954102	7.610710144042969	4.902264595031738	2.4560956954956055	3.7208757400512695	17.282262802124023	11.120584487915039	21.341352462768555	-19.693410873413086	-3.904754638671875	-8.715093612670898	-3.8570492267608643	-20.83450698852539	-17.57215118408203	4.485240459442139	-25.92905616760254	-9.305280685424805	5.193475723266602	-12.089974403381348	13.87441349029541	-6.424564361572266	15.000332832336426	30.627782821655273	-33.344146728515625	-5.010483741760254	13.59697437286377	6.092162609100342	20.019561767578125	-2.6954193115234375	9.212214469909668	-1.1770788431167603	10.410069465637207	-9.564557075500488	-8.278684616088867	15.485295295715332	2.9036684036254883	14.67660903930664	14.690056800842285	4.823668003082275	9.042244911193848	-3.26192307472229	2.752652406692505	-0.8409602642059326	-20.895416259765625	-2.317418098449707	-41.41073989868164	-13.22871208190918	-18.692304611206055	-7.717802047729492	-9.738485336303711	16.716339111328125	4.913164138793945	-1.3536043167114258	11.845176696777344	5.2451276779174805	3.810814142227173	-3.577221393585205	-10.628229141235352	12.309367179870605	-11.127888679504395	17.69293975830078	-4.297239303588867	-0.6801812052726746	0.242063969373703	10.913200378417969	8.298946380615234	-7.3510518074035645	-19.143064498901367	-0.25593024492263794	-18.811553955078125	7.642825603485107	3.210537910461426	5.1603217124938965	-11.079070091247559	-7.082488059997559	2.7544097900390625	-2.338808298110962	-1.119568109512329	22.332109451293945	-1.3986482620239258	6.65528678894043	5.334322452545166	10.985240936279297	-19.414384841918945	12.957542419433594	-0.260063499212265	-19.2697696685791	-11.996679306030273	-21.097902297973633	-7.8835320472717285	21.217763900756836	-14.164478302001953	0.3613324761390686	13.161920547485352	11.759380340576172	13.896383285522461	-1.5705156326293945	2.259398937225342	-3.175797939300537	16.92977523803711	-12.78984260559082	-0.034091606736183167	6.529502868652344	-0.858200192451477	-5.740288257598877	-20.663537979125977	-10.391279220581055	18.59125518798828	3.6385247707366943	-17.61359405517578	0.7169912457466125	9.095961570739746	-16.058496475219727	22.136959075927734	-14.298380851745605	-3.550034523010254	3.314079761505127	-22.80868911743164	-18.930007934570312	-11.017589569091797	12.900158882141113	-13.449491500854492	8.108986854553223	-4.368650913238525	-23.610288619995117	-0.0009080582531169057	-20.97010040283203	2.349489450454712	-7.431276798248291	-10.595343589782715	34.92433166503906	2.9444541931152344	24.134672164916992	-11.498517990112305	7.654295921325684	8.356837272644043	-7.196893215179443	23.108047485351562	-4.659894943237305	10.570405006408691	-9.11046314239502	6.28077507019043	-0.7354555130004883	14.734564781188965	16.26316261291504	17.31492042541504	18.581218719482422	-8.405851364135742	0.6346472501754761	28.63338279724121	9.794733047485352	40.81858825683594	6.184808731079102	1.600476861000061	-1.5518056154251099	7.586801528930664	15.088032722473145	9.623947143554688	10.347492218017578	-24.094295501708984	-7.481016635894775	-1.9525789022445679	-2.8208165168762207	-0.22146272659301758	-16.90581512451172	22.028274536132812	16.295988082885742	27.91224479675293	-36.24430847167969	8.400345802307129	2.035205602645874	-13.391357421875	2.4943795204162598	-13.25604248046875	-14.784551620483398	-0.6997374892234802	-14.141668319702148	-8.507102966308594	1.2290419340133667	7.612532138824463	43.529685974121094	1.1146070957183838	14.01312255859375	-9.485577583312988	-9.973952293395996	36.68083190917969	-7.61671781539917	-11.976069450378418	-8.96498966217041	-5.307427883148193	-3.0881099700927734	11.891554832458496	3.560642719268799	3.0759377479553223	8.709920883178711	4.636184215545654	-30.163957595825195	9.021203994750977	-2.7079057693481445	0.8149208426475525	-5.260183811187744	-2.8251793384552	-1.7984280586242676	17.928855895996094	-2.1157665252685547	8.216014862060547	6.09152889251709	1.0284157991409302	14.964720726013184	-3.912928819656372	7.541690349578857	13.6624755859375	-25.380529403686523	12.647663116455078	15.198188781738281	11.655508041381836	1.916333794593811	6.535629749298096	-0.4919651746749878	19.378820419311523	-5.667859077453613	-16.839509963989258	-6.73647403717041	3.3680739402770996	-9.055021286010742	9.550942420959473	-21.381189346313477	-1.7533425092697144	10.75602912902832	-22.77094268798828	5.629497051239014	-1.0242698192596436	2.360339403152466	-1.0767008066177368	-3.460416078567505	-27.151588439941406	-2.283442735671997	0.23801369965076447	-22.89550018310547	-2.50596022605896	3.543142795562744	1.959576964378357	16.911579132080078	3.0965471267700195	-11.14057731628418	16.207168579101562	-7.718793869018555	6.765446662902832	7.0431904792785645	-1.9544209241867065	-5.569151401519775	8.694039344787598	4.009836196899414	-15.234374046325684	7.444333076477051	3.638882637023926	9.667943954467773	24.7269287109375	-34.34325408935547	-10.111908912658691	18.525068283081055	12.390074729919434	10.035594940185547	13.071261405944824	-9.327191352844238	16.327407836914062	-14.200945854187012	-3.607779026031494	31.29792022705078	-10.140022277832031	19.318466186523438	-11.2605562210083	-9.57999324798584	-20.939943313598633	6.621829032897949	-10.541584968566895	-1.8874175548553467	-11.337254524230957	-5.799656391143799	-21.558799743652344	8.181769371032715	20.011600494384766	17.00615119934082	7.0849456787109375	-5.789970874786377	11.715985298156738	4.642524242401123	-9.250728607177734	-16.285125732421875	-12.892488479614258	9.42629337310791	-13.849630355834961	-6.922489166259766	0.4080495536327362	-3.6832618713378906	-7.417106628417969	-19.94754409790039	-8.0855131149292	6.29643440246582	16.273576736450195	-23.725881576538086	-11.990702629089355	-3.3293111324310303	18.94150733947754	12.499957084655762	-3.8478000164031982	19.259117126464844	20.314712524414062	-14.387200355529785	9.135838508605957	15.308348655700684	-6.073705196380615	2.731926679611206	4.038092136383057	4.063419342041016	12.133769035339355	11.605354309082031	2.610426187515259	-15.97694206237793	-35.34718704223633	15.09350299835205	15.703726768493652	9.849184036254883	-4.826328277587891	20.24164390563965	19.683897018432617	-14.300992012023926	6.855774402618408	11.609648704528809	5.975758075714111	6.3776469230651855	-11.453625679016113	-4.5151047706604	-15.142192840576172	-17.13886833190918	8.660045623779297	6.034082889556885	9.377096176147461	-9.711564064025879	15.21377944946289	2.345961570739746	4.444594860076904	-1.1846370697021484	15.944181442260742	17.008548736572266	24.595420837402344	-15.763566017150879	1.5002624988555908	-2.2811946868896484	3.808413028717041	0.31064096093177795	7.006785869598389	28.35588264465332	-5.001330852508545	6.943778991699219	19.184101104736328	6.182002544403076	27.224964141845703	0.07502870261669159	-15.348318099975586	16.54180145263672	-10.235993385314941	-7.281290531158447	9.492522239685059	18.194997787475586	-23.693645477294922	16.711339950561523	7.350947380065918	-11.776963233947754	15.461599349975586	23.93629264831543	-0.38440337777137756	-2.9909651279449463	-4.618907451629639	91.2603988647461	17.57289695739746	7.925464630126953	8.451321601867676	6.490185260772705	-11.336024284362793	5.953859806060791	-6.462420463562012	6.5670695304870605	26.310144424438477	-12.7029447555542	-17.046951293945312	-2.984818458557129	-6.13493013381958	-6.2237772941589355	5.858727931976318	4.749852657318115	-19.01036262512207	12.815095901489258	21.250993728637695	5.991168022155762	0.6853849291801453	21.12544822692871	1.9856313467025757	-10.084818840026855	1.5300195217132568	-36.10188674926758	16.99873161315918	0.414781779050827	-1.3701626062393188	19.555526733398438	2.7556493282318115	3.8956265449523926	20.270021438598633	-13.627937316894531	3.163691282272339	-14.324007034301758	4.812426567077637	-8.909905433654785	-3.1198291778564453	11.722429275512695	-6.032166957855225	13.850459098815918	-12.6482572555542	21.45359230041504	-7.0779266357421875	8.793373107910156	5.3828630447387695	13.33832836151123	-22.3342227935791	3.6934316158294678	-2.8144471645355225	-6.982609748840332	10.654909133911133	-12.307616233825684	2.164555311203003	5.502704620361328	-14.22274112701416	1.486987590789795	7.621018886566162	26.940155029296875	12.043357849121094	-10.089118003845215	-20.241296768188477	-1.5616358518600464	21.28427505493164	-4.741970062255859	1.3441880941390991	32.5117301940918	-21.343976974487305	-9.149576187133789	0.7396275401115417	4.163392066955566	-16.128572463989258	0.25757139921188354	6.635684490203857	-11.093290328979492	-10.17111587524414	-8.519475936889648	12.92431926727295	5.291856288909912	-2.8309829235076904	5.937878608703613	5.937950611114502	1.096623420715332	3.6364669799804688	-7.112695693969727	8.143410682678223	-10.455795288085938	5.14619255065918	13.12328052520752	-15.133688926696777	-7.988821983337402	-8.9487886428833	-0.27911439538002014	7.070333957672119	-20.27657699584961	-7.806456089019775	0.8128002882003784	5.187201499938965	-20.96331787109375	63.053321838378906	5.109074115753174	-6.890321254730225	6.79076623916626	5.87829065322876	-2.2394721508026123	-3.568427801132202	19.244630813598633	-10.294960975646973	-13.300043106079102	-12.651496887207031	13.014130592346191	9.476959228515625	-9.159612655639648	-24.514375686645508	-22.493518829345703	-26.010337829589844	-4.979718208312988	-10.351810455322266	-16.26042366027832	29.62442970275879	-27.07176971435547	-2.2844314575195312	5.41934871673584	23.885210037231445	-4.870997905731201	-19.307941436767578	-3.9674110412597656	-13.32906723022461	11.274954795837402	2.5308032035827637	17.3858432769