phrase	xlm-xxl_vectors
giacca	19.32748794555664	-18.77560043334961	16.203433990478516	-4.687122821807861	18.056026458740234	-36.79536437988281	11.705153465270996	-6.991690158843994	6.421940326690674	-5.598720073699951	-1.6250848770141602	12.14632511138916	-31.786006927490234	8.848217010498047	4.099653720855713	-13.009393692016602	-8.361102104187012	-13.094513893127441	-10.165180206298828	15.348359107971191	2.4476001262664795	-9.977471351623535	-4.668022155761719	-0.49748048186302185	-3.9095470905303955	1.1958250999450684	8.969056129455566	6.131669998168945	8.714054107666016	-0.7591685652732849	-5.767275333404541	-2.9051730632781982	6.1184868812561035	-10.451375007629395	-0.10998959094285965	-10.987377166748047	4.092235565185547	-1.1905051469802856	-0.4310820698738098	9.439347267150879	-11.685851097106934	0.39181628823280334	-14.009181022644043	-8.458986282348633	-2.4209249019622803	15.820504188537598	-7.567433834075928	15.899443626403809	-6.837024688720703	6.1049065589904785	-14.921092987060547	-7.092761516571045	-16.121030807495117	-4.22965669631958	1.0405906438827515	-6.987177848815918	-3.816376209259033	-15.162680625915527	0.3061062693595886	-14.092491149902344	2.2888731956481934	0.5944523215293884	5.770083427429199	-12.716376304626465	13.026158332824707	13.545461654663086	-7.791633129119873	4.446285247802734	10.806709289550781	9.064184188842773	6.014447212219238	-1.4014486074447632	9.801447868347168	-9.044229507446289	34.18153762817383	12.957830429077148	-11.643937110900879	-5.492552280426025	12.118354797363281	8.713916778564453	-19.844558715820312	-5.103665351867676	25.075414657592773	16.12901496887207	5.0687761306762695	-4.132835388183594	15.566650390625	2.3750698566436768	-13.678174018859863	8.12833309173584	12.144519805908203	-2.4474170207977295	11.838175773620605	15.175700187683105	4.423266887664795	11.667125701904297	-6.399625301361084	2.175959825515747	0.600495457649231	-1.5982825756072998	6.642988681793213	6.6766557693481445	-6.799253940582275	-20.38851547241211	-3.3745877742767334	-1.8938391208648682	-15.858217239379883	-1.2857261896133423	4.863461017608643	7.074145793914795	-7.936452865600586	1.7772284746170044	15.148469924926758	-17.863096237182617	-13.270024299621582	11.888981819152832	-1.065304160118103	-10.211440086364746	-0.27094587683677673	1.1374003887176514	9.003212928771973	9.743538856506348	-8.940656661987305	-3.650475263595581	2.248819589614868	-3.8745639324188232	5.647286891937256	0.1206393763422966	32.63460922241211	8.078068733215332	3.6296863555908203	-0.05717159062623978	7.195791244506836	-13.518699645996094	-15.362942695617676	16.59720802307129	6.2217936515808105	-5.51521110534668	-0.3867573142051697	10.012044906616211	-11.023574829101562	3.838819742202759	3.4890592098236084	24.850439071655273	-36.049964904785156	1.1281852722167969	9.3577299118042	-5.8385539054870605	-1.622530221939087	-21.982070922851562	3.9002931118011475	-8.837169647216797	3.321683883666992	0.12429284304380417	1.29932701587677	-6.487006664276123	8.485956192016602	2.666050910949707	4.349618434906006	-19.142791748046875	-4.595300197601318	-5.46357536315918	11.474699020385742	-7.265793323516846	-2.6665732860565186	-7.120886325836182	3.2313013076782227	1.9255962371826172	16.789138793945312	-4.241352558135986	-3.248096227645874	-10.08132553100586	-0.686145544052124	5.292428016662598	25.12240219116211	4.676960468292236	5.060652732849121	11.949443817138672	-2.50879168510437	-3.4979000091552734	0.9293162226676941	-15.450518608093262	-3.1470437049865723	-14.336675643920898	9.661443710327148	-19.725337982177734	-20.92420768737793	-12.972772598266602	15.230907440185547	-13.816132545471191	5.754425048828125	22.389453887939453	-3.304619550704956	-5.360764026641846	1.7282793521881104	20.80640411376953	-6.6702399253845215	23.40093421936035	-16.90858268737793	9.846283912658691	7.900378227233887	-6.610788345336914	1.5691674947738647	18.433761596679688	-2.197948932647705	7.810956001281738	16.528038024902344	20.999868392944336	8.088756561279297	8.962779998779297	8.53943920135498	1.9180045127868652	-3.2428903579711914	-25.46232795715332	-10.981672286987305	-7.643038749694824	-9.10037612915039	1.2191592454910278	-7.3367414474487305	2.6341640949249268	-3.5358946323394775	2.9688308238983154	5.724148750305176	5.111924648284912	13.085067749023438	-1.120802879333496	4.838577747344971	1.845947504043579	-1.8175405263900757	3.3450944423675537	-19.80982780456543	10.26772403717041	-1.429418921470642	-23.638540267944336	-0.3158906400203705	-1.150730013847351	-18.72746467590332	6.1280364990234375	17.23872947692871	6.015265464782715	-21.256267547607422	18.15135383605957	19.546403884887695	-1.0692790746688843	3.0385775566101074	-1.6924941539764404	-3.6242482662200928	12.610389709472656	-1.6095225811004639	5.166962623596191	-11.386876106262207	-25.545141220092773	3.2549712657928467	15.448241233825684	27.402210235595703	9.73660659790039	16.215654373168945	-7.193615913391113	1.3526744842529297	-8.591238975524902	-1.4368057250976562	-14.884661674499512	1.9963918924331665	-9.273767471313477	-6.265974521636963	-4.993031024932861	-2.2414727210998535	3.2538037300109863	4.708434581756592	5.721297740936279	15.049858093261719	-0.2357272356748581	11.278657913208008	-11.996410369873047	-18.734975814819336	4.229994297027588	-7.094298839569092	-5.523905277252197	-3.474102020263672	-3.134289503097534	-14.959009170532227	-27.656953811645508	20.31094741821289	2.1597561836242676	-7.967911720275879	18.58104705810547	3.0265133380889893	-21.133438110351562	-2.1727101802825928	-9.848567962646484	-9.09671688079834	-2.818613052368164	7.110380172729492	15.030372619628906	-4.429113864898682	8.881610870361328	-21.43361473083496	-13.170221328735352	12.096424102783203	-10.968425750732422	-8.255475997924805	0.8903103470802307	-2.5593581199645996	-27.603525161743164	-4.926619052886963	4.053878307342529	-4.6787214279174805	11.675042152404785	28.67009925842285	-12.580591201782227	5.3545942306518555	-15.617856979370117	-16.409414291381836	10.473630905151367	-4.352035045623779	915.0440063476562	5.053043842315674	-10.879680633544922	-1.54042387008667	5.836638450622559	-35.608463287353516	-17.625186920166016	-7.385241508483887	1.8522433042526245	27.581209182739258	-4.128353595733643	-3.3348195552825928	-10.808460235595703	17.842235565185547	14.282723426818848	9.27209758758545	-1.9869869947433472	-21.676082611083984	-17.293033599853516	-5.253549575805664	-5.533915996551514	-17.725255966186523	10.368704795837402	-5.915653705596924	-15.309799194335938	-14.541820526123047	8.727740287780762	3.9487204551696777	-17.5709171295166	-4.297372817993164	17.966222763061523	13.099873542785645	-19.825626373291016	3.518281936645508	1.457090139389038	7.293890476226807	-9.266105651855469	15.377419471740723	38.08940124511719	-15.344934463500977	-2.2099571228027344	-11.730091094970703	6.954313278198242	5.968280792236328	-2.1016507148742676	-30.980287551879883	3.005498170852661	0.7920751571655273	23.179550170898438	9.90135383605957	19.06833839416504	-0.8613983392715454	2.836691379547119	10.518096923828125	-9.198589324951172	13.830506324768066	11.659927368164062	1.715054988861084	5.637116432189941	-14.267596244812012	2.3025290966033936	1.4362211227416992	-17.559955596923828	7.6516289710998535	0.43773001432418823	15.276780128479004	-0.6327808499336243	-20.258058547973633	3.5676496028900146	19.09937858581543	-9.614213943481445	-17.07688331604004	-9.366087913513184	-32.2581901550293	13.832114219665527	-0.31270772218704224	-10.677804946899414	15.641462326049805	7.2294392585754395	-13.289268493652344	-0.747747004032135	-33.639678955078125	-0.42602744698524475	5.49345588684082	-23.406211853027344	-7.954659461975098	9.284588813781738	21.856386184692383	37.788299560546875	-24.499040603637695	-19.175443649291992	2.2936272621154785	-9.408682823181152	-10.296582221984863	-11.489762306213379	-1.9691493511199951	-12.212367057800293	-22.323328018188477	10.570746421813965	15.837786674499512	10.83316421508789	-13.7642822265625	11.848238945007324	-0.29247304797172546	0.20344719290733337	-1.8910741806030273	-3.367464780807495	-11.694112777709961	9.105696678161621	-2.7548701763153076	17.320293426513672	-0.20335973799228668	-4.202345371246338	11.469550132751465	-0.10086014121770859	-13.402565956115723	7.565098285675049	7.316565036773682	0.46455901861190796	1.6293467283248901	0.4583471119403839	11.981688499450684	-0.6300950646400452	-16.20172882080078	-9.618024826049805	15.465160369873047	3.0261573791503906	3.0049080848693848	-12.671351432800293	2.3489534854888916	2.4406909942626953	-5.2528204917907715	-13.303461074829102	2.4747226238250732	-30.6729679107666	-115.34628295898438	-13.102540969848633	5.654687404632568	0.3191957473754883	-21.006072998046875	0.27181658148765564	-26.515316009521484	-8.261126518249512	-13.52791976928711	-2.6377742290496826	0.00782113429158926	4.2665534019470215	-4.013159275054932	-7.155333042144775	4.215059280395508	-1.8860301971435547	0.19768592715263367	22.130643844604492	-12.040786743164062	-16.72706413269043	-11.26412582397461	-23.279626846313477	-9.208263397216797	-9.88095760345459	-11.712481498718262	10.457618713378906	-13.063535690307617	-1.3815652132034302	3.403792381286621	6.331628799438477	-11.10383415222168	32.66054916381836	-21.59308433532715	9.28226375579834	5.280340194702148	-20.511137008666992	-0.21949248015880585	-4.239462375640869	4.121589660644531	-0.26863208413124084	-4.724751949310303	58.426719665527344	18.762277603149414	3.193540573120117	-8.53942584991455	11.415246963500977	-1.7470786571502686	-10.326220512390137	-8.541800498962402	-13.161016464233398	8.356825828552246	-10.809334754943848	13.490992546081543	7.56476354598999	-6.45789909362793	10.263964653015137	-4.0122575759887695	1.2576783895492554	0.5787872076034546	1.8103914260864258	12.08680248260498	17.297067642211914	-3.5782532691955566	-8.222434043884277	-11.169856071472168	-1.5643565654754639	-14.39414119720459	-9.239084243774414	19.72267723083496	0.9192307591438293	-7.300473690032959	1.843632459640503	-2.6373863220214844	-12.45309066772461	7.4357428550720215	-13.56279182434082	-14.916486740112305	21.056180953979492	29.066442489624023	-9.44375991821289	22.127500534057617	9.126477241516113	10.002168655395508	2.3782105445861816	-3.4817934036254883	9.611823081970215	0.651167631149292	-10.907838821411133	-19.13063621520996	-11.67424201965332	15.590035438537598	11.084404945373535	-7.371440410614014	-10.565206527709961	-7.952340602874756	-0.5142310261726379	-6.201961517333984	-9.344475746154785	-16.65357780456543	8.676862716674805	21.985170364379883	-7.806568145751953	-14.61478042602539	-3.883704662322998	-3.711214542388916	2.393519401550293	-2.029569149017334	3.358767509460449	-6.140223979949951	4.085167407989502	1.2564297914505005	-5.933798789978027	1.0218963623046875	0.12355826050043106	-3.2089805603027344	-17.284130096435547	10.055007934570312	8.915423393249512	-9.141325950622559	-6.444146633148193	9.732525825500488	3.1073155403137207	-0.37079477310180664	-2.2501230239868164	-4.4266276359558105	14.052398681640625	-11.411311149597168	6.01759672164917	17.61805534362793	11.95924186706543	2.970944881439209	-5.948915958404541	2.390221118927002	-13.549084663391113	-6.8142828941345215	20.831945419311523	-9.279725074768066	-2.427398681640625	-5.097439289093018	-4.962721824645996	3.804457426071167	-7.5587568283081055	4.1113691329956055	-13.157173156738281	2.2459797859191895	-11.305837631225586	-0.7921388149261475	-4.325929641723633	5.166400909423828	-7.659754276275635	-4.969700813293457	6.574926853179932	-12.31845474243164	-14.975631713867188	6.898763656616211	1.7085765600204468	15.18831729888916	11.200846672058105	-18.087318420410156	-14.593175888061523	-6.312412738800049	12.986273765563965	5.720149993896484	-22.609848022460938	-9.620165824890137	-21.955610275268555	17.427734375	-19.803136825561523	-7.7642717361450195	-1.4265729188919067	1.416291356086731	-16.86870574951172	-1.9620968103408813	14.630574226379395	-9.413459777832031	-12.809428215026855	-7.493686676025391	-7.365756988525391	-1.8299071788787842	-7.573286533355713	-22.194578170776367	21.948299407958984	2.603154420852661	13.436779975891113	-0.03212225064635277	-17.496273040771484	18.623157501220703	-14.639738082885742	9.972050666809082	4.332906723022461	-13.608455657958984	8.249258995056152	-18.315149307250977	-5.678476333618164	1.2286453247070312	-15.7295503616333	20.659818649291992	13.574175834655762	-10.205389022827148	-4.849110126495361	11.225943565368652	3.914313554763794	5.954512119293213	-3.667351245880127	-5.253028392791748	-20.125696182250977	3.0857503414154053	-3.9731805324554443	12.599019050598145	-4.991966724395752	16.28096580505371	-0.036536041647195816	-28.353546142578125	6.0400776863098145	-2.5001046657562256	13.753095626831055	2.545779228210449	-11.115942001342773	18.191667556762695	0.514498770236969	8.791428565979004	25.46673583984375	-7.498035907745361	7.59377908706665	1.5819777250289917	1.0984716415405273	-19.321435928344727	5.941715240478516	-0.5013500452041626	9.562128067016602	-11.730326652526855	-0.3851310908794403	13.657456398010254	-19.306537628173828	-18.747295379638672	-16.159725189208984	-5.3364481925964355	8.399449348449707	-9.059469223022461	3.5885281562805176	8.74230670928955	2.401488780975342	14.044145584106445	7.408481121063232	-1.7214165925979614	-16.192913055419922	11.408117294311523	-0.35820233821868896	-3.95691180229187	-7.082036018371582	-2.8217151165008545	18.779109954833984	0.03198894485831261	13.96007251739502	5.106947898864746	6.89894437789917	27.860233306884766	-6.150760173797607	-13.649504661560059	2.5692124366760254	-17.26528549194336	-8.196502685546875	-17.596647262573242	5.097317218780518	12.620841979980469	18.951963424682617	7.156585693359375	-11.080517768859863	10.385075569152832	-0.8751109838485718	7.498334884643555	-12.651689529418945	-20.547788619995117	-2.4866385459899902	-13.163321495056152	-4.650678634643555	-12.640286445617676	10.71323013305664	-12.679215431213379	11.575390815734863	10.152491569519043	0.25121742486953735	-0.20488682389259338	-5.229752063751221	13.907623291015625	7.569022178649902	-15.058934211730957	4.984258651733398	-12.659103393554688	9.445765495300293	7.802233695983887	-2.559295415878296	-5.320640563964844	-2.1335597038269043	15.28635025024414	-7.9937849044799805	-3.156341075897217	-4.636323928833008	-16.881364822387695	5.082618713378906	3.7801787853240967	19.079429626464844	9.109196662902832	-6.25004243850708	0.842077910900116	6.514909744262695	-8.886740684509277	-6.983406066894531	-2.194823741912842	2.5127272605895996	0.27395665645599365	-3.445418119430542	21.566640853881836	-6.085853099822998	3.773894786834717	0.2533491253852844	-0.8069014549255371	7.467127323150635	9.439414978027344	-2.3205811977386475	-4.453282833099365	40.870323181152344	3.8245174884796143	35.083885192871094	1.429604411125183	-12.230361938476562	5.113528251647949	-9.46070671081543	17.814687728881836	-4.079756259918213	-17.368240356445312	-7.768003463745117	-12.0603609085083	-13.667255401611328	-8.671621322631836	-10.567002296447754	4.49136209487915	-10.845233917236328	7.2564697265625	-22.253490447998047	-9.68317699432373	-1.7169338464736938	3.196319341659546	-5.13154411315918	-12.490812301635742	-2.7738826274871826	-6.112345218658447	17.15483283996582	-11.936854362487793	-7.744316577911377	33.818904876708984	-4.409568786621094	8.275983810424805	5.8101301193237305	4.746583938598633	11.814065933227539	-4.574291706085205	-10.583940505981445	8.791322708129883	12.373526573181152	8.032258987426758	-9.926115036010742	6.631382942199707	5.86474609375	6.22763204574585	5.533271789550781	1.3610658645629883	4.495532989501953	4.294661998748779	2.765734910964966	-6.161685466766357	13.795561790466309	3.417773723602295	-8.552238464355469	-8.280147552490234	-1.1357076168060303	-5.658377170562744	-19.545347213745117	-14.64828872680664	-2.5088155269622803	-10.498014450073242	12.787195205688477	13.825164794921875	-23.080739974975586	8.79067325592041	-1.5615967512130737	4.77665901184082	-1.1344780921936035	-8.237688064575195	-22.601221084594727	-8.364105224609375	-9.841680526733398	-16.90512466430664	-5.070576190948486	-5.537986755371094	6.128438949584961	18.78464698791504	2.3205230236053467	15.507774353027344	-11.007208824157715	-0.7697780728340149	-5.343625545501709	-6.6170783042907715	6.532971382141113	-15.298666954040527	5.5168304443359375	0.029983866959810257	-1.776600956916809	-9.482078552246094	4.010051250457764	11.31854248046875	-19.92023277282715	23.288387298583984	1.9697275161743164	-8.266973495483398	1.786131739616394	5.995030403137207	-18.36201286315918	-9.879146575927734	20.763967514038086	1.0707398653030396	5.471932411193848	0.9023768901824951	-1.8063383102416992	13.382160186767578	4.231907367706299	24.34169578552246	13.607930183410645	-10.559789657592773	-3.43652081489563	8.067288398742676	-5.374951362609863	-0.8376262784004211	-14.414130210876465	13.407950401306152	-9.140341758728027	12.94219970703125	-11.390063285827637	-7.6100568771362305	-13.950662612915039	1.6967356204986572	-10.178963661193848	-23.36355209350586	3.3050613403320312	-40.55088424682617	5.751031398773193	-5.852723598480225	-11.403009414672852	8.06436538696289	4.955526351928711	-2.8862576484680176	-10.868307113647461	-3.8305139541625977	-0.4311383068561554	4.616255283355713	-4.813936233520508	-6.159313201904297	14.797355651855469	-9.466469764709473	19.0412540435791	0.7428833842277527	-7.346402645111084	-9.792882919311523	5.226468563079834	-20.14665985107422	1.467598557472229	8.890573501586914	-9.204692840576172	-12.006577491760254	-11.314698219299316	-2.2397327423095703	-6.97115421295166	16.175201416015625	-12.836527824401855	-0.9420500993728638	8.769099235534668	-8.82201099395752	3.0742640495300293	-15.357256889343262	-10.840914726257324	8.456872940063477	5.429433822631836	-0.42710572481155396	5.55767822265625	8.21432113647461	7.2232866287231445	-2.1485965251922607	2.981597900390625	-21.135286331176758	10.949824333190918	6.475038051605225	10.981894493103027	0.009436748921871185	-10.056497573852539	-1.7555150985717773	4.352807521820068	12.772517204284668	-1.2298953533172607	29.416149139404297	-3.0832667350769043	-8.181840896606445	12.933195114135742	-28.059120178222656	-22.824411392211914	-11.643057823181152	-5.0261006355285645	-12.138368606567383	-11.305536270141602	8.807856559753418	-16.34625244140625	1.1638661623001099	-3.212233066558838	-9.755916595458984	8.416837692260742	-10.297601699829102	-10.142871856689453	-4.005699634552002	-0.7994818687438965	12.089656829833984	5.66604471206665	13.801621437072754	9.965132713317871	-2.798218011856079	-5.012606143951416	-5.064605712890625	-4.790633201599121	14.741066932678223	6.154392242431641	18.862470626831055	-7.464036464691162	9.781168937683105	15.27794361114502	4.065709590911865	-3.9016075134277344	-11.720762252807617	12.86882495880127	14.310202598571777	4.032893180847168	1.0468519926071167	-16.942079544067383	15.532951354980469	-8.012651443481445	10.719389915466309	11.813130378723145	10.355932235717773	4.393404483795166	-4.462815284729004	18.6722412109375	-13.647604942321777	-8.629034042358398	2.3590242862701416	7.595231056213379	12.674419403076172	0.8254190683364868	7.062676906585693	1.2906523942947388	-8.087973594665527	-6.089112281799316	-17.186689376831055	15.98292064666748	14.027396202087402	-23.74639892578125	17.873260498046875	-10.822826385498047	2.702824115753174	12.18605899810791	-1.1977512836456299	14.77675724029541	15.06322956085205	-3.279606819152832	9.168807983398438	-3.086642026901245	27.44333839416504	6.27897834777832	-17.280534744262695	10.295073509216309	-1.293689250946045	7.126408576965332	23.42364501953125	-3.6953935623168945	-11.01762866973877	-15.913187026977539	4.727500915527344	-1.8954920768737793	1.8318544626235962	13.050790786743164	6.936201095581055	1.4314824342727661	-20.3544979095459	119.46294403076172	7.23726749420166	10.1345796585083	2.7193245887756348	-10.08219051361084	-14.235008239746094	-35.594303131103516	12.068805694580078	-6.469385623931885	1.3419079780578613	-6.301161766052246	9.712594985961914	3.5916857719421387	8.62712574005127	-18.223608016967773	10.121086120605469	0.03031526505947113	-20.247949600219727	0.8120712041854858	7.863169193267822	2.901984930038452	7.852120399475098	14.27499771118164	4.216609001159668	-37.154659271240234	-4.005700588226318	-55.70054244995117	-5.128532886505127	5.14072322845459	-8.403780937194824	5.615025520324707	-4.709568977355957	-11.927966117858887	29.790300369262695	-5.125917434692383	3.834535598754883	-21.420753479003906	-10.539896965026855	-3.2867791652679443	-15.435338973999023	-5.393788814544678	10.776952743530273	-5.1875481605529785	-16.57315444946289	7.051259994506836	5.5187201499938965	3.9057695865631104	17.171110153198242	-6.082456588745117	-14.836137771606445	18.989116668701172	-10.29072380065918	13.97983169555664	-0.12566077709197998	6.207023620605469	-1.961859107017517	8.643129348754883	-14.311363220214844	-1.94722318649292	15.420063018798828	5.739806175231934	7.730027198791504	3.6801512241363525	-3.7487428188323975	15.251110076904297	-6.9639387130737305	1.622044563293457	8.688786506652832	2.136281967163086	-7.912428379058838	-3.26743221282959	-4.98113489151001	8.56618881225586	-18.604799270629883	16.940263748168945	10.401643753051758	-24.422870635986328	-13.571057319641113	6.632631301879883	-0.1305583119392395	15.198206901550293	-2.912174940109253	-27.769866943359375	-9.639704704284668	17.945161819458008	14.437816619873047	8.99790096282959	-0.9693957567214966	-6.68492317199707	10.070603370666504	-5.055652141571045	0.3842228055000305	-19.22591781616211	3.7168257236480713	14.909818649291992	-0.5058072805404663	19.643444061279297	2.0433239936828613	-4.768826484680176	6.515106201171875	-17.561796188354492	58.25016784667969	2.6404337882995605	20.55341339111328	-2.874370813369751	7.180351257324219	25.306034088134766	11.786358833312988	2.3375940322875977	-8.336649894714355	-14.965567588806152	-18.970388412475586	16.73058319091797	16.48857879638672	16.374454498291016	19.465269088745117	-6.570181369781494	-14.56974983215332	-12.558496475219727	5.535377025604248	6.228495121002197	44.27011489868164	3.3570449352264404	-4.4107489585876465	-1.5228968858718872	11.321840286254883	-11.268998146057129	-12.837352752685547	8.219467163085938	-9.500387191772461	2.635854482650757	-2.5716872215270996	19.2911376953125	4.479507923126221	4.927534103393555	-5.308830261230469	0.8028634786605835	41.95517349243164	-8.538702011108398	-6.470074653625488	-2.0804519653320312	10.471137046813965	21.67750358581543	-3.2423593997955322	-7.58353328704834	-20.7252197265625	-12.069347381591797	12.716214179992676	18.42752456665039	2.0990066528320312	-7.953862190246582	19.947622299194336	2.8287289142608643	-2.082037925720215	-14.317418098449707	-15.029826164245605	10.412263870239258	-25.85091781616211	14.23859977722168	-1.3707424402236938	6.286158084869385	-8.983002662658691	9.194884300231934	-6.133418560028076	-0.2625845968723297	-4.906523704528809	-14.364707946777344	18.460708618164062	-8.996320724487305	-6.180694580078125	-5.698041915893555	9.10680103302002	-19.0212345123291	7.475239276885986	-6.2399139404296875	-4.459939479827881	6.984439373016357	-6.0856781005859375	8.304631233215332	6.211137771606445	-1.8596030473709106	-6.39646577835083	0.9874494075775146	-4.988321304321289	-9.551639556884766	-4.031837463378906	15.9328031539917	-2.8280067443847656	-3.780409812927246	0.0905655175447464	-11.895371437072754	5.728296756744385	-7.200697898864746	-9.543131828308105	-5.17350435256958	7.0580596923828125	-7.358344554901123	-2.8581182956695557	7.286949157714844	-17.372589111328125	10.586774826049805	-8.517224311828613	-4.126222133636475	-4.456534385681152	0.4691029191017151	-3.4818456172943115	8.797429084777832	-15.821714401245117	1.412479281425476	-16.024200439453125	8.868034362792969	5.09915828704834	-22.132488250732422	-22.028772354125977	11.769233703613281	9.996257781982422	23.16290855407715	-19.318449020385742	-7.299297332763672	3.5960566997528076	-3.990816831588745	-20.003108978271484	-20.100139617919922	-4.854119300842285	-0.5447226762771606	-10.403412818908691	32.42750930786133	-10.244593620300293	18.670568466186523	21.09720230102539	-18.0634708404541	-11.974846839904785	-5.250879287719727	25.34632682800293	-16.0097599029541	1.505902647972107	-0.1720787137746811	16.90592384338379	-21.152450561523438	9.104955673217773	-8.550066947937012	-0.9105358719825745	6.218116760253906	-10.362411499023438	-10.057122230529785	-17.478618621826172	8.811763763427734	2.2259280681610107	-6.526594161987305	7.0017924308776855	-14.290188789367676	1.3143893480300903	-5.785150527954102	14.888679504394531	7.9908766746521	13.290182113647461	7.278001308441162	1.5350444316864014	-36.45151138305664	10.179241180419922	11.703612327575684	-2.4665069580078125	10.559086799621582	-15.663250923156738	-10.249214172363281	-16.50656509399414	4.702753067016602	-4.074818134307861	-5.15121603012085	-5.9109063148498535	8.808079719543457	-12.094297409057617	-5.0301432609558105	4.655707836151123	14.559358596801758	-12.655272483825684	-135.25827026367188	-2.101864814758301	7.446780204772949	10.687163352966309	3.995757818222046	-16.373497009277344	19.925386428833008	1.8828147649765015	-5.439761638641357	5.413068771362305	1.758272409439087	-2.0104005336761475	-12.971105575561523	11.599690437316895	-5.597620010375977	-9.89210033416748	-12.15034008026123	13.04663372039795	4.39430570602417	-19.13273811340332	-13.596134185791016	2.642739772796631	-6.275712490081787	9.226797103881836	16.109739303588867	8.610505104064941	-0.5644835233688354	11.552695274353027	-0.039451126009225845	2.7047061920166016	20.906021118164062	11.899164199829102	-12.741655349731445	-20.157445907592773	10.288848876953125	1.8248481750488281	14.68852424621582	3.185164213180542	7.123088359832764	3.6825504302978516	-21.879358291625977	-14.299490928649902	11.921591758728027	20.563091278076172	-9.987720489501953	8.268753051757812	-5.330459117889404	1.0409096479415894	-4.9720659255981445	-3.4661471843719482	-0.7401087284088135	12.1090669631958	-12.765771865844727	9.004157066345215	-14.723495483398438	-9.073973655700684	-4.652588367462158	19.95918846130371	-11.382633209228516	10.92862606048584	3.4748356342315674	-15.489168167114258	-0.5357589721679688	4.577078819274902	-18.942150115966797	-6.648697853088379	-17.30337142944336	9.737265586853027	7.657023906707764	-1.8414288759231567	12.961665153503418	-17.646629333496094	-12.631455421447754	-4.404219627380371	-4.6742634773254395	21.02081871032715	-4.690584182739258	1.9450151920318604	-13.700382232666016	-9.895943641662598	14.484169006347656	13.934415817260742	-1.6060798168182373	11.061788558959961	-2.3449385166168213	10.957983016967773	19.753480911254883	-16.072046279907227	-26.11243438720703	-11.022032737731934	3.2597882747650146	1.904338002204895	22.51047134399414	14.174485206604004	-21.155662536621094	7.331923961639404	10.523146629333496	7.971548557281494	-7.43972635269165	2.285547971725464	2.1644649505615234	10.128296852111816	23.353317260742188	-1.6035771369934082	-2.5347635746002197	7.007230281829834	-27.622957229614258	-10.605988502502441	-16.696325302124023	-17.133867263793945	16.225568771362305	8.484821319580078	16.761198043823242	-20.55401039123535	-11.960129737854004	3.8082263469696045	-16.3662166595459	4.859522819519043	9.551807403564453	22.691020965576172	31.953163146972656	4.548402309417725	6.674116134643555	-18.44635581970215	7.537810802459717	3.926454782485962	-5.8407063484191895	5.676102161407471	-0.8669636249542236	-12.841774940490723	-11.865318298339844	0.8135109543800354	-8.138448715209961	-3.2327470779418945	-1.8610962629318237	1.841130256652832	1.6665234565734863	-15.07394027709961	4.068271160125732	-22.98353385925293	-19.150678634643555	-14.466862678527832	-16.747135162353516	-0.4700099229812622	-14.321978569030762	7.220973014831543	5.104366302490234	17.75815773010254	-10.39399242401123	1.514862060546875	22.9467716217041	-8.121236801147461	10.208160400390625	10.920698165893555	-12.99602222442627	-14.442451477050781	6.954494953155518	22.19440269470215	-0.059249792248010635	13.824484825134277	-8.20268440246582	-17.587541580200195	-18.846776962280273	-20.117263793945312	-1.702134609222412	-24.37230110168457	-17.116193771362305	-6.865234375	19.8543701171875	-9.778817176818848	8.905295372009277	10.035931587219238	15.711075782775879	8.985360145568848	-16.42308807373047	11.609774589538574	3.5478224754333496	8.442573547363281	8.854561805725098	10.592574119567871	4.086491584777832	-12.961772918701172	11.301786422729492	18.195648193359375	-7.2180891036987305	-4.5110321044921875	-0.05734207481145859	0.9403367638587952	9.322600364685059	-1.4005204439163208	-2.5380356311798096	-17.214122772216797	-15.760812759399414	-17.460893630981445	12.06247329711914	-26.74556541442871	27.457752227783203	-11.009211540222168	15.037099838256836	-22.458171844482422	-0.39153769612312317	-0.8862430453300476	-0.27871081233024597	6.94270658493042	-7.785967826843262	-25.74517250061035	3.5126004219055176	-11.883687019348145	5.69359827041626	6.973098278045654	-13.759982109069824	10.96068286895752	16.06743049621582	-1.7760781049728394	-41.61581802368164	-16.599950790405273	-0.7445234656333923	-6.538212776184082	-4.26251745223999	-3.11741304397583	-29.61720848083496	-8.145024299621582	18.25132942199707	-8.167967796325684	12.327667236328125	9.595913887023926	0.6010334491729736	16.438434600830078	14.372381210327148	4.166240215301514	29.711641311645508	-13.776150703430176	9.198966026306152	24.005386352539062	-3.529320478439331	-5.023330211639404	-9.222740173339844	12.570191383361816	14.177846908569336	-11.552973747253418	7.773787975311279	-4.178405284881592	-4.0356950759887695	-7.591847896575928	-8.276636123657227	-4.947323799133301	12.487065315246582	-13.827967643737793	11.491299629211426	-8.227636337280273	7.370025157928467	18.84633445739746	-4.1203227043151855	28.101360321044922	1.7340847253799438	16.029489517211914	7.360349655151367	-4.684502124786377	6.354208946228027	-2.334555149078369	0.10724957287311554	9.777722358703613	3.4518656730651855	-0.5315385460853577	19.496788024902344	7.177597999572754	6.9337873458862305	-16.555973052978516	-2.7282323837280273	-2.7960598468780518	14.676156997680664	-1.4839903116226196	-13.33210277557373	-11.814882278442383	13.934544563293457	21.32830047607422	1.240805745124817	-5.1420135498046875	-12.674819946289062	-12.005123138427734	11.569629669189453	-8.36927318572998	-9.681086540222168	5.529872894287109	-3.8919551372528076	8.989046096801758	7.739881992340088	14.340818405151367	-1.477948784828186	8.757281303405762	6.476848602294922	4.037219524383545	4.1231184005737305	11.70695686340332	3.234783411026001	11.724163055419922	8.587499618530273	-16.604476928710938	7.176267147064209	15.987229347229004	-2.2551028728485107	15.58017349243164	1.7042850255966187	-18.56859588623047	6.661840915679932	3.6845099925994873	-1.9674664735794067	-2.7702395915985107	-7.387261390686035	-2.7494494915008545	-1.9844169616699219	7.486551761627197	17.12934684753418	-14.073138236999512	3.3947644233703613	-11.407925605773926	-16.80341339111328	5.833798885345459	-17.107831954956055	8.0501070022583	9.343038558959961	-3.9767301082611084	-3.3354663848876953	-0.2734173536300659	-9.317224502563477	10.329874038696289	18.193998336791992	10.907623291015625	-2.1885271072387695	-6.246756076812744	-1.5309797525405884	-8.415908813476562	11.46179485321045	16.397937774658203	-34.44024658203125	-18.738100051879883	-13.439848899841309	15.819380760192871	-5.063515663146973	17.486841201782227	17.892066955566406	15.045032501220703	-1.1475259065628052	14.79954719543457	6.431536674499512	0.7385087013244629	0.6492744088172913	-3.71056866645813	-7.015222072601318	-12.609621047973633	0.7323394417762756	-0.27302107214927673	-5.408271312713623	-4.4573073387146	-13.884469032287598	12.348955154418945	-24.449159622192383	18.318815231323242	14.713302612304688	2.24023175239563	-21.884525299072266	11.89847183227539	3.3697731494903564	6.047060489654541	24.041107177734375	15.361400604248047	4.521182537078857	4.847477436065674	0.1617814153432846	13.133938789367676	11.0989990234375	-24.398283004760742	1.291378140449524	9.810590744018555	-22.79483413696289	11.635397911071777	-24.90857696533203	-7.198736190795898	0.48328474164009094	22.6328067779541	-9.441924095153809	-1.0303585529327393	13.201401710510254	-23.8497314453125	-2.5401864051818848	-12.56197738647461	8.606664657592773	4.5009236335754395	-0.45732635259628296	-10.095316886901855	4.952667713165283	-2.7833497524261475	7.224618434906006	-14.170279502868652	-1.3136014938354492	-15.423996925354004	9.021829605102539	-4.135286808013916	8.369170188903809	-6.020589828491211	-19.002317428588867	19.72992706298828	7.3056321144104	-12.48131275177002	5.483935832977295	0.599026083946228	18.638269424438477	11.955105781555176	-0.38624492287635803	9.013656616210938	11.616761207580566	20.345563888549805	-11.943458557128906	8.593360900878906	4.58657169342041	4.415200233459473	18.08251190185547	-11.242509841918945	-11.25693416595459	21.625255584716797	3.3527255058288574	-6.889824390411377	8.254475593566895	-21.5645751953125	-32.581111907958984	34.34605026245117	-12.186502456665039	15.194762229919434	-0.9970200061798096	-19.71742057800293	-16.018789291381836	5.572484970092773	19.183610916137695	15.685869216918945	-3.618568181991577	-1.4072511196136475	1.9150910377502441	-0.2907038629055023	2.091890335083008	5.390997409820557	-4.5412702560424805	-5.7641401290893555	-2.086493968963623	2.1804051399230957	9.962047576904297	3.659761667251587	-6.286807060241699	1.9388529062271118	5.801814079284668	-0.2924489378929138	-4.621533393859863	2.7314090728759766	-0.1323111653327942	13.75261402130127	6.253927707672119	5.448923587799072	8.221162796020508	9.392386436462402	-6.80422830581665	14.86662769317627	3.6064977645874023	-28.940799713134766	-9.596652030944824	-1.9567251205444336	0.7504291534423828	3.074491024017334	25.349559783935547	-1.5003784894943237	11.1548433303833	-19.750288009643555	7.696240425109863	6.824712753295898	-2.3193235397338867	18.544458389282227	21.0507755279541	-13.301214218139648	15.80478286743164	3.773531198501587	-13.786502838134766	-17.109447479248047	-16.511098861694336	-11.398831367492676	-9.293145179748535	22.105941772460938	-9.725784301757812	22.174169540405273	10.023757934570312	-0.9420599341392517	2.4655861854553223	-14.294062614440918	12.972660064697266	-2.9254846572875977	-11.447426795959473	-16.456212997436523	0.1913551688194275	-5.8616414070129395	17.272756576538086	12.136028289794922	16.289907455444336	-9.453352928161621	-3.616832971572876	1.1750198602676392	-15.297636032104492	-11.029438018798828	-15.014060020446777	-17.10948944091797	0.599015474319458	19.803720474243164	20.82056427001953	-8.73841667175293	-15.563531875610352	2.507206439971924	21.829309463500977	14.127406120300293	-4.864268779754639	-6.996240615844727	-3.5930845737457275	-2.6599833965301514	-20.41225242614746	-11.973541259765625	-1.763414740562439	1.0032708644866943	11.865880966186523	-0.7668880820274353	-17.8753662109375	13.309661865234375	3.084702968597412	2.602759838104248	-28.22475242614746	16.66912078857422	10.676575660705566	-12.4053373336792	-18.38069725036621	17.84495735168457	-7.366772174835205	-14.209144592285156	-10.375235557556152	-13.20353889465332	-1.468923807144165	2.3578429222106934	28.921815872192383	-15.912837028503418	5.207216739654541	-22.78719711303711	5.218038082122803	14.902697563171387	-11.963654518127441	3.497189521789551	18.489810943603516	-11.843781471252441	-7.521852970123291	20.1784725189209	11.576569557189941	-11.4754638671875	12.569612503051758	0.24774524569511414	-10.942973136901855	-9.781102180480957	-9.461580276489258	5.997799873352051	12.916409492492676	4.154294013977051	-3.7055139541625977	-8.079561233520508	-8.830580711364746	6.17440938949585	23.23830223083496	13.913765907287598	-6.906981468200684	14.575342178344727	7.063474178314209	5.287700176239014	-17.965988159179688	6.660161018371582	-5.595500946044922	-8.610530853271484	21.373537063598633	7.8636956214904785	-14.640999794006348	3.766873359680176	-2.433499336242676	19.331819534301758	-10.507701873779297	18.950557708740234	4.872353553771973	3.89682936668396	20.862857818603516	2.769575834274292	22.726606369018555	-15.09699821472168	-9.299044609069824	3.073486089706421	7.018227577209473	-3.4359655380249023	-24.808197021484375	5.363206386566162	2.961930751800537	-15.988269805908203	-6.686014652252197	15.297834396362305	-1.2194569110870361	-19.89379119873047	1.9942140579223633	-1.6490797996520996	11.496479988098145	0.4603957235813141	14.38418960571289	7.631252765655518	9.218692779541016	12.051325798034668	0.16632412374019623	-4.606006622314453	-9.603984832763672	20.306745529174805	13.239630699157715	4.084493160247803	-0.14845101535320282	18.96000862121582	1.2728711366653442	13.899680137634277	7.436371803283691	3.582941770553589	-22.38034439086914	-12.828962326049805	8.00830364227295	8.412799835205078	-11.871315956115723	-20.161991119384766	7.352842807769775	7.1078877449035645	10.880936622619629	12.728860855102539	-4.206700801849365	15.011662483215332	-2.9339401721954346	-2.1641552448272705	-5.137770652770996	10.222554206848145	2.7843732833862305	-9.363131523132324	-25.063140869140625	-2.8720085620880127	5.268942356109619	8.05060863494873	2.76132869720459	-5.760623455047607	-6.688026428222656	-3.785658597946167	18.726177215576172	-18.30664825439453	8.484182357788086	10.621737480163574	13.234724044799805	-10.146385192871094	-15.694913864135742	-2.5724289417266846	0.9584740996360779	-1.3346900939941406	-10.705743789672852	15.174673080444336	-2.7313754558563232	-20.658199310302734	-9.470775604248047	-9.025898933410645	20.184513092041016	9.004579544067383	-10.642003059387207	22.54620361328125	-11.382804870605469	3.7376062870025635	2.8496830463409424	-0.12459125369787216	8.207303047180176	11.534285545349121	-5.544986724853516	6.554714679718018	9.659635543823242	24.13694190979004	4.190537929534912	-10.901840209960938	12.467813491821289	11.989395141601562	-7.466775417327881	-9.730109214782715	17.056758880615234	0.39062774181365967	-13.702462196350098	14.154291152954102	-2.2774298191070557	-13.563277244567871	-6.987395763397217	7.101199626922607	-7.545474529266357	-15.48698902130127	3.116798162460327	5.593911647796631	-6.4774322509765625	17.88277816772461	-6.950634002685547	-14.679190635681152	10.353680610656738	18.8186092376709	23.369388580322266	-17.93623924255371	28.827316284179688	-18.11351203918457	-2.6417860984802246	-14.485699653625488	5.2393059730529785	-19.403226852416992	5.413433074951172	0.17605555057525635	-21.43308448791504	-6.078023433685303	16.83683967590332	19.461143493652344	-15.884913444519043	8.462321281433105	-24.458118438720703	11.297290802001953	-9.405834197998047	21.486976623535156	4.6653218269348145	-7.865433216094971	7.928816795349121	1.2530347108840942	7.967945098876953	-6.563143730163574	25.51369285583496	-4.473184585571289	9.131303787231445	-7.490131378173828	12.22574234008789	-0.7505736947059631	-1.7056467533111572	14.330223083496094	0.22140909731388092	-7.580053329467773	-14.13996410369873	9.585351943969727	17.80697250366211	-13.099371910095215	6.7011260986328125	-22.722530364990234	9.339191436767578	-8.084549903869629	-11.921455383300781	9.669727325439453	13.16927719116211	-14.021183967590332	2.7435197830200195	2.6044559478759766	14.036561965942383	-5.744995594024658	-8.899092674255371	-6.649945259094238	16.304122924804688	3.3427186012268066	12.179718017578125	6.345902442932129	19.93732452392578	9.686189651489258	1.4825398921966553	2.644883155822754	-4.3660173416137695	1.3878231048583984	19.515607833862305	23.2788028717041	-7.441330909729004	3.1514947414398193	8.523541450500488	-10.416959762573242	-29.707332611083984	5.159907817840576	-14.882855415344238	-4.748550891876221	2.551478147506714	1.758925437927246	5.009700775146484	6.2649455070495605	-11.269280433654785	-665.9865112304688	-6.315739154815674	-23.815031051635742	7.2532219886779785	1.2029798030853271	2.6509130001068115	-3.5885939598083496	6.831756114959717	-14.913846015930176	-10.98243522644043	14.252450942993164	-9.746655464172363	2.054367780685425	-14.962176322937012	8.111651420593262	-6.469310760498047	-2.3858234882354736	3.8610613346099854	5.65362548828125	-7.311619758605957	8.928813934326172	13.0277681350708	-1.8203396797180176	-2.26623272895813	4.5216803550720215	-11.545295715332031	11.726988792419434	-14.494400024414062	0.1876760572195053	-9.560367584228516	2.0361669063568115	-0.6645278334617615	1.3512815237045288	4.865159034729004	-3.8973517417907715	2.4821901321411133	6.842812538146973	-19.81418228149414	2.65065598487854	26.607177734375	17.50628662109375	-1.9441715478897095	-9.032979011535645	4.591824531555176	-7.2708210945129395	-3.6047816276550293	10.188782691955566	7.016172409057617	20.586313247680664	2.2132840156555176	1.5335954427719116	-2.413846492767334	-7.136571884155273	-7.2314133644104	-12.66347885131836	0.44646504521369934	-23.720041275024414	-11.230388641357422	-0.18087910115718842	-1.6844114065170288	-13.979342460632324	-10.236011505126953	-15.948443412780762	3.0567984580993652	-0.3544794023036957	15.105051040649414	2.5748562812805176	-2.971532106399536	3.1815812587738037	1.8592418432235718	-8.232316970825195	-1.7800856828689575	-18.8043212890625	-10.550882339477539	-7.869437217712402	-5.693888187408447	4.192751884460449	-7.330394268035889	-16.00873374938965	-12.320833206176758	-3.2473855018615723	-10.759297370910645	-7.479459285736084	12.616683959960938	18.646360397338867	3.1534600257873535	-22.08121681213379	14.280444145202637	-3.6846487522125244	-13.549622535705566	-10.729779243469238	20.616044998168945	10.017136573791504	-19.10873031616211	0.03886382281780243	-6.385328769683838	-5.27221155166626	-8.197738647460938	-0.7187274694442749	-16.967844009399414	1.90792715549469	-12.504762649536133	-8.543206214904785	-1.5147520303726196	-7.6212053298950195	13.465941429138184	6.075384616851807	-0.17576967179775238	-4.950392246246338	-18.463651657104492	-6.687310695648193	5.963560581207275	-56.44755172729492	10.720035552978516	5.844213485717773	6.698503494262695	-6.586599826812744	-10.441241264343262	-18.72397232055664	-18.46128273010254	13.399676322937012	-21.010238647460938	-0.059722594916820526	1.8332135677337646	-13.293258666992188	-15.17426872253418	-0.2877452075481415	6.547226905822754	17.45907211303711	5.739208698272705	-8.731324195861816	-15.324610710144043	11.776080131530762	0.9950382113456726	-1.017282485961914	2.2061328887939453	-8.411791801452637	-23.26038932800293	-2.972991466522217	4.509967803955078	-7.033115863800049	3.2899293899536133	5.729039192199707	-12.26984977722168	4.449098587036133	5.214494705200195	-1.2519164085388184	18.538589477539062	9.995266914367676	-9.912446022033691	9.033666610717773	-10.20149040222168	12.543658256530762	20.28250503540039	4.112837791442871	-3.1786561012268066	-15.037379264831543	-1.8462178707122803	-3.9315013885498047	-21.92293930053711	1.5933207273483276	-111.10115051269531	31.18665885925293	-12.029693603515625	5.180762767791748	-3.752350330352783	0.07377219945192337	17.61264991760254	0.8853916525840759	-11.072239875793457	-19.86749267578125	14.795523643493652	20.51752471923828	8.654109954833984	8.71562385559082	-4.421228885650635	11.519232749938965	1.7655918598175049	-0.46136394143104553	-13.428038597106934	-19.76851463317871	-8.558476448059082	-10.706730842590332	-0.32182011008262634	-4.792608261108398	6.630722522735596	13.926942825317383	3.6125340461730957	-9.742058753967285	19.72154426574707	15.032690048217773	-1.0263278484344482	4.531181812286377	8.266687393188477	4.9027862548828125	11.472135543823242	-1.9404816627502441	1.0121358633041382	-4.476614475250244	0.19367355108261108	26.0456600189209	5.21027135848999	-9.723801612854004	-5.669395923614502	-6.902890682220459	-1.2552490234375	-5.962172508239746	18.846891403198242	-13.533413887023926	7.032652854919434	-10.4669189453125	-8.516580581665039	-6.04790735244751	-14.4630126953125	12.825474739074707	0.983852207660675	-4.108496189117432	-19.82469367980957	-6.875643730163574	5.872235298156738	19.26345443725586	6.838281631469727	8.608570098876953	-1.1881403923034668	15.709114074707031	-5.899478435516357	19.561748504638672	-17.356157302856445	-2.731076717376709	-2.8906350135803223	5.613346576690674	9.729830741882324	-15.09514045715332	-15.445874214172363	-6.9856953620910645	-4.173194885253906	4.630996227264404	9.963300704956055	-3.5917155742645264	4.179327011108398	7.786663055419922	-10.289426803588867	-7.3947625160217285	2.0923211574554443	-2.592198371887207	3.664367914199829	1.988482117652893	10.042490005493164	-8.74734878540039	-2.465830087661743	-3.3625357151031494	20.848798751831055	2.5956039428710938	-4.274271488189697	0.7575802803039551	7.499031066894531	-22.595916748046875	5.669161796569824	-11.662121772766113	8.333517074584961	-12.299068450927734	-15.623048782348633	9.313407897949219	11.411811828613281	-12.226678848266602	-14.634986877441406	-7.876768112182617	-2.795820713043213	-21.913524627685547	1.7923851013183594	10.9041748046875	-11.764189720153809	-2.775035858154297	-14.116588592529297	23.19118881225586	5.667319297790527	15.375908851623535	27.09514045715332	-7.221377372741699	0.24905237555503845	-13.243683815002441	21.52656364440918	-9.169188499450684	20.248870849609375	-0.8036769032478333	3.7665441036224365	-10.626771926879883	-6.83441162109375	-0.2978534996509552	-11.857787132263184	6.716878890991211	-7.673978328704834	5.918755531311035	3.817639112472534	-3.3851335048675537	9.355904579162598	4.604500770568848	-8.238908767700195	9.548596382141113	18.681730270385742	9.771533966064453	-9.433433532714844	-756.0501708984375	19.739294052124023	3.853480100631714	-1.6415845155715942	18.18686866760254	-21.017614364624023	3.176011323928833	-5.559518337249756	-7.805572509765625	-12.622944831848145	10.821069717407227	14.953798294067383	0.2776468098163605	22.573217391967773	2.9198625087738037	17.567121505737305	11.895583152770996	-12.623393058776855	-5.410898208618164	-11.781783103942871	8.722654342651367	15.141436576843262	-0.13583460450172424	-34.66907501220703	-1.0710138082504272	19.059471130371094	14.370823860168457	-9.151750564575195	-13.504678726196289	10.358787536621094	6.86590051651001	-17.771717071533203	-1.4110338687896729	-12.420342445373535	11.578681945800781	25.92026710510254	-4.190985202789307	4.410366058349609	-17.816864013671875	-0.8743810057640076	4.895755767822266	0.3937382996082306	-24.213207244873047	15.222509384155273	10.5428466796875	-21.12546157836914	6.77360725402832	4.3622846603393555	-27.77329444885254	4.33402156829834	8.633387565612793	-6.341334342956543	12.16925048828125	-5.327193260192871	3.725131034851074	-8.416821479797363	25.99013900756836	13.627514839172363	2.3114490509033203	1.36617112159729	15.793933868408203	8.522184371948242	3.1657419204711914	9.138769149780273	12.477496147155762	8.0045166015625	16.92621421813965	5.6103620529174805	-5.798888683319092	-9.571248054504395	-27.239492416381836	1.331395149230957	5.194849491119385	8.007206916809082	-5.3129706382751465	28.798110961914062	1.1787564754486084	0.06433337926864624	8.90771770477295	-0.5578016638755798	-4.581020832061768	11.257850646972656	9.844274520874023	-1.7575422525405884	-12.597635269165039	8.111116409301758	7.378873825073242	-35.000831604003906	1.1752853393554688	-33.63223648071289	-10.686781883239746	-2.5100996494293213	0.8642548322677612	-19.981470108032227	0.47895920276641846	-12.182576179504395	-11.174829483032227	15.636431694030762	4.674192905426025	-2.3844120502471924	6.045416355133057	-0.17611530423164368	14.551518440246582	-7.327465057373047	13.418244361877441	5.173252582550049	14.729148864746094	-3.038660764694214	6.903733730316162	15.401214599609375	-15.675639152526855	-9.623127937316895	-11.462663650512695	-20.60814666748047	5.835283279418945	-0.9335220456123352	7.673223972320557	-13.353283882141113	5.672793388366699	-11.254249572753906	20.64356803894043	-2.753549098968506	-8.681649208068848	3.8334226608276367	-9.299202919006348	16.69745635986328	-8.194816589355469	6.0074567794799805	0.35091525316238403	-13.249628067016602	7.941295146942139	-22.18267822265625	12.158418655395508	-6.899735927581787	-0.316792368888855	-5.272525787353516	-13.722216606140137	15.52473258972168	4.95051908493042	18.163986206054688	-5.55346155166626	1.7575985193252563	1.2438236474990845	-17.627269744873047	-1.766653299331665	7.6543731689453125	10.451166152954102	0.24698905646800995	33.60160827636719	-1.6374791860580444	18.41404151916504	-1.2650012969970703	3.945316791534424	0.21906961500644684	6.160417079925537	0.5921247005462646	-11.174986839294434	-1.5123836994171143	23.45043182373047	12.335586547851562	15.44947338104248	-24.9213809967041	-1.3504782915115356	1.218449354171753	6.335756778717041	9.871221542358398	-8.431639671325684	31.11981201171875	-10.199555397033691	-3.6584672927856445	-2.9967761039733887	-0.5549519062042236	15.768240928649902	-14.394068717956543	-10.210747718811035	-19.881513595581055	20.20916748046875	-20.453006744384766	3.2052690982818604	11.91899585723877	24.56146812438965	5.567780494689941	-7.733584880828857	-12.963029861450195	-6.924381732940674	7.692646026611328	-7.015325546264648	-0.5537706017494202	12.08702278137207	0.8446753621101379	0.24198481440544128	20.871328353881836	-6.035557270050049	-7.751110553741455	-13.712916374206543	11.03303050994873	-0.7145079970359802	-3.166463851928711	-5.219751834869385	1.8856875896453857	-1.471039056777954	-6.250403881072998	-12.20101547241211	-5.889655590057373	8.030978202819824	6.871399879455566	-6.83817195892334	-13.977561950683594	-3.812999725341797	-17.352581024169922	2.9578568935394287	2.2112138271331787	-7.86896276473999	16.236679077148438	-13.30794620513916	8.524748802185059	14.618387222290039	10.624085426330566	-5.981932163238525	0.9545820951461792	-7.616463661193848	13.911094665527344	0.7086200714111328	-0.0026708957739174366	-4.796408653259277	0.16728509962558746	-0.4770030379295349	-12.779029846191406	11.955613136291504	-0.49435189366340637	-12.405960083007812	-19.08966636657715	20.132511138916016	124.94550323486328	6.935737133026123	-11.802328109741211	8.107364654541016	-22.95807456970215	-13.544918060302734	7.117274284362793	-1.7503050565719604	-21.026870727539062	-0.48621484637260437	-1.0851668119430542	13.89453411102295	-11.790070533752441	-4.850635528564453	-8.107966423034668	-21.974687576293945	-29.940553665161133	1.8411277532577515	-14.584220886230469	-8.962811470031738	-8.080872535705566	6.264309883117676	4.6041340827941895	2.0963573455810547	-1.6802765130996704	16.41271209716797	-11.564676284790039	-6.899332523345947	-4.261537075042725	15.19663143157959	-3.435089349746704	-13.005780220031738	0.11892885714769363	-0.9685906171798706	17.862621307373047	-8.562743186950684	-0.34507429599761963	8.41016674041748	24.79107666015625	-4.275902271270752	11.286840438842773	-7.525763511657715	-11.600683212280273	-12.807379722595215	-18.87396812438965	13.179612159729004	7.624985218048096	-5.932840347290039	0.3538442850112915	-6.349560260772705	2.3654322624206543	5.576715469360352	-9.652607917785645	9.001474380493164	8.740632057189941	-19.819944381713867	-9.59936809539795	5.27189826965332	21.845861434936523	-7.51669454574585	-10.410024642944336	-13.503745079040527	9.936746597290039	-6.442191123962402	4.694881439208984	-5.53292989730835	-24.55568504333496	8.971113204956055	7.758602142333984	1.8900865316390991	-2.262937307357788	1.186896800994873	2.893301010131836	-5.168967247009277	-16.241552352905273	-10.412968635559082	3.4580917358398438	-5.17239236831665	-32.55259323120117	-5.886863708496094	-13.347935676574707	10.530956268310547	-2.602419137954712	-9.915104866027832	27.081226348876953	-9.843335151672363	-6.50777006149292	-9.435603141784668	-2.6747472286224365	-16.449811935424805	-16.319969177246094	-3.4758975505828857	-1.3008275032043457	-14.316742897033691	-1.6440083980560303	-6.965393543243408	3.68428373336792	20.982851028442383	-2.44270396232605	-16.157459259033203	-15.939122200012207	-23.537649154663086	-2.839627265930176	-6.128151893615723	27.838958740234375	-10.154967308044434	-1.9372884035110474	2.754176139831543	-11.59678840637207	12.789776802062988	10.527660369873047	-16.65917205810547	3.3618240356445312	-5.204355716705322	13.029579162597656	0.7175256013870239	5.407336235046387	11.18808650970459	-20.233488082885742	3.555510997772217	27.94794464111328	-35.355674743652344	11.969921112060547	-3.3134024143218994	-5.167540550231934	-4.890120983123779	1.198654055595398	-2.2667174339294434	-17.324234008789062	-6.52456521987915	7.062366008758545	12.216938018798828	-7.4482879638671875	-21.81665802001953	-8.1627197265625	-13.096647262573242	-1.5107536315917969	-5.517484664916992	2.7667462825775146	-20.038799285888672	1.2425951957702637	19.062320709228516	-14.034345626831055	-6.782195568084717	-2.6956541538238525	14.366541862487793	3.8413658142089844	-14.141316413879395	26.414318084716797	-16.740690231323242	-15.168200492858887	13.205351829528809	20.815061569213867	-12.676589965820312	-13.626047134399414	-9.326919555664062	15.943865776062012	5.254753112792969	-5.910243988037109	23.407501220703125	-4.155081272125244	-9.615333557128906	-10.153721809387207	-16.870840072631836	12.010431289672852	17.951335906982422	9.581886291503906	-7.925686359405518	-1.2123416662216187	3.1419215202331543	-25.58554458618164	4.5761308670043945	12.770414352416992	5.760242938995361	1.2544761896133423	-13.355253219604492	-24.17561149597168	16.49493980407715	-5.520395755767822	-25.371864318847656	-13.082350730895996	-6.043323040008545	-9.286608695983887	-9.662429809570312	-10.495526313781738	-2.1869914531707764	2.6681065559387207	-3.396068811416626	-4.730822563171387	17.01274871826172	-0.5112618803977966	13.240912437438965	-3.9602580070495605	-8.784445762634277	6.131335258483887	0.7107856869697571	16.510482788085938	-9.032198905944824	-0.9338063597679138	7.878194808959961	1.844825267791748	12.6368408203125	14.804142951965332	14.97779369354248	-4.201301574707031	-1.2911232709884644	-7.902642726898193	3.9660232067108154	1.3003416061401367	-19.383840560913086	-15.253929138183594	-7.430962562561035	-0.4550221264362335	25.604846954345703	-6.817558765411377	32.02681350708008	-41.37343978881836	-9.445773124694824	5.380768775939941	-9.628565788269043	9.299596786499023	12.644950866699219	3.2464489936828613	1.153527021408081	24.694616317749023	-3.666332960128784	4.747249603271484	10.815845489501953	5.355002403259277	11.815865516662598	-1.8094282150268555	3.0811686515808105	-1.6542062759399414	6.962028980255127	-23.135112762451172	8.642648696899414	-7.100416660308838	1.8227417469024658	7.060315132141113	-29.106197357177734	-6.503697395324707	4.601722717285156	-7.341139793395996	-26.58420753479004	-9.165847778320312	27.462705612182617	-2.084435224533081	14.466389656066895	-11.978221893310547	-24.412696838378906	-15.265795707702637	-32.0986328125	3.5047547817230225	-1.3761565685272217	-5.448664665222168	-7.2040839195251465	2.49283504486084	-0.8090301752090454	11.795406341552734	10.187423706054688	-12.359601020812988	-6.457079887390137	9.833796501159668	9.774150848388672	-6.914662837982178	-9.241663932800293	-2.6923463344573975	-6.189853668212891	-12.488570213317871	13.031413078308105	2.6283864974975586	0.8267455697059631	17.93290901184082	10.809969902038574	12.508012771606445	10.617673873901367	28.904958724975586	-9.724753379821777	2.270712375640869	15.11674976348877	-7.539089202880859	-0.6018847227096558	-0.3815700113773346	22.614219665527344	12.50096321105957	-10.434796333312988	12.561034202575684	-1.948790431022644	-4.227694988250732	10.319780349731445	20.93394660949707	6.870587348937988	-13.137504577636719	-6.6899094581604	-20.042638778686523	3.3192291259765625	-9.382171630859375	18.61817169189453	8.844449043273926	-25.558147430419922	8.719568252563477	-15.30578327178955	-0.32462966442108154	7.2049174308776855	-9.216378211975098	16.97466468811035	12.455513954162598	-3.3185880184173584	-20.41234588623047	13.518866539001465	22.25492286682129	-0.9509347677230835	16.68753433227539	7.21865177154541	15.240008354187012	-207.8972930908203	-9.497007369995117	9.75295639038086	3.5322399139404297	-6.5455451011657715	22.993303298950195	5.355715274810791	1.330422282218933	-2.3071112632751465	-13.495232582092285	3.1972532272338867	-3.6269617080688477	-7.726992607116699	-14.904281616210938	4.0950398445129395	-13.005462646484375	-13.693097114562988	-6.051039218902588	15.372747421264648	-10.072320938110352	-10.31237506866455	4.976965427398682	-5.1104302406311035	-9.314215660095215	-1.4486545324325562	1.6800910234451294	2.515603542327881	-18.109512329101562	-15.920722961425781	4.582921028137207	-19.08704376220703	-2.8628692626953125	-4.587914943695068	-5.090672969818115	-0.9511235356330872	3.8354034423828125	22.391847610473633	1.198624610900879	-1.9055789709091187	-12.458527565002441	13.106403350830078	-3.1888275146484375	11.787446022033691	8.16357135772705	16.005563735961914	16.885711669921875	9.705787658691406	12.167499542236328	0.09273800998926163	3.4622244834899902	-4.112547397613525	-6.190960884094238	-8.688628196716309	25.3463191986084	6.091268539428711	-1.1556518077850342	-2.8723363876342773	-2.133861780166626	-5.925145149230957	-2.5825183391571045	-6.398739814758301	-4.473498344421387	-9.168362617492676	0.36736050248146057	-4.65675163269043	-22.13972282409668	-12.542302131652832	-0.5764586329460144	8.136778831481934	11.140643119812012	-28.01926612854004	-13.276687622070312	-16.33144760131836	-0.7174050807952881	-14.67353630065918	7.529278755187988	10.805253982543945	3.7688350677490234	-5.813313007354736	19.05934715270996	7.021886825561523	34.78781509399414	3.660902500152588	1.6983468532562256	6.631886959075928	10.344388961791992	-15.126806259155273	10.258379936218262	2.2905585765838623	0.38134947419166565	2.1915698051452637	7.915149688720703	-11.955605506896973	7.5147528648376465	6.6028242111206055	-3.924229860305786	-8.744913101196289	2.3487308025360107	-5.973270416259766	9.542271614074707	3.9972751140594482	-13.262799263000488	34.41358947753906	-8.458935737609863	14.831761360168457	0.7589194774627686	15.503053665161133	-10.936691284179688	-12.938189506530762	6.2957892417907715	14.063139915466309	-7.915870666503906	-5.789207935333252	2.647533655166626	-15.959734916687012	-2.3772482872009277	-5.338428497314453	-19.51845359802246	15.240423202514648	-7.750033855438232	6.586907863616943	-5.816715717315674	-14.781437873840332	-6.220285415649414	-9.894076347351074	-10.209349632263184	1.0315085649490356	0.1581648290157318	14.211750984191895	-2.829869270324707	12.949557304382324	0.17226843535900116	1.8887372016906738	17.393203735351562	7.739952564239502	2.540121555328369	29.209890365600586	6.6671576499938965	-13.643718719482422	9.653158187866211	-4.093700885772705	10.566637992858887	3.5599420070648193	20.407291412353516	9.496434211730957	9.897198677062988	0.04042890667915344	2.5986363887786865	11.383740425109863	-0.668706476688385	-14.58538818359375	-1.5275934934616089	-3.845224618911743	-8.150492668151855	-17.686628341674805	-20.131845474243164	34.204036712646484	0.31356772780418396	19.2081298828125	0.08066487312316895	2.282956123352051	-12.245438575744629	1.420481562614441	-9.97583293914795	6.784928798675537	-4.6455464363098145	-21.932886123657227	-6.131674766540527	5.241514682769775	-6.826260566711426	-5.554686546325684	5.968526840209961	2.2985072135925293	0.8276956081390381	-17.577648162841797	-9.460362434387207	-13.903234481811523	21.68798828125	-8.745564460754395	17.530765533447266	-9.911721229553223	0.9659224152565002	16.641786575317383	-17.26451873779297	6.835651397705078	-6.5272417068481445	0.47669991850852966	-18.661502838134766	-5.180542945861816	1.890433669090271	-0.9544135928153992	-8.374711036682129	4.2549591064453125	8.992981910705566	3.7455532550811768	-17.861772537231445	-7.252157688140869	-34.73738479614258	-18.71278953552246	-37.22590637207031	7.789377212524414	-30.093402862548828	-6.119189262390137	3.3682591915130615	-5.9381866455078125	0.5979228019714355	-10.170133590698242	18.976329803466797	12.435197830200195	-8.481852531433105	15.692558288574219	-12.262250900268555	-16.681171417236328	4.943136215209961	12.875837326049805	7.655230522155762	6.645369052886963	-2.378567934036255	-2.4168550968170166	17.977182388305664	-8.463706016540527	4.485137462615967	17.984375	-1.0201902389526367	-2.6364197731018066	-9.796012878417969	-24.226970672607422	7.204102516174316	10.990483283996582	6.428742408752441	27.3664493560791	-10.367168426513672	-708.496826171875	-3.2576630115509033	-10.268806457519531	-2.765936851501465	-2.5744552612304688	1.340731143951416	4.4347825050354	-12.59655475616455	-21.253774642944336	-14.686968803405762	12.613036155700684	-1.078039526939392	-8.133119583129883	-12.005770683288574	8.136751174926758	-0.9555934071540833	9.107452392578125	23.747764587402344	-1.423625111579895	-24.605533599853516	0.20949086546897888	-6.9242987632751465	6.5320281982421875	-20.627748489379883	-10.719793319702148	14.951811790466309	2.978527545928955	11.196986198425293	2.660965919494629	-25.301095962524414	13.614556312561035	2.7975425720214844	-20.650436401367188	-15.201709747314453	5.15398645401001	-4.5644707679748535	-13.686756134033203	12.730559349060059	-19.16251564025879	-0.9332771301269531	-0.12705357372760773	-2.387033462524414	2.449127197265625	3.091254472732544	3.3396120071411133	-21.95708656311035	-11.575848579406738	19.2651424407959	-2.6429026126861572	16.204593658447266	24.529306411743164	16.6923770904541	4.418488025665283	-5.1713948249816895	5.807377815246582	-2.0174121856689453	-4.2026214599609375	10.126320838928223	-10.18826675415039	-11.09363842010498	7.80545711517334	18.51862907409668	-6.442835330963135	-6.12163782119751	6.7994866371154785	-4.821845054626465	-18.987262725830078	19.178491592407227	23.877511978149414	-25.9989070892334	16.763622283935547	-9.460614204406738	18.927169799804688	3.87296462059021	6.916590690612793	4.5889739990234375	7.726280689239502	8.392005920410156	18.207599639892578	-19.97886085510254	10.348736763000488	23.994033813476562	5.597479820251465	16.6765079498291	2.170818567276001	-8.048198699951172	-5.6196136474609375	-14.26103401184082	19.95361328125	-10.0065336227417	-6.129114627838135	10.42856502532959	-2.685016632080078	-18.983373641967773	-21.12913703918457	-7.610639572143555	-4.09574031829834	6.262654781341553	-16.7557315826416	4.178645133972168	-17.185970306396484	16.844202041625977	-5.5457634925842285	-35.46098327636719	5.7938151359558105	9.929829597473145	0.752575695514679	2.3173038959503174	-5.8517374992370605	27.408571243286133	2.5861012935638428	-2.310910940170288	2.3912792205810547	12.137252807617188	-23.896291732788086	6.153937339782715	8.068327903747559	-10.094143867492676	6.751263618469238	1.1097328662872314	-4.049393653869629	5.628322601318359	16.305513381958008	-2.237938642501831	19.99233627319336	-7.426790237426758	20.37378692626953	-4.46782112121582	14.828421592712402	-7.746970176696777	10.445638656616211	-10.643278121948242	-4.126780033111572	11.595767974853516	19.72856330871582	11.28958511352539	-2.569854259490967	6.296358585357666	6.772089958190918	15.571686744689941	24.60943603515625	-3.464967966079712	11.451148986816406	1.0166206359863281	-5.434621810913086	5.649070739746094	8.413398742675781	-19.71031951904297	5.596264362335205	7.411166191101074	-10.094093322753906	4.56020975112915	-13.55860710144043	-6.2595109939575195	-1.9937994480133057	-15.216818809509277	-1.275051474571228	1.6055505275726318	-10.764259338378906	-22.579700469970703	-7.083989143371582	-14.296052932739258	17.778413772583008	4.768603324890137	6.207590579986572	20.733760833740234	7.300481796264648	0.050364505499601364	0.681718111038208	-4.750590801239014	25.44814682006836	-8.268624305725098	16.292400360107422	-8.845824241638184	8.089998245239258	-2.0818865299224854	7.4365644454956055	17.91057777404785	2.989776611328125	-4.186366558074951	-4.245466232299805	9.353018760681152	-22.122692108154297	-6.953311443328857	6.152347564697266	2.4660604000091553	4.966696262359619	-7.291366100311279	15.68092155456543	0.29714998602867126	0.5398014187812805	29.384599685668945	5.2136640548706055	7.38899040222168	26.507549285888672	6.920687198638916	-11.08012866973877	-18.09696388244629	-10.049562454223633	19.637981414794922	-4.946146011352539	21.011873245239258	-12.170555114746094	20.675399780273438	10.658178329467773	5.094520092010498	-9.231101989746094	64.30558013916016	14.994927406311035	-5.852457046508789	-18.239051818847656	21.465274810791016	-5.624636650085449	3.9650516510009766	4.086669921875	-29.140602111816406	8.648056983947754	-1.5858805179595947	24.76451301574707	-24.91482925415039	23.130367279052734	8.536494255065918	-6.781739234924316	-6.125274181365967	4.04780387878418	11.659339904785156	-16.555255889892578	11.76498794555664	2.2063615322113037	-8.907705307006836	30.181123733520508	-6.962749481201172	-12.31283950805664	7.279149532318115	2.850656032562256	-26.25572967529297	9.549915313720703	-3.1093316078186035	7.072762489318848	9.99006462097168	0.9539092183113098	-11.447918891906738	-11.582764625549316	-0.7300480604171753	-10.274572372436523	-0.4768834412097931	4.4912896156311035	4.175515651702881	-21.256345748901367	-8.862977027893066	13.581867218017578	3.5217344760894775	6.226430892944336	12.302814483642578	15.752291679382324	2.9072072505950928	-3.783230781555176	0.8498474359512329	7.433053970336914	11.48982048034668	-19.226268768310547	12.465075492858887	0.6688358783721924	-6.980587005615234	19.564125061035156	6.395708084106445	-9.26424789428711	7.924648284912109	-6.420847415924072	-4.326141357421875	14.712116241455078	-5.849281311035156	7.816022872924805	-3.432278633117676	-3.551643133163452	-0.208036869764328	12.53023910522461	-7.716287612915039	4.0006184577941895	-6.874425888061523	-6.010178565979004	-5.119253158569336	25.178943634033203	-10.248059272766113	-11.786175727844238	1.7770475149154663	8.827628135681152	1.0929718017578125	0.30123329162597656	15.817099571228027	-3.726227045059204	16.11374282836914	-6.230363845825195	3.618300199508667	13.511713981628418	-6.882569313049316	-2.526369333267212	7.1901984214782715	-10.99385929107666	5.028730869293213	-13.143317222595215	-15.061084747314453	7.628658294677734	7.563101291656494	-11.24449348449707	7.123141288757324	0.5213943123817444	-5.707764148712158	14.046626091003418	7.261650085449219	7.937002658843994	-5.349120140075684	10.570392608642578	-9.141185760498047	-13.332196235656738	8.508670806884766	-9.09683895111084	-12.4305419921875	4.3022074699401855	-7.429352760314941	-3.131068706512451	-21.71211051940918	-8.812699317932129	-4.053819179534912	-4.5694074630737305	-45.70338821411133	19.49736213684082	-21.92603874206543	1.025459885597229	-13.794623374938965	-23.248554229736328	-5.933581829071045	0.3473217487335205	-10.621243476867676	-12.177895545959473	-7.5909295082092285	7.937611103057861	0.2906211316585541	1.2873862981796265	-2.2055575847625732	42.476905822753906	4.070947170257568	-9.85748291015625	12.43526840209961	8.773236274719238	42.17549133300781	6.960007667541504	-12.28164291381836	-12.289698600769043	-7.789844512939453	7.701908588409424	7.771244049072266	16.987123489379883	-7.672606468200684	-0.1301988661289215	16.790939331054688	-11.491437911987305	0.3317376673221588	9.672552108764648	8.941756248474121	13.128230094909668	-1.8657325506210327	16.363887786865234	0.9428337216377258	-7.102190017700195	-16.303415298461914	-3.9332051277160645	4.370512962341309	14.50429916381836	-13.42708969116211	-16.616065979003906	-1.1861777305603027	-5.36597204208374	6.085954666137695	-6.626897811889648	4.176845073699951	-1.2908263206481934	-1.3355711698532104	-5.3934431076049805	-10.903660774230957	18.06222152709961	-10.258696556091309	-0.919074535369873	5.353781700134277	14.340360641479492	6.626371383666992	22.202301025390625	2.6838624477386475	-19.150236129760742	2.0145111083984375	-9.274186134338379	-31.987964630126953	-0.9866762161254883	6.265322685241699	-1.4204241037368774	19.954334259033203	20.483642578125	10.29267692565918	3.406040668487549	8.656835556030273	15.094740867614746	25.82093620300293	-7.59188985824585	-2.124692440032959	-27.47921371459961	16.29983139038086	18.227861404418945	2.0254504680633545	6.2653422355651855	0.9689372777938843	-1.6516648530960083	0.760443389415741	-7.14124870300293	-30.86536979675293	-6.826735019683838	-14.715741157531738	9.861544609069824	1.7112712860107422	-5.792337417602539	-7.8639702796936035	0.2348397821187973	-5.119838714599609	-1.8308643102645874	-7.672104835510254	-7.30095911026001	-6.992746353149414	10.798266410827637	-1.136171817779541	-3.8302323818206787	-5.190837383270264	-12.752767562866211	3.9121484756469727	-16.293535232543945	3.983531951904297	2.431941032409668	6.125298500061035	17.8056583404541	1.449015736579895	-0.8643683791160583	-2.535097360610962	-22.4112491607666	17.279008865356445	-2.7046546936035156	-29.04464340209961	-1.9690269231796265	-1.8155195713043213	3.654581069946289	4.321200847625732	-5.760948181152344	24.62640953063965	6.285831451416016	-7.138322830200195	-0.6817506551742554	1.6538490056991577	-1.8124576807022095	0.3724076747894287	18.98128890991211	-24.803707122802734	-4.153100967407227	1.5995330810546875	5.774091720581055	14.399331092834473	33.883602142333984	8.725522994995117	-0.23873168230056763	-13.428391456604004	10.1360445022583	11.878596305847168	11.178339004516602	1.179039716720581	-3.1178314685821533	-0.4943571090698242	4.488771438598633	1.4711424112319946	-4.557568073272705	9.811540603637695	6.172787666320801	12.912095069885254	-6.570613861083984	5.628657341003418	-6.730091094970703	-10.792659759521484	1.976942777633667	15.423060417175293	19.38518714904785	5.968808650970459	-9.810529708862305	-14.021130561828613	18.903501510620117	-7.739736557006836	-13.794839859008789	19.563854217529297	-3.3861732482910156	1.3577767610549927	-6.9602556228637695	-2.580404043197632	-14.642693519592285	-1.2611632347106934	4.893844127655029	-16.011396408081055	5.168295860290527	-27.856891632080078	-7.367449760437012	-12.674406051635742	16.079483032226562	8.355124473571777	-10.051505088806152	-1.7732270956039429	10.154097557067871	-8.157410621643066	-1.646261215209961	-1.4784973859786987	12.503385543823242	8.853188514709473	0.4809260666370392	-1.1310864686965942	2.147043466567993	15.465927124023438	0.07382327318191528	-7.232641220092773	-15.428607940673828	6.603240013122559	10.17601203918457	-7.183295249938965	-7.485507011413574	13.805415153503418	17.881444931030273	-0.7167946696281433	-7.353055953979492	15.85977554321289	14.647991180419922	11.490234375	19.721969604492188	-0.44912388920783997	3.1665282249450684	-27.92781639099121	-3.727888822555542	22.293567657470703	-8.79714584350586	-9.054750442504883	3.4532599449157715	-17.01335334777832	-2.8785150051116943	4.399134159088135	-16.349578857421875	6.03922176361084	6.523872375488281	-8.522489547729492	-4.974603176116943	-6.6217265129089355	13.219703674316406	24.749521255493164	-12.099373817443848	5.845181465148926	6.951846122741699	5.008940696716309	-4.590871334075928	6.363276958465576	2.94118332862854	-6.406412124633789	-6.669826507568359	-3.0163207054138184	-1.2091892957687378	-23.75543785095215	-2.0801033973693848	-0.48111703991889954	-0.13050566613674164	0.5248773097991943	-7.008352756500244	15.215139389038086	-22.360139846801758	-4.018640995025635	-15.223029136657715	0.4162801504135132	6.145946979522705	304.9688415527344	-19.05754280090332	-15.263425827026367	4.734641075134277	18.600135803222656	12.263240814208984	-3.9872138500213623	19.20737075805664	13.10885238647461	14.132381439208984	-4.8486104011535645	-3.2414305210113525	-5.066647052764893	-4.156937599182129	-13.621522903442383	15.52154541015625	0.9937594532966614	30.37146759033203	-5.699229717254639	-0.11824921518564224	5.7286176681518555	1.0947593450546265	-16.494585037231445	2.428622007369995	-12.661103248596191	2.722306251525879	7.488292694091797	-6.214409351348877	17.487855911254883	-6.473991870880127	-8.53404426574707	1.7901620864868164	-3.3909995555877686	4.653594970703125	12.378340721130371	3.761523723602295	5.469150543212891	13.214059829711914	21.239892959594727	9.474489212036133	10.855420112609863	-4.560279846191406	6.574431419372559	-0.26173850893974304	-2.196068525314331	15.000335693359375	12.067030906677246	9.841572761535645	12.78722095489502	-5.145010948181152	2.5906777381896973	-4.6983184814453125	11.055601119995117	-15.221941947937012	25.30579376220703	-1.9750317335128784	-2.19804048538208	-2.5972025394439697	11.533469200134277	5.288747787475586	4.638574123382568	0.48605406284332275	0.7746309041976929	2.475264072418213	3.403179883956909	3.1469457149505615	7.422397136688232	18.943492889404297	5.33164119720459	0.6777346134185791	-10.145537376403809	-16.563386917114258	15.60546588897705	35.31850051879883	-12.586709022521973	13.127225875854492	-18.860069274902344	-9.72348690032959	9.306497573852539	-3.2298743724823	-8.831249237060547	19.90713882446289	-4.978374004364014	6.095108985900879	20.507658004760742	8.693608283996582	3.787916660308838	-0.5983845591545105	-3.037308931350708	4.774313449859619	-65.69003295898438	2.640960216522217	6.534566879272461	5.216569900512695	30.461172103881836	32.88801574707031	-11.607016563415527	11.244309425354004	-2.416480541229248	24.02104949951172	-30.530471801757812	-14.334065437316895	0.5112226605415344	-11.779190063476562	-9.58642864227295	0.156846821308136	4.099212646484375	-4.9243879318237305	-1.7685565948486328	-3.381934404373169	6.560044765472412	7.103986740112305	5.335203170776367	6.67313289642334	24.9715633392334	10.575759887695312	12.299713134765625	-5.570653915405273	-4.213075160980225	-10.352386474609375	43.966697692871094	-6.293355941772461	2.1850357055664062	-3.4117603302001953	1.0680493116378784	7.341170787811279	25.102087020874023	-61.0496940612793	4.432694435119629	5.070706367492676	-18.563411712646484	14.436237335205078	-2.818903923034668	16.6842041015625	7.15622615814209	13.663275718688965	-1.5783873796463013	7.146188259124756	-6.490951061248779	3.390704393386841	5.1955671310424805	-0.541411280632019	-6.638323783874512	-23.67698860168457	4.55763578414917	2.0426366329193115	12.40042781829834	-18.513996124267578	4.417534351348877	-11.487887382507324	-6.419708728790283	7.807488918304443	-12.307233810424805	-6.293731689453125	-5.815898895263672	-8.295404434204102	-7.332259178161621	2.4194910526275635	1.5226138830184937	4.020648002624512	-21.357837677001953	-11.24549388885498	-7.447380065917969	19.267616271972656	-4.244965553283691	7.32973575592041	-0.9909303188323975	5.000559329986572	-24.344894409179688	11.94627857208252	15.326762199401855	-2.609133005142212	4.818274021148682	13.947587966918945	15.424144744873047	-9.376008033752441	-3.491788387298584	-11.490381240844727	15.804933547973633	-1.0266551971435547	-18.374448776245117	-10.486495971679688	15.113775253295898	0.8569091558456421	3.205185651779175	14.037749290466309	9.591817855834961	-5.298437595367432	4.377461910247803	-0.1114841178059578	7.549368381500244	-1.6827961206436157	14.787803649902344	-10.360237121582031	7.621988773345947	0.1557590514421463	2.297175407409668	-21.57730484008789	6.223172664642334	-15.281792640686035	-15.5669584274292	6.778393745422363	-5.013428211212158	-6.7254815101623535	25.72895050048828	-19.17738151550293	2.743321180343628	5.958988666534424	-1.2423648834228516	3.0232021808624268	-4.496606349945068	17.418668746948242	-8.072149276733398	1.2090169191360474	7.26222562789917	-0.5344980359077454	-8.417075157165527	11.870914459228516	-11.110892295837402	2.8085789680480957	-3.7883310317993164	-9.479366302490234	-9.46189022064209	3.1913702487945557	-9.52750301361084	12.30441951751709	-8.362807273864746	-21.582468032836914	-2.672020196914673	-12.392903327941895	2.0661818981170654	4.568487167358398	-3.738572359085083	-8.37270736694336	-1.011782169342041	-29.117902755737305	-15.755667686462402	-20.097394943237305	-8.2981538772583	8.63182258605957	1.909371018409729	6.440057277679443	-8.57327651977539	-0.38937535881996155	1.6901875734329224	5.160886287689209	9.627246856689453	8.52935791015625	-1.9928205013275146	4.8468122482299805	10.991026878356934	-5.277047634124756	19.19700050354004	7.983471870422363	7.76261043548584	0.2796584367752075	-6.942054748535156	0.547879159450531	21.151596069335938	15.945131301879883	-18.064973831176758	-4.516510486602783	18.81344223022461	20.168392181396484	-3.7618844509124756	7.939260482788086	-13.458979606628418	-11.812926292419434	-9.912935256958008	13.470355987548828	-13.779806137084961	-16.857210159301758	9.140763282775879	-7.751941680908203	-12.345645904541016	6.373283386230469	-15.308419227600098	23.61039924621582	16.581377029418945	-0.30985191464424133	-16.28631019592285	1.744458794593811	7.911172389984131	3.5143744945526123	-15.227670669555664	-9.770598411560059	-15.286978721618652	7.674863338470459	-0.32692137360572815	9.551475524902344	0.9498113393783569	2.863619327545166	7.275137901306152	3.931044101715088	-12.817209243774414	11.699886322021484	5.566814422607422	-7.674615383148193	7.015285015106201	19.448421478271484	3.167130708694458	0.48198607563972473	2.6488852500915527	-8.108108520507812	0.8139515519142151	5.155306339263916	4.496593475341797	9.960013389587402	-15.906143188476562	6.929550647735596	1.0327918529510498	-10.963210105895996	8.637975692749023	-13.151844024658203	4.216287612915039	15.84131145477295	-1.9267711639404297	5.069297790527344	3.482123374938965	2.056673049926758	14.194548606872559	5.207499027252197	1.1050200462341309	-3.5034308433532715	-4.183403015136719	-22.034780502319336	11.953482627868652	24.34101676940918	13.177931785583496	-9.821992874145508	5.429418087005615	-8.96787166595459	1.6184109449386597	-4.087714672088623	21.912395477294922	-12.823380470275879	12.055937767028809	-22.37455177307129	-13.919084548950195	-6.344234466552734	4.34959602355957	-9.362640380859375	11.751293182373047	
orso	8.898059844970703	-29.141048431396484	2.9988207817077637	8.455945014953613	7.437214374542236	-13.20427131652832	13.904458999633789	-15.137370109558105	-10.02630615234375	30.396812438964844	-8.499812126159668	3.430206060409546	-8.590764999389648	4.687017917633057	13.00178337097168	-8.980300903320312	14.683202743530273	-1.0036367177963257	-15.706055641174316	-4.361301422119141	13.806029319763184	-10.499832153320312	-5.7774858474731445	10.933602333068848	-9.030702590942383	-8.821399688720703	6.6232781410217285	-5.363685607910156	1.4523308277130127	-3.2183127403259277	-3.7356367111206055	-4.660031318664551	1.895534873008728	1.285710334777832	13.858355522155762	1.3580167293548584	-6.788630485534668	-13.33251667022705	-17.793088912963867	3.4907565116882324	-12.500129699707031	3.5246517658233643	0.3694543242454529	-7.8197832107543945	7.610358238220215	6.386145114898682	12.201332092285156	-9.17242431640625	-12.967381477355957	6.785240650177002	-0.04563751444220543	8.28734302520752	-5.634078025817871	-0.27396729588508606	3.7392771244049072	9.154897689819336	9.790260314941406	-20.4801025390625	4.122653484344482	-0.4654960334300995	-13.4468355178833	-8.467439651489258	-16.246538162231445	-0.3997120261192322	23.341142654418945	-9.101131439208984	8.458457946777344	5.776413440704346	-0.8589432835578918	6.502947807312012	15.562506675720215	4.246712684631348	0.2370757758617401	9.520251274108887	23.548580169677734	10.290709495544434	0.49575087428092957	-0.7424221038818359	1.7327301502227783	-12.256278038024902	-7.618044376373291	-5.775911808013916	11.345248222351074	14.527260780334473	-1.784213900566101	7.4159836769104	-16.815702438354492	0.8765550255775452	-21.4051456451416	-6.337131023406982	-6.909746170043945	-18.454240798950195	-11.079151153564453	-1.0625377893447876	2.6467959880828857	-5.03520393371582	-1.5739202499389648	6.026803970336914	15.563262939453125	10.335742950439453	-1.135878562927246	-4.448957443237305	7.705262184143066	-20.93006706237793	-0.3334115743637085	-6.725901126861572	14.886194229125977	6.9135894775390625	-1.5206624269485474	1.6925692558288574	-20.972227096557617	2.166994094848633	-1.3705273866653442	0.08882302045822144	-1.2878633737564087	-6.06959342956543	1.745080828666687	6.715316295623779	7.3302764892578125	9.787790298461914	8.36374568939209	3.564682960510254	6.222010135650635	-8.773690223693848	-1.2237119674682617	11.1128511428833	8.692797660827637	-1.8335163593292236	7.853757381439209	7.931049346923828	-2.534034013748169	9.41476821899414	2.5362772941589355	-1.189963698387146	-19.48278045654297	4.6016621589660645	-12.937080383300781	4.073145389556885	7.364632606506348	3.504359722137451	6.895502090454102	-2.8594067096710205	14.038344383239746	16.002349853515625	-23.2078800201416	1.6831157207489014	9.323698043823242	-7.304686069488525	2.2276275157928467	-5.066095352172852	6.595548629760742	19.54603385925293	27.59189796447754	-7.699023723602295	-4.87824010848999	-6.643828392028809	-11.567747116088867	4.10079288482666	5.638984680175781	-0.43582436442375183	5.083189964294434	-13.375341415405273	3.114013671875	9.21727466583252	9.40425968170166	-5.672138214111328	0.20850414037704468	0.019642483443021774	17.9337158203125	4.511627674102783	7.897518157958984	0.4918794333934784	6.798136234283447	4.657759666442871	-0.47295206785202026	22.506853103637695	-22.91427993774414	-8.864546775817871	-6.9861931800842285	-7.3779730796813965	-3.6482090950012207	4.724069595336914	3.384028911590576	-20.28232765197754	4.007199287414551	15.885475158691406	1.9942758083343506	-5.955216884613037	-5.006431579589844	-11.485284805297852	8.285758972167969	10.92862606048584	-0.6258339881896973	-4.596200466156006	5.427907466888428	-3.4333548545837402	2.9028446674346924	9.47254467010498	-15.003270149230957	-4.938501358032227	10.733504295349121	-7.947494029998779	4.85903263092041	11.677935600280762	4.386393070220947	22.341760635375977	16.55067253112793	12.656588554382324	24.78726577758789	-6.083043098449707	-10.345836639404297	0.7694839239120483	5.941679954528809	-12.636878967285156	4.897786617279053	-15.096232414245605	2.8384134769439697	0.912432074546814	1.7985297441482544	-1.3989039659500122	5.537081718444824	-4.926384925842285	10.744485855102539	-1.7076982259750366	17.4998722076416	-12.253443717956543	-8.731884002685547	2.169543743133545	6.405555248260498	-5.017186641693115	13.752951622009277	-15.428598403930664	-5.102773189544678	11.774085998535156	-11.999393463134766	-11.827263832092285	-16.6036319732666	7.201681613922119	-22.501848220825195	-11.737954139709473	-25.691373825073242	8.247950553894043	13.2383451461792	-7.280616760253906	0.6024552583694458	16.126733779907227	-2.8440606594085693	-19.679075241088867	-0.44407397508621216	1.7519482374191284	-6.99498176574707	5.3810906410217285	-13.300150871276855	14.742735862731934	-13.3884859085083	1.8282060623168945	18.409767150878906	17.470186233520508	-5.401891231536865	6.8430585861206055	3.4456958770751953	-5.0118889808654785	-12.882018089294434	-0.831095814704895	-3.048266887664795	-4.883725166320801	11.922085762023926	9.884328842163086	2.0495707988739014	0.5884819030761719	-6.707365989685059	-1.0257635116577148	15.788485527038574	-6.4998087882995605	-2.324206829071045	-6.178638458251953	4.769406795501709	-5.004617214202881	-11.037666320800781	1.9108843803405762	2.312138319015503	2.734015941619873	9.413568496704102	6.489602565765381	9.389554023742676	4.228614807128906	16.24490737915039	6.157371997833252	-13.514665603637695	1.4346327781677246	8.708623886108398	-8.34778881072998	11.655065536499023	23.36781883239746	-4.407290458679199	14.132253646850586	-12.345824241638184	-5.204365253448486	4.540407657623291	-10.557836532592773	-13.503992080688477	-4.526752471923828	-2.660313606262207	-2.127586603164673	-8.823678016662598	6.781938076019287	5.048831462860107	-2.893531560897827	7.110700607299805	-4.784799098968506	9.44350528717041	-1.2487937211990356	1.0569829940795898	0.21116912364959717	-3.3362960815429688	739.6493530273438	3.8179750442504883	-1.467006802558899	-20.818178176879883	6.377744674682617	11.85809326171875	-10.033373832702637	9.297296524047852	-1.0452548265457153	14.696084976196289	7.061308860778809	-6.416869640350342	-10.253106117248535	5.171411514282227	6.7381911277771	-10.745881080627441	-3.6370701789855957	-16.579309463500977	8.04187297821045	-8.899726867675781	1.4995777606964111	-7.432610988616943	-4.071873664855957	-14.295888900756836	-4.324388027191162	-10.659693717956543	-0.4658839702606201	11.21630573272705	-13.150006294250488	-8.161172866821289	-5.268545150756836	9.388525009155273	-13.09092903137207	8.984346389770508	17.19779396057129	-1.9866195917129517	-3.852904796600342	12.048164367675781	-2.888554811477661	-11.532708168029785	-1.6604033708572388	-7.521381378173828	-0.6305530667304993	0.042313266545534134	-0.6957994699478149	-3.982006311416626	-0.49232903122901917	-0.6832523941993713	13.795696258544922	8.076949119567871	24.963987350463867	1.2272619009017944	4.559854984283447	-3.8727407455444336	5.416236877441406	7.005130290985107	-13.194668769836426	-23.218082427978516	1.7945982217788696	-4.6395955085754395	2.4549224376678467	-1.536223292350769	-2.8013811111450195	-8.028642654418945	0.8057171106338501	14.302027702331543	-1.7908369302749634	-4.990340709686279	7.101645469665527	14.76702880859375	-11.973478317260742	-8.293437004089355	-3.237072229385376	-12.257244110107422	6.03253698348999	10.737524032592773	4.567585468292236	-6.182913780212402	7.73176908493042	-12.280814170837402	-6.999715328216553	-11.693746566772461	-4.2407002449035645	10.903078079223633	-25.353988647460938	-25.179611206054688	-4.019642353057861	13.655171394348145	7.1562581062316895	-10.242921829223633	7.042558670043945	-1.1623839139938354	-16.762788772583008	2.698810338973999	18.326826095581055	8.65605354309082	-8.804231643676758	2.3640947341918945	2.2022504806518555	17.63480567932129	-8.05762004852295	-1.0969287157058716	1.222952961921692	8.662555694580078	-13.981056213378906	0.06159341707825661	10.753680229187012	-6.113493919372559	0.28357574343681335	-8.008687973022461	-4.692862510681152	-6.669950008392334	-9.822172164916992	14.968572616577148	-1.8651788234710693	-3.5864033699035645	-6.007837772369385	16.880416870117188	-8.079957008361816	-1.5667715072631836	-11.242795944213867	-2.1356000900268555	8.094014167785645	-4.247374057769775	-1.038182020187378	19.69216537475586	2.9034266471862793	-3.870511531829834	9.31334400177002	-16.526464462280273	-20.655641555786133	16.19886016845703	-17.540224075317383	3.7059621810913086	-24.804824829101562	-114.29888153076172	-7.181421279907227	1.4347928762435913	8.465458869934082	1.4880256652832031	-9.395364761352539	-21.0269832611084	-15.275272369384766	-8.649641036987305	1.8866089582443237	0.25851836800575256	-6.307276725769043	-2.8496901988983154	3.219287872314453	-3.457907199859619	-1.9833929538726807	-18.719200134277344	7.042600154876709	0.8675658702850342	0.4436267614364624	3.6625633239746094	-9.869709968566895	-9.729294776916504	-8.437773704528809	-13.90938663482666	12.208454132080078	-13.419682502746582	-9.362080574035645	-11.53386402130127	-7.728734493255615	-26.017868041992188	23.39380645751953	0.24276955425739288	-12.620123863220215	-7.261383533477783	12.18700885772705	10.17012882232666	0.9639015793800354	-4.756259441375732	-3.2134556770324707	3.3710615634918213	32.87594223022461	9.887571334838867	-3.0949501991271973	-20.727996826171875	3.2199018001556396	4.075384616851807	17.582489013671875	-9.088604927062988	-0.8749406337738037	1.1300992965698242	5.6985297203063965	-12.96567153930664	3.2043325901031494	-3.8286759853363037	-7.191221237182617	2.695429563522339	8.726469039916992	2.1658241748809814	-3.764353036880493	13.634307861328125	-11.491450309753418	8.197613716125488	7.050473690032959	-14.459369659423828	4.561407089233398	-2.5283756256103516	28.142723083496094	-7.017222881317139	-14.57048225402832	-22.804100036621094	9.316853523254395	11.086271286010742	-5.188726425170898	19.318737030029297	-0.9100521802902222	13.050968170166016	5.0988993644714355	-8.139683723449707	-6.0898756980896	-4.462936878204346	-13.05583381652832	9.117246627807617	13.079395294189453	7.129088401794434	15.845675468444824	-0.2073662430047989	5.078686714172363	8.484182357788086	6.039829730987549	13.923486709594727	23.668415069580078	-6.0562005043029785	-13.756921768188477	-15.27862548828125	-0.3032899796962738	-1.503635048866272	4.338059902191162	-2.5095036029815674	10.190193176269531	13.124137878417969	-2.422928810119629	15.035270690917969	-7.050683498382568	-17.130281448364258	-6.47325325012207	-2.839879274368286	1.4074292182922363	6.667110443115234	0.8885852098464966	6.371052265167236	26.709354400634766	2.158583164215088	-1.2978119850158691	11.585651397705078	10.859846115112305	3.0533533096313477	-18.433740615844727	16.32539939880371	-6.9169921875	7.374994277954102	10.348812103271484	1.8327685594558716	-0.04203677549958229	-3.0735652446746826	-9.650440216064453	-5.5629167556762695	-1.5161136388778687	6.022829532623291	4.456910610198975	8.026297569274902	-11.868315696716309	14.344367027282715	7.5729875564575195	1.0675030946731567	-7.396151065826416	-9.275187492370605	-7.4801154136657715	0.7266236543655396	-5.07067346572876	-1.710242748260498	8.462886810302734	-5.346232891082764	-13.381826400756836	12.782005310058594	-8.882134437561035	3.5058600902557373	4.09567928314209	-8.489418983459473	-4.580026149749756	-1.0371317863464355	-4.488163471221924	-3.7245991230010986	-28.573017120361328	-15.108331680297852	-7.349595546722412	-4.999419689178467	2.4065048694610596	-4.544710636138916	-1.961910605430603	12.98737621307373	9.921676635742188	-8.515215873718262	6.41703462600708	-6.185169219970703	-2.4549646377563477	-6.4844512939453125	1.7697712182998657	6.455995559692383	-17.137292861938477	11.4331636428833	-4.7963666915893555	7.589715003967285	11.83340072631836	6.035366058349609	3.323456048965454	10.039231300354004	1.6118870973587036	-25.267581939697266	2.0108635425567627	-9.142194747924805	22.68841552734375	5.314043998718262	14.993890762329102	8.684061050415039	-13.147123336791992	-1.4306252002716064	-16.049421310424805	5.7860894203186035	-15.508041381835938	-17.0736083984375	-6.201709270477295	-8.012883186340332	-11.47628116607666	-14.360407829284668	-21.991031646728516	6.194522380828857	8.034728050231934	21.75396728515625	1.8876875638961792	-2.9015755653381348	9.765637397766113	16.366220474243164	-4.075174808502197	1.4417380094528198	-30.601253509521484	-14.246655464172363	8.209427833557129	-5.14698600769043	-5.753105640411377	-4.453717231750488	0.9348000884056091	-2.7459943294525146	-2.0076744556427	-12.934759140014648	2.689457654953003	6.659233570098877	1.2712022066116333	5.591176509857178	5.868466377258301	14.817432403564453	9.876768112182617	15.554143905639648	-12.648520469665527	-2.2740345001220703	-5.375182151794434	-2.624959707260132	-16.126127243041992	-14.348222732543945	3.6216328144073486	-20.178220748901367	-6.355165958404541	2.286022901535034	-6.95661735534668	12.58134651184082	-4.441171169281006	10.944680213928223	23.30466079711914	-27.96579360961914	-2.86557936668396	10.679227828979492	3.6784980297088623	17.080331802368164	-0.4043889343738556	9.95114517211914	-1.2723851203918457	8.866880416870117	-5.799380779266357	-9.376379013061523	10.95946216583252	-1.340362310409546	7.713647365570068	11.901983261108398	2.818082332611084	9.262475967407227	-3.4159042835235596	1.6588513851165771	-2.144012212753296	-15.628922462463379	-4.155167102813721	-35.84066390991211	-14.770459175109863	-13.575236320495605	-8.03536605834961	-7.991043567657471	16.86161231994629	6.602738380432129	-0.9918146729469299	13.517983436584473	6.580499649047852	5.614480972290039	-1.8817006349563599	-9.822860717773438	10.96484375	-7.238241195678711	13.155107498168945	-3.2994723320007324	-1.5405455827713013	-0.9077138900756836	11.485360145568848	9.237329483032227	-8.868169784545898	-15.150374412536621	1.5018329620361328	-16.57118034362793	4.5589823722839355	1.3969053030014038	2.4089322090148926	-8.233621597290039	-2.852747678756714	2.2021920680999756	0.6817622184753418	-1.8276464939117432	15.220036506652832	-3.143104314804077	5.392308235168457	3.2414581775665283	8.494226455688477	-16.291770935058594	11.170490264892578	-1.9339747428894043	-11.015314102172852	-9.073596954345703	-14.575052261352539	-7.61514949798584	17.947338104248047	-12.12471866607666	1.3448413610458374	11.01930046081543	8.41763687133789	11.105742454528809	-0.7437789440155029	2.638561248779297	-2.2747552394866943	12.166716575622559	-10.54223918914795	1.600139856338501	7.773921966552734	-0.32337215542793274	-5.184713363647461	-13.350423812866211	-7.48247766494751	16.81188201904297	3.7343292236328125	-14.592854499816895	0.8430177569389343	5.535333633422852	-15.99334716796875	19.73554229736328	-10.841874122619629	-3.3858284950256348	3.351118803024292	-21.212671279907227	-14.503686904907227	-8.9405517578125	9.144750595092773	-12.165878295898438	5.223055362701416	-6.040332317352295	-22.859411239624023	1.4036297798156738	-17.733501434326172	2.0713093280792236	-4.6101274490356445	-8.666925430297852	28.813520431518555	0.7894744277000427	22.558292388916016	-9.687776565551758	6.479592800140381	8.537004470825195	-5.449321746826172	16.070045471191406	-1.6637555360794067	7.377382278442383	-6.29887056350708	5.7758259773254395	-2.8185126781463623	14.306852340698242	13.282450675964355	12.492491722106934	11.985079765319824	-5.189327716827393	-0.4407097399234772	23.07271385192871	7.9028449058532715	31.07194709777832	2.4286279678344727	2.518838405609131	-1.1142449378967285	6.026037216186523	12.804530143737793	9.688607215881348	6.153778076171875	-19.786537170410156	-6.982481956481934	-0.3498534858226776	0.9031679630279541	-2.7231311798095703	-13.327777862548828	19.362159729003906	13.643233299255371	24.883060455322266	-30.18813705444336	8.292584419250488	1.4519972801208496	-10.787978172302246	-0.16527871787548065	-10.066535949707031	-12.728675842285156	1.1454442739486694	-12.206144332885742	-10.061408996582031	-2.678218364715576	7.0565595626831055	34.58272171020508	0.1794724464416504	13.554032325744629	-5.386734485626221	-8.424318313598633	30.881059646606445	-6.534919261932373	-9.821305274963379	-8.685665130615234	-6.092129707336426	-1.0106501579284668	9.654999732971191	-0.08473905175924301	3.1818292140960693	5.305762767791748	1.823817253112793	-24.282569885253906	9.244943618774414	-0.8822879195213318	0.5268183946609497	-2.899937868118286	-0.6355144381523132	-1.6363929510116577	13.468926429748535	0.7259073257446289	8.902897834777832	7.611630439758301	-0.1905789077281952	8.637092590332031	-3.2452993392944336	6.5145463943481445	12.452482223510742	-19.146728515625	10.209783554077148	11.63878345489502	11.658551216125488	2.319923162460327	3.269240140914917	4.048056602478027	16.213651657104492	-3.4777157306671143	-14.221835136413574	-5.752864360809326	0.007229785434901714	-9.794923782348633	9.107061386108398	-19.481470108032227	-4.017730712890625	8.522612571716309	-21.0589599609375	6.578146934509277	-1.1572630405426025	3.4874589443206787	3.821570634841919	-2.226055860519409	-20.791608810424805	-3.434258222579956	-1.1892611980438232	-15.57452392578125	-1.9781103134155273	2.608813762664795	0.660434901714325	14.723752975463867	3.4393746852874756	-8.22812557220459	12.442082405090332	-7.8740644454956055	2.2722508907318115	5.2578630447387695	-0.24634678661823273	-2.52955961227417	6.411521911621094	4.797375202178955	-13.61913776397705	4.180531978607178	3.833700656890869	6.242885112762451	20.420753479003906	-29.77869987487793	-7.616842746734619	15.144100189208984	12.194955825805664	6.52609920501709	10.525731086730957	-6.487392902374268	13.891328811645508	-10.085736274719238	-5.5379743576049805	25.494421005249023	-9.102734565734863	17.23587417602539	-11.028006553649902	-6.973076343536377	-17.03693389892578	4.681431293487549	-10.55029010772705	-0.8554515242576599	-7.359158515930176	-6.343145370483398	-17.467313766479492	3.8905892372131348	15.507475852966309	13.592873573303223	8.295900344848633	-5.007926940917969	7.343223571777344	5.116446018218994	-5.694427013397217	-12.336766242980957	-9.470611572265625	6.435049057006836	-11.608787536621094	-5.961120128631592	-0.44141849875450134	-3.700927495956421	-5.904651641845703	-16.57196617126465	-8.173422813415527	2.7952897548675537	11.196341514587402	-18.70895767211914	-9.44056224822998	-3.675374984741211	16.246408462524414	11.210593223571777	-2.978060245513916	16.076303482055664	17.967430114746094	-10.585431098937988	7.826791286468506	12.43159008026123	-5.958345890045166	4.192079067230225	5.230602741241455	2.723863363265991	8.601079940795898	8.384095191955566	2.6422245502471924	-15.289741516113281	-30.438068389892578	12.736029624938965	12.43674087524414	8.317288398742676	-5.914420127868652	15.43493366241455	18.25737953186035	-10.883550643920898	4.814037799835205	11.117106437683105	1.523309588432312	6.445486545562744	-10.79226016998291	-1.4778269529342651	-12.873490333557129	-11.392356872558594	7.2892255783081055	4.648090362548828	7.039992809295654	-5.041324138641357	11.815260887145996	-2.3672242164611816	3.3572001457214355	0.7931517362594604	14.654207229614258	11.632515907287598	22.604476928710938	-13.323784828186035	0.37717294692993164	-4.3100905418396	3.1645395755767822	1.6302398443222046	4.848845481872559	23.005693435668945	-4.092984199523926	5.869210720062256	15.473673820495605	5.211966037750244	22.809642791748047	2.238511323928833	-12.402551651000977	15.137903213500977	-10.29525089263916	-5.000800132751465	3.9516313076019287	15.458101272583008	-23.17536163330078	11.540186882019043	7.579591274261475	-11.488142013549805	12.940732955932617	20.11003303527832	-0.790331244468689	-1.0903512239456177	-5.524409294128418	79.91581726074219	14.915224075317383	6.450933456420898	8.672514915466309	7.415057182312012	-11.411681175231934	4.488529205322266	-4.738572597503662	4.315123558044434	20.91716194152832	-10.188909530639648	-13.262372016906738	-2.7271883487701416	-2.5302369594573975	-4.1119771003723145	5.077476978302002	3.776477813720703	-18.39296531677246	11.792868614196777	18.950016021728516	6.519399166107178	1.2729309797286987	17.541955947875977	5.8725457191467285	-8.18284797668457	1.0808875560760498	-33.16049575805664	15.336734771728516	-0.19439947605133057	-1.1049004793167114	14.10988998413086	2.244694232940674	0.6354159712791443	15.976536750793457	-9.01460075378418	1.1885141134262085	-12.561698913574219	2.6882152557373047	-8.808150291442871	-1.8599252700805664	8.841898918151855	-4.137217998504639	12.824115753173828	-6.300107955932617	17.328712463378906	-3.332519292831421	7.422581195831299	1.4080575704574585	9.982257843017578	-20.500516891479492	2.7864437103271484	-2.8348758220672607	-5.450129508972168	10.202874183654785	-7.634621620178223	5.268362998962402	2.468292474746704	-11.142946243286133	-0.24962778389453888	6.244279861450195	23.44168472290039	12.21313762664795	-11.112784385681152	-15.882688522338867	-0.5113732814788818	20.112279891967773	-1.7397276163101196	1.4419559240341187	26.268198013305664	-19.350141525268555	-9.5608549118042	4.259513854980469	2.9112911224365234	-11.370352745056152	-1.5058612823486328	4.77764892578125	-9.423894882202148	-6.4543561935424805	-6.352584362030029	9.503213882446289	3.7345218658447266	-0.05543012171983719	4.688785076141357	4.748908996582031	2.56537127494812	2.6684610843658447	-5.084321975708008	6.524933338165283	-8.195082664489746	8.896612167358398	8.852154731750488	-13.383333206176758	-7.415210723876953	-7.926173686981201	0.29006093740463257	5.4914631843566895	-16.328468322753906	-8.442156791687012	0.671147882938385	5.746353626251221	-18.423524856567383	53.51784133911133	4.6046037673950195	-11.357637405395508	7.1062211990356445	5.720545291900635	-2.87117075920105	-1.2722666263580322	16.004234313964844	-8.066246032714844	-9.882744789123535	-8.882018089294434	10.576876640319824	5.398320198059082	-7.668907642364502	-16.42354393005371	-19.954633712768555	-16.357425689697266	-3.9943923950195312	-8.452313423156738	-13.747485160827637	25.31800651550293	-20.640419006347656	-2.733457326889038	5.754663467407227	18.962322235107422	-5.104971885681152	-13.644190788269043	-2.1674835681915283	-15.334602355957031	10.249256134033203	0.55937659740448	12.578619003295898	-3.822756767272949	0.4373858869075775	9.583015441894531	-1.077843427658081	55