phrase	xlm-roberta-large_vectors
giacca	-0.6926529407501221	-0.22439123690128326	-0.07555422186851501	0.007494646590203047	0.1709425449371338	-0.20256496965885162	-0.1940840780735016	0.26738613843917847	-0.40888309478759766	0.013913042843341827	-0.21821081638336182	-0.031079266220331192	-0.08261088281869888	-0.35298383235931396	-0.22560295462608337	-0.3760647177696228	-0.05866929516196251	0.40072235465049744	0.16611169278621674	-0.06333866715431213	0.13776518404483795	-0.27171340584754944	-0.021972911432385445	0.0037713805213570595	-0.1445731818675995	0.15033714473247528	0.3633034825325012	-0.26941582560539246	0.06536249071359634	-0.14693693816661835	0.030670855194330215	-0.09838873147964478	0.15573172271251678	0.1304771900177002	-0.16209003329277039	0.05966270714998245	0.10917185992002487	-0.02759653702378273	-0.11666496098041534	-0.05930684879422188	0.06902160495519638	-0.01593295857310295	-0.07391861826181412	0.058216363191604614	0.33505532145500183	0.1871623992919922	-0.15432682633399963	-1.080762505531311	-0.4707596004009247	-0.08120998740196228	0.20697593688964844	-0.07004979252815247	0.24938449263572693	0.45210397243499756	0.13164478540420532	0.04509575292468071	-0.3248986303806305	-0.663581907749176	-4.6430914153461345e-06	0.27700793743133545	0.006556076928973198	-0.27855929732322693	-0.16386151313781738	0.1573985069990158	0.24972505867481232	0.21122294664382935	0.03531787171959877	0.042939916253089905	0.32985639572143555	0.12896139919757843	-0.007431173697113991	-0.054924529045820236	-0.5348286628723145	-0.27171969413757324	0.24618713557720184	-0.16369743645191193	0.45051416754722595	0.00037835462717339396	-0.1384388953447342	0.10517099499702454	0.13426049053668976	-0.015588459558784962	-0.06454727053642273	-0.17566269636154175	-0.20258499681949615	-0.1777884066104889	0.21238908171653748	0.0409991592168808	-0.31769561767578125	-0.1516391485929489	0.26921743154525757	-0.20227982103824615	-0.009443992748856544	0.15839441120624542	0.15135547518730164	0.1111890897154808	0.361576646566391	0.24964821338653564	0.20466957986354828	0.011350042186677456	0.2049826830625534	0.0461001917719841	-0.19877056777477264	-0.2669849097728729	0.2867409586906433	0.04368209466338158	-0.13144665956497192	-0.07846754789352417	-0.07283495366573334	0.39134305715560913	0.36894917488098145	-0.03767024725675583	-0.1347629576921463	-0.17883464694023132	0.12068799883127213	0.11100339144468307	-0.5828304290771484	-0.0359366349875927	-0.13624291121959686	0.1056671291589737	-0.03777848556637764	-0.32012805342674255	0.30118870735168457	-0.08547329157590866	0.09724343568086624	-0.3268163502216339	-0.09486745297908783	0.2993253171443939	-0.15956662595272064	0.014412221498787403	-0.13367213308811188	0.19481292366981506	0.24888883531093597	0.05253733694553375	0.008989966474473476	0.05228666216135025	-0.048267193138599396	0.2452106922864914	-0.0678706094622612	-0.22250165045261383	-0.09439209848642349	0.2593950033187866	0.19472871720790863	0.08411630243062973	-0.05121646821498871	0.08077813684940338	-0.399664968252182	0.26320841908454895	0.06905627995729446	0.03072511963546276	-0.054409246891736984	0.5607710480690002	-0.16021046042442322	-0.0018024060409516096	-0.24020256102085114	-0.16904538869857788	-0.321222722530365	-0.39365294575691223	-0.029514463618397713	-0.15427616238594055	0.20400039851665497	0.5103763341903687	0.012551909312605858	-0.16578617691993713	-0.06910715252161026	0.02173015847802162	0.10896880179643631	-0.16435857117176056	0.08736468106508255	-0.20800219476222992	-0.07059098035097122	0.03816452622413635	-0.1428053379058838	0.05401555821299553	-0.022848254069685936	0.5671247243881226	-0.4109557569026947	-0.4427507817745209	0.1429603546857834	-0.2248186469078064	-0.12634459137916565	0.05871130898594856	-0.047754161059856415	0.010626846924424171	-0.3243751525878906	-0.35557326674461365	-0.31789109110832214	-0.0008669144008308649	0.1785048395395279	-0.04174301028251648	0.07361859083175659	0.12402366101741791	-0.12570291757583618	0.3532557487487793	0.02926572784781456	0.062107786536216736	0.177255317568779	-0.03162318840622902	-0.008861260488629341	0.0992613360285759	0.10701769590377808	0.03149004653096199	0.1639266461133957	-0.10982195287942886	-0.08317440003156662	0.14304836094379425	-0.3776419460773468	0.0777258649468422	-0.11541900038719177	0.11968144029378891	0.27120041847229004	-0.05765105038881302	-0.42284032702445984	-0.11171324551105499	0.004514550790190697	0.12714684009552002	-0.047224972397089005	-0.28901728987693787	-0.19670931994915009	0.3465873599052429	0.06967101991176605	-0.272578626871109	0.18964168429374695	0.0003710570454131812	-0.04757239297032356	-0.23775769770145416	-0.14733648300170898	0.19332818686962128	-0.10008659958839417	-0.2407851219177246	0.11796389520168304	0.47565150260925293	0.20478586852550507	0.12011569738388062	-0.1438920795917511	-0.05398842319846153	-0.17709477245807648	0.10077837854623795	-0.13184955716133118	0.08044672012329102	-0.004828082863241434	0.12557083368301392	-0.08048323541879654	-0.07815787196159363	0.031093290075659752	-0.02210267260670662	-0.29509228467941284	0.33805936574935913	0.18323303759098053	-0.06488000601530075	-0.1461094468832016	0.17709262669086456	-0.06967254728078842	-0.14828142523765564	-0.16783596575260162	-0.10319671034812927	0.1708327829837799	-0.03572900593280792	0.013883705250918865	0.0480228066444397	-0.06270000338554382	-0.1159292459487915	0.04965950548648834	0.39730727672576904	-0.07330247014760971	-0.14944136142730713	0.06355385482311249	0.3772759735584259	0.024415409192442894	-0.47526484727859497	-0.2552063763141632	-0.02589081972837448	-0.24360205233097076	-0.0489228181540966	-0.07562204450368881	0.050791818648576736	-0.0829605758190155	-0.2803771197795868	0.194172203540802	0.10440395027399063	0.2516505718231201	-0.23585431277751923	0.12005376815795898	-0.09725620597600937	0.06334905326366425	0.008177602663636208	-0.3834393620491028	-0.4682835638523102	0.011355039663612843	0.12609754502773285	-0.10294895619153976	-0.2093413919210434	2.0148072242736816	-0.308643102645874	0.07096748799085617	0.10690438002347946	-0.138506218791008	-19.83820343017578	0.15285742282867432	-0.1406053751707077	0.021341070532798767	0.5485401749610901	0.12521426379680634	-0.06764289736747742	-0.006721146404743195	-0.44291913509368896	0.2416500747203827	0.23286189138889313	0.3300079107284546	0.08981458842754364	0.032623615115880966	0.15036889910697937	0.21549564599990845	-0.12739206850528717	-0.19586946070194244	-0.07277164608240128	0.16577903926372528	0.04678615555167198	0.12987151741981506	0.45787760615348816	-0.7295712232589722	0.006536553148180246	0.713274359703064	-0.018164698034524918	0.11196994036436081	0.023930372670292854	0.3303159177303314	-0.0393667034804821	0.12363772839307785	1.3998984098434448	0.07771064341068268	0.016445335000753403	-0.0327911414206028	-0.02039806731045246	0.01118228118866682	0.47212883830070496	-0.3980962038040161	0.12927621603012085	-0.1179029643535614	0.23283879458904266	0.04092039167881012	-0.16084659099578857	-0.10445217788219452	-0.3993663191795349	0.019724151119589806	-0.2680129408836365	-0.21177580952644348	0.05032039433717728	-0.024935487657785416	0.018791811540722847	0.32347574830055237	-0.11489665508270264	-0.24240988492965698	0.109347403049469	0.16669060289859772	-0.10399226099252701	-0.01865251548588276	0.19970092177391052	0.16875287890434265	-0.08342449367046356	-0.01370591577142477	0.3376137316226959	0.013683727011084557	0.10404406487941742	0.010871637612581253	0.06336019188165665	-0.12108942866325378	-0.06677043437957764	0.2994682788848877	0.05394487828016281	0.07175415754318237	-0.055152423679828644	0.2106322944164276	0.21736612915992737	-0.02450571581721306	0.18230196833610535	-1.5296798944473267	0.48558467626571655	-0.3388311564922333	0.008083092980086803	0.06549479812383652	0.20350882411003113	-0.06334945559501648	-0.05557988956570625	-0.14819365739822388	-0.19566339254379272	16.346952438354492	0.22484523057937622	0.1961842030286789	-0.1745421439409256	-0.3375816345214844	-0.14357583224773407	-0.20346949994564056	-0.11451765149831772	0.13603918254375458	-0.30304431915283203	-0.04680490866303444	-0.2965524196624756	-0.40119990706443787	-0.07715804874897003	-0.044916462153196335	-0.40162599086761475	0.1027282252907753	-0.13142842054367065	2.162175178527832	-0.04555480554699898	-0.1539527028799057	0.4550663232803345	-0.06957549601793289	-0.19195565581321716	-0.37508150935173035	0.19099587202072144	0.0914113000035286	0.2438776195049286	0.19526603817939758	-0.021915286779403687	-0.05504237115383148	0.0015313393669202924	-0.36706459522247314	-0.24267464876174927	-0.04579130932688713	-0.12777258455753326	-0.051954202353954315	0.0695250928401947	-0.23781825602054596	-0.020217686891555786	0.23292985558509827	-0.8488203883171082	0.061612971127033234	-0.3454873859882355	0.16436029970645905	-0.1846986711025238	0.010716212913393974	0.035847943276166916	0.03664097934961319	-0.03676031902432442	-0.3444004952907562	-0.06630368530750275	0.0244293250143528	-0.2372499257326126	0.11209509521722794	-0.03376605361700058	-0.06392396241426468	-0.06404010206460953	0.10819514840841293	-0.4356488287448883	-0.7412011027336121	0.5266327261924744	-0.1769288033246994	0.04216372221708298	0.14735758304595947	0.3897343575954437	0.11890953779220581	-0.4667890965938568	-0.018315179273486137	0.002105124294757843	-0.3235766291618347	0.15720263123512268	-0.21861816942691803	-0.08795621246099472	-0.1686408817768097	-0.003962247166782618	0.08588971197605133	-0.1394951343536377	-0.6136043667793274	0.2010357826948166	0.27337199449539185	0.13373273611068726	0.05280742049217224	-0.2622838616371155	-0.15133820474147797	0.22897939383983612	0.12092156708240509	-0.08013864606618881	-0.24925006926059723	-0.159322589635849	0.30930960178375244	0.02510145492851734	-0.2374243438243866	-0.8029341101646423	0.3597564101219177	-0.0975041463971138	0.23874005675315857	0.11985787004232407	-0.18052628636360168	0.35916388034820557	-0.22583775222301483	0.11500249803066254	-0.12172587960958481	-0.22073780000209808	-0.16653434932231903	0.08573131263256073	0.6912481784820557	0.24310965836048126	-0.07739073783159256	0.34082669019699097	0.4166605770587921	0.02629467472434044	-0.02875375561416149	0.11525953561067581	0.14923922717571259	-0.25470423698425293	-0.012394625693559647	0.2273421734571457	0.37024104595184326	0.26494619250297546	-0.06779291480779648	0.3552326261997223	-0.07504936307668686	-0.2708861231803894	-0.03915613889694214	-0.03923796862363815	0.1099097728729248	-0.2713649570941925	-0.3899500072002411	0.053096797317266464	0.031049944460392	-0.13303059339523315	0.0341363251209259	0.0783219039440155	0.13036079704761505	-0.037785548716783524	0.12143050879240036	-0.14292269945144653	0.06456546485424042	0.04070545732975006	-0.16051609814167023	-0.19221113622188568	0.015643853694200516	0.13852182030677795	-0.324349045753479	0.24971136450767517	0.10308478772640228	-0.2496684044599533	-0.012701031751930714	-0.12487896531820297	-0.2902001738548279	0.5897876620292664	-0.0534762367606163	0.11457128077745438	-0.23165610432624817	0.26465433835983276	-0.02691560424864292	-0.04948354512453079	0.14318954944610596	-0.07110827416181564	0.026973433792591095	-0.20420680940151215	0.21621471643447876	-0.382247656583786	0.00473935017362237	0.04963982105255127	0.30824971199035645	-0.15879541635513306	-0.7818633913993835	-0.03125612810254097	-0.45534148812294006	-0.3996456265449524	0.21270787715911865	-0.2993399500846863	-0.25815409421920776	0.12061566859483719	-0.13113176822662354	-0.2427813708782196	-0.12968863546848297	-0.609074592590332	-0.04514593631029129	0.038234710693359375	-0.08709241449832916	-0.0359150730073452	0.07577620446681976	-0.10427426546812057	0.009028992615640163	0.12446627020835876	0.17795602977275848	-0.27670586109161377	0.22869819402694702	-0.8245798945426941	-0.5849776268005371	0.07875817269086838	-0.2961817979812622	0.10182236135005951	0.37996968626976013	-0.09653263539075851	-0.11902960389852524	-0.13313497602939606	0.151828333735466	-0.09345363825559616	0.14181259274482727	-0.17642033100128174	0.2815313935279846	-0.16200490295886993	0.15288540720939636	0.05838027223944664	-0.09272364526987076	-0.5118119716644287	0.10970277339220047	0.15157024562358856	-0.5929122567176819	0.014107607305049896	-0.12364713847637177	-0.3981305658817291	0.3001534044742584	-0.4392624497413635	-0.028150539845228195	0.011985961347818375	-0.29243993759155273	-0.2256782352924347	0.39754801988601685	-0.1234355941414833	-0.2552757263183594	0.31567975878715515	0.014105627313256264	-0.045125044882297516	0.08997424691915512	0.0024681929498910904	3.4019484519958496	-0.13897109031677246	0.19691987335681915	0.31428062915802	-0.25645241141319275	0.007877746596932411	0.2421090453863144	-0.2395923137664795	-0.26175370812416077	0.15671980381011963	-0.04416680708527565	0.03850460425019264	-0.03219272196292877	-0.06340157240629196	0.22240611910820007	0.17507340013980865	-0.07443385571241379	-0.016301127150654793	0.1424093395471573	-0.05158399045467377	0.0970243290066719	-0.14938285946846008	0.035136815160512924	-0.29460737109184265	-0.34706565737724304	-0.07796274125576019	0.426319420337677	0.029661640524864197	0.03221301734447479	0.21342456340789795	-0.08349984139204025	0.23453356325626373	-0.05599416419863701	0.03781828284263611	0.16208142042160034	-0.036831632256507874	-0.3110124170780182	0.025058353319764137	-0.09906162321567535	0.357196569442749	0.2846655249595642	0.00691732345148921	-0.007942180149257183	0.38490787148475647	-0.19964614510536194	0.12315713614225388	-0.17760685086250305	0.35918015241622925	0.195700004696846	-0.2982087731361389	-0.020106185227632523	0.06308699399232864	0.021733060479164124	0.13909567892551422	-0.030207179486751556	0.2446739673614502	0.5935322046279907	0.27018871903419495	0.2304144948720932	-0.14179904758930206	0.20880535244941711	0.13505218923091888	-0.02573752962052822	0.05034700408577919	0.02623395435512066	0.007590719498693943	0.12581507861614227	-0.47410568594932556	0.061758410185575485	0.10063739120960236	-0.3597058355808258	0.11751116812229156	-0.029533814638853073	-0.12432891875505447	0.15962262451648712	-0.05160008370876312	-0.25367477536201477	0.24671079218387604	-0.12040465325117111	0.004961924161761999	-0.128372922539711	-0.131597638130188	-0.041185442358255386	0.05157649144530296	-0.020528579130768776	0.2746019661426544	-0.9211152195930481	0.0757916122674942	-0.2235642522573471	0.01340708788484335	0.06527101248502731	-0.006909215822815895	0.013476746156811714	0.13093455135822296	-0.14957882463932037	0.07920503616333008	-0.05806441977620125	-0.26798495650291443	0.326530396938324	-0.2515762746334076	0.11546118557453156	0.067226842045784	-0.24167275428771973	-0.0885920375585556	0.15328621864318848	0.1400253027677536	0.25513017177581787	-0.004809657111763954	0.04547908529639244	0.28177410364151	-0.23464679718017578	0.5270379185676575	-0.4961265027523041	-0.008923844434320927	-0.4324903190135956	0.22192123532295227	-0.14489631354808807	-0.04726005718111992	-0.24339407682418823	0.15954217314720154	-0.0434265062212944	0.3871002495288849	-0.015527087263762951	-0.12314236164093018	0.21470396220684052	-0.10508105158805847	0.027119891718029976	0.27174246311187744	0.06068829819560051	-0.03098788671195507	0.10381458699703217	-0.12536531686782837	-0.14842797815799713	-0.35362499952316284	-0.0583227165043354	-0.27123093605041504	0.03177078440785408	0.033662255853414536	-0.46240919828414917	-0.057718031108379364	0.03890088573098183	0.14582091569900513	-0.11479319632053375	-0.69063800573349	-0.011091576889157295	-0.025633906945586205	-0.2983275055885315	0.16623608767986298	-0.22702181339263916	0.33964037895202637	-0.12662291526794434	0.25907421112060547	0.05999377742409706	-0.396538645029068	-0.00504735391587019	-0.17740780115127563	0.12585057318210602	-0.07804471999406815	-0.2995414137840271	-0.03483053296804428	0.2563718259334564	-0.043920353055000305	-0.12762336432933807	0.03634396567940712	-0.6677173376083374	-0.08385615050792694	0.0777534767985344	0.10238651931285858	0.22567230463027954	0.012695938348770142	-0.09090090543031693	-0.03866787254810333	-0.018419485539197922	-0.17340834438800812	0.911950945854187	0.1123134195804596	-0.09621351957321167	0.04148796200752258	0.043775901198387146	0.00987573154270649	-0.008096590638160706	0.07488831877708435	0.0657786950469017	-0.21242383122444153	-0.8016055226325989	0.1736287772655487	0.3728044927120209	-0.06532160937786102	-0.21725687384605408	-0.04621494188904762	-0.11957467347383499	-0.12558625638484955	-0.06218091398477554	-0.4377800226211548	0.191383957862854	-0.34036117792129517	-0.6484950184822083	-0.43616896867752075	0.15959462523460388	-0.0016252771019935608	-0.09490323066711426	-0.2671360671520233	0.04293127357959747	0.05725045129656792	-0.14800681173801422	0.021934792399406433	-0.2391272336244583	-0.15007106959819794	-0.02762284316122532	0.023673055693507195	-0.41312557458877563	-0.17318308353424072	-0.2296130657196045	0.12660768628120422	-0.10010360926389694	-0.31563258171081543	-0.1966981142759323	0.09441465884447098	0.48023444414138794	0.0344720222055912	-0.0032831127755343914	-0.5220472812652588	0.032526008784770966	0.10809551179409027	-0.007892326451838017	0.042995888739824295	0.07624398916959763	0.1644262969493866	0.15410257875919342	-0.12111124396324158	0.002596056554466486	0.13994671404361725	-0.0591726154088974	0.015554215759038925	0.09730550646781921	0.1800326406955719	-0.11436929553747177	0.220757395029068	-0.28905683755874634	0.2214212268590927	0.1278475522994995	-0.28410762548446655	0.1865544468164444	0.002920599887147546	-0.14670614898204803	0.07553347945213318	0.08058056235313416	-0.02647531032562256	-0.3939560353755951	0.2301851063966751	0.03800166770815849	0.003948636818677187	0.21829915046691895	-0.13434059917926788	0.44249385595321655	-0.7691653966903687	0.11780469864606857	0.3833749294281006	0.42150476574897766	0.12154746055603027	0.2184419333934784	-0.31571677327156067	0.12059872597455978	-0.04720870405435562	-0.09847649186849594	-0.13288071751594543	-0.1260935366153717	0.16945192217826843	-0.03876223415136337	-0.2160375863313675	-0.15454302728176117	0.20070898532867432	0.24899056553840637	0.02598682790994644	-0.15956467390060425	0.009450925514101982	-0.07250910997390747	0.05362756550312042	0.07463870942592621	-0.10709898173809052	0.06276696175336838	0.12203257530927658	-0.32390475273132324	0.08545856922864914	-0.09830985218286514	0.48840421438217163	-0.11913637816905975	-1.0366750955581665	0.06713005155324936	-0.12051130086183548	0.09131837636232376	-0.3173002004623413	0.034199826419353485	-0.2534720301628113	-0.053192611783742905	0.04978645220398903	-0.045468419790267944	0.22208264470100403	-0.036984335631132126	0.03711700439453125	0.49110740423202515	0.1751633584499359	0.04326261579990387	0.06694281846284866	-0.15745779871940613	0.21601320803165436	-0.06553288549184799	-0.38495758175849915	-0.13005580008029938	0.1771969199180603	0.21336127817630768	0.06602253019809723	-0.07829858362674713	0.14881692826747894	0.08431711047887802	0.0037421449087560177	0.0601092092692852	-0.3091476857662201	-0.06298723071813583	0.03203991800546646	-0.09179554134607315	-0.34636643528938293	0.19926141202449799	0.31678637862205505	-0.18421244621276855	-0.4727632701396942	0.145394966006279	0.036780357360839844	-0.08948095142841339	0.5034565925598145	0.08406512439250946	-0.2468767911195755	0.12836074829101562	0.17496982216835022	-0.023603882640600204	-0.20108161866664886	-0.03939571604132652	-0.37129834294319153	-0.1439995914697647	0.13943016529083252	-0.2998473644256592	0.049688670784235	0.31834763288497925	0.11975869536399841	0.25092899799346924	-0.2039072960615158	-0.1712527871131897	0.010021274909377098	0.1022130474448204	0.1427648812532425	0.10534927994012833	0.103192999958992	-0.40466296672821045	-0.11395709216594696	0.13962014019489288	0.08406443148851395	-0.36736637353897095	-0.12828901410102844	-0.05141077935695648	-0.15857820212841034	-0.5304432511329651	-0.22390112280845642	-0.3319488763809204	0.04634374752640724	0.055977240204811096	0.09375518560409546	-0.12787750363349915	-0.20060816407203674	-0.11151083558797836	-0.11007428914308548	0.03230057284235954	-0.007736930623650551	0.09268265217542648	0.08793066442012787	0.07541276514530182	-0.059036217629909515	0.11651967465877533	0.11812128126621246	0.31374192237854004	0.059424567967653275	-0.05188346654176712	0.21938969194889069	-0.15984244644641876	-0.1028730571269989	0.15312404930591583	-0.11356819421052933	-0.18564479053020477	-0.2422078400850296	-0.016272351145744324	0.04286147654056549	0.03658781573176384	0.15336014330387115	-0.03669065982103348	0.20225726068019867	-0.3924558162689209	0.1297159492969513	-0.07158977538347244	0.28638336062431335	-0.26077958941459656	-0.00883056502789259	-0.1922057420015335	-0.060608360916376114	-0.32752901315689087	-0.001289950218051672	-0.10380581766366959	0.18758369982242584	-0.36777955293655396	-0.016339384019374847	
orso	0.35905420780181885	0.09193655103445053	0.02506648562848568	0.03321453183889389	-0.0564422570168972	-0.3992294371128082	-0.3345798850059509	0.22044382989406586	-0.20472054183483124	-0.12044359743595123	0.07398291677236557	-0.14103251695632935	-0.1365835815668106	0.054089952260255814	-0.09410420805215836	-0.18122170865535736	-0.21677708625793457	0.021140990778803825	0.09157583862543106	-0.1513577401638031	-0.24961572885513306	-0.12466385215520859	-0.013682832941412926	0.09344320744276047	-0.0792553722858429	0.3937714397907257	-0.12464876472949982	-0.24099284410476685	0.11850643157958984	-0.01933261938393116	-0.04811439663171768	-0.14834748208522797	-0.23153461515903473	0.2854321300983429	-0.20397228002548218	0.20835675299167633	-0.1103898137807846	-0.010491442866623402	-0.6075487732887268	0.09339554607868195	-0.29500874876976013	-0.2190682590007782	-0.02239934913814068	0.20657142996788025	0.32007479667663574	0.17743901908397675	-0.13476531207561493	-0.7121515274047852	-0.07018612325191498	-0.29688066244125366	0.09247950464487076	-0.2233649045228958	-0.1770002841949463	-0.4842526316642761	-0.058337755501270294	-0.02525862492620945	-0.05532482638955116	0.5656522512435913	0.1660146266222	-0.0450688898563385	0.06227070465683937	-0.29584449529647827	-0.04435905069112778	0.0023105498403310776	0.041165273636579514	0.364700049161911	-0.03503207862377167	-0.06016717106103897	-0.04715195298194885	0.05183659866452217	-0.32300132513046265	-0.1435563713312149	0.26052314043045044	-0.2279573231935501	-0.06535855680704117	0.10287754237651825	0.33977121114730835	-0.23589064180850983	0.08508665859699249	0.2010580450296402	0.41132548451423645	0.017223665490746498	-0.15681713819503784	0.006149039603769779	-0.1667167842388153	-0.14579956233501434	0.09197515994310379	0.1615336388349533	0.022479750216007233	0.20390814542770386	0.015747273340821266	0.006110867019742727	0.2149115651845932	0.14968237280845642	0.13767297565937042	0.10016905516386032	0.15493452548980713	0.27460986375808716	0.040933504700660706	0.14692503213882446	-0.055551882833242416	-0.05158688873052597	0.015381156466901302	-0.07194285094738007	-0.4386010468006134	0.13026373088359833	-0.40227237343788147	-0.08557227998971939	-0.14726699888706207	0.010895932093262672	-0.07189173251390457	0.13555029034614563	-0.27783578634262085	-0.21433286368846893	0.07908394187688828	-0.009856951422989368	-0.17588089406490326	0.04613862559199333	0.09720084071159363	0.12293454259634018	-0.015082066878676414	0.03463386371731758	0.4847598075866699	-0.1284077763557434	-0.0988430380821228	-0.08330045640468597	-0.09309398382902145	0.15499238669872284	0.2392616719007492	-0.0005559113924391568	0.10196275264024734	0.0064077372662723064	0.129160538315773	-0.09622365236282349	0.07939422130584717	0.1612260341644287	0.03746630251407623	0.07350283861160278	-0.22263960540294647	0.1524481326341629	0.3156578838825226	-0.4165126085281372	0.10251955687999725	0.04381550848484039	0.024585342034697533	-0.010507293045520782	-0.20784154534339905	0.11208377778530121	-0.1366656869649887	-0.14290280640125275	-0.033722229301929474	-0.2099052220582962	-0.6620520353317261	0.006759654264897108	0.3669666051864624	-0.1937638223171234	-0.10283534973859787	-0.10907983034849167	0.084928497672081	0.03435567021369934	-0.08135519176721573	0.19123968482017517	0.015880653634667397	-0.10069001466035843	-0.05248839408159256	0.12054959684610367	0.09812333434820175	0.09889180213212967	0.20334267616271973	-0.02448195219039917	-0.13285811245441437	-0.1170155331492424	-0.4146667718887329	-0.08869029581546783	0.1444397121667862	0.33359187841415405	-0.4712327718734741	0.230800598859787	0.04839780554175377	0.0619308277964592	-0.12824353575706482	0.16891176998615265	0.22451385855674744	-0.2775183320045471	-0.10522297769784927	-0.29826414585113525	-0.3710242807865143	-0.2105436772108078	0.1321374922990799	-0.0700906366109848	-0.058483365923166275	-0.10532531142234802	-0.13926327228546143	-0.009257909841835499	-0.1905984729528427	0.2721637785434723	0.0630325898528099	0.427466481924057	-0.12367364019155502	-0.12206937372684479	0.3941517472267151	-0.08947911858558655	-0.056915875524282455	-0.2385803908109665	-0.029629329219460487	0.07526515424251556	-0.379293292760849	0.10914498567581177	-0.13495199382305145	0.05819547921419144	0.06774197518825531	-0.03964350000023842	-0.3727993667125702	0.045874908566474915	0.11211900413036346	0.0036136265844106674	-0.20974116027355194	-0.5108197927474976	0.06025725603103638	-0.0018493314273655415	-0.12624002993106842	-0.08934316039085388	-0.04367200285196304	0.13489361107349396	0.1709713488817215	-0.22381383180618286	-0.02651192806661129	0.0168197900056839	0.09256333112716675	-0.07441342622041702	0.3949357271194458	-0.024185732007026672	0.12478262186050415	0.16347761452198029	-0.198139950633049	0.014542604796588421	-0.24912694096565247	0.13148945569992065	-0.15004146099090576	0.5992045998573303	-0.4118580222129822	-0.0024465499445796013	0.12746532261371613	-0.19559697806835175	-0.23603758215904236	0.15781764686107635	-0.12381491810083389	0.3208657205104828	0.24044691026210785	0.04701085761189461	-0.3893362879753113	0.007568429224193096	0.2371235340833664	-0.1627853810787201	-0.261900931596756	-0.1157369539141655	0.07671061903238297	-0.12276703864336014	0.13903315365314484	-0.013307579793035984	0.030821895226836205	-0.25902917981147766	-0.2958407402038574	0.38839632272720337	0.03711716830730438	0.017860552296042442	0.21240083873271942	0.38521838188171387	0.18241488933563232	-0.4512651264667511	-0.08003761619329453	0.057163503021001816	-0.004169097635895014	0.05673329904675484	0.0695512592792511	-0.07353146374225616	-0.38622987270355225	-0.015375872142612934	0.4159005284309387	0.1958165317773819	0.05904669314622879	-0.41433292627334595	-0.04055023565888405	-0.09127151221036911	-0.1271800696849823	0.060684625059366226	-0.15611711144447327	0.0441153421998024	-0.010983404703438282	-0.13945777714252472	-0.022785142064094543	-0.2509042024612427	2.157881736755371	0.027255868539214134	0.15525521337985992	-0.29065054655075073	-0.004063243046402931	-21.54182243347168	-0.6244230270385742	-0.10202401131391525	0.09944029152393341	0.11590317636728287	0.22143006324768066	0.060777079313993454	-0.22771084308624268	0.2780032753944397	0.028436901047825813	-0.30194002389907837	0.5345779061317444	0.11295077204704285	-0.2786855399608612	-0.022873014211654663	0.08344491571187973	-0.23181620240211487	-0.08345146477222443	-0.14461377263069153	-0.13355444371700287	-0.026952825486660004	0.7504560351371765	0.22096534073352814	-0.42660102248191833	0.023041265085339546	-0.13184858858585358	-0.16467829048633575	0.1607220321893692	0.2029084712266922	-0.12401525676250458	0.07236731797456741	-0.166865274310112	1.4609427452087402	-0.21126316487789154	0.08086002618074417	0.18839088082313538	0.08915672451257706	-0.04972001537680626	0.2312290370464325	-0.1362069547176361	0.19066035747528076	0.08213360607624054	0.0853113904595375	-0.018862105906009674	-0.1771337240934372	-0.11482729017734528	-0.22066904604434967	0.038023434579372406	-0.09146298468112946	-0.11353369802236557	0.029839929193258286	0.04661010578274727	0.2148480862379074	-0.08883887529373169	0.0634370967745781	0.0146122882142663	-0.058970917016267776	0.0659765750169754	-0.04062392935156822	0.040204934775829315	0.11453161388635635	0.06335621327161789	0.08073657006025314	-0.1824578195810318	0.35325223207473755	0.015354289673268795	-0.09260626882314682	0.15008951723575592	-0.06853626668453217	0.15731845796108246	0.13776695728302002	0.07081298530101776	-0.10540764033794403	0.2799104154109955	0.18138955533504486	0.10465936362743378	-0.15641237795352936	-0.1431313008069992	0.023083742707967758	-0.9029316306114197	-0.10810422897338867	-0.002229748060926795	0.17048314213752747	0.0421299934387207	0.1860116869211197	0.14952313899993896	-0.11538544297218323	0.07616328448057175	0.48539999127388	14.938136100769043	0.13634130358695984	0.16699784994125366	-0.10112401098012924	-0.1162068173289299	-0.06864863634109497	-0.12288416922092438	0.018727002665400505	0.12981557846069336	-0.03706244379281998	0.05798851698637009	-0.16005639731884003	-0.1862100511789322	-0.05513590946793556	-0.18622753024101257	-0.23019102215766907	0.1402498185634613	0.18627196550369263	0.7658423781394958	0.06268930435180664	-0.017097603529691696	0.16809004545211792	0.3727034032344818	0.04246865212917328	-0.18546362221240997	-0.12764428555965424	0.08733925968408585	-0.15535597503185272	0.15024903416633606	-0.011367831379175186	0.031042490154504776	0.21667449176311493	-0.21333104372024536	0.10450693219900131	-0.17265313863754272	0.05951233580708504	-0.7779304385185242	0.018932873383164406	-0.04878734424710274	0.15921823680400848	0.0070409877225756645	-0.993631899356842	-0.28071630001068115	-0.2895617187023163	0.08496654033660889	0.055218446999788284	0.09231584519147873	-0.18095752596855164	0.04496397450566292	-0.077193982899189	0.23435766994953156	-0.19513575732707977	0.0301094651222229	-0.039452727884054184	0.06478691846132278	-0.11074379831552505	0.04078127071261406	0.16468095779418945	0.09898657351732254	-0.10640325397253036	-0.09178201854228973	0.8596217632293701	-0.16699117422103882	-0.5993468165397644	-0.09621782600879669	-0.19261379539966583	0.31221288442611694	-0.5165193676948547	-0.36563926935195923	-0.1529521346092224	-0.6111971735954285	-0.012777806259691715	0.09584088623523712	-0.05748497322201729	-0.02732495591044426	-0.1363697052001953	0.10564737766981125	0.008446193300187588	-0.36916953325271606	0.207553893327713	-0.22660493850708008	-0.0012927325442433357	0.13294920325279236	-0.27166157960891724	0.03138656169176102	-0.028464490547776222	-0.150934636592865	0.00920721422880888	0.05168461799621582	0.07815306633710861	-0.09021560847759247	0.08050647377967834	-0.22764788568019867	-0.2723729610443115	-0.18651066720485687	-0.1953696459531784	-0.12742361426353455	-0.010611583478748798	-0.1468627154827118	0.2670044004917145	-0.5627474784851074	-0.03587952256202698	-0.17136290669441223	-0.09582208842039108	0.4038812220096588	0.48378366231918335	-0.017918316647410393	0.18266993761062622	0.09585902094841003	0.09226256608963013	0.06649330258369446	-0.0034498129971325397	-0.18165308237075806	-0.00475384620949626	0.10158968716859818	0.09716395288705826	0.09894789755344391	0.18818299472332	0.43794819712638855	0.004193957429379225	0.09897120296955109	0.34346818923950195	0.04218189790844917	-0.18167178332805634	0.020413707941770554	-0.06340112537145615	-0.040745049715042114	0.3315136730670929	0.04883865267038345	0.0650407001376152	0.14275559782981873	0.5379945635795593	-0.5315679907798767	-0.08027181774377823	-0.1515575647354126	-0.07999355345964432	-0.2046491950750351	-0.21607749164104462	-0.029847966507077217	0.24386678636074066	0.49001556634902954	0.1913152039051056	0.011512557044625282	0.033662669360637665	-0.06507964432239532	0.515558660030365	0.34723836183547974	0.03250959515571594	-0.18760272860527039	0.1612800806760788	-0.24292923510074615	0.027901191264390945	-0.17397193610668182	0.1733812540769577	-0.02985513024032116	0.027698082849383354	-0.1598246991634369	0.11989549547433853	0.1441962867975235	-0.10287640243768692	-0.16354654729366302	-0.09558422118425369	-0.32550346851348877	-0.19816459715366364	-0.05505073443055153	-0.02368111163377762	-0.10405189543962479	-0.31056714057922363	-0.4212516248226166	0.07131391018629074	0.3950568735599518	-0.051049523055553436	0.21133947372436523	-0.031192295253276825	0.20478782057762146	-0.08777007460594177	0.05811026692390442	-0.3829665780067444	0.002639950718730688	-0.2312593162059784	-0.1324288696050644	0.30951404571533203	0.10502411425113678	-0.18744008243083954	0.10800423473119736	0.06025790795683861	0.00489438371732831	0.09756357967853546	0.1408180445432663	-0.03950168937444687	0.07857292145490646	-1.1058930158615112	0.3398357629776001	-0.13875116407871246	0.36503100395202637	0.11579357832670212	0.1923588067293167	0.11377944052219391	0.2089047133922577	-0.033329568803310394	0.20279279351234436	-0.045760247856378555	-0.16371755301952362	-0.2317456752061844	-0.008680104278028011	0.25816431641578674	0.015406129881739616	0.1093471571803093	0.02895664982497692	-0.06187339872121811	-0.045213066041469574	-0.017606262117624283	-0.21834899485111237	0.05790885165333748	0.3927439749240875	-0.013923616148531437	-0.3903486728668213	-0.02893891930580139	-0.12699870765209198	-0.07669603824615479	0.17444200813770294	-0.23584900796413422	0.08167842775583267	-0.13956376910209656	-0.32686305046081543	0.184559628367424	0.08689779043197632	0.02194357104599476	0.04877448454499245	0.041766759008169174	3.0578038692474365	0.27628934383392334	-0.39561814069747925	-0.07187975943088531	0.05529779568314552	-0.15752820670604706	-0.0944235697388649	-0.19782915711402893	-0.32300740480422974	-0.008352058008313179	0.003974092658609152	-0.1781192570924759	0.2259778380393982	0.08228211849927902	0.030517762526869774	0.15492188930511475	-0.02673165313899517	0.1029040664434433	0.02602309174835682	-0.6999325752258301	0.07128670066595078	0.13755258917808533	0.15731072425842285	0.09717307239770889	0.12723134458065033	-0.18066845834255219	0.1377691924571991	-0.22574211657047272	0.13368117809295654	0.07499779760837555	-0.1262463927268982	-0.027064386755228043	0.06950496137142181	-0.07094856351613998	0.11415769159793854	0.08974539488554001	-0.13761422038078308	0.19813446700572968	0.010842558927834034	0.22003012895584106	0.09338883310556412	0.11983725428581238	-0.12733595073223114	-0.08537133038043976	0.04926060140132904	0.046381160616874695	-0.31011560559272766	0.043095458298921585	0.05260205641388893	0.0033125656191259623	-0.006576539482921362	0.15319734811782837	-0.16815689206123352	-0.4447348117828369	0.07610101997852325	0.5500481128692627	0.2531904876232147	0.18144573271274567	-0.08188904076814651	0.09969723224639893	0.38605383038520813	-0.056702904403209686	-0.02902863547205925	0.11048784106969833	-0.009452023543417454	-0.08784978836774826	-0.02060881443321705	-0.3159637749195099	-0.12201586365699768	0.07042407989501953	-0.12060116231441498	-0.11741293221712112	-0.1919136643409729	0.2254311442375183	-0.17758214473724365	-0.09922803193330765	0.0696280300617218	0.031776025891304016	-0.18085095286369324	-0.06555209308862686	0.3271128833293915	-0.04083536937832832	-0.05099186301231384	-0.19762271642684937	0.07239977270364761	0.05443403869867325	0.3896709084510803	0.12291239202022552	-0.03820911794900894	-0.000750633655115962	0.32113778591156006	-0.3438568711280823	0.10406272113323212	-0.2551061511039734	0.10734961926937103	0.07132948935031891	-0.16392578184604645	0.049367889761924744	-0.23383407294750214	-0.16795435547828674	-0.006682205945253372	-0.06980782747268677	-0.04088061302900314	0.20214611291885376	0.106521375477314	0.0057658664882183075	-0.29115787148475647	-0.00028855932760052383	-0.27478140592575073	-0.34216752648353577	-0.11476969718933105	0.25834017992019653	-0.028105080127716064	0.07914826273918152	-0.266939252614975	0.03381505236029625	-0.02840477228164673	-0.18845948576927185	-0.06037841737270355	0.006629812531173229	0.13830846548080444	0.25513744354248047	0.048370249569416046	-0.13333246111869812	0.17139655351638794	-0.014401582069694996	0.11883216351270676	0.061071641743183136	-0.33980393409729004	-0.3640819489955902	0.04647919535636902	-0.24299472570419312	0.1565176397562027	-0.19099853932857513	-0.026383718475699425	-0.09441543370485306	-0.08051501214504242	0.08014032989740372	-0.17527742683887482	0.12176952511072159	-0.2836061418056488	0.28813600540161133	-0.10730238258838654	-0.2365919053554535	0.03894668444991112	0.049151711165905	-0.23705099523067474	0.026275573298335075	-0.08104519546031952	-0.04981258511543274	0.008666465058922768	0.11386679857969284	0.025849226862192154	0.05747407302260399	0.1494966298341751	0.033156074583530426	0.07355103641748428	-0.04713176190853119	-0.15876388549804688	0.44104015827178955	-0.10913831740617752	-0.13578245043754578	-0.12736552953720093	0.20947343111038208	-0.7824918627738953	-0.001203991356305778	0.017962312325835228	0.037977829575538635	0.15186360478401184	0.04017392173409462	0.026423687115311623	0.17569191753864288	0.03297954052686691	-0.09406581521034241	1.0057241916656494	-0.3174367845058441	-0.18685351312160492	0.3065584599971771	-0.2944369316101074	-0.1336657553911209	-0.1741795837879181	0.04083213582634926	-0.08496608585119247	-0.2030019909143448	-0.38666844367980957	0.009683685377240181	0.021406924352049828	0.036835916340351105	0.1284201294183731	-0.2312944084405899	0.18132305145263672	-0.18364955484867096	0.08702581375837326	0.07103578746318817	0.2863543629646301	-0.20721718668937683	-0.3604782223701477	0.014026673510670662	0.16401492059230804	0.02705983631312847	0.12489189207553864	-0.2207820564508438	-0.19547590613365173	-0.3790326416492462	0.2238079160451889	-0.14602668583393097	0.044599298387765884	-0.02511250413954258	-0.15536513924598694	-0.1288195252418518	-0.24340911209583282	-0.1111733689904213	-0.3940361738204956	-0.08582081645727158	-0.3374521732330322	0.3716679811477661	0.08064321428537369	0.13392680883407593	0.18487253785133362	-0.03873454034328461	0.014065396972000599	-0.5789336562156677	-0.29686155915260315	-0.4546656310558319	0.1100437194108963	0.0013232623459771276	-0.7181670665740967	0.23791687190532684	-0.14047224819660187	-0.04226462543010712	0.08985292911529541	0.14842690527439117	-0.14446114003658295	0.13782957196235657	0.01150980219244957	-0.12951785326004028	0.15208150446414948	0.07898774743080139	0.011886974796652794	0.26207414269447327	-0.022677678614854813	-0.06917369365692139	0.2518160343170166	0.011098307557404041	-0.11564252525568008	-0.1527058333158493	0.1373227834701538	0.2671818733215332	-0.015270053409039974	0.18213056027889252	0.2118920236825943	0.17396217584609985	0.05240711197257042	-0.24070505797863007	-0.3679797053337097	0.10652633756399155	0.2370077222585678	0.35417819023132324	0.1807103455066681	0.0023961111437529325	0.11248937994241714	0.07860034704208374	0.12117350101470947	0.08046761900186539	-0.24977581202983856	0.1362203061580658	-0.024533353745937347	0.178749218583107	0.07391047477722168	0.13262492418289185	-0.16087692975997925	-0.010953257791697979	0.26169660687446594	-0.047175463289022446	-0.10079096257686615	0.045573890209198	-0.08174726366996765	-0.04070085659623146	0.14131708443164825	0.05610647425055504	0.12952058017253876	0.07969581335783005	-0.31704479455947876	-0.34208306670188904	0.1742805391550064	-0.3266185224056244	0.061754293739795685	-0.7082905173301697	0.1349438577890396	-0.15777850151062012	-0.1071251854300499	-0.2071630209684372	-0.03830907121300697	-0.21240141987800598	-0.05538112670183182	-0.18054184317588806	0.09402824193239212	0.011718742549419403	0.0619625560939312	-0.10619357973337173	0.1635340452194214	0.22857221961021423	0.07327310740947723	-0.16908898949623108	0.2106388956308365	0.07074081152677536	-0.1572376787662506	-0.5536662936210632	-0.10020950436592102	0.2219339907169342	0.028165167197585106	0.05243289843201637	-0.4834139347076416	0.1931104212999344	0.050415925681591034	0.17725829780101776	0.021754097193479538	0.11412539333105087	0.030735282227396965	0.024504011496901512	-0.08959333598613739	-0.018494555726647377	0.36338430643081665	0.013437330722808838	-0.17783169448375702	-0.15525129437446594	-0.13737714290618896	0.1364944726228714	-0.2551206052303314	0.06848026067018509	0.06641405820846558	-0.013673054054379463	0.22562776505947113	0.07518862932920456	-0.05686332285404205	0.09072396159172058	-0.14734266698360443	0.009970538318157196	0.012672229669988155	0.1218845397233963	-0.44154074788093567	0.3351844549179077	-0.023837964981794357	0.11803464591503143	-0.11615574359893799	-0.0964631661772728	-0.2264358550310135	-0.02844352461397648	-0.10675433278083801	-0.0910809263586998	-0.19084858894348145	0.09579703211784363	-0.19675318896770477	-0.03531122952699661	-0.19023527204990387	-0.020882539451122284	-0.02539011836051941	0.42394688725471497	-0.03678136318922043	0.040724243968725204	0.19288857281208038	-0.18885362148284912	0.06384432315826416	0.040475767105817795	-0.38571685552597046	0.06826472282409668	-0.06956785917282104	-0.12789277732372284	-0.11474670469760895	-0.3997412621974945	0.15432952344417572	-0.04540926590561867	-0.28871098160743713	-0.20340359210968018	-0.07054508477449417	-0.07164961099624634	0.09192400425672531	0.1534733921289444	0.017096109688282013	0.10830176621675491	0.4136892557144165	0.007299524266272783	0.02910996973514557	0.23393143713474274	0.1746555119752884	-0.0574776716530323	-0.13123302161693573	-0.05693628266453743	-0.13977991044521332	-0.013231717050075531	0.08044159412384033	-0.2621174156665802	0.010127128101885319	0.05355801805853844	-0.19984954595565796	-0.6891352534294128	-0.17303545773029327	0.0014987901085987687	-0.2765755355358124	0.11200335621833801	-0.1070212572813034	0.08764896541833878	-0.18768306076526642	0.2607056796550751	-0.07217754423618317	-0.03717029094696045	-0.03481914475560188	-0.059630829840898514	
pennello	-0.11833791434764862	-0.18637600541114807	0.15299850702285767	-0.0944974273443222	0.2032848447561264	-0.21835684776306152	-0.13628943264484406	-0.006934451404958963	-0.0224880613386631	-0.08552105724811554	0.13439692556858063	0.25258469581604004	0.06001095101237297	-0.18283340334892273	0.06567498296499252	-0.19627529382705688	-0.18382196128368378	0.22999204695224762	0.2774224579334259	-0.39867356419563293	-0.12202630192041397	-0.159823477268219	0.23343220353126526	-0.09975281357765198	-0.18979424238204956	0.27439287304878235	-0.02018897980451584	-0.26217082142829895	-0.12954148650169373	-0.3376769721508026	0.04934355616569519	-0.07099676132202148	0.14017850160598755	0.10967807471752167	-0.19095517694950104	0.1306961178779602	0.03655300661921501	-0.04848703369498253	0.0013796159764751792	0.027112163603305817	0.08606211841106415	0.15739107131958008	-0.05483720824122429	-0.0016846251673996449	0.4005589187145233	-0.08241497725248337	-0.2679583728313446	-0.746101975440979	-0.20305250585079193	-0.30158430337905884	-0.0039281114004552364	-0.21904297173023224	0.122769296169281	0.035567186772823334	-0.09229017794132233	-0.18910349905490875	-0.43699899315834045	0.5505842566490173	0.06921107321977615	-0.20211750268936157	0.026211600750684738	-0.2517926096916199	0.3725797235965729	0.15026681125164032	0.16178709268569946	0.31007587909698486	-0.027764271944761276	0.012562008574604988	0.7871342897415161	-0.8875657916069031	-0.047029756009578705	0.005345852114260197	0.3884655237197876	-0.3015446662902832	-0.0068456330336630344	-0.1313033401966095	0.406116247177124	-0.11882574111223221	0.011898440308868885	-0.06410878896713257	0.413421630859375	0.029871629551053047	-0.10654228180646896	-0.053330276161432266	-0.08093336969614029	-0.5036415457725525	0.15322187542915344	0.10279113799333572	0.028695061802864075	0.44607430696487427	0.27471277117729187	0.22861400246620178	0.0022971562575548887	0.06075234338641167	0.045397914946079254	0.22455614805221558	0.13073872029781342	0.1335209608078003	-0.022098174318671227	0.18592116236686707	0.1627124696969986	0.2034323662519455	0.0764603316783905	-0.06863109767436981	0.371961772441864	-0.04090160131454468	-0.16005750000476837	-0.1162249892950058	0.12188981473445892	0.47030651569366455	-0.051523659378290176	-0.1241949200630188	0.027041412889957428	-0.1120280921459198	0.11651065945625305	0.004715629853308201	0.1935553401708603	-0.059385545551776886	-0.00968316663056612	0.13594083487987518	-0.2701162099838257	0.2758032977581024	0.17606273293495178	0.08247113227844238	-0.05975276231765747	-0.05730542913079262	-0.08457286655902863	0.2016240358352661	0.0018737129867076874	-0.023969389498233795	0.05127229169011116	0.3171848952770233	0.05884713679552078	0.13056842982769012	-0.06315234303474426	0.2920224070549011	-0.2156936526298523	0.04554850235581398	-0.019800743088126183	-0.06458504498004913	-0.2180362343788147	-0.12572970986366272	-0.37380191683769226	0.13935767114162445	-0.13630497455596924	-0.22372016310691833	-0.16897229850292206	0.13129355013370514	-0.13220062851905823	0.22264868021011353	0.09535013884305954	0.722636342048645	-0.5017202496528625	0.028640931472182274	0.13829824328422546	-0.3422360420227051	-0.13043060898780823	-0.026590796187520027	0.2230774462223053	-0.15111520886421204	-0.021366676315665245	0.12038183957338333	-0.032898928970098495	-0.013549833558499813	-0.0857793316245079	-0.07764730602502823	0.021702280268073082	-0.07905373722314835	0.20457427203655243	-0.1174333244562149	-0.200837641954422	-0.026766441762447357	-0.1468084454536438	-0.060188379138708115	-0.010072115808725357	0.5834718346595764	-0.2751134932041168	-0.39974918961524963	-0.04237024858593941	-0.1960686445236206	-0.2868556082248688	0.10410027205944061	-0.006919060833752155	0.18323089182376862	-0.08021727949380875	-0.30596473813056946	-0.3934193551540375	-0.16156817972660065	-0.10888770967721939	-0.1405274122953415	0.017521260306239128	-0.12445935606956482	0.1940152645111084	0.251592218875885	-0.1267225444316864	0.07884904742240906	0.21074675023555756	-0.1575940102338791	-0.2306222915649414	-0.3504568934440613	0.45793038606643677	0.09243195503950119	0.2905139625072479	-0.5133161544799805	0.052988067269325256	0.043913789093494415	-0.6143021583557129	-0.05324842780828476	-0.14682389795780182	0.014211179688572884	0.2934032082557678	-0.08696828782558441	-0.15080422163009644	0.07889426499605179	0.09281383454799652	0.09998729825019836	-0.216151624917984	0.0218804981559515	-0.05431613698601723	0.3218458592891693	-0.19835297763347626	-0.20359478890895844	0.08691679686307907	0.06081138551235199	-0.07551832497119904	-0.18475620448589325	-0.10819192230701447	0.26554545760154724	0.15734533965587616	-0.2528859078884125	0.10180502384901047	0.17186874151229858	0.2608987092971802	-0.035491522401571274	-0.374236136674881	-0.04620346054434776	0.007007446605712175	0.07157482951879501	0.1269579976797104	0.1097237765789032	0.07892575860023499	0.051974497735500336	-0.008115541189908981	0.09236365556716919	-0.24087610840797424	-0.14559385180473328	-0.2583733797073364	-0.13034388422966003	0.16696296632289886	-0.07266759127378464	-0.17407625913619995	0.24950286746025085	0.1752350926399231	-0.19280971586704254	0.1036096140742302	-0.006823639385402203	0.12830691039562225	-0.0894940122961998	-0.1547125279903412	0.27380019426345825	-0.22163847088813782	-0.07817769050598145	-0.19644610583782196	-0.1693076491355896	-0.04737164452672005	-0.13705722987651825	0.042604874819517136	0.24791496992111206	0.08375077694654465	-0.3500995934009552	0.048357781022787094	0.147056445479393	-0.09567734599113464	-0.06600118428468704	-0.04056243970990181	0.26265856623649597	-0.18437394499778748	-0.004190680105239153	0.17953282594680786	-0.34286290407180786	0.18796546757221222	-0.26571643352508545	-0.05459840968251228	-0.22425806522369385	-0.02546614781022072	0.3060760200023651	-0.20897738635540009	0.0166573878377676	-0.07151955366134644	-0.08465562015771866	0.14146655797958374	-0.2277071326971054	1.9514209032058716	0.051447320729494095	-0.413324773311615	-0.226774662733078	-0.23005186021327972	-19.885805130004883	0.01584833860397339	-0.09370168298482895	0.2143322080373764	0.6753048300743103	0.11050546914339066	0.10958776623010635	0.20291747152805328	-0.21362818777561188	0.20522640645503998	-0.03098830208182335	0.32528191804885864	-0.5749579668045044	0.04977874085307121	0.30069202184677124	0.14153152704238892	-0.022834964096546173	-0.12384051829576492	-0.22921845316886902	0.3236963152885437	0.24608005583286285	0.22384953498840332	0.30200883746147156	-0.503218412399292	0.16684578359127045	-0.0037762674037367105	-0.013872097246348858	0.43030110001564026	0.13208803534507751	0.09268389642238617	-0.010241433046758175	0.36126306653022766	1.143653392791748	0.0068832626566290855	-0.011842572130262852	-0.014387675561010838	0.16982479393482208	0.40790048241615295	0.35908153653144836	-0.3091075122356415	-0.0359496995806694	-0.010467668995261192	0.22324420511722565	0.04480263963341713	-0.1636999249458313	0.06297659873962402	0.1964237242937088	0.1588042825460434	-0.5017134547233582	-0.16910141706466675	-0.3325611650943756	0.06755004823207855	-0.11628663539886475	0.1314757913351059	-0.22623147070407867	0.055929169058799744	0.030929382890462875	-0.006573561578989029	0.08253753185272217	0.07461847364902496	0.10795073211193085	0.039315126836299896	-0.029228487983345985	0.11396327614784241	0.24980539083480835	0.06511857360601425	-0.06430584192276001	0.3149270713329315	0.057507261633872986	-0.1083257719874382	-0.07310140132904053	0.1347278207540512	-0.061581265181303024	0.22085875272750854	0.21515950560569763	0.15566787123680115	0.5948135256767273	0.06695251911878586	0.13097281754016876	-1.5800307989120483	0.06508784741163254	0.12510986626148224	0.05674309283494949	-0.08875530958175659	0.15316134691238403	-0.07588261365890503	-0.07588742673397064	-0.07252059876918793	-0.23489686846733093	16.439241409301758	-0.13564372062683105	0.22291423380374908	-0.3092976212501526	0.14217525720596313	-0.06813355535268784	0.08585302531719208	0.12073062360286713	0.043717365711927414	-0.03619835898280144	-0.005067633930593729	-0.0321124903857708	-0.24743930995464325	0.179399311542511	-0.059125691652297974	-0.22095589339733124	0.07195625454187393	0.10895442217588425	2.3214995861053467	-0.08978569507598877	-0.0961822122335434	0.0770975798368454	-0.013660533353686333	-0.21747739613056183	-0.08875375241041183	-0.05695652216672897	-0.06490832567214966	-0.03627592325210571	0.1770476996898651	-0.10024259239435196	0.07915186136960983	0.005063938908278942	-0.2735300064086914	-0.5025560259819031	-0.1205785945057869	-0.20558705925941467	-0.016427764669060707	-0.03514285385608673	0.007897336967289448	-0.10261210054159164	-0.13311555981636047	-1.0013757944107056	-0.2589704990386963	-0.12485755234956741	-0.11462202668190002	-0.03500784933567047	-0.024143826216459274	-0.043417081236839294	0.13510948419570923	-0.12191110104322433	0.021146180108189583	0.10875256359577179	0.0005715890438295901	-0.14685915410518646	0.27719900012016296	0.08809244632720947	0.09162504225969315	0.12870901823043823	-0.12104406952857971	-0.23054875433444977	0.3001401126384735	0.25710737705230713	-0.29662320017814636	0.22993087768554688	0.004121699370443821	-0.12331102788448334	0.25040167570114136	-0.39995118975639343	-0.03712722659111023	-0.06247768923640251	-0.1068207323551178	0.04988708719611168	-0.01190914399921894	0.24028345942497253	-0.17239144444465637	-0.14861604571342468	0.27818819880485535	0.16125932335853577	-0.49814265966415405	-0.01470222044736147	-0.1445053070783615	0.007107630837708712	0.06226446107029915	-0.13059958815574646	0.06902290880680084	0.025917237624526024	-0.3041865825653076	0.3579467535018921	-0.11192193627357483	-0.11443158239126205	0.06810783594846725	0.06313015520572662	-0.033936355262994766	0.018766045570373535	0.04429171234369278	0.018032822757959366	-0.016268927603960037	0.037397291511297226	0.10108673572540283	0.30362340807914734	-0.5227895975112915	-0.1264439821243286	-0.08455438911914825	-0.3337191939353943	-0.1005944237112999	-0.2787204384803772	0.22716857492923737	0.20788271725177765	-0.06061003357172012	0.2049471139907837	0.18336930871009827	0.04146789386868477	0.19501470029354095	-0.23134315013885498	0.17572054266929626	-0.06838878989219666	0.32470810413360596	0.25945669412612915	0.39167124032974243	0.12714073061943054	0.00921038631349802	0.33728641271591187	0.14358341693878174	-0.23546284437179565	-0.09095288813114166	0.07614698261022568	-0.07874207198619843	0.17605119943618774	-0.3244516849517822	0.005019492004066706	0.251308798789978	0.5550090670585632	-0.20481710135936737	-0.023933976888656616	0.15831752121448517	-0.133896604180336	0.31500422954559326	-0.17100387811660767	-0.23761610686779022	-0.05568807199597359	-0.35498231649398804	-0.18633346259593964	0.14488767087459564	0.21134458482265472	-0.19185782968997955	-0.17907972633838654	0.14760763943195343	-0.18192528188228607	-0.2385418564081192	0.07985357940196991	-0.47136878967285156	0.17784979939460754	-0.2691505253314972	0.12773916125297546	-0.1488044559955597	-0.31503939628601074	-0.20311759412288666	-0.0027518891729414463	0.3193402886390686	0.1344192624092102	0.24792703986167908	-0.11574138700962067	0.26383528113365173	-0.5538499355316162	0.012539577670395374	-0.017053456977009773	-0.30855342745780945	-0.7420729398727417	-0.6705551743507385	0.08742574602365494	0.019925056025385857	-0.12837639451026917	0.1457854062318802	-0.22236068546772003	-0.26123636960983276	-0.02242857962846756	0.07572297751903534	-0.2641487717628479	-0.1537715345621109	-0.6893505454063416	-0.18970870971679688	0.0423334576189518	0.11970682442188263	0.0300085861235857	-0.15793266892433167	-0.30789700150489807	-0.17711511254310608	0.07596197724342346	0.1789214313030243	0.01584050990641117	-0.04668227955698967	-0.6917732954025269	-0.17975541949272156	-0.1700098067522049	0.22413431107997894	-0.037812501192092896	0.5921306014060974	-0.15571044385433197	-0.02481907047331333	-0.25327348709106445	-0.028862811625003815	-0.07318179309368134	-0.06340072304010391	-0.17082075774669647	0.01645432971417904	-0.12900704145431519	0.21825359761714935	-0.14051039516925812	0.046972643584012985	-0.23469242453575134	0.0562666691839695	-0.0041307201609015465	-0.37792330980300903	-0.02899928390979767	-0.09344929456710815	-0.09936992079019547	-0.48718634247779846	-0.40212497115135193	-0.02428780496120453	-0.004594737198203802	-0.11028113216161728	-0.26002880930900574	0.14979709684848785	-0.09920752048492432	-0.3701077103614807	0.1255764365196228	-0.05700445920228958	0.08460315316915512	-0.14070552587509155	-0.20092405378818512	3.2290918827056885	-0.03005499579012394	-0.38804203271865845	-0.33369383215904236	-0.16357578337192535	0.03229476511478424	0.1418238878250122	-0.13158723711967468	-0.06167664751410484	0.18864931166172028	-0.047864217311143875	-0.0633317157626152	-0.04008505493402481	0.10958139598369598	-0.05282420665025711	0.07725309580564499	0.35175034403800964	0.07316628098487854	0.07710008323192596	-0.03011702001094818	0.009895291179418564	-0.17993444204330444	0.252949982881546	0.040905099362134933	-0.19523955881595612	-0.12425955384969711	0.11750980466604233	-0.11453959345817566	-0.04018460586667061	0.3228106200695038	0.07165422290563583	0.1758432686328888	0.1294717788696289	-0.08347977697849274	0.0924874022603035	0.20359234511852264	-0.34180790185928345	-0.1728796362876892	0.056145891547203064	0.07718431949615479	-0.008383059874176979	0.06556256860494614	-0.09077402204275131	-0.33319994807243347	-0.03451405093073845	-0.09752599149942398	-0.04411574825644493	0.26908090710639954	0.38308268785476685	-0.06501562893390656	0.1560460329055786	-0.15199822187423706	-0.3344487249851227	-0.11081825941801071	-0.1625996083021164	0.18266382813453674	-0.0034058194141834974	0.07846840471029282	0.06077149882912636	-0.08945522457361221	0.09515805542469025	-0.00018497630662750453	-0.0932040587067604	-0.14102047681808472	0.10277950763702393	-0.012688962742686272	-0.06251086294651031	0.02312079444527626	-0.06934439390897751	0.17422550916671753	-0.06402581930160522	-0.1282137781381607	-0.32877880334854126	0.2376769632101059	-0.22560329735279083	-0.12472376227378845	0.008176709525287151	0.31894004344940186	-0.33163121342658997	-0.22343020141124725	-0.060550156980752945	0.11718176305294037	-0.0028124444652348757	-0.01777314394712448	-0.07678370177745819	0.1626560389995575	-0.7158129215240479	0.09498070180416107	0.021585863083600998	0.06946776807308197	0.005510482005774975	-0.28011417388916016	0.036488138139247894	-0.14993751049041748	0.23950128257274628	0.06041835993528366	0.20195011794567108	0.08898647874593735	-0.019331129267811775	-0.2334229201078415	0.13287605345249176	-0.1563674807548523	-0.28994378447532654	0.2444831132888794	-0.1671699583530426	0.01420461107045412	0.3026620149612427	-0.22441069781780243	-0.17864714562892914	0.06321732699871063	-0.06601221114397049	-0.13785573840141296	-0.24602128565311432	-0.17525196075439453	-0.23640789091587067	-0.013737513683736324	-0.16912056505680084	0.0774073526263237	-0.08033348619937897	-0.17316551506519318	-0.12119357287883759	-0.018038539215922356	0.047659046947956085	-0.2767045497894287	0.44059935212135315	0.11853574961423874	0.28585049510002136	0.17427951097488403	-0.028251534327864647	-0.2855689823627472	0.06731203198432922	-0.32243478298187256	-0.12466059625148773	-0.36837583780288696	-0.12030299752950668	-0.0762549564242363	0.06801439821720123	-0.29365241527557373	-0.4768657386302948	-0.26039767265319824	-0.18251624703407288	-0.0681023821234703	-0.14743980765342712	-0.16979610919952393	0.02115008793771267	0.17296123504638672	-0.3448767364025116	-0.08246953785419464	-0.3301992118358612	0.09166786074638367	-0.022471709176898003	0.331331729888916	0.12828756868839264	-0.045732174068689346	0.014443646185100079	-0.08828596025705338	0.004226424265652895	0.16817571222782135	-0.21701526641845703	-0.06198463588953018	0.013341710902750492	-0.5355169773101807	-0.061328090727329254	0.11245284974575043	-0.5611292123794556	-0.13598349690437317	-0.07993128150701523	0.02719121426343918	0.04190848022699356	-0.13068439066410065	-0.17020957171916962	-0.12921415269374847	0.03910323232412338	0.07573607563972473	0.35172855854034424	0.19575738906860352	-0.29152911901474	0.09142579883337021	0.3112180233001709	0.029716728255152702	0.03637729585170746	0.06474771350622177	-0.143305242061615	-0.13652794063091278	-0.005338580813258886	0.2042611539363861	0.23051518201828003	0.144981250166893	-0.12153279036283493	0.020279278978705406	0.3526306748390198	-0.09163672477006912	0.11653577536344528	0.3165716826915741	0.07464786618947983	-0.5274865627288818	-0.44979000091552734	-0.5671265125274658	0.05130968615412712	0.2681434452533722	0.022505931556224823	-0.1880994737148285	-0.09735700488090515	-0.11652784794569016	0.02657490037381649	-0.03893371671438217	-0.14092381298542023	0.08245692402124405	0.2252291589975357	0.6464412808418274	-0.2741381525993347	-0.3130750060081482	0.024314507842063904	0.2247496098279953	-0.14459435641765594	0.0734647661447525	0.2773778438568115	-0.05620710551738739	0.27173078060150146	0.18728052079677582	-0.3179250955581665	0.21818912029266357	0.030332518741488457	-0.1682242900133133	0.00020663419854827225	0.0669475570321083	-0.5120470523834229	-0.21625900268554688	-0.08891285955905914	-0.20952904224395752	-0.1852373629808426	0.13699151575565338	0.18135960400104523	-0.05206076055765152	-0.021172497421503067	-0.0802154392004013	-0.08789234608411789	-0.13090425729751587	-0.13128705322742462	0.2673848271369934	0.18104219436645508	-0.2446518987417221	0.46577557921409607	-0.06430777162313461	0.029559964314103127	0.11967985332012177	0.09929807484149933	-0.004884280730038881	-0.06251583993434906	0.06515590846538544	0.1779816448688507	0.11193817853927612	-0.12701253592967987	-0.10894975811243057	0.3554946780204773	-0.11302696168422699	0.2424342930316925	0.18536493182182312	0.20099760591983795	-0.14545387029647827	0.3571152985095978	0.1552937626838684	0.20717662572860718	-0.08136850595474243	-0.18913394212722778	-0.153035968542099	-0.17530299723148346	0.2970249056816101	-0.028574645519256592	-0.5272116661071777	0.09467539936304092	0.025509227067232132	0.11252979189157486	-0.06289795786142349	-0.04207849130034447	-0.19069388508796692	-0.10148300230503082	-0.11425044387578964	0.33589687943458557	0.03825002163648605	0.02751750685274601	-0.10602455586194992	-0.35901570320129395	-0.016587693244218826	0.009804140776395798	0.6029860377311707	0.02832072786986828	-0.8564321994781494	0.1294855773448944	-0.2543407380580902	-0.06660425662994385	-0.38483545184135437	0.1467805951833725	-0.29205238819122314	0.041388191282749176	0.15265564620494843	-0.13561159372329712	0.09367794543504715	-0.055602580308914185	0.19942942261695862	0.157994344830513	-0.20490632951259613	0.21922621130943298	-0.11121657490730286	0.04903797805309296	0.009251710958778858	-0.22975383698940277	-0.5594626069068909	-0.03283199295401573	0.1640416532754898	0.38466718792915344	0.0858815610408783	0.1149662509560585	0.047258563339710236	-0.0030883080326020718	-0.11724825203418732	-0.19617167115211487	-0.1692814826965332	-0.09167655557394028	0.17446036636829376	0.2288183718919754	-0.23882341384887695	0.005401380360126495	0.14994941651821136	-0.1016295850276947	-0.23195664584636688	0.07755457609891891	0.20745697617530823	-0.08004974573850632	0.22994257509708405	0.15593791007995605	-0.20353516936302185	0.01809241808950901	0.06540516018867493	-0.23829390108585358	-0.12546342611312866	0.0712105855345726	0.10940515249967575	0.013434141874313354	0.058320168405771255	-0.4407232403755188	-0.06545774638652802	-0.18288137018680573	-0.09608472138643265	0.03954285383224487	-0.12411189824342728	-0.2385827600955963	-0.15200704336166382	0.10515618324279785	-0.03330811858177185	-0.19949638843536377	-0.023015087470412254	-0.2181742787361145	0.08291643112897873	0.11568282544612885	0.1930110901594162	-0.3084132671356201	-0.1421186327934265	0.038245704025030136	0.30212128162384033	0.0623912438750267	-0.3761593997478485	-0.15583708882331848	-0.15184138715267181	-0.3617892861366272	0.13582368195056915	-0.25247523188591003	-0.184662327170372	-0.021915040910243988	-0.20047222077846527	0.26662543416023254	0.04947295039892197	-0.047262951731681824	0.06833156198263168	0.048067860305309296	-0.1753435730934143	0.07511035352945328	0.05388918146491051	0.07167965173721313	0.20020560920238495	0.19962599873542786	0.24823732674121857	-0.03845996409654617	-0.11539429426193237	0.11830300837755203	-0.289815217256546	0.18744321167469025	-0.23097598552703857	-0.14071564376354218	-0.07830727100372314	0.045023608952760696	0.039654556661844254	-0.23603488504886627	0.019326625391840935	0.004272992257028818	0.06982029229402542	0.10203276574611664	-0.11230287700891495	-0.10680028796195984	-0.09846221655607224	-0.09754432737827301	0.01067426335066557	-0.14068755507469177	-0.007739713881164789	-0.12968389689922333	0.16460618376731873	0.08137848228216171	-0.11716189980506897	
cane	-0.01928587630391121	-0.1752954125404358	-0.07666336745023727	-0.03874599188566208	0.10548736900091171	0.07091374695301056	-0.34632232785224915	0.072319895029068	-0.20057788491249084	0.08836530148983002	0.08454695343971252	-0.06802478432655334	0.15829238295555115	0.14221133291721344	0.07100555300712585	-0.1012321412563324	-0.14372168481349945	-0.03205907717347145	0.18373101949691772	-0.2856515049934387	-0.11923301219940186	-0.22370785474777222	0.3260113596916199	-0.3029751777648926	-0.2180568277835846	-0.14740799367427826	-0.04418416693806648	-0.07243690639734268	0.2667731046676636	-0.10728336125612259	0.0140818040817976	-0.26988181471824646	-0.3954622149467468	0.004089811351150274	-0.1960037797689438	0.06277891248464584	-0.08834479749202728	-0.08784893900156021	-0.07993756234645844	0.04872046411037445	-0.2156783640384674	-0.051810868084430695	0.05129317194223404	0.12479107081890106	0.27200639247894287	0.1492568552494049	-0.10000145435333252	-0.8015074729919434	-0.26235082745552063	-0.1402774602174759	0.2442149817943573	-0.19641713798046112	0.07929874956607819	0.2162422090768814	-0.393262654542923	-0.10210057348012924	0.2548148036003113	0.15875186026096344	0.17536520957946777	-0.10173432528972626	0.025510314851999283	-0.3176323473453522	0.08095452189445496	0.05143950879573822	0.019723661243915558	0.5447954535484314	0.024059204384684563	-0.020433815196156502	0.46438664197921753	-0.14096078276634216	-0.11542916297912598	0.006864497438073158	-0.320403516292572	-0.2896803617477417	-0.04764819145202637	0.015351387672126293	0.2946058213710785	-0.19280126690864563	-0.21221353113651276	-0.1534283608198166	0.3517753481864929	0.054940152913331985	-0.10213339328765869	0.057310283184051514	-0.15408267080783844	-0.09673663228750229	0.013525782153010368	-0.18281549215316772	-0.07867976278066635	0.31233474612236023	0.00295548839494586	0.2130218893289566	0.14772142469882965	0.42146357893943787	-0.11901240050792694	0.0421125702559948	0.3372073173522949	0.3455631136894226	0.07343347370624542	0.07831606268882751	0.3240914046764374	0.5027079582214355	-0.13071581721305847	0.08826006948947906	-0.18168987333774567	-0.16651467978954315	0.1322561651468277	0.12188220769166946	-0.23342806100845337	0.2487570345401764	0.6426939368247986	-0.15331096947193146	-0.16406461596488953	-0.06451243907213211	0.04911043494939804	-0.08637180924415588	-0.022946221753954887	-0.09855461120605469	0.11658166348934174	0.0339038223028183	-0.04374418780207634	0.07919543981552124	0.35949400067329407	-0.1369812786579132	0.2475767284631729	-0.0825345441699028	-0.004317326936870813	-0.27015724778175354	0.08175898343324661	0.061429813504219055	0.019667210057377815	0.14564155042171478	0.1467587649822235	-0.09539659321308136	-0.02737630531191826	0.25836795568466187	-0.039672836661338806	0.23186784982681274	-0.04767157509922981	0.12071620672941208	0.2706039249897003	0.2978008985519409	-0.026397069916129112	0.10858947038650513	-0.009481134824454784	-0.03229774162173271	-0.22285766899585724	0.0985109731554985	-0.14783458411693573	0.03192481771111488	0.1466323733329773	0.3059007227420807	-0.10128519684076309	0.07082362473011017	0.14906668663024902	-0.02241683006286621	-0.2650773227214813	0.012880816124379635	0.39254695177078247	0.03388931229710579	-0.20744717121124268	0.03658122196793556	-0.08340732008218765	-0.03839227929711342	-0.2674843370914459	-0.1640491783618927	0.11678830534219742	0.3460555076599121	0.22242526710033417	0.2068973332643509	-0.16748236119747162	-0.019576724618673325	0.06633579730987549	-0.0698738619685173	-0.08614781498908997	0.4657231569290161	-0.3135524392127991	-0.24317096173763275	0.10107055306434631	-0.20639373362064362	-0.25863081216812134	0.1555069237947464	0.04077786207199097	-0.016898153349757195	0.07988496869802475	-0.29820796847343445	-0.27885085344314575	-0.2873736321926117	0.015074174851179123	-0.17811207473278046	0.03826732560992241	-0.1808733195066452	-0.018496347591280937	0.03480544686317444	-0.09941607713699341	0.05544948950409889	-0.08113037794828415	0.4077795147895813	-0.12168390303850174	0.1058448851108551	0.5723457932472229	-0.06009126454591751	0.43434518575668335	-0.34445080161094666	-0.07485461980104446	0.27693480253219604	-0.31330689787864685	-0.1672244668006897	-0.12793271243572235	-0.15479929745197296	-0.048601217567920685	-0.21005767583847046	-0.46342888474464417	-0.09292630106210709	0.13246884942054749	0.04513194411993027	-0.31963127851486206	-0.22478564083576202	0.06179413944482803	0.07042558491230011	0.015766123309731483	-0.0854182243347168	0.12821854650974274	0.3394131660461426	0.15221433341503143	-0.2508281171321869	0.013801383785903454	0.19755344092845917	-0.13071323931217194	-0.19621974229812622	0.24168486893177032	-0.05982358381152153	0.20384381711483002	0.19642533361911774	-0.05999650061130524	0.025952083989977837	-0.06805214285850525	0.27030348777770996	-0.12578366696834564	0.2880874276161194	0.0998687744140625	0.16691266000270844	0.09343799203634262	0.04320761188864708	0.3256414532661438	-0.297509104013443	-0.20363599061965942	0.23541083931922913	0.2625301778316498	0.09863556921482086	-0.3296087384223938	0.2732159197330475	0.2654411494731903	-0.26636308431625366	-0.535931408405304	-0.2124590128660202	-0.010177153162658215	-0.0208713598549366	-0.010662076063454151	0.008557991124689579	-0.06268123537302017	-0.0072337365709245205	-0.1772247701883316	-0.1546258181333542	-0.011342681013047695	0.23855634033679962	0.08838281035423279	0.11910466849803925	0.1299031376838684	-0.4909041225910187	-0.07826106250286102	0.06861603260040283	-0.04179292544722557	0.0164528526365757	0.16568438708782196	-0.0499713197350502	-0.26031145453453064	0.06199318915605545	0.154869943857193	-0.4383751451969147	0.05964666232466698	0.19178417325019836	-0.20204417407512665	-0.041596636176109314	-0.027629047632217407	0.02716968022286892	-0.28001150488853455	-0.027813676744699478	0.022372689098119736	-0.22806759178638458	-0.17552660405635834	0.03012307733297348	1.997413158416748	-0.14357316493988037	0.2875105142593384	-0.26120054721832275	-0.22763754427433014	-20.654296875	-0.1398009955883026	-0.19985702633857727	0.19843757152557373	0.2017403244972229	0.0907989889383316	0.23284873366355896	-0.13870838284492493	-0.2611817419528961	-0.051791612058877945	-0.257309228181839	0.3879260718822479	-0.08589635044336319	-0.1922372430562973	0.45807796716690063	0.24616089463233948	-0.09852159768342972	-0.10049839317798615	-0.14682333171367645	0.31580987572669983	-0.01815161667764187	0.2999090552330017	0.07102073729038239	-0.22275614738464355	0.1436629295349121	-0.027057576924562454	-0.10416174679994583	0.00043015548726543784	0.2155226320028305	0.04449017718434334	0.014366032555699348	0.07603231817483902	1.047383189201355	-0.19884316623210907	0.11617061495780945	0.29511570930480957	0.33410120010375977	-0.23467908799648285	0.3827948570251465	-0.1580067276954651	0.1136237233877182	0.0031373228412121534	0.2814694941043854	0.07536878436803818	-0.12568923830986023	-0.25183939933776855	0.25185105204582214	0.08612656593322754	-0.19313335418701172	-0.14747990667819977	-0.21369729936122894	0.07992911338806152	0.12138404697179794	0.20555759966373444	-0.09234143793582916	0.4410753846168518	-0.23597179353237152	-0.0515764020383358	0.263326495885849	0.13758404552936554	0.12176713347434998	-0.07987631857395172	-0.011040577664971352	-0.5589106678962708	-0.002975494833663106	0.06277715414762497	-0.10564754903316498	0.243197500705719	-0.01116139255464077	0.047934580594301224	0.15016265213489532	-0.13339029252529144	-0.14924214780330658	0.38746240735054016	0.35864484310150146	0.23523178696632385	-0.17564980685710907	-0.3369535505771637	-0.1175978034734726	-1.5342861413955688	-0.0201816838234663	-0.1774020791053772	-0.07915671169757843	0.35439926385879517	0.19700710475444794	-0.1376192569732666	-0.0996529757976532	0.09876929968595505	-0.48471972346305847	16.11371421813965	-0.20514383912086487	-0.04599897563457489	0.19367021322250366	0.10549096018075943	-0.08408456295728683	0.0925772562623024	0.06099431589245796	-0.008870456367731094	-0.02518416754901409	-0.11760890483856201	-0.24335677921772003	-0.3167549967765808	0.07109588384628296	-0.26788291335105896	-0.1366911083459854	0.3906343877315521	-0.02211211621761322	1.6501541137695312	0.03739287331700325	-0.10789120197296143	0.0445885993540287	0.23852217197418213	-0.05921036750078201	-0.23109377920627594	-0.03704005852341652	0.13068203628063202	-0.1559886783361435	0.2135099172592163	-0.0866394191980362	0.14551159739494324	0.0242823027074337	-0.22825881838798523	-0.48733004927635193	-0.04525193199515343	-0.1738816499710083	-0.06617256253957748	-0.2957175374031067	-0.11928685009479523	-0.03303760290145874	-0.15196865797042847	-1.410946011543274	-0.30918771028518677	-0.2963727116584778	0.13472574949264526	-0.02813657373189926	-0.03445734083652496	0.16340212523937225	-0.06352858990430832	0.05243026465177536	-0.39929401874542236	-0.0392640195786953	0.04961652308702469	-0.11523296684026718	0.06998081505298615	0.08458821475505829	-0.0832052156329155	-0.1684386134147644	0.09881947934627533	-0.19555377960205078	-0.1928686499595642	0.6384439468383789	-0.4136276841163635	0.3633511960506439	-0.12223432213068008	0.04887871444225311	-0.2573621869087219	-0.20918600261211395	0.08038541674613953	-0.011558766476809978	-0.4304424524307251	-0.014932576566934586	-0.13695864379405975	0.0258624330163002	-0.2207929790019989	-0.18178340792655945	0.1660366952419281	-0.007342382799834013	-0.22055815160274506	0.24238118529319763	-0.1286444365978241	0.00045711477287113667	0.03388431295752525	-0.05589667707681656	-0.04805808141827583	0.11429112404584885	-0.20531059801578522	0.26057931780815125	-0.0931788831949234	-0.05154731869697571	-0.0727086290717125	0.10214947164058685	-0.38515013456344604	-0.07987896353006363	-0.004595036618411541	-0.03998364880681038	-0.11982464790344238	-0.03640931844711304	0.14605146646499634	0.5485964417457581	-0.13763433694839478	0.04268491640686989	-0.023479150608181953	-0.025673743337392807	0.20339815318584442	-0.36300814151763916	0.19316533207893372	0.13630378246307373	-0.1637325882911682	0.15400712192058563	0.3656330406665802	-0.11319337040185928	-0.10022366791963577	-0.2501443028450012	0.029945898801088333	0.1730254888534546	0.30108511447906494	0.2207619547843933	0.18135738372802734	-0.05134497582912445	0.013282131403684616	-0.05988181009888649	0.0673949271440506	-0.1301640123128891	0.13632024824619293	-0.09773027151823044	-0.1756172478199005	0.191571444272995	-0.41244059801101685	0.10173897445201874	0.15817676484584808	0.2850480377674103	-0.4710094630718231	0.044076841324567795	0.3744838535785675	-0.23768769204616547	-0.28287631273269653	-0.3604159355163574	-0.10230613499879837	0.4394773244857788	0.41208282113075256	0.19341669976711273	-0.027830038219690323	0.2737986147403717	-0.1292116791009903	0.0363173633813858	0.008181738667190075	0.22465835511684418	-0.01940806582570076	-0.03568845987319946	-0.48574137687683105	0.19700832664966583	-0.22208565473556519	0.11052565276622772	-0.05192112177610397	-0.14671868085861206	-0.0647539421916008	0.024783920496702194	-0.2850072979927063	0.026965178549289703	-0.10996928811073303	-0.07310757786035538	-0.32178255915641785	0.2533906102180481	0.0015436451649293303	0.3626347482204437	-0.026803448796272278	-0.51685631275177	-0.16285820305347443	0.003559021046385169	0.3431835472583771	-0.06799687445163727	0.02383272908627987	0.14478100836277008	0.1886988878250122	-0.44622135162353516	-0.07139474898576736	-0.3042244017124176	0.2861260175704956	-0.07026016712188721	-0.18638518452644348	0.33383068442344666	0.06574416905641556	-0.041442837566137314	-0.06659283488988876	0.16903430223464966	-0.08297120779752731	-0.07074007391929626	0.2295769453048706	-0.051833707839250565	0.17069175839424133	-1.0234754085540771	-0.04870929569005966	-0.2631174921989441	0.12600092589855194	0.08544845134019852	-0.01968293823301792	0.3132074177265167	0.13256700336933136	-0.07075207680463791	0.3382933735847473	0.19889682531356812	-0.027059147134423256	0.15194472670555115	-0.12515859305858612	0.2275702804327011	0.15685127675533295	-0.007186685688793659	0.030748002231121063	-0.07516851276159286	-0.11306068301200867	-0.0865083709359169	-0.1118604838848114	0.10339019447565079	0.06489495933055878	-0.45206406712532043	-0.5592107176780701	-0.5686723589897156	0.07996869832277298	0.023921851068735123	0.12516926229000092	-0.28196796774864197	0.1545017510652542	-0.04952241852879524	-0.19934912025928497	0.09266280382871628	0.09642685949802399	-0.19452182948589325	-0.03534390404820442	-0.029898375272750854	3.59669828414917	-0.2830614745616913	-0.5821641087532043	0.11704877763986588	-0.23979468643665314	0.04909268394112587	0.006394079886376858	-0.32897722721099854	-0.2079824060201645	-0.00719476630911231	0.14622297883033752	0.3715338706970215	0.03183114156126976	0.37954437732696533	0.03132323548197746	-0.011320982128381729	-0.002213843399658799	0.033485714346170425	-0.12442287057638168	-0.27192965149879456	0.07702802121639252	-0.024612760171294212	0.31407180428504944	0.07283391803503036	0.20280896127223969	-0.027452100068330765	0.28330329060554504	-0.28921011090278625	-0.09547865390777588	0.2705385684967041	-0.05274428427219391	-0.12851274013519287	-0.01619608886539936	-0.06372912973165512	0.034583743661642075	0.2717471420764923	-0.2558888792991638	0.1305646300315857	0.1623234748840332	0.18588291108608246	0.05793723464012146	0.06602328270673752	-0.15586361289024353	-0.15005366504192352	0.20145858824253082	0.12579786777496338	-0.19405172765254974	0.24166841804981232	0.10308076441287994	0.006645014509558678	-0.022391702979803085	0.06201402097940445	-0.3124794363975525	-0.36359113454818726	-0.13188393414020538	0.17929421365261078	0.27353814244270325	0.4153502285480499	-0.10060840100049973	-0.2051331251859665	0.09683837741613388	-0.14104045927524567	-0.13367369771003723	0.34952443838119507	-0.08109662681818008	-0.16757026314735413	0.05462192744016647	-0.15477938950061798	-0.16869060695171356	0.05131253972649574	-0.029221778735518456	0.05928914621472359	-0.22172300517559052	0.21892765164375305	-0.2664899528026581	-0.2745887339115143	-0.1169058158993721	-0.01633659191429615	-0.36883363127708435	0.09624513238668442	0.179471954703331	0.24835819005966187	0.10915276408195496	-0.17963773012161255	-0.07184666395187378	0.18637125194072723	-0.435672402381897	0.28018367290496826	0.08969558775424957	0.23018968105316162	-0.3443950116634369	-0.1407262533903122	0.14124396443367004	-0.09400555491447449	-0.19181261956691742	-0.05569826811552048	0.1930156648159027	-0.2799310088157654	0.09148158878087997	-0.34484803676605225	0.04368758946657181	-0.06582307070493698	-0.12266401946544647	0.2928243577480316	0.14095507562160492	-0.046611521393060684	-0.28462719917297363	-0.19364796578884125	0.08356776088476181	0.07679902017116547	-0.18959461152553558	0.07501625269651413	0.18911974132061005	-0.027499839663505554	-0.2684037685394287	0.2456277459859848	-0.18606320023536682	-0.1724908947944641	-0.16616864502429962	-0.1665792465209961	0.011984440498054028	-0.08195807784795761	-0.0006567441741935909	-0.4270828664302826	0.32905665040016174	0.10613375902175903	0.005233053117990494	0.06378231197595596	-0.0547785609960556	-0.19749633967876434	0.0797809287905693	-0.24343103170394897	-0.10075429081916809	-0.36656323075294495	0.12521851062774658	0.08250028640031815	-0.10661893337965012	-0.07684490829706192	-0.36798951029777527	0.0004520092625170946	-0.2071579396724701	-0.09243787825107574	-0.3864680826663971	-0.09273631870746613	0.18264135718345642	-0.056082673370838165	-0.23725050687789917	0.04196885973215103	-0.3072957992553711	-0.11789660900831223	-0.10413763672113419	0.040940601378679276	-0.02361075021326542	-0.16203755140304565	0.012054232880473137	0.07028413563966751	-0.042243387550115585	0.07614988833665848	-0.11052533239126205	0.26633012294769287	-0.1344946026802063	-0.4391888678073883	0.058302752673625946	0.18064595758914948	-0.5117265582084656	0.07578790187835693	-0.015242747031152248	0.025573886930942535	0.22808514535427094	-0.057031575590372086	-0.3835127353668213	0.1558486372232437	-0.07942911982536316	-0.03514847531914711	0.026886768639087677	-0.07730051875114441	0.06660912185907364	0.2093437910079956	0.08770694583654404	0.07103445380926132	-0.06729796528816223	-0.07130719721317291	0.028470104560256004	-0.14220546185970306	-0.9222986102104187	0.17737111449241638	0.17477574944496155	0.11464789509773254	0.08443097025156021	-0.15671174228191376	-0.03428326174616814	-0.09726880490779877	-0.045710738748311996	-0.141177237033844	0.21951264142990112	-0.5300463438034058	-0.23658032715320587	-0.07894368469715118	0.04049858823418617	0.04069911316037178	0.09389885514974594	-0.31898680329322815	-0.21562442183494568	-0.03729381039738655	0.29807719588279724	-0.23275116086006165	0.027070915326476097	0.11658567190170288	-0.3101237714290619	0.23928089439868927	-0.13350403308868408	-0.35938793420791626	-0.26530832052230835	0.14554952085018158	-0.21535281836986542	0.2479592114686966	-0.31991705298423767	0.34077635407447815	0.02693609707057476	0.13513131439685822	-0.17810703814029694	0.12881281971931458	-0.09372264891862869	-0.34030789136886597	-0.0810285434126854	0.07673005759716034	-0.16421347856521606	0.1475832611322403	0.02336159162223339	-0.2371981292963028	-0.13223107159137726	0.20691944658756256	0.014664515852928162	0.10407892614603043	-0.0938987135887146	0.1302819848060608	0.08164806663990021	0.010962129570543766	-0.2246798276901245	0.17252981662750244	0.15801255404949188	-0.05962272733449936	0.010824378579854965	-0.17968448996543884	-0.3538232445716858	-0.133358895778656	0.08076229691505432	0.059701018035411835	0.016217883676290512	0.25046631693840027	0.15044978260993958	0.12331555783748627	0.0733276754617691	-0.2692614495754242	0.04305493086576462	-0.24254228174686432	0.0403749942779541	0.237639382481575	-0.0029934565536677837	-0.26381561160087585	0.1796400547027588	-0.12373825907707214	0.02655676007270813	0.20006686449050903	-0.2480769008398056	0.2539193630218506	-0.14649717509746552	0.3009820580482483	-0.01402964536100626	-0.39269325137138367	0.231377512216568	0.20753906667232513	0.10045108944177628	0.13102273643016815	-0.04575968161225319	-0.24130724370479584	0.01756324991583824	-0.12125830352306366	0.3267354667186737	0.14665524661540985	0.3189120292663574	0.23200766742229462	-0.23560871183872223	-0.03691535070538521	0.19118764996528625	0.22984464466571808	0.03905024379491806	-1.2409868240356445	0.0673709288239479	-0.1441514492034912	0.07379040867090225	-0.16245605051517487	-0.007579187862575054	0.01930457353591919	0.09549267590045929	-0.270138680934906	-0.24381370842456818	0.006137046497315168	0.10494475066661835	-0.13074244558811188	0.45603081583976746	0.006398166064172983	0.15471380949020386	-0.11937474459409714	0.16995778679847717	0.09266772121191025	-0.08239832520484924	-0.03819241374731064	0.09631466120481491	-0.09194929897785187	0.08325611799955368	0.1393105685710907	0.15830202400684357	0.23610755801200867	0.22312521934509277	0.025772815570235252	-0.21972040832042694	0.012018642388284206	-0.17717835307121277	0.1443222612142563	0.162683367729187	0.12823887169361115	0.1335650533437729	-0.021618297323584557	-0.18395784497261047	-0.1561284363269806	-0.13179384171962738	0.10860847681760788	-0.30235087871551514	0.16464382410049438	0.055963464081287384	-0.057473018765449524	0.06385829299688339	-0.20647267997264862	0.005388590972870588	-0.016525842249393463	0.1550811380147934	0.12586906552314758	0.004173536319285631	-0.1962255835533142	-0.36650848388671875	0.03663000464439392	-0.10545742511749268	-0.006487185601145029	-0.09301964193582535	-0.153723806142807	-0.14314350485801697	-0.008361980319023132	-0.1358811855316162	-0.07503869384527206	-0.16005770862102509	0.04134005680680275	-0.3738306164741516	0.16452977061271667	-0.13097289204597473	0.15161044895648956	-0.10762395709753036	0.16972877085208893	0.1281130611896515	-0.2777039408683777	-0.2523706555366516	-0.23935461044311523	-0.08765280246734619	0.04096195474267006	-0.5686841607093811	-0.23306941986083984	-0.01111087016761303	-0.16931955516338348	-0.17297857999801636	-0.236858069896698	0.23305484652519226	0.03569239005446434	-0.2475384771823883	-0.017767420038580894	-0.03986626863479614	-0.20437422394752502	0.06813501566648483	0.05822249874472618	0.24963921308517456	-0.031200742349028587	-0.34594663977622986	0.20392721891403198	-0.0760863646864891	-0.028909433633089066	0.35067155957221985	-0.14634022116661072	-0.0823078528046608	-0.06515432894229889	-0.13040103018283844	-0.0033697134349495173	-0.09187154471874237	-0.11519235372543335	-0.10863751918077469	0.004618710372596979	0.22714804112911224	-0.09256754070520401	-0.07512572407722473	0.008275299333035946	-0.1594752073287964	0.05846046656370163	-0.2091914266347885	0.03400745615363121	-0.028290921822190285	0.1915970891714096	-0.11870424449443817	0.03948525711894035	-0.11042115092277527	-0.009961717762053013	
